0.07495246827602386 -0.054789092391729355 -0.02297603152692318 -0.03777507320046425 0.03893452137708664 -0.004519835580140352 -0.02013264037668705 -0.05007239058613777 0.10756704956293106 -0.061442140489816666 -0.042646873742341995 -0.07824064046144485 0.149860680103302 -0.0829254686832428 -0.05046147108078003 -0.08024529367685318 0.0039759306237101555 0.12846410274505615 -0.06956427544355392 -0.04178062826395035 0.02051454409956932 -0.04201826453208923 0.04165009409189224 0.07940095663070679 -0.0017552354838699102 0.030617060139775276 0.041321855038404465 -0.03221897408366203 -0.048794232308864594 -0.06722697615623474 0.0017918733647093177 0.12705078721046448 -0.15708626806735992 0.02598770521581173 -0.046417154371738434 -0.06907093524932861 -0.020786724984645844 -0.07051757723093033 -0.04932683706283569 -0.03781196475028992 -0.050235096365213394 -0.13059206306934357 -0.03352299705147743 0.05719573795795441 0.11426158249378204 0.05707675963640213 -0.023003755137324333 0.11467959731817245 -0.021441351622343063 -0.025681626051664352 -0.04683380573987961 0.09786944091320038 -0.07767902314662933 0.053410228341817856 -0.09833100438117981 0.10095778107643127 0.12139320373535156 -0.09738132357597351 -0.10685041546821594 0.1539960652589798 0.10822957009077072 0.14340323209762573 0.09488915652036667 -0.1352749913930893 