-0.057419292628765106 -0.082689069211483 -0.08880703151226044 0.05835697427392006 -0.0035630420316010714 -0.1076444685459137 -0.08622319996356964 -0.08277624100446701 -0.07718544453382492 0.033319104462862015 0.05249250680208206 0.08899936079978943 -0.009809446521103382 -0.0758984163403511 0.010652536526322365 0.027521461248397827 0.2219562977552414 -0.04779580980539322 0.07573791593313217 0.037326958030462265 0.09658976644277573 0.029608620330691338 0.0738944262266159 0.02473202906548977 0.11905711144208908 0.1140216663479805 -0.09315653145313263 -0.11271725594997406 0.14541175961494446 -0.058590423315763474 0.1226980909705162 -0.037239622324705124 -0.08276201039552689 -0.034461233764886856 0.17571929097175598 0.0821080431342125 0.2296367883682251 0.015910498797893524 0.029218459501862526 -0.09271194040775299 -0.06317219138145447 0.12329614162445068 0.12318351864814758 0.03214455395936966 0.16637752950191498 -0.04193714261054993 -0.13472425937652588 0.011498508974909782 0.03227211907505989 -0.12390593439340591 0.05937347561120987 0.14597877860069275 0.017287254333496094 -0.08398221433162689 0.016787363216280937 -0.09580205380916595 0.03870335593819618 -0.12957046926021576 -0.06864850968122482 0.04048357158899307 0.03830021992325783 -0.10630692541599274 -0.0025645906571298838 -0.04770960286259651 