0.06005638465285301 0.053916603326797485 0.0014468145091086626 -0.05371677875518799 -0.07126086950302124 -0.08763694763183594 -0.17667096853256226 -0.213980570435524 -0.2508751153945923 -0.04237830638885498 -0.006658080033957958 0.10174880921840668 0.07532697170972824 0.028704438358545303 -0.010734716430306435 -0.08478667587041855 -0.11922387778759003 -0.1446898728609085 -0.011521602980792522 -0.004574820399284363 0.029521426185965538 -0.0006412830553017557 -0.029769577085971832 0.03666186332702637 0.01598949544131756 -0.028297629207372665 -0.014132003299891949 0.05914052203297615 0.07611047476530075 0.15282583236694336 -0.018663659691810608 0.06195778772234917 0.08665657788515091 -0.07987453043460846 0.10446538031101227 0.052272140979766846 -0.022370604798197746 0.07846318185329437 0.05392245948314667 -0.10645671933889389 0.004864376969635487 0.006851101294159889 0.017852958291769028 0.018640877678990364 -0.11649272590875626 -0.014717022888362408 0.050813108682632446 0.08943372219800949 -0.032667722553014755 -0.03758706897497177 0.03678513318300247 -0.07857055217027664 -0.12079314887523651 0.016366276890039444 -0.18924392759799957 -0.062347304075956345 0.16366195678710938 -0.1284562647342682 -0.0869709923863411 -0.0057144248858094215 -0.017398042604327202 -0.04249926283955574 -0.11886213719844818 -0.049638524651527405 0.08729898929595947 0.10920017212629318 -0.023948432877659798 0.0987032800912857 0.08646589517593384 -0.1418425291776657 0.019975464791059494 0.09272900223731995 0.01808672398328781 0.04894285276532173 0.017346259206533432 -0.000764850527048111 0.0299400445073843 0.026611028239130974 0.04007596895098686 0.04171331971883774 0.013746406883001328 0.10508526861667633 -0.04977966845035553 0.0361989364027977 -0.0225352980196476 -0.27905112504959106 -0.010914992541074753 -0.2240605354309082 -0.20488505065441132 0.023537544533610344 -0.20866911113262177 -0.04004382714629173 0.29026785492897034 -0.24102230370044708 -0.18280917406082153 -0.07588514685630798 -0.21261177957057953 -0.41435542702674866 -0.2818133234977722 0.08275338262319565 -0.014384355396032333 -0.012921377085149288 0.016788333654403687 -0.056265704333782196 -0.11513267457485199 0.06686940044164658 -0.09380321949720383 0.02424928918480873 -0.18157975375652313 0.030816959217190742 0.27499422430992126 -0.1949249655008316 -0.07744527608156204 0.08649733662605286 -0.19368629157543182 -0.02361774630844593 -0.06688857823610306 -0.05299212411046028 -0.02904146909713745 0.0017665104242041707 0.005641062743961811 -0.031688377261161804 0.011377151124179363 -0.06228768825531006 0.04992058128118515 -0.0475742444396019 0.028249483555555344 0.14228098094463348 0.1532078981399536 -0.04688134789466858 -0.09214311838150024 -0.06347110867500305 -0.2135339379310608 -0.20955422520637512 -0.11866482347249985 -0.10284233838319778 -0.13340604305267334 -0.1360708326101303 -0.04215377941727638 -0.025183964520692825 0.05167611315846443 -0.04938993230462074 -0.0287023838609457 0.09510842710733414 0.006361373234540224 -0.02105672098696232 -0.2821524739265442 0.01792691834270954 0.08909923583269119 -0.09382184594869614 -0.06496577709913254 -0.03379484638571739 -0.023329101502895355 -0.00414643669500947 -0.009506888687610626 0.027560319751501083 0.0012324589770287275 -0.02614600956439972 0.033139582723379135 -0.02459712140262127 -0.016238287091255188 -0.0170753113925457 -0.06757780909538269 -0.009890638291835785 -0.1713848114013672 -0.023677345365285873 0.00024372962070629 -0.1475154161453247 0.05899627134203911 -0.020875604823231697 -0.1538437008857727 0.0843694731593132 0.093739815056324 -0.11886802315711975 0.023810716345906258 -0.07328563183546066 -0.18580302596092224 0.03428871929645538 0.02072197198867798 -0.08107639849185944 -0.05120857432484627 -0.24560683965682983 -0.12769252061843872 0.17839625477790833 0.09151289612054825 -0.02361981011927128 0.12567788362503052 0.07742882519960403 0.010891118086874485 -0.13887760043144226 0.017443671822547913 -0.010295086540281773 -0.11339863389730453 -0.04074123874306679 0.022419074550271034 -0.27202242612838745 -0.1268353909254074 -0.024222083389759064 0.06608685851097107 0.17230597138404846 0.16463832557201385 -0.07108017802238464 0.061683088541030884 0.10816685110330582 -0.25089386105537415 0.03526722267270088 0.15949948132038116 -0.033846013247966766 -0.10297282040119171 -0.12271817028522491 -0.1456058919429779 -0.24952001869678497 -0.20614288747310638 -0.12951897084712982 -0.2521938681602478 -0.2651158273220062 0.07000415027141571 -0.05639120191335678 -0.21917730569839478 0.094474658370018 0.01026702206581831 -0.15625356137752533 0.053733423352241516 -0.03933390974998474 -0.2485221028327942 -0.36797264218330383 -0.38332629203796387 -0.150058776140213 -0.21236597001552582 -0.3695986270904541 0.0046035656705498695 0.017789101228117943 -0.18960823118686676 0.03051365353167057 -0.03538437932729721 0.0035701978486031294 0.02020578272640705 -0.12963153421878815 -0.05661781504750252 -0.0603768415749073 -0.167161762714386 -0.19176356494426727 -0.313085675239563 0.01380460150539875 0.15714876353740692 0.056061338633298874 -0.061714936047792435 0.08109180629253387 0.024382518604397774 -0.02250923216342926 0.027079390361905098 -0.007562361657619476 -0.4520854353904724 -0.010867646895349026 0.18453583121299744 -0.478092223405838 -0.016907766461372375 0.2785411775112152 -0.39669468998908997 -0.09834954142570496 0.25132742524147034 0.005042980890721083 0.10277971625328064 0.20040272176265717 -0.018338661640882492 -0.06651859730482101 0.05107300356030464 -0.06592638045549393 -0.11790478974580765 -0.07045505195856094 -0.05187138915061951 -0.04880659282207489 0.1431935727596283 -0.12393984198570251 -0.16427560150623322 0.0534001849591732 -0.22045370936393738 -0.15115241706371307 0.03448930382728577 0.07405803352594376 0.061003610491752625 -0.17052961885929108 0.11343852430582047 -0.039908163249492645 -0.11328555643558502 0.10845055431127548 0.01834399811923504 -0.023918572813272476 0.06964057683944702 -0.03923337906599045 -0.06836896389722824 -0.0518147312104702 -0.05155675485730171 -0.09573307633399963 0.0020836242474615574 -0.08297178149223328 -0.03461539000272751 -0.0339210219681263 -0.011670123785734177 0.006770956330001354 -0.04893823340535164 -0.026877570897340775 -0.020121147856116295 -0.030773717910051346 -0.012860937975347042 0.017829658463597298 0.16072909533977509 0.01014462485909462 -0.08856009691953659 0.0867866799235344 0.01337133627384901 -0.19095338881015778 0.06785028427839279 0.024784516543149948 -0.09292425960302353 -0.3680533468723297 -0.21277645230293274 0.1001758947968483 -0.36858636140823364 -0.19731290638446808 0.14533141255378723 -0.2577288746833801 -0.2099115401506424 0.11005645245313644 -0.039268624037504196 0.009027685970067978 0.25007981061935425 -0.08444312959909439 0.035357601940631866 0.18562854826450348 -0.11080975085496902 -0.12865224480628967 0.1577509343624115 0.07773873955011368 0.15178784728050232 0.15369528532028198 0.04766792431473732 0.12224384397268295 0.08921889960765839 -0.060683540999889374 0.07823453843593597 0.0855947881937027 -0.19630515575408936 -0.23250225186347961 0.23296961188316345 -0.2611023783683777 -0.24598464369773865 0.10813507437705994 -0.06888654083013535 -0.05333810672163963 0.060881078243255615 -0.014716659672558308 -0.03410599008202553 0.048798564821481705 0.012452865950763226 -0.006358977872878313 0.019770782440900803 -0.03367817401885986 -0.0011955982772633433 0.012621250934898853 -0.08350539207458496 0.025759205222129822 -0.0486161895096302 -0.04455439746379852 0.01711740717291832 -0.012641340494155884 -0.0031556335743516684 0.02167612873017788 -5.366068216972053e-05 -0.21027648448944092 -0.01433331985026598 0.14060747623443604 -0.18428340554237366 -0.025483470410108566 -0.011226613074541092 -0.2514077425003052 -0.0364416129887104 0.11991828680038452 -0.03949068859219551 0.004350605420768261 -0.0895964577794075 -0.16343311965465546 0.00607122341170907 -0.0011940920958295465 -0.08256957679986954 0.04475456476211548 0.0007570952293463051 -0.15549179911613464 -0.00873423833400011 -0.10129819810390472 -0.10101611167192459 -0.0989990308880806 -0.04367683827877045 -0.19517551362514496 -0.2783788740634918 -0.1279534101486206 -0.01668011024594307 0.019306307658553123 -0.03694100305438042 0.09793445467948914 0.1480025202035904 -0.05513622611761093 0.29961615800857544 0.1760869175195694 -0.14181184768676758 0.041210196912288666 0.04875097796320915 -0.04773620143532753 0.09686407446861267 0.048023950308561325 0.0932956412434578 0.03441602364182472 -0.02071726694703102 -0.0439068078994751 0.0528668649494648 -0.011753568425774574 -0.05733685567975044 -0.13002489507198334 -0.03942575678229332 -0.04224294424057007 -0.195331409573555 -0.16183704137802124 -0.04196615517139435 0.08442258834838867 0.11219372600317001 0.06987738609313965 0.020996827632188797 0.05391306057572365 0.14932727813720703 0.08125215023756027 0.07299220561981201 0.17039255797863007 0.0010979309445247054 -0.11548870801925659 -0.0271562859416008 0.050715796649456024 -0.09728364646434784 -0.04795576259493828 0.0059243482537567616 -0.15282422304153442 -0.16801533102989197 0.06075221672654152 -0.007232158910483122 -0.1758146435022354 0.05445633828639984 0.06700640171766281 -0.09347639977931976 0.0421762578189373 0.047595780342817307 -0.06604059040546417 -0.039431069046258926 -0.029562242329120636 0.002773906337097287 0.032762497663497925 -0.04552440717816353 -0.03748994693160057 -0.005691289436072111 -0.18876703083515167 -0.17106182873249054 0.07353026419878006 0.0651412233710289 0.04189388081431389 0.04428262636065483 0.07446766644716263 -0.018312882632017136 0.0602341927587986 0.06991266459226608 0.05927415192127228 0.1573006957769394 -0.0010446695378050208 -0.019408179447054863 -0.0723118856549263 -0.08260519802570343 -0.057071201503276825 -0.044073253870010376 -0.014243710786104202 -0.09265115112066269 -0.04076483100652695 -0.006083079148083925 -0.16268526017665863 -0.0921831876039505 -0.11674776673316956 -0.14558422565460205 -0.07850249111652374 -0.050835538655519485 0.13180939853191376 -0.23815299570560455 -0.08282691985368729 -0.04164930805563927 -0.08754682540893555 -0.035815127193927765 0.008119524456560612 -0.1074567511677742 -0.10223161429166794 -0.10227535665035248 0.023272672668099403 0.01831934228539467 -0.03908466175198555 0.02192893624305725 -0.016014402732253075 0.011754721403121948 -0.004944500979036093 0.026975279673933983 -0.04042953997850418 -0.052838973701000214 -0.020265692844986916 0.041220396757125854 -0.057536493986845016 -0.10289888083934784 -0.05602700263261795 -0.11147906631231308 -0.019168656319379807 -0.16303078830242157 -0.0012882424052804708 0.026790650561451912 0.06991741061210632 0.031866490840911865 -0.019804619252681732 0.026440123096108437 0.010948381386697292 -0.06684119254350662 -0.09718890488147736 0.20525524020195007 0.18426407873630524 0.12721824645996094 0.06956034153699875 0.07278921455144882 0.07659636437892914 0.13379716873168945 0.05299744755029678 0.0884765088558197 0.07561226934194565 0.0002450634492561221 0.10588349401950836 0.08402840048074722 -0.009071212261915207 0.044608257710933685 0.11633250117301941 0.11587590724229813 0.061064817011356354 -0.046398553997278214 -0.010802931152284145 0.0007729203789494932 0.049103595316410065 -0.010334275662899017 0.07972251623868942 0.06719593703746796 0.061443429440259933 0.03232197090983391 -0.05352398380637169 0.06044291332364082 0.22181470692157745 -0.033759135752916336 -0.020733531564474106 0.11075334995985031 -0.02821245789527893 -0.14003907144069672 0.0037584651727229357 0.08402611315250397 0.09319385141134262 -0.01767730712890625 0.06809815764427185 -0.024569746106863022 -0.08238105475902557 0.054354969412088394 0.04018168896436691 -0.06852162629365921 -0.11719188094139099 -0.12123230844736099 0.04724494367837906 -0.10186605900526047 -0.06896352022886276 0.07559441030025482 -0.18767234683036804 -0.05561548471450806 0.1683320850133896 -0.009895042516291142 -0.0589885376393795 -0.02632010541856289 -0.02248641848564148 -0.040884826332330704 -0.04631038010120392 -0.04256385192275047 -0.0359107106924057 -0.01638006418943405 0.0014299423201009631 -0.007509056478738785 0.00043234831537120044 0.04226084426045418 0.028071828186511993 -0.0008348998380824924 -0.03309675678610802 0.03186972066760063 2.857579238479957e-05 0.03535163030028343 -0.032385729253292084 -0.0269431434571743 0.015321945771574974 0.03532451018691063 0.013643796555697918 0.03412577137351036 -0.02584683895111084 0.032592080533504486 0.01299948152154684 -0.03486890345811844 0.015722718089818954 -0.04099549725651741 0.025266334414482117 0.027605464681982994 -0.011292951181530952 0.02901075780391693 -0.04581747576594353 -0.020648494362831116 -0.007643694989383221 -0.013217284344136715 -0.010869503952562809 -0.037775736302137375 0.010252413339912891 0.03096534125506878 -0.03258588910102844 -0.038139499723911285 0.017765747383236885 -0.03276684880256653 -0.0012388295726850629 -0.056886930018663406 -0.05745667964220047 -0.044740259647369385 -0.052521176636219025 0.02345270663499832 -0.016094861552119255 0.02516564168035984 -0.03477426990866661 0.004093480762094259 -0.02391253225505352 0.012838337570428848 -0.0070763626135885715 -0.023699099197983742 0.003952195402234793 0.03436828404664993 -0.018015995621681213 -0.013893503695726395 0.018406735733151436 -0.007361700292676687 -0.01465641800314188 0.03314298018813133 -0.02445898950099945 -0.032162752002477646 0.011001728475093842 -0.024031322449445724 -0.020185386762022972 0.014218807220458984 0.02019842527806759 0.0032490193843841553 -0.039011117070913315 0.03083231672644615 -0.009178608655929565 0.04163767024874687 -0.06491895020008087 -0.07339166849851608 -0.0027255178429186344 -0.044433608651161194 -0.030991606414318085 -0.025355428457260132 -0.04062430188059807 0.02163332886993885 0.01137528009712696 0.01160902064293623 0.006364879664033651 -0.01377797033637762 0.012637687847018242 -0.013845046982169151 -0.04181266203522682 -0.01842808723449707 -0.007243598811328411 -0.03866005688905716 -0.02381000481545925 -0.019879480823874474 -0.030982736498117447 0.012949485331773758 -0.021292181685566902 -0.0589803047478199 -0.035239238291978836 -0.01913604512810707 -0.01086957473307848 0.023450132459402084 0.030443530529737473 0.008404478430747986 -0.02442937158048153 0.028779607266187668 0.003718554973602295 0.00167696678545326 0.008756941184401512 -0.033545661717653275 -0.03673213720321655 -0.046912360936403275 -0.06497538089752197 -0.015947455540299416 -0.022833427414298058 0.006511546205729246 0.01857028529047966 -0.01672697253525257 -0.024763323366642 0.015259955078363419 0.025761472061276436 0.004307427443563938 -0.04554004594683647 0.024438364431262016 -0.039265573024749756 0.006135385017842054 -0.041974663734436035 0.029109345749020576 0.009701522998511791 0.008882964961230755 -0.025023536756634712 -0.026206107810139656 -0.06838520616292953 -0.012493666261434555 -0.014938087202608585 -0.005379335023462772 -0.05951594561338425 -0.007110553327947855 0.002064697677269578 0.006545156240463257 0.022976992651820183 -0.03964581340551376 0.02425456792116165 -0.051141876727342606 0.010811888612806797 0.00822605099529028 -0.007603091653436422 -0.03272351250052452 0.040843572467565536 0.005049062892794609 0.01573583111166954 0.03215746581554413 0.005907326936721802 0.007080217357724905 -0.03088655136525631 -0.022141804918646812 -0.06522532552480698 -0.05628730356693268 -0.04547462984919548 0.007632108870893717 0.017129622399806976 -0.022208675742149353 -0.0008447899017482996 -0.021254414692521095 0.014510129578411579 0.01755492575466633 0.002924838103353977 -0.004338136408478022 -0.0329715870320797 -0.050796765834093094 -0.054733388125896454 -0.034640178084373474 0.0028171883895993233 0.02392388880252838 0.024358926340937614 -0.027095098048448563 0.019815003499388695 0.04112973436713219 0.02184993587434292 0.005040663760155439 -0.027311932295560837 -0.016210423782467842 -0.02447502315044403 0.021990064531564713 0.0031242528930306435 0.03450387343764305 0.03562914580106735 -0.003927226644009352 -0.01173508819192648 -0.04454033821821213 0.007076607085764408 -0.04147201031446457 -0.0022904432844370604 -0.00495950598269701 -0.02614477649331093 -0.007002831436693668 -0.05007314309477806 -0.05656971409916878 0.003088688012212515 -0.023817799985408783 -0.02741226740181446 -0.04781172797083855 -0.01692008227109909 0.013422291725873947 0.007529036607593298 -0.018189160153269768 0.011386802420020103 0.0019420163007453084 0.004606930539011955 -0.03551756590604782 -0.018947478383779526 -0.03006637841463089 0.005173401907086372 0.02027658000588417 -0.051193974912166595 -0.023510798811912537 -0.012680825777351856 -0.0433005653321743 -0.027612097561359406 -0.01419140212237835 -0.0286417193710804 -0.04521424323320389 -0.03332649543881416 -0.04775042459368706 -0.00022237039229366928 0.02380007691681385 -0.004177943337708712 -0.03565023094415665 -0.022446366026997566 0.013795927166938782 -0.034501880407333374 -0.02463841438293457 -0.005353432148694992 0.016332263126969337 0.010613215155899525 -0.028945662081241608 -0.02238258719444275 -0.028530742973089218 -0.0002147898485418409 -0.0030942868907004595 -0.024344077333807945 -0.005818651523441076 -0.010395586490631104 -0.03211984410881996 -0.02420879527926445 -0.015964314341545105 0.009319642558693886 -0.07302694767713547 -0.00550503097474575 -0.02960823103785515 -0.01651614159345627 -0.053089577704668045 0.01563241519033909 -0.019771892577409744 -0.051338355988264084 0.006942222826182842 -0.048592012375593185 -0.03346634283661842 -0.01690630614757538 0.00025730085326358676 -0.003964493051171303 -0.0471503809094429 -0.032277293503284454 -0.013272838667035103 -0.041837919503450394 -0.050892047584056854 -0.05370774492621422 -0.039339181035757065 -0.03397152200341225 -0.00043049087980762124 -0.025301354005932808 -0.038385987281799316 0.0060601565055549145 -0.0012405900051817298 0.019608935341238976 -0.0024473597295582294 -0.0073095764964818954 -0.00491651427000761 0.010114875622093678 -0.022397443652153015 -0.01003393903374672 -0.0014708280796185136 0.02650330774486065 -0.006488787475973368 0.022587604820728302 -0.03169224038720131 0.02514578029513359 -0.03467010334134102 -0.015883363783359528 0.017271244898438454 0.034066375344991684 0.03734816610813141 -0.016676131635904312 -0.0030853524804115295 -0.026624180376529694 -0.021976368501782417 0.03266133368015289 0.020819924771785736 -0.026870248839259148 -0.039219822734594345 0.02979460544884205 -0.010239388793706894 0.02236880362033844 -0.028782688081264496 -0.010786610655486584 -0.02796429954469204 0.006801113020628691 -0.02448354661464691 -0.015483606606721878 0.006551970262080431 0.01556150708347559 -0.012094820849597454 0.012132614850997925 -0.04123701900243759 -0.049024876207113266 -0.04728192463517189 -0.06372679024934769 -0.019285812973976135 -0.02223413623869419 -0.017464978620409966 -0.01528837438672781 0.025995362550020218 0.011131206527352333 0.015187831595540047 -0.027220528572797775 0.003950162790715694 -0.06386803835630417 -0.01024636160582304 0.0018267231062054634 -0.03389313817024231 -0.005479197949171066 -0.008829309605062008 0.00812170747667551 -0.018122762441635132 -0.009633702225983143 -0.03180574253201485 -0.03557479381561279 -0.042750515043735504 -0.02177509479224682 0.028107954189181328 -0.0006589581607840955 -0.0470094196498394 0.024516718462109566 -0.03924138471484184 -0.02942211925983429 -0.0321982279419899 0.0025967806577682495 0.03179848939180374 -0.03783440589904785 -0.03967408835887909 -0.005034248344600201 -0.021076306700706482 0.0041395872831344604 0.03557524457573891 -0.03993956372141838 0.034634068608284 -0.03233214467763901 -0.028259044513106346 -0.025761058554053307 -0.0025073906872421503 -0.0217283945530653 -0.027621306478977203 0.0001601762924110517 -0.017335062846541405 0.0034968876279890537 -0.061005886644124985 -0.002120666205883026 0.021050898358225822 -0.029225019738078117 0.01503253448754549 -0.029785575345158577 -0.0355089008808136 0.020684558898210526 0.009141109883785248 0.0001498903293395415 0.011058724485337734 -0.0415683388710022 -0.05078800395131111 -0.010948928073048592 0.00518800038844347 0.033836644142866135 -0.023884547874331474 0.009329196996986866 -0.02695520780980587 0.021673869341611862 -0.03797941654920578 -0.04202032461762428 0.005014113616198301 -0.034380681812763214 0.016350040212273598 -0.0019932957366108894 -0.027621258050203323 0.00624261936172843 -0.04550695791840553 0.010218551382422447 -0.02752019464969635 -0.023443859070539474 0.005083360243588686 -0.03134678304195404 -0.022550493478775024 -0.03187680244445801 -0.03972848877310753 -0.034639619290828705 0.010059432126581669 -0.0401768796145916 -0.01885598711669445 -0.020869970321655273 0.01106446422636509 0.022305352613329887 -0.044558122754096985 -0.030366946011781693 -0.001599472132511437 -0.05804187431931496 -0.03116011433303356 -0.0016053227009251714 -0.02436639741063118 -0.007448567543178797 -0.01937325857579708 -0.05866214260458946 0.01573307253420353 -0.05703096091747284 -0.03146522119641304 0.008369960822165012 -0.06184084713459015 -0.04802579805254936 0.005600297823548317 -0.021488193422555923 0.026823146268725395 -0.008247490040957928 0.0026465149130672216 -0.011859824880957603 -0.032576799392700195 -0.04246516525745392 -0.04839378967881203 -0.054395001381635666 -0.04722018539905548 -0.0023836272303014994 -0.0330972746014595 -0.017046762630343437 -0.02061758190393448 -0.05350358784198761 0.012166030704975128 0.007637510076165199 0.001234712777659297 0.007624185644090176 0.003750526113435626 0.003440517233684659 -0.05466084182262421 -0.037717610597610474 0.015393047593533993 0.010768702253699303 0.010415919125080109 -0.036714427173137665 -0.015492858365178108 -0.04702873155474663 -0.04742993786931038 -0.04136163741350174 -0.03888848051428795 -0.012677213177084923 0.007149548269808292 -0.026448998600244522 -0.04019495099782944 -0.05374952033162117 0.024021344259381294 0.0005214656121097505 -0.039010774344205856 -0.004836461041122675 -0.022441918030381203 0.011640023440122604 0.0034661453682929277 -0.04326885938644409 -0.004740634933114052 0.010017856024205685 0.012046982534229755 -0.04960068315267563 0.015568366274237633 -0.015737488865852356 0.010924030095338821 0.00210613664239645 0.003425614209845662 0.03301062434911728 0.008235277608036995 -0.04502744600176811 -0.038445986807346344 0.01030698698014021 0.02622167207300663 -0.022150082513689995 -0.05137261003255844 0.021667605265975 -0.023989832028746605 -0.001691177487373352 -0.038536444306373596 0.03879235312342644 0.007648155093193054 -0.027210887521505356 -0.005308414809405804 -0.0053698173724114895 0.021331362426280975 -0.024614932015538216 -0.02938040904700756 -0.004628054331988096 -0.03154437243938446 -0.011466383934020996 -0.04058275744318962 -0.03190615400671959 -0.02622433751821518 0.03572960942983627 0.03358092159032822 -0.03529597818851471 -0.00421521719545126 -0.016671091318130493 -0.036019958555698395 0.02185731753706932 0.010325640439987183 0.030620766803622246 0.026245050132274628 -0.029372943565249443 0.006585692521184683 -0.020662669092416763 0.009725755080580711 0.005279794335365295 0.01929524913430214 -0.02857828512787819 -0.01079218927770853 -0.014309206046164036 0.03791974484920502 -0.03004392981529236 -0.04839324578642845 -0.018590981140732765 -0.03635316714644432 0.004954442847520113 -0.023443277925252914 0.01056087389588356 -0.012897991575300694 -0.010570359416306019 -0.018301889300346375 -0.04150238260626793 -0.030284103006124496 -0.04061596095561981 0.013199150562286377 0.011775732040405273 0.033756088465452194 -0.03826932609081268 -0.03802701458334923 0.028165150433778763 -0.01728995330631733 0.009358556009829044 -0.04540411755442619 -0.026258692145347595 0.0210371445864439 -0.012600895948708057 -0.028606832027435303 -0.03346804529428482 0.03156573325395584 -0.0057450225576758385 0.008149784989655018 -0.03260170295834541 -0.005838840734213591 -0.0583542063832283 -0.031230341643095016 -0.022661304101347923 -0.04609652981162071 0.005595055874437094 -0.010690301656723022 -0.0040739900432527065 -0.04631177708506584 -0.02077934704720974 0.005789861548691988 -0.010543773882091045 -0.0030561918392777443 0.011613599956035614 -0.009699526242911816 0.005781857762485743 0.03150590509176254 -0.023974783718585968 -0.04474250599741936 -0.052599791437387466 0.0016399325104430318 -0.014126559719443321 0.009785519912838936 -0.055447544902563095 0.0321776419878006 0.022136420011520386 -0.006954890210181475 -0.036827605217695236 0.0028509728144854307 -0.04938546568155289 -0.024717291817069054 -0.017193134874105453 0.009119704365730286 0.03568251058459282 -0.009443273767828941 0.016699329018592834 3.341833871672861e-05 0.034190576523542404 -0.018271684646606445 -0.0009708760771900415 -0.021703386679291725 -0.0011245146160945296 -0.03215813264250755 -2.9521737815230154e-05 -0.02154676616191864 -0.04208387807011604 0.0006231299485079944 -0.031110644340515137 -0.05074606463313103 -0.0346982479095459 -0.004413964226841927 0.006056900601834059 -0.03957648202776909 -0.025082193315029144 -0.059581201523542404 0.024940062314271927 -0.009496990591287613 -0.025889288634061813 -0.026025600731372833 -0.01115474384278059 0.002014691708609462 -0.021107196807861328 -0.016764836385846138 -0.005747976712882519 -0.018604552373290062 -0.01665174961090088 -0.006781671661883593 -0.00284180766902864 0.014628469944000244 -0.0012547324877232313 0.0010633968049660325 -0.043553467839956284 -0.06664836406707764 -0.01928075961768627 -0.04334144666790962 0.022673722356557846 0.025320878252387047 -0.03800218179821968 -0.04287455603480339 0.01749400421977043 -0.017424827441573143 0.00316538754850626 -0.007418700959533453 -0.015566913411021233 0.005274081602692604 0.0029151681810617447 0.011403892189264297 0.02226250432431698 0.020761461928486824 -0.0202085729688406 0.007506293244659901 -0.006857187021523714 0.04199586063623428 -0.013896767050027847 0.03556608781218529 -0.03841127082705498 0.03531292453408241 -0.05965773016214371 -0.014692313969135284 0.003768827300518751 -0.032218046486377716 -0.05633828043937683 -0.034231189638376236 -0.013361653313040733 -0.041663628071546555 -0.03292324021458626 0.011006729677319527 -0.03218359500169754 -0.004346356261521578 -0.02201911248266697 -0.042117632925510406 -0.0075912619940936565 0.002574507612735033 0.022587301209568977 0.004165090620517731 0.012998426333069801 -0.04404112324118614 -0.021855540573596954 -0.023507611826062202 -0.019562922418117523 0.0413060188293457 -0.013962038792669773 0.010490535758435726 -0.005952301900833845 -0.018830304965376854 -0.002941445680335164 0.011106891557574272 -0.004775353707373142 0.0037977180909365416 0.0103641701862216 0.018384013324975967 -0.0876769945025444 -0.0283826757222414 -0.01853080838918686 -0.019104182720184326 -0.09351837635040283 -0.05611291900277138 -0.01947118155658245 -0.0011674851411953568 -0.013256154954433441 -0.04173479601740837 0.0032056369818747044 -0.022409753873944283 0.02704138681292534 -0.011509936302900314 0.01499965414404869 -0.021867316216230392 -0.03449132665991783 0.002307203598320484 -0.06432720273733139 -0.034664902836084366 -0.042312491685152054 0.011720010079443455 -0.05323999747633934 -0.04686920344829559 0.012099985033273697 -0.037295106798410416 0.021516257897019386 -0.04052967578172684 0.023563740774989128 0.02083468995988369 0.029766282066702843 -0.02414141409099102 -0.030430516228079796 0.028720395639538765 -0.02499222755432129 0.010156362317502499 0.009578322991728783 -0.0111796073615551 0.03221262991428375 -0.008142189122736454 0.020312627777457237 -0.008222190663218498 0.02622903697192669 -0.02447703294456005 0.024904858320951462 -0.0030964319594204426 -0.06907743215560913 -0.041733745485544205 -0.007781328167766333 -0.03929978981614113 -0.015219190157949924 -0.028760189190506935 0.00969640351831913 0.018875548616051674 0.01635611802339554 -0.07006356865167618 -0.05834565684199333 -0.0478186197578907 -0.023581488057971 -0.04056517779827118 -0.02120080590248108 -0.061983879655599594 0.03059091977775097 0.012131654657423496 0.032630953937768936 0.043992459774017334 0.0051255738362669945 -0.040207523852586746 -0.010501552373170853 -0.032724544405937195 -0.02122701331973076 -0.04231691360473633 -0.014547435566782951 -0.010869262740015984 -0.011292003095149994 -0.04582180827856064 -0.04630252346396446 -0.022401871159672737 0.01420604158192873 0.0011375417234376073 0.016642943024635315 -0.04330381751060486 -0.0342077799141407 -0.02217083051800728 -0.007089013233780861 -0.009325156919658184 -0.03817157447338104 -0.020748626440763474 -0.04723505675792694 0.014058506116271019 -0.016281865537166595 -0.017381954938173294 -0.03487005829811096 0.009074528701603413 0.02799374982714653 -0.0020293674897402525 -0.0042430441826581955 -0.003277246840298176 -0.026209793984889984 -0.04768180102109909 -0.024400198832154274 0.015442145988345146 0.02676381915807724 -0.01565455086529255 -0.02441725693643093 -0.01411501131951809 -0.06706174463033676 -0.008031816221773624 -0.017282553017139435 0.013243448920547962 -0.016638336703181267 -0.028280697762966156 -0.015883637592196465 -0.02239075116813183 -0.030543994158506393 -0.015536652877926826 -0.04797903075814247 -0.011963985860347748 -0.015008019283413887 -0.014005633071064949 -0.02580983005464077 -0.045303553342819214 -0.0311505775898695 0.01759912818670273 -0.02569076605141163 0.002489509992301464 -0.03209332749247551 0.013274108991026878 -0.05187011510133743 0.007737713400274515 0.0044114915654063225 -0.04013649746775627 -0.03843994438648224 -0.04144014045596123 -0.01555696316063404 -0.029927195981144905 -0.032748930156230927 -0.01898954249918461 -0.040446799248456955 0.009283599443733692 0.001487133209593594 0.005027946550399065 -0.009975891560316086 -0.042586419731378555 -0.030640769749879837 -0.022438550367951393 -0.048879221081733704 -0.047632552683353424 -0.009950109757483006 -0.05929965153336525 -0.019672816619277 -0.061724815517663956 -0.052968841046094894 -0.012001292780041695 0.0023377463221549988 -0.0016102276276797056 -0.06847710907459259 -0.013947091065347195 -0.03696279972791672 0.02381512150168419 -0.02364320307970047 -0.013396985828876495 -0.028940225020051003 -0.03522217646241188 -0.016765685752034187 -0.07232198119163513 -0.03642907366156578 0.0035202016588300467 -0.01649983786046505 0.0474921353161335 -0.032642945647239685 -0.027177860960364342 0.030369427055120468 -0.027195923030376434 0.01076560653746128 -0.006927651818841696 0.017779968678951263 0.010063264518976212 0.023700514808297157 -0.007549611385911703 -0.013908082619309425 -0.04455788806080818 -0.024720756337046623 -0.004642292857170105 0.023694152012467384 0.03192190080881119 -0.006771554704755545 -0.030134757980704308 -0.04366309568285942 -0.0025453378912061453 -0.029378650709986687 0.022244641557335854 -0.0389903299510479 -0.0007495891186408699 -0.010444764979183674 0.0024698046036064625 -0.00045514985686168075 0.00150597607716918 0.02067212574183941 -0.07013712078332901 -0.0625319629907608 -0.03166721761226654 -0.02448318898677826 -0.07879184931516647 -0.03404352813959122 -0.00815077219158411 0.00035637689870782197 0.013203473761677742 0.026809880509972572 -0.029286198318004608 0.01267356425523758 0.013847365975379944 -0.0035262147430330515 0.032367706298828125 -0.014998854137957096 -0.04514046385884285 -0.019307387992739677 -0.06103155016899109 -0.028889594599604607 -0.008055442944169044 -0.019451551139354706 -0.0399799719452858 -0.022567924112081528 0.001111507066525519 -0.03422189876437187 -0.04635472595691681 -0.03814000263810158 -0.00263044866733253 -0.012586676515638828 -0.010316906496882439 0.011285673826932907 -0.01564650610089302 0.015136411413550377 0.008772715926170349 -0.029005324468016624 -0.007732316851615906 -0.00542701780796051 -0.00851755402982235 -0.03237901255488396 0.014255697838962078 -0.01651873253285885 0.008352817967534065 -0.04176439717411995 -0.011728192679584026 -0.016800440847873688 0.018249554559588432 0.023252760991454124 -0.046841543167829514 -0.0256178081035614 -0.009668958373367786 -0.057978902012109756 -0.002936488715931773 -0.021892791613936424 -0.03799070417881012 0.019759146496653557 0.03022615611553192 0.015704378485679626 -0.03333066403865814 0.031737495213747025 -0.0795140266418457 0.021986819803714752 -0.022266225889325142 -0.008253737352788448 -0.011233258061110973 0.013385054655373096 -0.016358351334929466 0.012523990124464035 -0.03740980476140976 -0.014408859424293041 -0.026847708970308304 0.0021717657800763845 0.01142185553908348 -0.009529347531497478 -0.050340764224529266 -0.01069539226591587 0.005180771928280592 0.011115041561424732 0.03806038200855255 -0.022037038579583168 0.012090061791241169 -0.036292076110839844 0.013378116302192211 -0.019133800640702248 0.015279593877494335 -0.004389512352645397 -0.04311526194214821 -0.018474871292710304 -0.03851039335131645 -0.005611811298877001 -0.010198566131293774 -0.040019065141677856 -0.024434026330709457 0.005709303542971611 -0.04356952756643295 0.029193421825766563 0.035164736211299896 -0.01663147285580635 0.009896486066281796 0.013764054514467716 -0.01583281345665455 0.014315707609057426 0.01303824596107006 0.0182347409427166 -0.0278016347438097 -0.02590833604335785 -0.07597756385803223 -0.037662945687770844 -0.03512357175350189 -0.00845390371978283 -0.026905685663223267 -0.03414617478847504 -0.00551648810505867 0.004911759402602911 -0.022197095677256584 -0.0122672813013196 -0.0039416044019162655 0.01179961021989584 -0.026031818240880966 -0.012219236232340336 -0.04293021187186241 0.023620570078492165 -0.029946865513920784 -0.02556479722261429 -0.05220285430550575 -0.01799228973686695 -0.04103793203830719 -0.04209810122847557 -0.023348243907094002 -0.03340425714850426 -0.018128199502825737 -0.036563124507665634 -0.04119393974542618 -0.02622714266180992 -0.04906811565160751 -0.015616975724697113 -0.07957436889410019 -0.08733473718166351 0.005098716355860233 -0.01952804997563362 -0.02483450062572956 0.0014149274211376905 0.02091296762228012 -0.004492876119911671 0.023081380873918533 -0.019117454066872597 -0.004100282210856676 -0.01729295775294304 -0.02508658915758133 0.02086050435900688 -0.0013844473287463188 -0.0288233682513237 -0.03949381783604622 -0.05434209853410721 -0.035712238401174545 -0.0423118956387043 -0.06504441052675247 -0.005956132430583239 -0.022140370681881905 -0.016719631850719452 -0.014076419174671173 0.03289138153195381 -0.01379825733602047 0.028058910742402077 0.0100975027307868 0.023380015045404434 0.029277145862579346 0.022369159385561943 -0.032770849764347076 -0.022787833586335182 -0.05906309187412262 -0.010871080681681633 -0.018968282267451286 -0.0016651494661346078 -0.04154469817876816 -0.02907593548297882 -0.002358203288167715 0.017562024295330048 0.02248520962893963 -0.0024520407896488905 -0.013360992074012756 -0.0349067859351635 -0.013462821952998638 0.023752417415380478 0.02835666760802269 -0.000496154185384512 -0.04384484887123108 0.03273831307888031 -0.037051763385534286 0.023225946351885796 -0.002028670161962509 0.035299334675073624 0.011143016628921032 -0.039758000522851944 -0.024681510403752327 0.011000963859260082 -0.03537040948867798 -0.026870286092162132 0.030688568949699402 -0.03846113383769989 -0.01483428105711937 -0.04017476364970207 -0.02435821294784546 0.022449098527431488 -0.07459350675344467 0.0001787578803487122 0.026396580040454865 -0.045344240963459015 -0.0413389652967453 -0.0008611417724750936 -0.03507310152053833 -0.017730090767145157 0.03392381593585014 -0.005566831678152084 -0.034716516733169556 0.03272942081093788 -0.004189854022115469 -0.03206467255949974 -0.001103516318835318 -0.032521117478609085 -0.041834756731987 0.010777212679386139 -0.012707450427114964 0.017211688682436943 -0.045604158192873 -0.033141326159238815 0.001919108210131526 0.02273992821574211 -0.022065425291657448 0.020618388429284096 -0.014753866009414196 -0.0221721101552248 -0.0009870303329080343 -0.05498884618282318 -0.03243568167090416 -0.03925001248717308 -0.05135772377252579 -0.0387876071035862 0.006298205349594355 -0.050077322870492935 0.03195511922240257 -0.012233967892825603 -0.01790718175470829 -0.01585361734032631 -0.04780731722712517 -0.004689933266490698 -0.00029899890068918467 -0.007483090274035931 -0.010125336237251759 -0.048331864178180695 -0.03449065610766411 0.025239372625947 -0.024930061772465706 -0.03224420174956322 -0.050369974225759506 -0.00018163459026254714 0.02807755023241043 -0.04082532227039337 -0.0876971110701561 0.009344345889985561 -0.03999151289463043 0.10884477198123932 0.05316595360636711 -0.0562652163207531 -0.13452330231666565 -0.11836390942335129 -0.3117932975292206 -0.13836222887039185 -0.053612399846315384 -0.08592221140861511 0.01915612816810608 -0.013392889872193336 -0.041160810738801956 0.14834141731262207 0.008121136575937271 -0.07734701782464981 -0.03195637837052345 -0.025164123624563217 -0.0026080096140503883 -0.017431965097784996 -0.04088780656456947 -0.030105238780379295 0.030207432806491852 -0.02014239877462387 0.03828964754939079 -0.04605484753847122 -0.021960360929369926 -0.014870651997625828 0.0654352605342865 0.06634173542261124 0.014069574885070324 -0.2168886810541153 -0.1361599713563919 -0.18913611769676208 -0.007413716521114111 -0.035497624427080154 0.003424158552661538 0.004460255615413189 -0.0019649441819638014 -0.13844868540763855 0.05623532831668854 0.04801546782255173 -0.0565950907766819 -0.004074057564139366 -0.007536781951785088 0.08150609582662582 -0.1619035303592682 -0.0758129432797432 -0.0026582202408462763 -0.14755681157112122 -0.08912922441959381 0.07539107650518417 -0.11092496663331985 -0.07022857666015625 -0.12524500489234924 0.04349518567323685 0.12383612990379333 -0.15014512836933136 0.04274171590805054 0.04036206007003784 -0.18811605870723724 -0.042934600263834 0.008882706053555012 0.010418892838060856 -0.2199036031961441 -0.13766664266586304 0.0009625963866710663 -0.11531335115432739 -0.16489125788211823 0.07151312381029129 0.0178131815046072 -0.039974600076675415 -0.0670505091547966 0.0014908205484971404 0.012723904103040695 -0.015160462819039822 -0.02181454934179783 0.034501463174819946 -0.024639666080474854 0.14268243312835693 0.08846576511859894 0.03841981291770935 0.08205997198820114 -0.03806348890066147 -0.036306049674749374 0.057348065078258514 0.008205650374293327 0.017807237803936005 0.16499872505664825 0.1992449164390564 -0.009813803248107433 0.052494779229164124 0.02953288145363331 -0.21349431574344635 0.08399363607168198 0.12790419161319733 -0.030908461660146713 -0.10515093803405762 -0.1053091436624527 -0.03142210841178894 -0.08365809172391891 0.03840266540646553 0.11115384101867676 0.041045695543289185 0.1574881672859192 0.19639724493026733 0.07970892637968063 0.05626550689339638 -0.03862285986542702 0.052587609738111496 0.03396807983517647 -0.022962452843785286 0.17058734595775604 0.13883726298809052 -0.07125762850046158 -0.01779959537088871 -0.019731156527996063 0.043629974126815796 0.0478307344019413 -0.009553559124469757 0.028955763205885887 0.019732093438506126 -0.16572217643260956 -0.05709917098283768 0.08618563413619995 0.1394549012184143 -0.013138730078935623 0.13623936474323273 0.19282172620296478 0.06646423041820526 0.15208303928375244 0.19521379470825195 0.08982814848423004 -0.1537163406610489 -0.13159853219985962 -0.12138786911964417 -0.0688767209649086 -0.060729604214429855 0.039362046867609024 0.07719127833843231 0.043812625110149384 0.12112004309892654 -0.0988524928689003 -0.11706899106502533 0.03338431566953659 -0.06317134201526642 -0.0010807018261402845 0.21026737987995148 -0.3034886121749878 -0.08783209323883057 0.0926109254360199 -0.00934586301445961 -0.0213162899017334 0.01653236895799637 -0.0026443288661539555 0.0363144613802433 0.041713159531354904 -0.04415523633360863 -0.013834189623594284 -0.022993359714746475 -0.07048402726650238 -0.13332657516002655 0.04444344714283943 0.06353866308927536 -0.05985802784562111 0.04274187982082367 -0.06443271040916443 -0.09711883217096329 -0.15665081143379211 0.018285755068063736 0.10759137570858002 0.12175899744033813 -0.06051352620124817 -0.011249744333326817 0.026917774230241776 0.009144161827862263 0.03364076092839241 0.047557320445775986 -0.2083083689212799 -0.11248505115509033 -0.19018703699111938 -0.12603162229061127 -0.022983143106102943 -0.09874936938285828 -0.10459035634994507 0.05798827484250069 -0.03491142764687538 -0.016020357608795166 -0.03130941838026047 -0.06253217905759811 0.11179585754871368 -0.12252049148082733 -0.3381707966327667 0.3661295175552368 -0.04028237611055374 -0.4960029125213623 0.037415944039821625 0.0897606834769249 0.03615429624915123 0.030184337869286537 0.07719603180885315 -0.019752217456698418 -0.10090812295675278 -0.06173235923051834 -0.15748322010040283 -0.17955565452575684 -0.03387497738003731 -0.04578451067209244 -0.2840651869773865 -0.1941954642534256 -0.1569730043411255 -0.16709129512310028 -0.08154427260160446 -0.02461250126361847 -0.2275504618883133 -0.021335581317543983 -0.08818955719470978 -0.11497810482978821 -0.007201050873845816 0.04492682218551636 -0.36740976572036743 -0.11177780479192734 0.10107937455177307 0.02640814706683159 0.040416330099105835 -0.08687160164117813 -0.04400395601987839 0.05019799619913101 -0.09893371909856796 -0.05022263526916504 0.03420034795999527 -0.12820689380168915 0.06046849861741066 0.1026001125574112 0.14548145234584808 0.0695815160870552 0.08667489141225815 0.10535874217748642 0.10694024711847305 0.13058698177337646 0.3124590814113617 -0.01362424436956644 -0.041802745312452316 -0.0835895985364914 -0.09850906580686569 -0.010727755725383759 0.07090583443641663 -0.15888157486915588 -0.10009503364562988 0.00732032023370266 -0.06193888559937477 -0.07008691132068634 -0.3199637532234192 0.1577741652727127 0.06187525764107704 -0.3154601752758026 0.20413503050804138 0.11798853427171707 -0.27814623713493347 -0.013716950081288815 0.02358071133494377 0.0605226568877697 -0.07643415778875351 -0.057205282151699066 0.030779697000980377 -0.017812643200159073 0.017449723556637764 0.14908598363399506 0.06428966671228409 -0.03000861592590809 -0.20725522935390472 0.1640838086605072 0.09903009235858917 -0.23451100289821625 0.03477107360959053 -0.13250024616718292 -0.5035789608955383 0.05693669989705086 0.05525805056095123 0.0015710672596469522 0.10467226058244705 0.1279943585395813 0.11094821989536285 -0.05023365467786789 -0.10878013074398041 -0.041609592735767365 -0.04576268792152405 -0.023012083023786545 0.06321484595537186 -0.09076081961393356 0.008931364864110947 0.002954089315608144 -0.0354914553463459 0.029178721830248833 -0.039916619658470154 0.012594438157975674 0.04408914968371391 -0.02411695383489132 0.05008833855390549 0.005939430557191372 0.04956025257706642 -0.015669168904423714 0.017308425158262253 0.002198227681219578 -0.050850383937358856 -0.13355398178100586 -0.03526896983385086 -0.06336535513401031 -0.04665566235780716 0.055745478719472885 -0.17974837124347687 0.057671189308166504 0.006589870434254408 -0.08557796478271484 -0.04697582125663757 -0.08464705944061279 0.0988207682967186 0.12938064336776733 -0.008570274338126183 0.15595178306102753 0.035237643867731094 -0.15427187085151672 -0.12171376496553421 -0.02147371508181095 -0.1081012710928917 0.010681328363716602 0.11955737322568893 -0.05236425995826721 0.05349228158593178 0.028471987694501877 -0.16643337905406952 -0.2024439424276352 -0.11566568166017532 -0.18914131820201874 -0.1627521812915802 0.016198288649320602 -0.18262606859207153 -0.35511109232902527 -0.20858913660049438 -0.277710497379303 -0.0069304886274039745 -0.08686549961566925 -0.031532153487205505 0.024486660957336426 -0.014949502423405647 -0.054954759776592255 0.10587137937545776 0.059618767350912094 0.036700859665870667 0.01977730728685856 -0.018659349530935287 0.05145370215177536 -0.01721358112990856 0.025475330650806427 0.014486882835626602 0.024879159405827522 -0.04684806615114212 -0.0621199794113636 -0.0027810814790427685 -0.04255952313542366 -0.004290698561817408 -0.03158225491642952 -0.05420350283384323 0.027186108753085136 -0.04269269108772278 -0.007100843358784914 -0.06667313724756241 -0.14374253153800964 -0.05864661931991577 -0.1727009117603302 0.009082154370844364 0.0012402974534779787 0.08387395739555359 -0.03529364988207817 0.019292498007416725 0.13188707828521729 0.05183863639831543 0.10935074836015701 0.05056487023830414 -0.033986516296863556 0.07227526605129242 0.08921412378549576 0.05438126623630524 0.12470713257789612 0.12819084525108337 0.10506535321474075 -0.029117267578840256 -0.22516557574272156 0.0555010549724102 -0.009005984291434288 -0.12315328419208527 0.20874129235744476 0.07619777321815491 -0.14855478703975677 -0.07009994983673096 0.03946277126669884 -0.014581452123820782 0.01824582740664482 0.052153330296278 0.09842585772275925 0.04459898918867111 0.08055750280618668 0.11547397077083588 -0.09386041760444641 -0.06188494712114334 0.02073388174176216 -0.09437277168035507 -0.1011710911989212 -0.04843989387154579 -0.11740853637456894 -0.09952697157859802 0.0738777220249176 0.015288690105080605 0.013630496338009834 -0.24459701776504517 0.057146407663822174 0.049484651535749435 -0.28562742471694946 0.15306037664413452 0.06745635718107224 -0.403004914522171 0.045498788356781006 0.1487077921628952 0.22941803932189941 -0.07228108495473862 0.08919709175825119 0.10961351543664932 0.0017885490087792277 0.051549311727285385 0.1501522809267044 -0.08245298266410828 -0.007190024480223656 -0.047570448368787766 -0.0818556547164917 0.04682088643312454 0.050190337002277374 0.1330796331167221 0.13141655921936035 0.13762333989143372 -0.023473283275961876 -0.010650403797626495 -0.05784284695982933 0.002982368227094412 -0.060885194689035416 -0.02909211628139019 0.03787055239081383 0.029912669211626053 0.019201243296265602 -0.06488140672445297 -0.07496046274900436 -0.060236357152462006 -0.014886333607137203 -0.050251055508852005 -0.0041464027017354965 0.07661060988903046 0.03180903196334839 0.20889832079410553 0.02409202791750431 0.03638096898794174 -0.05488048121333122 0.026738230139017105 0.019187262281775475 0.019066140055656433 -0.02455662004649639 0.08993273973464966 0.09104529023170471 -0.01245585922151804 -0.06866022944450378 0.021188978105783463 -0.05337099730968475 -0.06561966985464096 -0.019506579264998436 0.09474949538707733 -0.005254683550447226 0.005401381757110357 -0.01980780065059662 0.016894789412617683 0.06565819680690765 0.07433623820543289 0.006025131791830063 0.06517348438501358 0.18289680778980255 0.09299328923225403 -0.07156599313020706 -0.14638890326023102 -0.1235416904091835 -0.25966641306877136 -0.29727789759635925 0.06155236065387726 -0.1957833170890808 -0.20991957187652588 -0.14563649892807007 -0.1128293052315712 0.06406287103891373 0.02730085328221321 -0.02614288404583931 0.03866848349571228 -0.026634953916072845 -0.06964857131242752 0.0007019774056971073 0.01100013218820095 0.006455052178353071 -0.12628425657749176 0.043017737567424774 0.08100402355194092 -0.05246185138821602 0.17263977229595184 0.22639183700084686 0.014022384770214558 0.21193934977054596 0.2930843234062195 -0.19655154645442963 -0.06542550772428513 0.024802831932902336 -0.24728520214557648 -0.13035395741462708 0.05879952386021614 -0.20755018293857574 -0.11038962006568909 0.2434718757867813 -0.05501595139503479 -0.1453990340232849 -0.10666310042142868 -0.19114333391189575 -0.2400440275669098 -0.015917643904685974 -0.1630200445652008 -0.031447336077690125 0.04348748177289963 -0.09746727347373962 -0.11246474832296371 -0.11250171810388565 -0.08616660535335541 -0.1561887413263321 -0.2630087733268738 -0.04937872290611267 -0.05150177702307701 -0.061654720455408096 -0.15847592055797577 -0.045350249856710434 -0.03127247095108032 -0.08122986555099487 0.06218899413943291 0.059607453644275665 -0.0054082409478724 -0.026903117075562477 0.20660601556301117 0.06618344038724899 0.043155837804079056 0.12872543931007385 -0.060737788677215576 -0.06569463014602661 0.07801993191242218 0.04636243358254433 -0.017658254131674767 0.06704152375459671 0.020286262035369873 -0.01412341371178627 0.03745582699775696 -0.055494651198387146 -0.014672755263745785 0.08580978214740753 -0.09926077723503113 -0.06903839111328125 0.12310905754566193 0.0523553229868412 0.08903070539236069 -0.014902469702064991 0.05537198856472969 0.05713624134659767 -0.13470949232578278 -0.01310010813176632 -0.10327295958995819 -0.2406664490699768 -0.15328070521354675 -0.2855909764766693 -0.22231173515319824 0.03713437169790268 -0.052499718964099884 0.1169077679514885 0.05567287281155586 0.04762968420982361 -0.050290122628211975 -0.18559947609901428 -0.1078057587146759 -0.20007950067520142 -0.20409391820430756 -0.022581353783607483 -0.0484568327665329 -0.023212416097521782 0.18281228840351105 0.11704149097204208 -0.035243306308984756 0.03268926590681076 -0.03732895478606224 0.010066287592053413 0.03294577822089195 0.0023541413247585297 0.022393982857465744 0.005376552697271109 0.034939415752887726 -0.02575168013572693 0.08417975157499313 0.13298359513282776 -0.12996543943881989 -0.17464996874332428 0.04071887582540512 0.03145051747560501 -0.098537378013134 0.09930533915758133 -0.017917688935995102 -0.013963241130113602 -0.1662447452545166 0.04024096950888634 -0.07519575208425522 -0.25138601660728455 0.011288848705589771 -0.09723125398159027 -0.22416019439697266 -0.11537398397922516 -0.1454237699508667 -0.1886315494775772 -0.0354909785091877 -0.048278726637363434 -0.050324175506830215 0.012124325148761272 0.054647523909807205 0.07388316094875336 -0.20806318521499634 -0.11689677089452744 -0.07335416227579117 -0.0526936873793602 0.08874870836734772 0.15683603286743164 0.021652553230524063 0.16478466987609863 0.1384388655424118 0.0038536221254616976 0.0002796176995616406 -0.0005109648918733001 -0.09556960314512253 -0.058302391320466995 -0.020522182807326317 -0.1853623241186142 -0.17887510359287262 -0.0815899595618248 -0.007280055433511734 0.04143955931067467 0.03065398894250393 0.018223708495497704 -0.04394710436463356 -0.03571309521794319 0.009599731303751469 -0.004491379950195551 0.038027774542570114 -0.16602642834186554 0.03040272183716297 0.08093833923339844 -0.017395783215761185 0.07654856145381927 0.04565134271979332 0.009969382546842098 0.00914035551249981 -0.012800689786672592 -0.20829090476036072 -0.06563349068164825 0.06108744814991951 -0.266655832529068 -0.03963782638311386 -0.011694816872477531 -0.26900339126586914 -0.012911492958664894 -0.0819515660405159 0.11970658600330353 -0.02546214684844017 0.08798369765281677 -7.352782995440066e-05 -0.010190129280090332 0.08877387642860413 0.00893221516162157 0.051540080457925797 0.014247718267142773 -0.2373053878545761 0.08827506005764008 0.11825459450483322 -0.25813165307044983 -0.010296809487044811 -0.05776439234614372 -0.21722152829170227 0.07507594674825668 0.027297448366880417 -0.2043149322271347 -0.3451538681983948 -0.2688358724117279 -0.22590269148349762 -0.17546552419662476 -0.3229566216468811 -0.08031004667282104 -0.10044821351766586 -0.1453980952501297 0.1562129706144333 0.1891804337501526 0.24280762672424316 0.10690785199403763 0.13203364610671997 0.13942968845367432 0.10926668345928192 0.017663372680544853 0.06892924755811691 0.1609732210636139 0.1274574249982834 0.08815351873636246 -0.03112059272825718 0.06011003628373146 0.03312359377741814 -0.008525369688868523 0.09655202180147171 -0.07280633598566055 0.02984166331589222 -0.10680534690618515 -0.18743282556533813 -0.03466973453760147 -0.1473296582698822 -0.09092868119478226 0.16716986894607544 -0.01726580783724785 -0.028944073244929314 -0.011626648716628551 0.022175302729010582 0.006255711894482374 0.01935974322259426 0.04134095460176468 -0.018162013962864876 -0.008274043910205364 0.02850574254989624 0.002442318480461836 -0.11598590016365051 -0.03690481185913086 -0.04221145808696747 0.013133971020579338 0.11458007991313934 0.07492721825838089 -0.022108694538474083 0.012339326553046703 0.04644463583827019 -0.08685225993394852 -0.11660202592611313 -0.09337000548839569 -0.04446431249380112 -0.006183439400047064 -0.009157095104455948 0.09332042187452316 0.008397052064538002 0.017664164304733276 0.08907642215490341 0.06343217939138412 0.03643007203936577 0.1506013423204422 0.06965363025665283 0.09312529116868973 0.11469066888093948 -0.060537248849868774 0.09724317491054535 -0.1397227644920349 0.041486628353595734 -0.1816592812538147 -0.03689601272344589 0.09982635080814362 -0.21732114255428314 0.02277492545545101 0.14214389026165009 -0.08623366057872772 0.17340272665023804 0.315309077501297 0.2793613076210022 0.11918167024850845 0.23236465454101562 0.259383887052536 0.12483355402946472 0.059774529188871384 0.1609146147966385 -0.02632816694676876 -0.28954973816871643 -0.2098037749528885 -0.023598523810505867 -0.16845391690731049 -0.23853500187397003 -0.026915643364191055 -0.06581816077232361 0.008894682861864567 -0.036867495626211166 -0.19819171726703644 -0.18820413947105408 0.11474145948886871 -0.0002504555450286716 -0.036816857755184174 0.21964511275291443 0.08995534479618073 0.09986837208271027 -0.3387209475040436 -0.2725689709186554 -0.30715957283973694 -0.16934126615524292 -0.1106012612581253 -0.11117362231016159 -0.11187369376420975 -0.06215936690568924 0.016422197222709656 -0.319185346364975 -0.13861551880836487 0.04660630226135254 -0.09271056205034256 -0.07495070993900299 0.0676247626543045 -0.03441309928894043 -0.04615096375346184 -0.005653035826981068 -0.13655729591846466 -0.12389037013053894 -0.11508013308048248 -0.19580642879009247 -0.1517835110425949 -0.09119919687509537 -0.036222584545612335 -0.08153152465820312 0.044628020375967026 -0.34721362590789795 -0.13452088832855225 -0.1942967176437378 -0.17826543748378754 0.0010879084002226591 -0.20275339484214783 -0.0913882777094841 -0.10447490215301514 -0.282827764749527 -0.057293687015771866 -0.004177919123321772 0.057101476937532425 -0.08923251181840897 0.0693710669875145 0.08232766389846802 -0.09189748018980026 -0.022363048046827316 0.11384937167167664 -0.023582687601447105 0.08346164226531982 -0.06104644015431404 -0.0954267755150795 -0.09487485140562057 -0.17640629410743713 -0.008694100193679333 0.01989705115556717 -0.07299216836690903 0.01666361838579178 0.05532455816864967 -0.059659406542778015 -0.025808479636907578 -0.05852165445685387 -0.07420630007982254 0.04210424795746803 -0.020574983209371567 0.09092696011066437 -0.10380721837282181 0.005333557724952698 -0.0933447778224945 -0.015360219404101372 0.0037294868379831314 0.05830342695116997 0.02451666072010994 -0.0795917958021164 -0.04784858226776123 0.005552638787776232 -0.02014150470495224 -0.020099172368645668 -0.0592736154794693 0.02785855531692505 -0.07830718904733658 0.007368240039795637 -0.03609331324696541 -0.031604278832674026 0.11968346685171127 -0.021489622071385384 -0.07641643285751343 -0.10885179787874222 -0.20205745100975037 -0.19315719604492188 -0.1580561101436615 -0.21355381608009338 -0.013754637911915779 -0.16591545939445496 -0.011225508525967598 0.017854949459433556 -0.17417708039283752 0.05062165483832359 -0.0028336511459201574 -0.07711941003799438 0.06626888364553452 -0.05467796325683594 -0.13674473762512207 0.08326461911201477 -0.09962962567806244 -0.05312167480587959 0.13963693380355835 -0.029619155451655388 -0.1351814717054367 0.14231592416763306 0.004362425766885281 -0.07503194361925125 0.004211339168250561 -0.0019795554690063 0.0031933272257447243 -0.07361404597759247 0.015849491581320763 0.022244149819016457 0.059614039957523346 -0.013311188668012619 -0.19237864017486572 -0.06164664030075073 0.03881067782640457 -0.38774093985557556 -0.21333618462085724 -0.1697835773229599 -0.29127588868141174 -0.04718192666769028 -0.1621953845024109 -0.02041562646627426 -0.021999793127179146 0.03754136338829994 -0.04885098710656166 -0.06846648454666138 -0.014712309464812279 0.0023425815161317587 -0.011964086443185806 -0.057711370289325714 0.014952501282095909 -0.025396432727575302 -0.009341162629425526 -0.007246813736855984 -0.03747595474123955 -0.05587906762957573 -0.009254363365471363 0.05191456526517868 -0.03544306755065918 -0.18798919022083282 -0.08877428621053696 -0.08496998995542526 -0.18357256054878235 -0.10305771976709366 -0.11502732336521149 -0.003583543235436082 0.09121783822774887 0.022089416161179543 0.02402447909116745 -0.06470893323421478 -0.1652079075574875 -0.0923982635140419 -0.004465447273105383 -0.06243450194597244 -0.03935937210917473 0.06610212475061417 -0.018750591203570366 0.1635388731956482 0.04837777465581894 0.15954633057117462 0.1440223902463913 -0.036869410425424576 0.05826900526881218 0.22675423324108124 0.14396190643310547 0.14731349050998688 0.09194020926952362 0.15382757782936096 0.04716860130429268 0.1405370980501175 0.11139397323131561 0.02790261246263981 0.17991364002227783 0.10976004600524902 0.04773407801985741 0.12253625690937042 0.12989096343517303 0.16407686471939087 0.09407606720924377 0.11586220562458038 0.11220905184745789 -0.16739937663078308 -0.12097302824258804 -0.05944818630814552 -0.07765375822782516 -0.05954233184456825 -0.22586548328399658 -0.05519826337695122 -0.11220352351665497 -0.2797586917877197 -0.035468120127916336 -0.08321844041347504 -0.1465015560388565 -0.15619690716266632 -0.24860338866710663 -0.10052505135536194 0.0896795466542244 -0.14135131239891052 -0.16186769306659698 0.0333225317299366 -0.014722191728651524 -0.09850571304559708 0.11653798818588257 0.0932091698050499 0.24783432483673096 0.04306013882160187 0.0446329228579998 0.1641353815793991 0.012099138461053371 -0.03952282667160034 0.040758099406957626 0.0625678300857544 0.0708131417632103 0.04453808814287186 0.06080110743641853 0.01939905434846878 0.0062542143277823925 0.15383315086364746 0.049483995884656906 -0.021645940840244293 -0.09920164942741394 -0.1548597663640976 -0.10789410024881363 0.06715050339698792 -0.014156588353216648 -0.08626670390367508 0.22187449038028717 0.10083165019750595 0.06943665444850922 0.32157769799232483 0.29997023940086365 0.22625932097434998 0.18271829187870026 0.2199336290359497 0.17630021274089813 -0.04774358496069908 0.022257808595895767 0.028481924906373024 0.06171399727463722 0.0777459666132927 0.03906969353556633 0.12022631615400314 0.01643809862434864 0.06796665489673615 0.04981599003076553 0.03342003375291824 0.042733334004879 -0.03573533520102501 -0.03890835866332054 -0.06503487378358841 0.038371339440345764 -0.049790993332862854 -0.17571650445461273 0.05658087506890297 -0.132765531539917 -0.026010354980826378 -0.11208322644233704 0.06846871972084045 0.15332038700580597 0.009551658295094967 0.020753605291247368 0.04166387766599655 -0.01509510725736618 -0.1346369832754135 -0.06274212151765823 -0.00039991081575863063 -0.014859109185636044 -0.06133898347616196 -0.06055314838886261 0.0433962419629097 -0.011852300725877285 0.017788350582122803 0.012508288957178593 -0.013130578212440014 -0.05628465488553047 0.03459133952856064 -0.05177712440490723 -0.15352588891983032 -0.050914790481328964 -0.025475190952420235 -0.13190534710884094 -0.20462949573993683 -0.11012342572212219 -0.03826649859547615 -0.0757271945476532 -0.018554145470261574 -0.0387706533074379 -0.027920393273234367 0.0386144183576107 0.01668480969965458 -0.02182162180542946 0.05352814123034477 -0.00413469085469842 -0.11811269819736481 0.0059780036099255085 0.05647093057632446 -0.11419257521629333 -0.11481373757123947 0.01248791441321373 -0.004584102425724268 -0.07482334226369858 -0.0009126264485530555 -0.020437976345419884 0.12216783314943314 0.013002480380237103 -0.06468753516674042 0.04775676503777504 0.012710753828287125 -0.1195802390575409 -0.04225866124033928 0.014741894789040089 -0.04949452728033066 -0.0646095797419548 0.0527426041662693 -0.11865779757499695 -0.12410957366228104 0.06975098699331284 -0.14236749708652496 -0.17891590297222137 -0.07212033867835999 0.03797155246138573 0.008178322575986385 0.026869993656873703 0.04921117424964905 0.015152794308960438 -0.007580623961985111 0.09221197664737701 0.13031479716300964 0.0739540308713913 0.06536753475666046 -0.009885688312351704 0.02187509275972843 0.06638533622026443 0.03905344381928444 0.08367003500461578 0.10616510361433029 0.1118374615907669 -0.30514243245124817 -0.24627521634101868 -0.14693601429462433 -0.20489050447940826 -0.14567041397094727 0.013943294994533062 0.008230495266616344 0.1802855283021927 0.2772561013698578 0.03824934735894203 -0.03326374292373657 -0.0036868706811219454 -0.12618665397167206 -0.203513041138649 -0.2017870843410492 -0.2033504694700241 -0.2007429599761963 -0.03722177818417549 -0.21629337966442108 -0.15568907558918 0.04583023488521576 -0.1966283768415451 -0.07129616290330887 0.07084199041128159 -0.04791943356394768 0.09528616815805435 0.0607709102332592 0.014408102259039879 0.033985838294029236 0.004816432949155569 -0.02934497594833374 0.010276898741722107 0.03109663724899292 0.024006962776184082 -0.008665105327963829 -0.004560883156955242 -0.07381726056337357 -0.1091894581913948 0.04400625824928284 -0.04726213961839676 0.015800315886735916 0.10298033803701401 0.022723719477653503 0.18026824295520782 0.1446557641029358 -0.0025328753981739283 -0.050248678773641586 -0.09735409170389175 0.060087453573942184 -0.05747362971305847 0.019376132637262344 0.04480353742837906 -0.1063927412033081 -0.08206037431955338 -0.1832442283630371 -0.11780108511447906 -0.09667613357305527 -0.17172129452228546 -0.04796712100505829 -0.0663682222366333 -0.11899605393409729 -0.09034666419029236 -0.014245543628931046 0.11512607336044312 0.0902559757232666 0.08790794014930725 0.1337236613035202 0.05483487993478775 0.10225789994001389 0.2360561639070511 0.1888905018568039 0.22487607598304749 0.1524389535188675 0.07269065827131271 -0.028655309230089188 0.08249208331108093 0.0872989371418953 -0.010003481060266495 -0.03262397646903992 -0.031493425369262695 0.019818929955363274 0.039122361689805984 0.05877562612295151 0.056674614548683167 0.041181206703186035 -0.01871618628501892 -0.04085112363100052 -0.03197776898741722 0.025369711220264435 0.031784869730472565 -0.07937876135110855 -0.005410283338278532 0.12687577307224274 -0.09784059971570969 -0.09103886783123016 -0.015644636005163193 -0.26669082045555115 -0.17209398746490479 -0.12110644578933716 0.09163898229598999 0.03870236501097679 -0.0028405184857547283 0.0654548779129982 0.0891767367720604 -0.0006589272525161505 0.005609224550426006 0.05483495816588402 -0.0073087322525680065 0.18087150156497955 0.182706817984581 0.1781226247549057 0.12804488837718964 0.08152034133672714 0.16900408267974854 0.07180242985486984 0.10348282009363174 0.07908943295478821 -0.10249129682779312 -0.004201126750558615 -9.739809320308268e-05 -0.024829749017953873 0.045971550047397614 0.08465152233839035 0.036121916025877 -0.030902745202183723 0.1582174003124237 0.02860109880566597 0.05335240438580513 0.013459181413054466 0.007304757833480835 -0.004087988752871752 0.058119941502809525 -0.05111655965447426 0.010212728753685951 -0.04283815622329712 -0.00416399072855711 -0.061757154762744904 -0.08565418422222137 0.05042634531855583 0.001887636142782867 -0.062309592962265015 0.046679142862558365 -0.000671136484015733 0.07704755663871765 -0.0901230052113533 -0.1902357041835785 -0.09795919060707092 -0.07098755985498428 0.006542555056512356 -0.03446786105632782 0.004142457619309425 0.004394768737256527 -0.04681665077805519 0.05279439687728882 -0.03958013653755188 0.17286808788776398 -0.010545715689659119 0.02838645502924919 0.16695326566696167 -0.30256593227386475 -0.11797430366277695 0.009358194656670094 -0.027830587700009346 -0.03085019439458847 -0.00920266192406416 -0.0331934429705143 -0.010256764478981495 -0.01890709437429905 0.0271034874022007 0.015539271757006645 -0.03094681352376938 -0.1407785266637802 -0.13313813507556915 0.046494774520397186 -0.0828026607632637 -0.0366392508149147 0.1031951904296875 -0.019789747893810272 0.007168348412960768 0.030914966017007828 -0.007963095791637897 0.004766630008816719 0.04298076778650284 -0.12056620419025421 -0.026114318519830704 0.08806893974542618 -0.10265326499938965 0.05713658407330513 0.14483647048473358 -0.044329896569252014 -0.18022996187210083 -0.14989787340164185 -0.05175631493330002 -0.19979090988636017 -0.16649466753005981 -0.30883169174194336 -0.4045720100402832 -0.17061932384967804 -0.2450903356075287 -0.16704776883125305 0.07149424403905869 -0.09464718401432037 -0.16409599781036377 0.03734654188156128 0.000281843647826463 -0.17173971235752106 -0.08236758410930634 -0.16667336225509644 -0.06448576599359512 0.013369935564696789 -0.09679292887449265 0.0350874662399292 -0.01828693598508835 -0.05425666272640228 0.024708088487386703 0.016557255759835243 0.057308703660964966 0.09707773476839066 0.1337730586528778 0.1645747721195221 0.12057580053806305 0.015640897676348686 0.07982092350721359 0.01915244199335575 -0.09670756757259369 0.008611087687313557 0.08403851091861725 0.08668282628059387 0.0707344338297844 -0.038055386394262314 0.0008812627056613564 -0.050452977418899536 -0.11256615817546844 -0.12795715034008026 -0.050732068717479706 -8.517545938957483e-05 0.08570943027734756 -0.019103653728961945 -0.020756985992193222 -0.01554725132882595 0.09514006972312927 -0.005557839758694172 0.011045797728002071 -0.01868087239563465 -0.10835923254489899 -0.010430737398564816 0.0809653177857399 0.005764948204159737 0.09096075594425201 -0.13711334764957428 0.021468408405780792 0.10254564136266708 -0.08736540377140045 -0.1472359299659729 -0.02958676964044571 -0.23899415135383606 -0.1414937973022461 0.06313467025756836 -0.26473483443260193 -0.1473349779844284 0.06711488217115402 0.021011346951127052 0.02600136213004589 0.013421767391264439 0.009207640774548054 -0.008271549828350544 0.010083340108394623 -0.12469325214624405 -0.16769501566886902 -0.09142035990953445 -0.07571437209844589 -0.0411396287381649 0.008494446985423565 -0.03705719858407974 -0.04411141946911812 0.10467451065778732 0.04205148667097092 0.044541288167238235 0.1567690074443817 0.00390227185562253 -0.06520174443721771 -0.08537129312753677 -0.0390818752348423 -0.05082647502422333 -0.052607011049985886 -0.019968219101428986 -0.09426212310791016 -0.0489661879837513 -0.08716937899589539 -0.0956256166100502 -0.07241456210613251 -0.01957414112985134 -0.09925930947065353 -0.05537573620676994 0.13866262137889862 0.09284203499555588 0.014665365219116211 -0.0013791408855468035 0.0248685572296381 -0.003985930234193802 0.009069995954632759 -0.03945792466402054 0.012940499000251293 0.04176890850067139 0.0018715955084189773 0.025823373347520828 0.033495765179395676 0.004837213084101677 0.04361327365040779 0.004213647451251745 -0.006071281619369984 -0.004744320176541805 0.06383276730775833 0.007024967577308416 -0.040832988917827606 0.02055075205862522 -0.03582023084163666 0.0202584620565176 0.09085667878389359 0.08419887721538544 0.09772138297557831 -0.11597153544425964 -0.03275523707270622 0.019202593713998795 0.11825031042098999 0.09143615514039993 0.08022972196340561 0.11842402815818787 0.05303773283958435 0.056782953441143036 -0.026420123875141144 -0.0030226032249629498 0.04012395814061165 0.11080771684646606 0.1492978185415268 0.2013402283191681 0.04688689112663269 0.020545804873108864 0.04928017407655716 -0.06856952607631683 -0.10170828551054001 0.007806629408150911 0.13256020843982697 0.0622871033847332 -0.0195844154804945 0.1079084649682045 -0.02194669283926487 -0.09272512048482895 -0.018214059993624687 -0.09041573107242584 -0.04374023526906967 0.10455547273159027 -0.03502684459090233 -0.12161088734865189 0.052870046347379684 -0.10063513368368149 -0.15075375139713287 -0.09682361036539078 -0.11197298765182495 -0.07629136741161346 -0.032802216708660126 -0.01707361452281475 -0.034693628549575806 0.08342670649290085 0.002694555092602968 0.005616296082735062 0.023750605061650276 0.031931012868881226 0.014408119954168797 0.020068861544132233 0.04238429293036461 -0.044578421860933304 0.0007051325519569218 0.04090026021003723 -0.022293895483016968 -0.003030509455129504 0.03828011825680733 -0.04031767323613167 0.11427361518144608 0.06899793446063995 -0.029010726138949394 0.07465368509292603 -0.005496025551110506 -0.1529625654220581 -0.025235963985323906 -0.008132658898830414 -0.010298263281583786 0.09231790155172348 -0.047234907746315 -0.06679800897836685 -0.014395210891962051 -0.04230715334415436 -0.010197464376688004 -0.10831934958696365 -0.06529226154088974 0.08229222148656845 0.11462443321943283 0.11419709771871567 0.08977934718132019 0.20544548332691193 0.14065706729888916 0.11658930778503418 0.17723621428012848 0.07229602336883545 0.15909770131111145 0.04685657098889351 0.026193296536803246 0.11842810362577438 0.021985985338687897 -0.0722203329205513 -0.02521311491727829 -0.0017864900873973966 -0.19051411747932434 0.05940995365381241 0.003578747855499387 0.04899994656443596 0.12585997581481934 0.006152024492621422 0.008599253371357918 0.06512220948934555 -0.06559443473815918 -0.06336615234613419 -0.08866124600172043 -0.0829152911901474 -0.019534429535269737 0.016564158722758293 -0.10811059921979904 -0.09708543121814728 0.07394951581954956 -0.21871404349803925 -0.17625701427459717 0.10536114871501923 -0.12732116878032684 -0.0009858646662905812 0.00703754648566246 -0.13255280256271362 -0.09568038582801819 0.06289543211460114 -0.12806957960128784 -0.09321440011262894 -0.05434630066156387 -0.10105817764997482 -0.02320919558405876 0.049088381230831146 -0.20305489003658295 -0.14856256544589996 -0.06863336265087128 -0.02712474949657917 -0.130300834774971 -0.09899919480085373 -0.18988317251205444 -0.052307650446891785 -0.005327809602022171 -0.17901301383972168 -0.11302464455366135 -0.010796920396387577 -0.1275692880153656 -0.06622721254825592 -0.04748930409550667 0.14350244402885437 0.1511155217885971 0.0445876382291317 0.14851555228233337 0.08980394899845123 0.04319218546152115 0.1621965765953064 0.20678114891052246 0.10633117705583572 0.17248405516147614 -0.1446097493171692 -0.16923366487026215 0.005150272976607084 -0.11777157336473465 0.09899361431598663 -0.08592784404754639 -0.1043817475438118 0.1624615490436554 -0.02329522930085659 -0.011996563524007797 0.07188183814287186 -0.04928172752261162 -0.0044089718721807 0.047949664294719696 -0.13864263892173767 -0.11295363306999207 -0.08586353063583374 -0.006339517422020435 0.01148885115981102 0.1504535675048828 -0.08183170855045319 0.06935181468725204 0.1575164794921875 -0.09403382241725922 0.028926774859428406 0.14762648940086365 -0.05306452140212059 -0.08304611593484879 0.14965641498565674 0.0015874714590609074 -0.01489260047674179 0.08270799368619919 -0.18580619990825653 -0.09732475876808167 0.012688284739851952 -0.010472484864294529 -0.05579829588532448 -0.053276240825653076 0.0011198336724191904 -0.00982996542006731 0.007647740188986063 0.005325818434357643 0.019074592739343643 -0.03141625225543976 0.2086808681488037 -5.7192170061171055e-05 0.058838095515966415 -0.012527042999863625 -0.16688822209835052 -0.05536802485585213 -0.1776701956987381 -0.3701188564300537 -0.18137097358703613 -0.056753866374492645 0.06745366007089615 -0.03397618979215622 -0.052841100841760635 -0.0212111696600914 -0.05967527627944946 -0.05190451815724373 0.027150804176926613 0.061607297509908676 0.18319188058376312 0.05093558132648468 -0.04798038303852081 0.13285106420516968 0.10107271373271942 -0.025111015886068344 0.02942753955721855 0.003845814848318696 0.04538548365235329 0.15042388439178467 0.05163034424185753 0.05481797084212303 0.08915287256240845 -0.08170782029628754 -0.12378750741481781 0.016771212220191956 -0.1145295724272728 -0.10413108021020889 0.049786947667598724 0.2217027097940445 0.2116876095533371 0.006817667745053768 0.07445083558559418 0.04450192302465439 -0.1673155277967453 -0.034248922020196915 -0.03571638837456703 -0.09573133289813995 -0.1121271625161171 -0.0640953779220581 -0.10634741932153702 -0.1165127158164978 0.051018230617046356 -0.09472952783107758 -0.12275505810976028 -0.06600291281938553 -0.016151711344718933 -0.16272206604480743 0.006326764822006226 -0.0753878653049469 -0.07628675550222397 -0.010313054546713829 -0.09807423502206802 -0.026707621291279793 -0.07970983535051346 -0.027561161667108536 -0.09432083368301392 -0.0729137510061264 -0.08525197207927704 -0.14406992495059967 -0.022752083837985992 -0.13088227808475494 -0.24811333417892456 0.07278357446193695 -0.005497267469763756 -0.04746542498469353 -0.04257168620824814 -0.025905657559633255 -0.027774643152952194 -0.02238982543349266 -0.03040616400539875 -0.054421309381723404 -0.017008168622851372 0.001842808909714222 -0.03894275054335594 -0.06084880605340004 -0.03807510435581207 -0.0035315025597810745 -0.03788590058684349 -0.045605745166540146 -0.01883978769183159 -0.019854383543133736 0.014465908519923687 -0.03424057364463806 0.01155242882668972 0.007087036967277527 0.0016182562103495002 0.038300853222608566 0.027663078159093857 -0.004971206188201904 -0.034605033695697784 0.03500035032629967 -0.032837335020303726 -0.0011627847561612725 -0.04733376204967499 -0.04389182850718498 -0.03565211966633797 -0.03967807814478874 -0.06217367202043533 0.003844738705083728 -0.009607892483472824 0.0005124847521074116 -0.037733759731054306 -0.027643458917737007 -0.06636534631252289 -0.061235781759023666 -0.05156500265002251 -0.026791786774992943 0.006352044641971588 -0.030148103833198547 0.012473161332309246 -0.0623723566532135 -0.02838633954524994 -0.01782086119055748 -0.06258521229028702 -0.025423338636755943 -0.029973378404974937 -0.041328366845846176 -0.030679024755954742 -0.020291296765208244 -0.031500283628702164 0.004318803083151579 0.012121789157390594 -0.015297926031053066 0.012907478958368301 -0.03183266147971153 -0.054860856384038925 -0.03431079164147377 -0.029205098748207092 -0.005430875811725855 -0.015556041151285172 -0.017325665801763535 -0.03356229513883591 -0.054749276489019394 -0.03043508343398571 -0.03741849586367607 -0.022865889593958855 -0.01586991362273693 0.026799364015460014 -0.005933572072535753 0.045110031962394714 -0.010871786624193192 0.0003271912282798439 -0.016222577542066574 -0.0145614268258214 -0.05377643182873726 -0.03791885823011398 -0.005041846539825201 0.01982204057276249 -0.045611947774887085 -0.008158479817211628 -0.011743118055164814 -0.04198801517486572 -0.045533791184425354 -0.027499301359057426 -0.01576767861843109 -0.019570954144001007 0.0037087721284478903 -0.018521415069699287 -0.04396982491016388 0.0191557165235281 0.03263336047530174 0.03162084519863129 -0.0065251728519797325 0.009541611187160015 -0.04569702968001366 0.02582981064915657 -0.04926938936114311 -0.03839096799492836 -0.031228533014655113 0.001767149893566966 -0.02504149079322815 -0.0064080883748829365 -0.011750804260373116 -0.012597300112247467 -0.024559780955314636 -0.05000501126050949 0.027577996253967285 -0.05325303599238396 -0.003060739254578948 -0.04131113737821579 -0.04731988534331322 -0.057479411363601685 0.01892174407839775 -0.06007188931107521 0.008901573717594147 -0.05150842294096947 -0.08202410489320755 -0.01560997311025858 -0.062183648347854614 -0.04581307992339134 -0.04013609141111374 -0.06251867115497589 -0.022680135443806648 -0.0430300235748291 -0.007563217543065548 0.0021435001399368048 -0.02615274302661419 0.025440221652388573 -0.010270941071212292 -0.015406221151351929 -0.05209950730204582 -0.009093870408833027 -0.014859547838568687 -0.04536489397287369 -0.020782537758350372 -0.0305939968675375 -0.04008041322231293 -0.024634988978505135 -0.010675105266273022 -0.043546564877033234 -0.03432507812976837 -0.029660997912287712 -0.0379004031419754 -0.002573405159637332 -0.029128605499863625 -0.0070483009330928326 -0.022061049938201904 -0.012998612597584724 0.028117874637246132 -0.018034057691693306 0.03413698822259903 -0.046502333134412766 -0.04196581616997719 -0.00511613255366683 -0.01497985702008009 -0.049235906451940536 -0.03416837751865387 -0.023184340447187424 0.013705595396459103 -0.011939264833927155 -0.04718067869544029 -0.02452104724943638 -0.046471115201711655 -0.026596281677484512 -0.02353493496775627 -0.008995217271149158 -0.014763601124286652 -0.05204950273036957 -0.028715090826153755 0.00797667820006609 -0.04481425881385803 -0.01806756854057312 0.012325216084718704 -0.054731354117393494 -0.008943350054323673 -0.024503732100129128 0.005091410595923662 0.016177359968423843 0.027051404118537903 -0.015548883937299252 0.03745052590966225 -0.020775670185685158 -0.004994596354663372 -0.011750143021345139 -0.06024528667330742 0.02034374326467514 0.005562327802181244 0.008904955349862576 -0.0856996700167656 0.013686880469322205 -0.017203165218234062 -0.03197747841477394 0.028189731761813164 0.029755929484963417 -0.027992799878120422 -0.02610636316239834 -0.004551938269287348 -0.0011057215742766857 0.008471336215734482 -0.005937131121754646 -0.0066891503520309925 -0.018922237679362297 0.017674971371889114 -0.042070355266332626 -0.02068766951560974 0.01063285768032074 -0.0009189180564135313 -0.0509771965444088 -0.01180970761924982 -0.026237808167934418 -0.02156834490597248 -0.04908018559217453 -0.0694943517446518 -0.07519714534282684 -0.045022450387477875 -0.03679342195391655 -0.057757630944252014 -0.013441517949104309 0.030491769313812256 -0.01615193858742714 -0.010565529577434063 0.00013054320879746228 -0.01804879680275917 0.0045921290293335915 0.01843622513115406 0.01957104355096817 0.014382759109139442 -0.027436666190624237 0.008738559670746326 -0.0043286955915391445 0.02287912368774414 -0.010579257272183895 -0.002611009171232581 -0.01104830950498581 -0.02493547834455967 -0.023662181571125984 -0.009662551805377007 -0.017086559906601906 -0.06522905826568604 0.014968178234994411 -0.08507224172353745 -0.06226477399468422 0.005157457198947668 -0.02723270282149315 0.00603882223367691 -0.02525969035923481 -0.04359691962599754 -0.023592785000801086 -0.060057010501623154 -0.008553954772651196 -0.020050788298249245 0.0022303105797618628 -0.05711347982287407 -0.028335440903902054 -0.052706170827150345 -0.027827830985188484 -0.06874936819076538 -0.033536046743392944 -0.03873373568058014 -0.014882002025842667 -0.03976984694600105 -0.04241577908396721 -0.015714365988969803 -0.003612293628975749 -0.00741611560806632 -0.02969306893646717 -0.04700891673564911 -0.01859435811638832 -0.06960389763116837 -0.02259034477174282 0.009252240881323814 -0.06605134904384613 0.007427047472447157 -0.04774700477719307 0.02196291834115982 -0.07409125566482544 -0.05985833331942558 -0.031361181288957596 -0.042591944336891174 -0.044296711683273315 -0.009585713036358356 -0.015203949995338917 -0.0072784628719091415 0.0007672158535569906 -0.00962818879634142 0.013852112926542759 0.0017443214310333133 -0.0391659215092659 -0.014485852792859077 -0.007780088577419519 -0.014574404805898666 -0.04161311313509941 0.008884541690349579 -0.03340049460530281 -0.03153057396411896 -0.003314402885735035 0.008099525235593319 0.014659808948636055 0.022906921803951263 -0.04906114935874939 -0.02196340449154377 0.024452760815620422 -0.05761076137423515 0.008337408304214478 -0.05063841864466667 0.01499204058200121 0.019762082025408745 -0.00662322947755456 -0.02852986939251423 -0.0526592992246151 0.004087565466761589 -0.05095716938376427 -0.018524926155805588 -0.074348583817482 -0.03792150318622589 -0.06878930330276489 -0.008012973703444004 -0.04586716741323471 0.028278453275561333 0.004795161075890064 0.02489164099097252 -0.04484794661402702 -0.026692913845181465 -0.033479947596788406 -0.012736526317894459 -0.05169700086116791 -0.030233031138777733 -0.027957182377576828 -0.005048961378633976 -0.05520544946193695 -0.0022012372501194477 -0.042279936373233795 -0.046743229031562805 -0.05574359372258186 -0.010576151311397552 -0.007418919820338488 0.008846007287502289 -0.03783588111400604 -0.03303661569952965 0.008594935759902 0.009324044920504093 -0.007044248282909393 0.028377734124660492 -0.05205731838941574 -0.014108116738498211 0.008940165862441063 0.011520336382091045 0.012413452379405499 -0.008586212992668152 0.039430782198905945 0.014028683304786682 -0.0006869981880299747 -0.03356198966503143 -0.015849987044930458 0.005482989829033613 -0.02312912605702877 0.01573605090379715 0.04404689371585846 0.00500517850741744 -0.024544676765799522 0.026861876249313354 -0.04480542987585068 0.030954184010624886 -0.020720480009913445 -0.04664089158177376 -0.03912995010614395 -0.03426917642354965 0.010780329816043377 -0.013637593947350979 -0.04878772795200348 0.014139286242425442 0.0035624285228550434 -0.05328143760561943 -0.012539985589683056 -0.015504551120102406 -0.005054293666034937 -0.014663802459836006 -0.04611140862107277 0.0026337034069001675 0.02119871973991394 -0.06612911075353622 0.011434071697294712 -0.06840530782938004 -0.040001075714826584 -0.01635873131453991 -0.03502843156456947 0.006832006853073835 -0.031342554837465286 0.014795768074691296 -0.053401876240968704 0.0011734303552657366 -0.05164128169417381 0.004247606731951237 0.016736019402742386 0.021374713629484177 -0.049146875739097595 -0.0038017467595636845 -0.01759609952569008 -0.04233710840344429 -0.0192059688270092 0.0006853234372101724 0.02825487032532692 0.006823652423918247 -0.0514177568256855 -0.02099374122917652 -0.03237374871969223 -0.003381110727787018 -0.026194747537374496 -0.06791011244058609 -0.05555643513798714 0.030175762251019478 -0.029978271573781967 -0.0033276095055043697 0.02933148480951786 -0.02305453084409237 -0.05071422457695007 -0.04411671683192253 -0.008348160423338413 -0.0573575422167778 0.008422954007983208 -0.05554161220788956 -0.011916465125977993 -0.038461267948150635 -0.06508930772542953 -0.051368698477745056 -0.015536288730800152 -0.03957066312432289 0.009805561974644661 -0.04436542093753815 -0.06705612689256668 0.011359977535903454 -0.034219104796648026 -0.021522387862205505 0.018133539706468582 -0.06433210521936417 -0.08000249415636063 -0.03374217823147774 -0.06896071135997772 -0.034726813435554504 -0.010307511314749718 -0.0440700501203537 -0.013627884909510612 -0.0552002415060997 -0.013745808973908424 -0.0021727499552071095 -0.06673205643892288 -0.05712001025676727 -0.014275597408413887 -0.00966877955943346 -0.041664909571409225 -0.0030467784963548183 -0.0023051511961966753 -0.02069709450006485 0.0011759353801608086 -0.012376233004033566 -0.01647314429283142 -0.022945769131183624 -0.005264986772090197 -0.0456678569316864 -0.055484261363744736 -0.036242276430130005 -0.0023818027693778276 -0.03663163259625435 -0.07683530449867249 -0.05845344811677933 0.0015439620474353433 -0.05962898209691048 -0.02366717904806137 0.0009156761807389557 8.496698865201324e-05 0.030677834525704384 0.015252158045768738 -0.027791813015937805 -0.052355993539094925 -0.0018337240908294916 -0.021858561784029007 -0.006038608029484749 0.002503870753571391 -0.05135150998830795 -0.02067459002137184 -0.026996547356247902 -0.0002860085223801434 0.010470197536051273 0.01968982256948948 -0.040216997265815735 -0.02291584014892578 -0.04146045073866844 0.015678588300943375 0.04718725383281708 -0.014670351520180702 0.03555208444595337 0.03310467675328255 0.0028919135220348835 -0.03163481131196022 0.0371173657476902 0.034084171056747437 0.04198011755943298 0.012151055037975311 0.021792881190776825 0.023676186800003052 -0.04688713327050209 -0.013511852361261845 0.032513637095689774 -0.03145353123545647 -0.02567676082253456 0.024108482524752617 -0.01510932669043541 -0.05988987535238266 -0.03709380328655243 -0.07584667205810547 0.001853043562732637 -0.06468402594327927 -0.05574772134423256 0.007185245398432016 -0.06121058762073517 0.015277533791959286 -0.007685412652790546 -0.022126274183392525 -0.036837026476860046 -0.03413902595639229 0.026948919519782066 -0.03598368540406227 -0.05686546489596367 -0.04405346140265465 -0.02510104328393936 -0.04127000644803047 -0.0674644261598587 -0.004365243948996067 -0.02228037640452385 -0.05864158645272255 -0.022756990045309067 -0.02003822848200798 -0.03496096655726433 -0.0323835127055645 -0.005323126912117004 0.024561045691370964 0.004212345462292433 0.03730751946568489 -0.036004215478897095 -0.04140336811542511 -0.025104142725467682 -0.024475853890180588 5.048706225352362e-05 -0.043680232018232346 -0.02075023762881756 0.009259195066988468 -0.03445185720920563 -0.01657021977007389 0.02741929702460766 -0.08362635970115662 -0.08371911942958832 -0.023961614817380905 -0.02227906510233879 -0.03092997707426548 -0.00616188021376729 -0.031280066817998886 0.006182442419230938 -0.03154910355806351 -0.0596516989171505 -0.0009653999004513025 -0.0313764289021492 -0.050461579114198685 -0.023500578477978706 -0.004768515471369028 -0.014677818864583969 -0.021493298932909966 -0.0438009612262249 -0.04015522450208664 -0.011415455490350723 0.176294207572937 0.15037117898464203 0.11923327296972275 -0.0375177301466465 -0.03681658208370209 0.05211147665977478 -0.01177251897752285 -0.035590481013059616 0.046360988169908524 0.10519471764564514 0.01637430489063263 0.0889936164021492 0.06853444129228592 0.09131870418787003 0.11114487051963806 0.05786462873220444 -0.03025561012327671 0.06898630410432816 0.029563263058662415 -0.02177515998482704 0.026826398447155952 0.02567610889673233 0.02649005316197872 -0.0027021607384085655 0.025461623445153236 0.002029996132478118 0.026853421702980995 -0.058709368109703064 -0.036842480301856995 -0.049857959151268005 -0.030997639521956444 0.05536672845482826 0.0073803989216685295 0.06091611832380295 0.05526202544569969 -0.008478578180074692 -0.03857646510004997 -0.07000809907913208 -0.032757192850112915 0.030010510236024857 -0.08262370526790619 0.0658317357301712 0.12611889839172363 0.19081535935401917 0.1348986178636551 0.07163318991661072 0.12292906641960144 0.10633431375026703 -0.07482139021158218 0.01511245034635067 0.050315551459789276 -0.1326059103012085 -0.06391153484582901 -0.07859961688518524 0.03158023953437805 0.07113850861787796 0.08127819746732712 0.02366286888718605 0.07147907465696335 0.029508665204048157 0.060896508395671844 0.1331169307231903 0.1499701738357544 0.005299220327287912 0.015859078615903854 0.0656421110033989 -0.029577160254120827 0.006557113956660032 -0.007374954409897327 -0.06649100035429001 -0.02693675458431244 0.054087214171886444 -0.01006502378731966 -0.031259775161743164 0.017053259536623955 0.003128743264824152 -0.03328544646501541 -0.04404140263795853 0.014238244853913784 0.00608483562245965 -0.045151565223932266 -0.029835887253284454 0.05511260777711868 0.017414212226867676 -0.06973667442798615 -0.014711017720401287 -0.017301486805081367 -0.12367601692676544 -0.03491386026144028 -0.015140376053750515 0.08371546864509583 -0.056613996624946594 -0.047597646713256836 -0.10690570622682571 -0.22411537170410156 -0.22356203198432922 0.010896066203713417 -0.07075028866529465 -0.04713969677686691 -0.10817793756723404 -0.03757689893245697 0.019348107278347015 -0.0718235895037651 -0.007244598586112261 0.05378790944814682 -0.03847556561231613 -0.062341805547475815 0.004804336931556463 0.19601541757583618 0.0359487310051918 0.02969539538025856 0.1517791897058487 0.15249362587928772 0.030056243762373924 0.1259959638118744 0.08985235542058945 0.09700934588909149 -0.2710172235965729 -0.12524166703224182 -0.17187108099460602 0.032526880502700806 -0.012160667218267918 -0.05526309460401535 0.1361493468284607 0.06918095052242279 -0.0037640701048076153 0.06545404344797134 0.04807904735207558 0.12652434408664703 -0.015087146311998367 -0.05429776757955551 0.08243148773908615 -0.09053042531013489 -0.22396713495254517 -0.09027918428182602 -0.3835834562778473 -0.33693307638168335 -0.3684263229370117 0.040690939873456955 0.0030104410834610462 -0.0847606435418129 0.05781307443976402 0.06929389387369156 0.05707940086722374 -0.4053688645362854 -0.07288164645433426 -0.06025386601686478 -0.32513049244880676 -0.05683238059282303 0.008423428982496262 0.020858366042375565 0.19106411933898926 0.12942950427532196 -0.03564150631427765 0.047190602868795395 -0.012985414825379848 0.0012356365332379937 -0.03463396802544594 0.040090613067150116 0.017572589218616486 0.017023349180817604 0.02703278698027134 0.010698022320866585 -0.020389864221215248 0.09424201399087906 -0.05710110440850258 -0.0585770346224308 0.03399629518389702 -0.006880633533000946 -0.03963034600019455 -0.01751634106040001 -0.10818742960691452 0.015456601977348328 0.07005595415830612 -0.10633259266614914 -0.057188086211681366 0.023929201066493988 -0.007207375019788742 -0.13348574936389923 -0.06115514412522316 0.04774293676018715 0.0035689815413206816 0.0565471388399601 0.01890592649579048 0.029723895713686943 0.0890585407614708 -0.0053606824949383736 0.031586259603500366 0.07721476256847382 0.20494325459003448 0.0611240416765213 0.1901860535144806 0.04216792806982994 -0.029252586886286736 -0.022816909477114677 -0.05353827029466629 -0.09799649566411972 0.028004474937915802 -0.050432417541742325 0.012505732476711273 0.050974175333976746 0.05134120583534241 0.043816015124320984 0.04454456642270088 0.02798951044678688 0.032937150448560715 0.028785990551114082 0.005233480595052242 0.11137298494577408 0.22399526834487915 0.09710916876792908 0.02862941473722458 0.12351075559854507 0.027274541556835175 -0.09336994588375092 -0.12206295132637024 -0.02349223382771015 -0.12348934262990952 -0.24771085381507874 -0.006095507647842169 0.02156556397676468 -0.09222492575645447 0.08730092644691467 0.06861595064401627 -0.049600474536418915 0.0356767363846302 -0.07971343398094177 -0.04853159189224243 -0.003353711450472474 -0.03721433877944946 -0.06721574068069458 -0.16666364669799805 -0.3413156270980835 -0.2162458598613739 -0.15760335326194763 -0.0661221295595169 0.0730065181851387 -0.08523831516504288 -0.08390889316797256 0.04610094055533409 -0.0743715688586235 -0.12534308433532715 -0.02402411587536335 0.06585869193077087 0.08223471790552139 0.1655237078666687 -0.004042857326567173 0.023779934272170067 -0.00763450562953949 -0.05495424196124077 0.03967644274234772 0.05308724567294121 0.06566185504198074 -0.023146798834204674 0.06110233813524246 -0.01568012312054634 -0.09390123933553696 -0.08188063651323318 -0.16637717187404633 -0.2709183096885681 -0.11910691112279892 0.01751117780804634 0.03517759218811989 -0.002994992071762681 0.008844872936606407 0.04854155704379082 0.10762503743171692 -0.029636846855282784 0.04113587364554405 0.01009503472596407 -0.030615493655204773 -0.1016925796866417 -0.043797142803668976 0.054934289306402206 -0.039300259202718735 0.041133761405944824 0.03896648436784744 -0.03774859756231308 -0.0015202381182461977 -0.0903882086277008 -0.06288297474384308 -0.0066519808024168015 -0.08480469882488251 -0.05593397095799446 -0.03024621680378914 -0.09768623858690262 -0.04132865369319916 -0.12638351321220398 0.001432286575436592 0.009973534382879734 0.08131687343120575 0.008062105625867844 -0.022611750289797783 -0.056938499212265015 -0.10746651887893677 0.011932417750358582 -0.05961607024073601 -0.026966122910380363 -0.0311296209692955 -0.02857670933008194 -0.01977415569126606 -0.012584495358169079 -0.0008467314764857292 -0.031147077679634094 0.023771682754158974 0.03609520569443703 0.05205150693655014 -0.03871702030301094 0.10038774460554123 0.008450543507933617 0.009154489263892174 0.08491764217615128 0.0648898258805275 0.05041855201125145 0.07291256636381149 0.03265015780925751 0.006835432723164558 0.03731534630060196 0.0572754330933094 0.05527643486857414 -0.03180340304970741 -0.04263648763298988 -0.029719121754169464 0.018461087718605995 0.12190457433462143 0.0595058910548687 0.008618487045168877 0.06112409010529518 -0.024554019793868065 -0.08285941928625107 -0.03139016777276993 -0.04543239250779152 -0.06308872252702713 0.0062759327702224255 -0.12553776800632477 -0.08139633387327194 0.0030575834680348635 0.034323759377002716 -0.07745043188333511 0.03846067935228348 -0.01030415203422308 0.0616462416946888 0.08015469461679459 0.09830134361982346 0.10541501641273499 0.05478236451745033 0.05347356200218201 0.08376146852970123 -0.06717412918806076 -0.03626535087823868 -0.020609527826309204 0.022495552897453308 -0.038057513535022736 -0.051266979426145554 0.025439247488975525 -0.008019113913178444 -0.008402571082115173 -0.004335884004831314 -0.03586408123373985 0.035174161195755005 0.03806344419717789 0.00410118605941534 0.01886412501335144 0.00413841987028718 -0.0057653822004795074 0.0028079443145543337 0.00556866405531764 0.026010802015662193 -0.038339175283908844 0.1041998416185379 -0.030815625563263893 -0.03140051290392876 0.08845381438732147 0.019919734448194504 0.029482362791895866 0.009293642826378345 -0.024847913533449173 0.003858739510178566 -0.0493612140417099 0.02821362018585205 -0.001370779937133193 0.003952990286052227 0.010620697401463985 0.04664982482790947 -0.06550900638103485 -0.03666923567652702 0.024718185886740685 -0.16155947744846344 -0.031431835144758224 0.021138612180948257 -0.14970585703849792 0.03050881251692772 0.07567819207906723 -0.2072109878063202 -0.13261666893959045 -0.03906792774796486 -0.15617451071739197 -0.17176629602909088 -0.09413036704063416 0.04993182420730591 0.14825691282749176 0.07782955467700958 -0.17466428875923157 0.09196707606315613 -0.03959856927394867 -0.11129381507635117 -0.0697251558303833 -0.04585691913962364 -0.058275166898965836 -0.05459591746330261 -0.03541174903512001 -0.04259375110268593 -0.19323119521141052 -0.053672559559345245 0.050303202122449875 0.11899067461490631 0.12992209196090698 -0.10454949736595154 -0.019702857360243797 0.0413191057741642 -0.1409798562526703 0.0012510749511420727 0.13988840579986572 0.16063407063484192 0.17523938417434692 0.21941058337688446 0.04592468589544296 -0.04586203768849373 -0.07330407202243805 0.00684670265763998 -0.08081334829330444 -0.15596593916416168 0.13074719905853271 0.07859469205141068 -0.04373646527528763 0.03742453083395958 0.009283067658543587 -0.06266407668590546 -0.09853604435920715 -0.0017985812155529857 -0.016280751675367355 -0.3162700831890106 -0.014482112601399422 -0.036028627306222916 -0.13675576448440552 0.009391915053129196 -0.027159351855516434 0.05824435129761696 0.06509150564670563 0.04544501379132271 -0.2672179639339447 -0.15782108902931213 -0.13671374320983887 -0.13103371858596802 -0.010567165911197662 -0.08666181564331055 -0.11343556642532349 -0.009310894645750523 -0.13576842844486237 0.01984364539384842 0.1513369232416153 0.07474767416715622 -0.1066688746213913 0.0587267130613327 -0.013692173175513744 -0.14071795344352722 0.0038795671425759792 -0.05136777088046074 -0.13219153881072998 -0.03773123770952225 -0.17726004123687744 -0.1090312972664833 -0.009372876957058907 -0.01890377700328827 0.032318729907274246 0.10918939858675003 0.03943652659654617 0.10775134712457657 0.1605597734451294 0.15100468695163727 -0.0284352395683527 0.010210552252829075 0.008714734576642513 -0.10064557939767838 -0.04890938848257065 -0.06614713370800018 0.051056887954473495 0.02661418356001377 0.06407467275857925 0.009921721182763577 0.04920017719268799 -0.0397651270031929 0.05198405310511589 0.10202518850564957 -0.03499586507678032 -0.06472653150558472 -0.027864675968885422 -0.06870507448911667 0.039706844836473465 0.003601321019232273 0.057915423065423965 -0.07262872904539108 0.04986454173922539 0.021555770188570023 -0.054372623562812805 -0.05982387438416481 0.006769270170480013 -0.0401083342730999 0.08013871312141418 0.010450861416757107 -0.12214253842830658 -0.004188049118965864 -0.04531724750995636 0.002602590713649988 0.05172454193234444 0.04973222315311432 -0.1206476166844368 0.035218507051467896 0.03221803531050682 -0.15373902022838593 -0.015960363671183586 0.004817729815840721 0.1830824911594391 0.1876625418663025 0.2688007950782776 -0.0617738738656044 -0.04487112537026405 -0.05756259337067604 0.0065220193937420845 -0.19060003757476807 -0.15850411355495453 0.04842611029744148 -0.08246723562479019 -0.04665321484208107 0.02456434816122055 -0.008074339479207993 -0.07158559560775757 0.006497642025351524 0.030270259827375412 -0.044062696397304535 -0.16466690599918365 -0.1078825443983078 -0.1340123862028122 0.08364362269639969 0.1934639811515808 0.08150272071361542 0.03204983100295067 0.09402381628751755 0.0030046910978853703 -0.0008531021303497255 -0.07677352428436279 -0.003827280830591917 0.030774863436818123 -0.0010020233457908034 0.029186654835939407 -0.03463246300816536 0.0038096532225608826 -0.014459861442446709 -0.09998739510774612 -0.049459584057331085 0.006570818368345499 -0.05539736524224281 0.004169784486293793 -0.0180831179022789 -0.00656843651086092 0.0886281356215477 0.12117153406143188 0.10935930907726288 0.07173009216785431 0.0984012633562088 -0.0981689840555191 -0.09219519048929214 0.012051446363329887 -0.027292568236589432 -0.0705157220363617 0.05768757313489914 -0.19923564791679382 -0.24825890362262726 -0.22395454347133636 0.013859203085303307 -0.02507084235548973 0.03166254237294197 0.15221339464187622 0.12192685157060623 0.1743394434452057 -0.11817039549350739 -0.12073040753602982 0.03862687572836876 -0.1401285082101822 -0.2396545261144638 -0.14042824506759644 0.04074684903025627 -0.08313533663749695 -0.04359626770019531 0.001952697872184217 0.015136584639549255 -0.027631118893623352 -0.012552803382277489 0.01513359509408474 0.01760675571858883 -0.016577359288930893 0.0069416118785738945 0.010085180401802063 0.06793061643838882 0.0811806321144104 -0.012551829218864441 0.02700451761484146 0.03307236358523369 -0.0233308095484972 0.002732109045609832 0.06292060762643814 -0.012289742939174175 -0.01344760600477457 -0.09672536700963974 -0.15988768637180328 -0.006105083040893078 -0.037057794630527496 -0.0834265798330307 -0.05056488513946533 -0.029352856799960136 -0.0652373880147934 -0.0013657839735969901 -0.0025974875316023827 0.018487542867660522 0.10740336775779724 0.05788322910666466 0.06401768326759338 0.06856470555067062 0.13829955458641052 0.13768906891345978 -0.27838513255119324 -0.25287699699401855 -0.21358154714107513 -0.2414158433675766 -0.21652813255786896 -0.31780335307121277 -0.2552661895751953 -0.18984448909759521 -0.23058219254016876 -0.021876845508813858 -0.05776183307170868 -0.0967726930975914 -0.03413552790880203 -0.12597841024398804 -0.0627664178609848 -0.02127905935049057 -0.04092582315206528 0.059483546763658524 0.0519816055893898 0.010450124740600586 0.004318717867136002 0.010345110669732094 0.014521281234920025 0.01884501241147518 0.03733741492033005 -0.017044028267264366 -0.006293096579611301 -0.18109390139579773 -0.11705036461353302 0.0673610270023346 -0.08909446001052856 -0.22065983712673187 -0.03291705995798111 -0.0741671770811081 -0.22021585702896118 -0.15062721073627472 -0.2887657880783081 -0.07564488798379898 -0.1258305460214615 -0.2740204930305481 -0.3085699677467346 -0.18571257591247559 -0.044690657407045364 -0.29298463463783264 -0.013897793367505074 -0.014825747348368168 -0.04522741213440895 -0.014597689732909203 -0.019763367250561714 -0.05773252993822098 -0.026066210120916367 -0.07647176831960678 -0.06582225114107132 -0.054056305438280106 -0.37726065516471863 -0.295427531003952 -0.2558896243572235 -0.13296842575073242 -0.20262229442596436 -0.0933459922671318 -0.217660591006279 -0.09426712989807129 -0.06911443918943405 0.07131212204694748 0.043680138885974884 0.05364779010415077 -0.04441625624895096 0.043570440262556076 0.04800630733370781 0.04220794886350632 -0.004877477418631315 0.020789748057723045 -0.13553524017333984 -0.18606846034526825 -0.06810089945793152 -0.0869474858045578 -0.21080319583415985 -0.13625025749206543 -0.22000931203365326 -0.29293182492256165 -0.21358679234981537 0.07284890860319138 0.10913129150867462 0.07048486173152924 0.11585824936628342 0.05362940952181816 0.024477388709783554 0.0947180688381195 0.08408237248659134 0.01894761063158512 0.02564910613000393 0.012377779930830002 0.09159459173679352 -0.04559025540947914 -0.04047137126326561 0.04981965571641922 -0.013171502389013767 -0.005860809236764908 0.05343339964747429 0.01152648776769638 -0.011856723576784134 0.007039920426905155 0.010438649915158749 0.015133439563214779 0.02379419468343258 -0.04168807342648506 -0.0150288762524724 -0.04298529401421547 0.018833456560969353 -0.003384940093383193 0.010182375088334084 0.004719352815300226 -0.00878320261836052 0.0631362646818161 