-0.12668725848197937 -0.12572821974754333 -0.04176531732082367 0.06723915785551071 0.0963505432009697 0.12170550972223282 0.06386416405439377 0.0471881739795208 0.121827132999897 0.08914417773485184 0.038300104439258575 -0.032953083515167236 -0.07756470888853073 -0.13127872347831726 -0.056917447596788406 0.04731342941522598 0.03652938827872276 0.047001756727695465 0.09983830153942108 0.10541637986898422 0.02411031909286976 -0.09494698792695999 0.06424415856599808 0.06626281142234802 -0.0587288923561573 -0.16065441071987152 -0.11177726089954376 0.024534815922379494 0.06587108224630356 0.013330290094017982 0.00641426257789135 -0.02120979130268097 0.04640909284353256 -0.08665239065885544 -0.07117865979671478 0.0009324694983661175 -0.00330057623796165 0.08676010370254517 0.033459726721048355 -0.06076904758810997 -0.054278966039419174 -0.11014728993177414 0.10762406140565872 -0.004204018972814083 0.07950019836425781 -0.030377810820937157 -0.026868179440498352 0.0005741214845329523 -0.022261012345552444 -0.026462359353899956 -0.09559761732816696 -0.012277163565158844 0.11252223700284958 0.09305240958929062 0.07118910551071167 0.07143330574035645 -0.05197469890117645 -0.1492757946252823 -0.06655827164649963 -0.06429300457239151 0.07708289474248886 0.07499086111783981 0.08841666579246521 -0.023817069828510284 -0.06088203191757202 0.03900626674294472 0.0803142711520195 -0.0805613175034523 -0.12099651992321014 -0.3167344331741333 -0.3722609877586365 -0.29724013805389404 0.09964624792337418 -0.12103237211704254 -0.17636650800704956 0.10078573226928711 0.20163586735725403 0.2171628624200821 -0.06382341682910919 -0.18932922184467316 -0.18483711779117584 0.079671211540699 -0.0347268171608448 0.10395658016204834 0.0036946088075637817 0.0012686006957665086 0.02864396758377552 -0.07112500071525574 -0.08123796433210373 -0.1251598745584488 0.14010226726531982 0.1714857816696167 0.12511661648750305 -0.0030664154328405857 -0.026553936302661896 0.006246541626751423 0.12760941684246063 0.11218199133872986 0.05460481345653534 0.09887596219778061 0.14021319150924683 0.09396017342805862 0.027040652930736542 0.07936160266399384 0.05709793046116829 -0.22506336867809296 -0.23170974850654602 -0.17027001082897186 0.039063431322574615 0.1104627251625061 0.019017202779650688 -0.1678648591041565 -0.24690844118595123 -0.1931506097316742 0.05840814486145973 0.12090494483709335 0.11990859359502792 -0.03797474876046181 -0.0011017549550160766 0.04406123235821724 0.09307621419429779 0.03843672201037407 0.028881331905722618 0.07793790102005005 0.08304835110902786 0.007884295657277107 -0.040909625589847565 0.025165170431137085 0.01385017391294241 -0.023500286042690277 -0.020039813593029976 0.045010752975940704 -0.004654380492866039 0.06179442256689072 0.07664010673761368 0.026784438639879227 0.0071631609462201595 -0.05255039036273956 0.004479509778320789 0.05716945230960846 0.0005017267540097237 0.0062305559404194355 -0.09889592230319977 -0.008465932682156563 -0.01963028497993946 0.07875777781009674 -0.06930600106716156 -0.16883450746536255 -0.12074998021125793 -0.09465237706899643 -0.15857753157615662 -0.18431195616722107 -0.18841750919818878 -0.16458994150161743 -0.12367021292448044 0.06337010115385056 -0.3191506862640381 0.07182565331459045 -0.12683333456516266 -0.18803450465202332 -0.02688949555158615 -0.12078183144330978 0.011653613299131393 -0.03160029649734497 0.01802542246878147 0.06788168847560883 0.06014087423682213 0.10114066302776337 -0.11058330535888672 -0.09443318843841553 -0.09347747266292572 -0.05275515839457512 0.042744580656290054 0.05554934963583946 -0.01168267522007227 -0.019968202337622643 0.07563140988349915 -0.05631436035037041 0.057660408318042755 -0.04839964210987091 -0.08820445835590363 -0.08769098669290543 0.06569977104663849 -0.06588079035282135 0.011316769756376743 -0.030852768570184708 0.13544753193855286 0.0375802181661129 -0.027610478922724724 0.03472074121236801 0.11644702404737473 0.11184114217758179 0.00969244260340929 -0.2925777733325958 -0.39056023955345154 -0.05947476625442505 0.0971011072397232 0.2717977464199066 -0.012461267411708832 -0.002091455738991499 -0.0027448018081486225 -0.1663002073764801 -0.15825079381465912 -0.15576006472110748 0.11368441581726074 0.15014177560806274 0.13205194473266602 0.07070385664701462 0.07602908462285995 0.12851987779140472 -0.15664087235927582 -0.13282819092273712 -0.05116553232073784 0.04551149532198906 0.001723951194435358 -0.08403541892766953 -0.07348416745662689 -0.009508626535534859 -2.162577584385872e-05 -0.08860127627849579 -0.0651719942688942 -0.0640653669834137 -0.1437043994665146 -0.11954478174448013 -0.05591728538274765 0.020670965313911438 -0.0001308305945713073 0.0586419440805912 -0.12066574394702911 -0.044404029846191406 -0.014830753207206726 -0.004078742116689682 0.0637606754899025 -0.02264637127518654 -0.09770385175943375 -0.12373766303062439 -0.0963037759065628 0.10671380907297134 0.06635349988937378 0.09473084658384323 -0.0035709950607270002 -0.012749833054840565 0.04013405740261078 0.02255241945385933 0.037017229944467545 0.016580941155552864 0.03256942331790924 0.07673145830631256 0.15746437013149261 -0.006684171035885811 0.020990541204810143 -0.06581184267997742 0.037548985332250595 -0.02112293243408203 0.042317088693380356 0.052498530596494675 0.029755420982837677 -0.005048295948654413 -0.03317701071500778 -0.13224482536315918 -0.08721955120563507 0.06467460840940475 0.02626524306833744 0.06351476907730103 -0.04203124716877937 0.03021685779094696 0.045404206961393356 0.06431414932012558 0.03528944030404091 -0.019972605630755424 0.09139835089445114 0.0558570921421051 0.008464454673230648 0.027795983478426933 0.034092821180820465 0.05082130432128906 -0.1148918867111206 -0.13030461966991425 -0.09380684047937393 0.008675885386765003 -0.004556414671242237 -0.04468803107738495 -0.09265662729740143 -0.07190997153520584 0.015547532588243484 0.09469951689243317 0.08291926980018616 -0.04436931759119034 -0.19261287152767181 -0.17282050848007202 -0.1255672574043274 0.03965289890766144 0.07681883871555328 -0.054997846484184265 0.05522037670016289 0.07591176778078079 0.08285577595233917 -0.1338576227426529 -0.1503882259130478 -0.08907800912857056 -0.40064793825149536 -0.43308916687965393 -0.19654327630996704 -0.08932852745056152 0.04219696298241615 0.28303083777427673 0.12337815016508102 -0.05909023433923721 0.01975630410015583 -0.08912394195795059 -0.19492007791996002 -0.09988321363925934 -0.1503646969795227 -0.31709322333335876 -0.16559983789920807 0.06481000781059265 0.12227000296115875 0.020868174731731415 0.0378420352935791 0.07041365653276443 0.08959705382585526 0.008435209281742573 0.019159261137247086 0.002226673299446702 -0.1039898693561554 -0.020755227655172348 0.06467514485120773 -0.07295417040586472 0.06679016351699829 0.1682710349559784 -0.13032349944114685 0.08124050498008728 0.11680283397436142 0.11405176669359207 0.22690780460834503 0.18376688659191132 0.08557633310556412 0.07600399851799011 0.013943441212177277 -0.15825285017490387 -0.13100764155387878 -0.24233444035053253 0.27289989590644836 0.09941762685775757 0.06405043601989746 -0.01515448559075594 -0.11045607924461365 -0.19047479331493378 -0.1917015165090561 -0.21452805399894714 -0.17055155336856842 -0.060647957026958466 0.04514515772461891 -0.07032212615013123 0.06847747415304184 0.12362660467624664 0.08091282099485397 -0.09832701832056046 0.03774992376565933 0.039105452597141266 0.016652073711156845 -0.04456951841711998 -0.01969628781080246 0.02421264350414276 -0.001931190025061369 0.03513439744710922 0.008619259111583233 -0.034817978739738464 -0.10901045799255371 0.011292348615825176 0.00047408431419171393 0.11297386884689331 0.0046880426816642284 -0.0027137957513332367 0.044708166271448135 -0.06917796283960342 -0.1426224559545517 0.0339772030711174 -0.16383492946624756 -0.1529107242822647 0.1836555004119873 -0.35486096143722534 -0.24261003732681274 -0.09911799430847168 -0.15116843581199646 -0.08244380354881287 0.07345470041036606 0.007682085037231445 0.04525069147348404 -0.05392039194703102 0.034828606992959976 0.10056213289499283 -0.04560273140668869 -0.04168444499373436 0.043920472264289856 -0.050229430198669434 -0.031910527497529984 -0.12015147507190704 -0.15335962176322937 -0.07671736180782318 -0.09957005828619003 -0.1324869841337204 0.1499680131673813 -0.10292017459869385 -0.030570123344659805 -0.169062539935112 -0.12235263735055923 -0.03139301389455795 -0.00014509476022794843 0.01677151955664158 -0.05514983460307121 0.048123735934495926 0.1026725247502327 0.12112846225500107 0.042894553393125534 -0.0005738417967222631 0.016672974452376366 -0.04268847033381462 0.027431976050138474 0.036622148007154465 -0.06557649374008179 -0.07147175073623657 -0.018186260014772415 0.04345480725169182 0.06950022280216217 -0.02774575725197792 0.15923099219799042 0.09553873538970947 -0.08776738494634628 0.17290960252285004 0.03876151144504547 -0.174327090382576 -0.24114137887954712 -0.19527840614318848 -0.019528081640601158 -0.14645841717720032 0.03076748177409172 0.02285892516374588 -0.16042952239513397 -0.14139218628406525 -0.036381956189870834 0.04957263916730881 0.2098424881696701 0.17206402122974396 0.12723244726657867 0.10937482863664627 0.10091332346200943 0.40252766013145447 -0.08719158172607422 0.19093285501003265 0.0784391239285469 0.08764701336622238 0.14637422561645508 0.08144629001617432 0.02925398387014866 0.14098970592021942 -0.00022732702200300992 0.010387436486780643 -0.0782260075211525 -0.004455233458429575 0.0355926975607872 0.010952451266348362 0.05644197016954422 0.08455256372690201 0.013843376189470291 0.13530293107032776 -0.008221064694225788 0.03709801286458969 -0.07619941979646683 -0.03551542013883591 -0.01816444657742977 0.017254723235964775 -0.013397288508713245 -0.017254231497645378 0.14887076616287231 0.10468439012765884 -0.1002470850944519 -0.03649694472551346 0.04062526673078537 0.06275289505720139 -0.03253062069416046 0.05326460674405098 0.043249599635601044 -0.009260810911655426 0.013192277401685715 -0.05615238472819328 -0.03912276402115822 -0.050258345901966095 -0.012467760592699051 0.07327976077795029 -0.041636593639850616 -0.07795532047748566 0.011271393857896328 0.033457666635513306 -0.060454532504081726 -0.0210184995085001 -0.017770012840628624 -0.041715510189533234 0.05010099709033966 -0.009597141295671463 -0.007151550613343716 0.05043560266494751 0.12404937297105789 0.019530409947037697 0.033588409423828125 -0.010530124418437481 -0.09261823445558548 -0.047099050134420395 -0.005963405594229698 -0.06274062395095825 -0.07582137733697891 -0.1051822081208229 0.054177384823560715 -0.03923845663666725 -0.02911236137151718 -0.03711538389325142 0.06961774080991745 0.05416708439588547 0.02519930526614189 0.08589579910039902 0.04938211664557457 -0.07965961843729019 0.10595794767141342 0.13468685746192932 0.07314150035381317 0.10760590434074402 0.10148336738348007 -0.07534341514110565 -0.01201976090669632 -0.0018921538721770048 -0.14785973727703094 -0.26457569003105164 -0.23561684787273407 -0.15033981204032898 -0.1207621693611145 -0.04248562455177307 0.06679145991802216 0.012682105414569378 0.0630800873041153 0.12235325574874878 -0.05531349778175354 -0.005481331143528223 0.06125583127140999 0.032166801393032074 0.09404420852661133 0.12463904172182083 -0.0518173910677433 -0.023192686960101128 -0.011841190047562122 0.05548452213406563 -0.019652197137475014 -0.03341139107942581 -0.2837061882019043 -0.3172266185283661 -0.10946227610111237 -0.14600500464439392 -0.161881685256958 0.03311747685074806 0.09982369840145111 0.07201217859983444 0.15861229598522186 -0.02656545490026474 -0.025884458795189857 0.006554364692419767 -0.13170774281024933 -0.18559010326862335 -0.17330896854400635 -0.09097922593355179 -0.09819167107343674 -0.1541149616241455 0.04787415266036987 0.04297419264912605 -0.030228732153773308 0.055273838341236115 0.056520331650972366 -0.008012850768864155 0.11231472343206406 0.1085309386253357 0.019130764529109 -0.058109600096940994 -0.09817974269390106 -0.0541888028383255 0.04637546464800835 0.06370192021131516 0.12566684186458588 -0.11443199962377548 -0.08501379191875458 -0.06028059870004654 0.06711258739233017 0.07267626374959946 0.058723077178001404 0.07292985916137695 0.11093039810657501 0.07678903639316559 0.015856698155403137 -0.03555203229188919 -0.030130019411444664 -0.15869483351707458 -0.17322015762329102 -0.0864902064204216 0.03586403280496597 -0.032650310546159744 0.09414733201265335 0.14654940366744995 0.09713461995124817 0.019939014688134193 -0.13547660410404205 -0.22721202671527863 -0.26246586441993713 -0.01846301555633545 -0.036814454942941666 0.07344099134206772 -0.025929993018507957 -0.01940019242465496 -0.05391891300678253 0.051957353949546814 0.012750991620123386 -0.03068474680185318 0.019509147852659225 -0.0638621523976326 -0.01693170703947544 -0.04479695484042168 -0.04639662057161331 -0.10773885250091553 0.126250222325325 0.12663859128952026 0.04921352490782738 0.09498295187950134 0.15877190232276917 0.13035722076892853 -0.24382250010967255 -0.2104235291481018 -0.16500024497509003 0.025816190987825394 0.09521453827619553 0.07298172265291214 0.06770598888397217 0.0011873741168528795 0.0360235720872879 0.15044346451759338 0.11691994965076447 0.15229518711566925 0.030475042760372162 -0.021928386762738228 -0.0030254132580012083 0.07623208314180374 0.14527228474617004 0.1838793009519577 0.030834930017590523 0.10679296404123306 0.04954463616013527 -0.16868829727172852 -0.29810604453086853 -0.23929177224636078 -0.026827054098248482 0.059632159769535065 0.1521386355161667 0.06829089671373367 0.026879703626036644 0.016728322952985764 -0.06552713364362717 -0.07486751675605774 -0.10458609461784363 0.06587745249271393 0.15200918912887573 0.12496538460254669 -0.04155566543340683 -0.07650666683912277 0.05014731362462044 0.09658832103013992 0.12790516018867493 0.07100718468427658 0.08643528074026108 0.0637117475271225 0.013900941237807274 -0.0009726381977088749 0.05887499451637268 -0.10858108103275299 -0.19543872773647308 -0.26449209451675415 -0.27227216958999634 0.09726236015558243 0.06518839299678802 0.11945784837007523 -0.12845127284526825 -0.11267414689064026 -0.11532198637723923 0.03759591653943062 0.05659117549657822 0.006920279935002327 -0.08353623002767563 0.05361177772283554 0.08370543271303177 -0.10959005355834961 -0.025909125804901123 -0.02255394123494625 0.019652651622891426 0.06991766393184662 0.06291861087083817 -0.07789573818445206 -0.05249331146478653 -0.05463561415672302 -0.00038845959352329373 -0.04739520698785782 -0.043235354125499725 0.03514168784022331 0.05041860416531563 0.010595728643238544 -0.02342720329761505 0.02340519428253174 0.056420695036649704 0.021958651021122932 0.007890219800174236 0.0668724924325943 -0.06248091161251068 -0.08621435612440109 -0.05975561589002609 0.0579059012234211 -0.028422793373465538 0.05697118863463402 -0.053874433040618896 -0.1216188296675682 -0.12234068661928177 -0.0758088231086731 -0.046808112412691116 -0.06053619086742401 0.19102969765663147 0.24968260526657104 0.21723033487796783 -0.23260517418384552 0.010874021798372269 0.10206813365221024 -0.23427478969097137 -0.06260068714618683 0.0883539691567421 0.021588759496808052 0.04936528950929642 -0.07491655647754669 -0.06381607800722122 -0.029470467939972878 0.08618005365133286 -0.043772440403699875 0.02223011665046215 0.09422794729471207 0.0658397451043129 -0.14840374886989594 -0.033762868493795395 -0.03780437260866165 0.012210541404783726 -0.010897370986640453 -0.009565236046910286 -0.02853013202548027 -0.024691320955753326 -0.13110509514808655 -0.038117967545986176 -0.04140031710267067 -0.04506686329841614 -0.13338032364845276 -0.029706483706831932 0.14246965944766998 0.09845437109470367 0.10509894788265228 -0.08228011429309845 -0.05679339915513992 -0.12065130472183228 -0.24585123360157013 -0.28163212537765503 -0.24511268734931946 0.011509155854582787 0.10359454900026321 0.005053011700510979 0.0886245146393776 0.10091819614171982 0.05597913637757301 -0.14226138591766357 -0.19163182377815247 -0.17394386231899261 0.03662973642349243 0.043887652456760406 0.05471562221646309 0.046279750764369965 -0.07292095571756363 -0.04037870839238167 -0.021307675167918205 -0.14924803376197815 -0.04446672648191452 0.0005562598234973848 -0.08324507623910904 -0.06465605646371841 0.03261126950383186 -0.01690046489238739 0.06111539155244827 -0.06803195923566818 -0.052413612604141235 0.04181690886616707 -0.0775853767991066 -0.026155367493629456 -0.018377849832177162 0.1454109251499176 0.19847017526626587 0.1638237088918686 0.06062464043498039 -0.1527123600244522 -0.0326639860868454 0.013439162634313107 -0.037974756211042404 0.04544379934668541 -0.07506769895553589 -0.02546466700732708 -0.019469888880848885 -0.05081399157643318 -0.10780792683362961 0.020442873239517212 0.03786942735314369 0.0713023990392685 0.09222108870744705 -0.1292702704668045 -0.16547639667987823 -0.1305522471666336 -0.04290773719549179 0.052521709352731705 0.052865639328956604 0.023717176169157028 -0.09558340907096863 0.024201497435569763 -0.026257794350385666 -0.03883296623826027 0.01823897659778595 0.014633923768997192 -0.009504509158432484 0.003697400912642479 -0.1746898740530014 -0.20208120346069336 -0.20639340579509735 0.009121808223426342 0.05265698954463005 0.0665767565369606 0.021481266245245934 -0.04381434991955757 -0.06475209444761276 0.014211897738277912 -0.04061037674546242 0.06942619383335114 0.0647355169057846 0.07951347529888153 0.18852142989635468 0.09620925784111023 0.014769129455089569 0.041228361427783966 -0.11725254356861115 -0.11814866960048676 -0.10690540820360184 -0.02307579293847084 0.033866170793771744 0.043655961751937866 -0.039412688463926315 -0.007917363196611404 -0.03894279524683952 0.07360806316137314 0.05063914135098457 0.05091192573308945 -0.048617228865623474 -0.17230163514614105 -0.03379534184932709 0.03731320798397064 0.07050768285989761 0.015653708949685097 0.021458353847265244 0.06484715640544891 0.002070515649393201 0.024510253220796585 0.031814735382795334 -0.0028091894928365946 0.08744580298662186 0.05272999405860901 0.07385987788438797 -0.060162778943777084 -0.006740614306181669 0.008582386188209057 -0.001686661853455007 -0.012712797150015831 -0.027664637193083763 0.08427904546260834 0.11879147589206696 0.1267033815383911 0.0970318540930748 0.037113822996616364 0.0756891742348671 -0.06900030374526978 -0.15781950950622559 -0.02056301198899746 -0.24198588728904724 -0.4088567793369293 -0.17018547654151917 -0.04936672002077103 -0.13828779757022858 0.008970817551016808 -0.01663481630384922 -0.1849045306444168 -0.007232577074319124 -0.05769302323460579 0.02219275012612343 -0.02748129889369011 -0.16583563387393951 -0.13306830823421478 -0.057893767952919006 -0.0793633833527565 0.059935200959444046 0.024631047621369362 -0.3111479580402374 -0.31566911935806274 -0.24860741198062897 -0.12128672748804092 -0.0035970499739050865 -0.0059230453334748745 0.2874523401260376 0.26424524188041687 0.31071701645851135 -0.06983602792024612 -0.006631262134760618 0.10136329382658005 0.03212564066052437 0.10481303185224533 0.03391449898481369 0.0791623517870903 0.10541889816522598 0.10404178500175476 -0.18582403659820557 -0.14600156247615814 -0.007255204487591982 -0.07800418138504028 -0.1092924252152443 -0.012125647626817226 -0.2150857299566269 -0.3243747651576996 -0.03717823326587677 -0.262224018573761 -0.02219727262854576 0.07745979726314545 -0.11040440201759338 0.13313890993595123 0.1769198626279831 0.10004669427871704 0.16796566545963287 0.09082704037427902 0.018572621047496796 0.06626515835523605 -0.008930307812988758 0.04862738773226738 -0.008392726071178913 -0.08683178573846817 -0.028032144531607628 -0.07193711400032043 -0.2243276685476303 0.029075859114527702 -0.020998049527406693 -0.027590978890657425 -0.09928995370864868 0.014617756940424442 0.04229550436139107 -0.04243123531341553 -0.10534520447254181 -0.07560250908136368 -0.0417676642537117 0.003483786713331938 0.049911029636859894 0.014644582755863667 0.0355018749833107 -0.09895417839288712 -0.1324145793914795 -0.1138027161359787 -0.1331949532032013 0.07520133256912231 0.06363901495933533 0.050793711096048355 -0.08810991793870926 -0.13702796399593353 -0.10244744271039963 -0.05443575605750084 -0.11372517794370651 -0.05059375241398811 -0.15791203081607819 -0.12091200798749924 -0.1090279221534729 -0.21363046765327454 -0.29338937997817993 -0.34525778889656067 -0.2776205837726593 -0.1538483053445816 -0.2999558746814728 0.014466920867562294 -0.025279944762587547 0.008272443898022175 -0.01674424484372139 0.05000521242618561 0.10783468186855316 0.0936281681060791 0.04708704724907875 0.01784525252878666 -0.2026752531528473 -0.22170081734657288 0.07315855473279953 -0.11284583806991577 -0.1004539355635643 0.0673116147518158 -0.01088371779769659 -0.02447790652513504 0.07952462881803513 -0.019557444378733635 -0.0735507681965828 0.022017844021320343 -0.11024373769760132 -0.14445999264717102 0.06046323478221893 -0.11049756407737732 -0.10446928441524506 0.16590379178524017 -0.3279891908168793 0.2347515970468521 0.36389774084091187 -0.3970436751842499 0.07312915474176407 -0.018775776028633118 -0.05976196750998497 -0.06291435658931732 -0.3128240406513214 0.009679717011749744 0.04534521698951721 -0.1012330874800682 0.01130389142781496 0.06673336029052734 0.03768530115485191 -0.07190193980932236 0.0007922512595541775 -0.058927878737449646 -0.13570326566696167 -0.10574786365032196 -0.003532154019922018 -0.05011508986353874 -0.07234995812177658 0.010705878026783466 -0.009475352242588997 -0.06873710453510284 -0.017429543659090996 -0.08213236927986145 -0.04019901901483536 -0.0965212881565094 -0.08377938717603683 -0.023367086425423622 -0.09054525941610336 0.04753464087843895 0.11251036822795868 0.12884581089019775 -0.1075700968503952 -0.09650032222270966 -0.034404169768095016 -0.13257277011871338 -0.2126152664422989 -0.04474380984902382 -0.1320408582687378 -0.034057650715112686 0.009142397902905941 0.005717205349355936 0.005961382761597633 -0.02543439343571663 0.014160516671836376 -0.057082224637269974 0.036522019654512405 -0.02700829692184925 -0.04192037135362625 0.00542619451880455 -0.08492215722799301 0.023711442947387695 -0.06290165334939957 -0.11484744399785995 -0.051777325570583344 -0.12776131927967072 -0.09933879971504211 -0.06799010187387466 -0.12198838591575623 0.026816390454769135 0.11770286411046982 0.07627172768115997 -0.09116879105567932 -0.09445163607597351 -0.07077991962432861 -0.11600685119628906 -0.0905250683426857 -0.07797566801309586 -0.07612328231334686 0.02442162111401558 -0.08243800699710846 -0.024544743821024895 0.05457932874560356 -0.12086838483810425 -0.023428291082382202 0.07943563163280487 0.027124132961034775 -0.07814162969589233 0.017423592507839203 -0.011528254486620426 0.028150051832199097 0.04964456334710121 0.13357974588871002 0.12736384570598602 0.11230636388063431 0.13560934364795685 0.14079438149929047 0.11901383101940155 0.02279961109161377 -0.0031545129604637623 0.059997882694005966 0.031679317355155945 0.02216910570859909 -0.07200808823108673 -0.012887464836239815 -0.12787052989006042 -0.029097575694322586 0.1296520233154297 -0.01885049231350422 2.905289875343442e-05 0.11632341146469116 -0.04811045154929161 -0.07664467394351959 0.01910429075360298 0.05949332192540169 0.0736098513007164 0.030451575294137 0.2148078829050064 0.1111799106001854 0.10108774900436401 0.028793221339583397 -0.10286881029605865 -0.052511513233184814 -0.11591999232769012 -0.019254444167017937 0.004041872452944517 0.05426585674285889 0.03727796673774719 0.08506080508232117 0.11558929085731506 -0.015690814703702927 0.05420221388339996 -0.01643887534737587 0.025915998965501785 0.0711602121591568 -0.0331813283264637 0.00839584693312645 0.08483768999576569 -0.03462345153093338 0.02671070583164692 -0.01116255484521389 -0.0746285691857338 -0.05174938216805458 -0.07413693517446518 -0.010046697221696377 -0.012359822168946266 -0.03153421729803085 -0.05073888599872589 -0.01604611985385418 0.056663062423467636 0.019975263625383377 -0.06959504634141922 -0.0032380728516727686 -0.0035320245660841465 0.002633958123624325 -0.028245199471712112 -0.011313097551465034 -0.00799053069204092 0.03367910161614418 -0.06316246837377548 -0.041928961873054504 -0.07262304425239563 -0.06120861694216728 -0.015619777143001556 -0.005115751642733812 -0.08112968504428864 -0.011808346025645733 0.001261215191334486 -0.05599924176931381 -0.002362203085795045 -0.060555703938007355 -0.02229526825249195 -0.029423091560602188 -0.06577584147453308 -0.09142494201660156 -0.09922287613153458 0.021647613495588303 -0.033869192004203796 -0.02000930905342102 -0.012404900044202805 0.016143810003995895 -0.04352685809135437 -0.017963610589504242 -0.09420827776193619 -0.07233695685863495 0.0526200495660305 -0.0295368954539299 -0.02883044071495533 -0.04292803630232811 0.0196602214127779 -0.012826608493924141 -0.059317514300346375 0.04663987457752228 -0.08989384025335312 -0.012850803323090076 -0.04188240319490433 -0.04655282944440842 0.01614001952111721 0.016689229756593704 -0.020450793206691742 -0.048984821885824203 0.015037898905575275 0.004108911380171776 -0.018148936331272125 -0.02650931477546692 -0.015942204743623734 0.029230965301394463 0.002604464767500758 -0.02778581902384758 -0.06123998016119003 -0.06952754408121109 0.0516485758125782 0.016524160280823708 -0.03286685049533844 -0.009566936641931534 -0.030345967039465904 -0.054788608103990555 -0.061763036996126175 -0.007524340879172087 -0.004800936672836542 -0.013015732169151306 -0.007741999812424183 -0.0940595269203186 -0.06470967084169388 -0.026996267959475517 -0.08344291895627975 -0.021103374660015106 -0.06583014130592346 0.0019877327140420675 0.018171042203903198 -0.0748256966471672 0.014888144098222256 0.003019809490069747 -0.06638570874929428 0.023325994610786438 -0.036090973764657974 -0.021701207384467125 -0.009438830427825451 -0.008796943351626396 0.0070579275488853455 -0.030876697972416878 -0.06680981069803238 -0.009401563555002213 0.015271794982254505 0.03234637901186943 0.02420077659189701 -0.016278108581900597 -0.03450079262256622 -0.07766160368919373 0.004350822884589434 -0.08469033986330032 -0.05303671211004257 -0.035955898463726044 0.009466639719903469 -0.03326323628425598 -0.035198140889406204 -0.010025623254477978 -0.07814649492502213 -0.013382586650550365 0.014093984849750996 -0.0112924724817276 -0.006462821736931801 0.03326968103647232 -0.061003345996141434 -0.03138994053006172 0.05701678991317749 -0.0220412015914917 -0.04527246952056885 0.0002596483682282269 -0.0012525049969553947 -0.04823215305805206 -0.06536280363798141 -0.050798892974853516 -0.016900038346648216 -0.044513121247291565 -0.0030557275749742985 -0.0878157913684845 -0.028837911784648895 0.04178192466497421 -0.037548355758190155 0.004620209336280823 0.01924305036664009 -0.059182118624448776 -0.031114596873521805 0.008828655816614628 -0.005840697325766087 -0.022595876827836037 0.005659178830683231 -0.020880702883005142 -0.002429060870781541 -0.030354857444763184 -0.05163167789578438 -0.07998348027467728 -0.00798720307648182 -0.039044059813022614 0.016908740624785423 0.020143849775195122 -0.05396503955125809 0.016193779185414314 -0.08774398267269135 -0.009567391127347946 -0.07220142334699631 -0.07833096385002136 -0.004749955143779516 -0.04886140301823616 0.02178950048983097 -0.053632233291864395 0.019901970401406288 0.014842955395579338 0.0432400219142437 -0.0529966726899147 -0.05955640226602554 -0.04813370481133461 0.04932207241654396 -0.026248862966895103 -0.023328518494963646 -0.0067060766741633415 0.0114697040989995 -0.0711851641535759 0.05242745950818062 -0.04663734510540962 0.037458762526512146 -0.04065420478582382 -0.05067906901240349 0.016389425843954086 -0.03163691982626915 -0.053776293992996216 -0.04899667203426361 0.0515998899936676 0.05446017533540726 -0.028315013274550438 0.011472762562334538 -0.02207152545452118 -0.06220381334424019 -0.08581088483333588 -0.08418814092874527 -0.0948120728135109 -0.02036847360432148 0.0194846224039793 -0.05716244503855705 -0.043199725449085236 -0.04144006967544556 -0.0625995546579361 -0.02690475434064865 0.014115464873611927 0.015057188458740711 0.03068271465599537 -0.047939322888851166 0.037652499973773956 -0.013957896269857883 -0.026902448385953903 -0.08279107511043549 0.02646726369857788 -0.026830144226551056 -0.09099864959716797 0.023342635482549667 -0.02479315549135208 0.008805284276604652 -0.04947727173566818 0.009336643852293491 0.022037174552679062 -0.020929167047142982 -0.05600684881210327 0.021528145298361778 0.022467980161309242 -0.008390633389353752 0.008932042866945267 -0.020467210561037064 0.019719718024134636 -0.027477290481328964 -0.0696491152048111 -0.0066736433655023575 0.008248395286500454 0.0013383881887421012 -0.031245984137058258 -0.04937831312417984 -0.05365365371108055 -0.052651382982730865 -0.035203684121370316 -0.11914905905723572 -0.038864586502313614 -0.06341709941625595 -0.0674440786242485 -0.037067875266075134 -0.02880036272108555 -0.000965051120147109 -0.03229590132832527 -0.020457101985812187 -0.043994028121232986 -0.034137215465307236 -0.019453223794698715 -0.01244447659701109 -0.1058703362941742 -0.05855502188205719 -0.1021590456366539 -0.02136978879570961 0.005102400202304125 -0.09816628694534302 -0.087619848549366 -0.022067660465836525 -0.06849287450313568 0.010596338659524918 -0.013700082898139954 -0.013614575378596783 0.02340179868042469 -0.08150621503591537 0.013496158644557 -0.006420253310352564 -0.06503450870513916 -0.009641426615417004 -0.03908320516347885 -0.035023704171180725 -0.042135968804359436 -0.07050502300262451 0.031861770898103714 0.005928481463342905 -0.042472176253795624 -0.0845872238278389 -0.0476260669529438 -0.027804113924503326 0.013349995017051697 -0.017644137144088745 0.000495953718200326 0.002505148760974407 -0.046328067779541016 -0.055899299681186676 -0.06821013242006302 -0.019616039469838142 -0.0013740342110395432 -0.07941456139087677 0.08002064377069473 0.02993650548160076 -0.09229107201099396 0.02216973900794983 0.0012959277955815196 0.02735755406320095 0.14349542558193207 0.07452118396759033 0.0546598844230175 0.013260453939437866 0.02621621824800968 -0.014041348360478878 -0.05783071741461754 0.074574775993824 -0.07856866717338562 0.012559060007333755 0.006063380744308233 0.025246670469641685 -0.07973423600196838 -0.07003407180309296 0.10797971487045288 -0.028834164142608643 -0.14575694501399994 0.13001997768878937 -0.017501071095466614 -0.08221043646335602 -0.01745177060365677 -0.1187501847743988 -0.014103924855589867 -0.002428028266876936 -0.12794068455696106 -0.0075275953859090805 0.16819506883621216 -0.10426810383796692 0.006938533391803503 0.13486731052398682 0.03623512014746666 -0.16022391617298126 0.13033820688724518 0.0538257360458374 -0.18065954744815826 0.15872110426425934 0.09471059590578079 -0.09733380377292633 0.13023032248020172 0.04548182711005211 -0.044115208089351654 0.11683237552642822 0.021479973569512367 -0.03832918405532837 0.035594236105680466 -0.027640879154205322 -0.053179241716861725 -0.14660941064357758 -0.016988949850201607 0.06616697460412979 -0.12764273583889008 0.007992319762706757 0.060409534722566605 -0.08502104133367538 0.044520873576402664 0.05711938813328743 -0.10498163104057312 0.04099008068442345 0.09146697074174881 -0.178439199924469 -0.011659473180770874 0.11687437444925308 -0.13493260741233826 -0.13605675101280212 0.09513261169195175 -0.049345675855875015 -0.009088408201932907 -0.04393769055604935 0.05220535025000572 -0.060189057141542435 -0.07548930495977402 -0.013291444629430771 -0.10427392274141312 -0.030836518853902817 0.06908467411994934 0.018252430483698845 -0.06393809616565704 0.09849335253238678 -0.015701843425631523 -0.19422651827335358 0.16301216185092926 0.06468752026557922 -0.1252920776605606 0.003353320062160492 -0.03475768491625786 0.03184723109006882 0.017030321061611176 -0.21204909682273865 -0.2155885547399521 0.04564473778009415 -0.1023060530424118 -0.0018610293045639992 0.1112053245306015 0.04330861568450928 -0.22679293155670166 0.09117401391267776 0.018202202394604683 -0.21184250712394714 0.1913928985595703 0.07666468620300293 -0.24246612191200256 -0.08933854848146439 -0.004498973488807678 0.015554118901491165 -0.03403627499938011 -0.06493590027093887 0.029790179803967476 0.03579658642411232 0.02522566169500351 0.04951407387852669 0.017184918746352196 0.09656824916601181 -0.07979929447174072 0.004799088463187218 0.03061727248132229 -0.048768237233161926 0.11568596214056015 0.09875358641147614 -0.04736828804016113 0.07622817158699036 0.009123136289417744 0.05865500867366791 0.009804438799619675 0.024034768342971802 -0.021099530160427094 -0.07015711814165115 0.025525400415062904 -0.002854794729501009 -0.03186209499835968 -0.017779065296053886 0.03130361810326576 0.04482037201523781 -0.026219410821795464 0.11094225943088531 -0.032821331173181534 -0.07763521373271942 0.062392640858888626 -0.04893660917878151 -0.022985951974987984 0.07916611433029175 -0.06913238763809204 -0.09279446303844452 0.03594304248690605 -0.02724088728427887 0.012853303924202919 0.12064990401268005 -0.296207457780838 -0.04021994024515152 0.19136586785316467 -0.18562790751457214 0.10979242622852325 0.06814582645893097 -0.18783380091190338 0.178358793258667 0.0962599590420723 -0.034859415143728256 0.03585098683834076 0.04089431092143059 -0.0066457102075219154 -0.1184307336807251 0.0018746990244835615 -0.06290598213672638 -0.1180301159620285 -0.03837244212627411 -0.03295431658625603 -0.028929490596055984 0.08600907772779465 -0.03817402571439743 0.017251579090952873 0.06662598997354507 0.033684518188238144 -0.007057960610836744 0.008148014545440674 0.015978708863258362 0.07164707034826279 -0.02107168920338154 0.02327394112944603 0.03432245925068855 -0.10068313777446747 0.04492006078362465 0.0039015249349176884 -0.1437208652496338 -0.16574393212795258 0.02588389813899994 -0.023158585652709007 -0.14145538210868835 0.03970261290669441 0.060352642089128494 -0.060933638364076614 0.06486638635396957 0.054074689745903015 0.1443272829055786 -0.10647942125797272 -0.25802484154701233 0.16016885638237 -0.060859642922878265 -0.2611694633960724 0.11624164134263992 -0.07101282477378845 -0.20337966084480286 0.04815638065338135 0.019136566668748856 -0.3079729378223419 0.15962237119674683 0.10349475592374802 -0.32079145312309265 0.22809727489948273 0.16799107193946838 -0.2513964772224426 -0.1100209578871727 0.0012403960572555661 0.0817917212843895 -0.03219909220933914 -0.06663830578327179 0.012336703017354012 -0.04406534880399704 0.016325917094945908 -0.03471774235367775 -0.09310650080442429 0.05082377791404724 -0.03198487311601639 -0.011215303093194962 0.007733918260782957 -0.03564709797501564 0.041200581938028336 0.06263943761587143 -0.0386088490486145 -0.13033613562583923 -0.0007421122281812131 0.06257791817188263 -0.11619152128696442 -0.09663208574056625 -0.0712294802069664 -0.15503892302513123 -0.05993279069662094 -0.007890861481428146 0.019046790897846222 -0.13673624396324158 0.0649937316775322 -0.028183788061141968 -0.12559498846530914 -0.085902638733387 0.01678488962352276 -0.008747681975364685 -0.014662341214716434 -0.3096921741962433 0.028825918212532997 0.11189809441566467 -0.25982150435447693 -0.007384362164884806 0.06076886132359505 -0.23897826671600342 0.11644288897514343 0.1552344113588333 0.02554326504468918 0.11127443611621857 0.10931907594203949 0.03831037878990173 0.013835995458066463 0.05213613063097 -0.03522859886288643 0.038586318492889404 0.08882235735654831 0.04830217361450195 -0.027889790013432503 0.06693156063556671 -0.03606845438480377 -0.039651911705732346 0.0786735787987709 -0.0785956084728241 0.04189491271972656 0.02503805235028267 -0.0699511170387268 0.018332568928599358 -0.06238952651619911 0.0006147267413325608 0.036395005881786346 -0.01570393703877926 -0.06780117005109787 -0.03002413734793663 0.01667475514113903 0.021518992260098457 -0.023373909294605255 0.07721316069364548 -0.051598962396383286 -0.003381267422810197 0.007748005446046591 -0.01637204736471176 -0.019240818917751312 -0.04303350672125816 0.0006308560841716826 -0.005291213747113943 0.06505300104618073 -0.05003908649086952 0.03802669048309326 0.025182673707604408 -0.09123827517032623 -0.08317611366510391 -0.015340152196586132 -0.029203252866864204 -0.05091099813580513 -0.03463922068476677 0.01598322205245495 -0.03221013396978378 -0.025762036442756653 -0.03319906070828438 -0.06223444268107414 -0.04718233644962311 0.0014253658009693027 0.024863123893737793 -0.09122969210147858 0.0072419242933392525 -0.023487860336899757 -0.04845641925930977 -0.058727942407131195 0.0037358682602643967 0.020230235531926155 -0.08327994495630264 0.0006973019917495549 0.003686495590955019 -0.0233333520591259 -0.025254935026168823 0.019685901701450348 -0.03488745167851448 -0.05333811789751053 -0.039457399398088455 0.021937686949968338 0.021806510165333748 0.005909911822527647 0.025629673153162003 0.025805305689573288 -0.037132248282432556 0.019989220425486565 0.043690212070941925 0.01469380035996437 -0.04482898488640785 0.0008710500551387668 -0.09332175552845001 -0.0707303062081337 -0.07431739568710327 0.002511187456548214 -0.13856028020381927 -0.06224682182073593 -0.11931385844945908 -0.022458016872406006 0.0015079868026077747 -0.02928193286061287 0.055882301181554794 -0.0006762847770005465 -0.020084964111447334 -0.0032723231706768274 0.027904674410820007 -0.007417214568704367 -0.00850046519190073 -0.09663324058055878 -0.033671893179416656 -0.04338528588414192 -0.04795696213841438 -0.08531835675239563 -0.05127585306763649 -0.12601636350154877 -0.12980292737483978 -0.009814424440264702 -0.0006615037564188242 0.052188631147146225 0.051076456904411316 0.05636919289827347 -0.017369495704770088 -0.0657743290066719 -0.062205612659454346 0.01623416133224964 -0.055853817611932755 -0.07783454656600952 -0.013626962900161743 -0.06788034737110138 -0.025646796450018883 -0.06366762518882751 -0.05851481854915619 0.048684388399124146 0.0018917749403044581 -0.0070205130614340305 -0.055569007992744446 -0.07023097574710846 -0.06501183658838272 -0.09184686839580536 -0.1120564416050911 -0.0042410958558321 -0.07863631844520569 -0.11613694578409195 0.024455128237605095 -0.04106656461954117 -0.08599533885717392 -0.1300140619277954 -0.14299482107162476 -0.12469594180583954 -0.033877331763505936 -0.04281975328922272 -0.0754263699054718 -0.03998783603310585 -0.005975685082376003 -0.04519450664520264 0.033939559012651443 -0.0027049623895436525 0.004499155096709728 -0.002072979463264346 0.048953648656606674 0.04704642295837402 -0.021166153252124786 -0.04433734342455864 -0.041261136531829834 -0.03227340430021286 -0.07720351219177246 0.02434922195971012 -0.051126837730407715 0.009571614675223827 -0.0631888136267662 -0.02201598510146141 0.007457070518285036 -0.060457129031419754 0.01822330802679062 -0.053405676037073135 0.0072280471213161945 -0.002017159713432193 0.032744452357292175 0.05956825986504555 -0.010822112672030926 -0.03268473595380783 -0.04401927813887596 0.021894263103604317 -0.00430124020203948 0.05061924085021019 -0.09071708470582962 -0.020161136984825134 0.022035397589206696 0.036132268607616425 0.0005985779571346939 0.06708835065364838 -0.05369489639997482 0.04778704419732094 0.006616880651563406 0.04606106877326965 -0.002558715408667922 0.0038443966768682003 -0.07216069102287292 -0.01049964688718319 -0.07891105115413666 -0.05477295443415642 -0.030417080968618393 -0.042224589735269547 -0.08888838440179825 -0.10765943676233292 -0.07886465638875961 0.03858465328812599 -0.06041359156370163 0.012850620783865452 0.02760201506316662 -0.041471414268016815 -0.04247607663273811 -0.05027153715491295 -0.003953061997890472 -0.021656887605786324 0.0022688729222863913 0.00894857756793499 0.009302997961640358 -0.015776673331856728 -0.00283986609429121 -0.002695388626307249 -0.02475741133093834 -0.002196273533627391 -0.05905597656965256 0.031359121203422546 -0.01613578572869301 -0.008818184025585651 -0.05580926313996315 -0.036710191518068314 0.009294768795371056 -0.015718204900622368 -0.0342145711183548 0.02543426677584648 0.0011278486344963312 0.020134171470999718 0.037849053740501404 -0.03778429329395294 -0.027909433469176292 -0.021870331838726997 -0.04269056022167206 -0.06023653969168663 -0.05172807350754738 -0.040890030562877655 -0.016757236793637276 0.003863381687551737 0.0033644854556769133 -0.030922742560505867 -0.04025687649846077 -0.026661720126867294 -0.045502159744501114 -0.052060727030038834 -0.02926960214972496 -0.11863748729228973 -0.09065178036689758 -0.05883089452981949 -0.09541113674640656 -0.09049658477306366 -0.13590414822101593 -0.027620675042271614 -0.08233323693275452 -0.06854154914617538 -0.06358665227890015 -0.02400820143520832 -0.07426688075065613 -0.03648265451192856 -0.0418463796377182 -0.02702357992529869 -0.02828843891620636 -0.08783948421478271 -0.013213446363806725 0.0044880034402012825 -0.0296709556132555 -0.014928875491023064 -0.0748140811920166 -0.03960227966308594 -0.044252634048461914 -0.0997641459107399 -0.0380716547369957 -0.13059784471988678 -0.08655735850334167 -0.09001348167657852 -0.11372494697570801 -0.12281598895788193 -0.136664479970932 -0.04324622079730034 -0.0899239107966423 -0.11856481432914734 -0.04332440346479416 -0.05196934938430786 0.00411578081548214 -0.0807114839553833 -0.06181734800338745 -0.018600817769765854 -0.00922610703855753 -0.03097350336611271 -0.0170497577637434 0.14384174346923828 0.05882171541452408 0.09832944720983505 0.04693829268217087 -0.06868167221546173 -0.008944067172706127 -0.03015875443816185 -0.06224367767572403 0.0008468444575555623 -0.047779448330402374 -0.015298535116016865 -0.059878941625356674 -0.0883384570479393 -0.011733938939869404 -0.04401017352938652 -0.006201606243848801 -0.03881658986210823 -0.02866555005311966 -0.006791109684854746 -0.02031276747584343 -0.03382408246397972 -0.030343784019351006 -0.05645282566547394 -0.028278756886720657 -0.038353823125362396 -0.05413198098540306 -0.11587368696928024 0.1663423329591751 0.019301796332001686 0.0537816658616066 0.12358097732067108 -0.03581680357456207 0.10757701098918915 -0.08936604112386703 -0.04588374122977257 0.028916694223880768 -0.24211038649082184 -0.11031383275985718 -0.3279651403427124 -0.12348713725805283 -0.2495664656162262 -0.3277890682220459 -0.08654751628637314 -0.318546861410141 -0.35860922932624817 0.1375451236963272 0.06378526985645294 0.021498633548617363 0.0240436140447855 -0.035091228783130646 -0.19291211664676666 -0.010426203720271587 -0.04070408269762993 0.02224305085837841 0.016073180362582207 -0.28442561626434326 -0.4185684621334076 -0.3358621299266815 -0.28089210391044617 -0.31112855672836304 -0.26058652997016907 -0.12349522858858109 -0.16508375108242035 -0.14621379971504211 -0.19399423897266388 -0.03964800387620926 -0.08289460092782974 0.017162825912237167 0.07059106975793839 0.09768275916576385 0.08311372995376587 0.07726648449897766 -0.0027758146170526743 0.01422593928873539 -0.024118954315781593 0.08147691190242767 0.03012872487306595 0.05687931925058365 0.007631887681782246 0.05137745290994644 -0.007388125639408827 0.0882628783583641 0.10242129117250443 0.11142697185277939 0.09498028457164764 0.06938350945711136 0.011032890528440475 -0.04788242280483246 -0.04162988066673279 -0.08252913504838943 -0.05391328036785126 -0.045684538781642914 0.04635079950094223 -0.4565783739089966 -0.26801061630249023 -0.06494031846523285 0.03819737955927849 0.09325744211673737 0.03331240266561508 -0.19112528860569 0.08520043641328812 0.07273368537425995 0.09429832547903061 0.016251420602202415 0.07580113410949707 0.02867051586508751 -0.09081485867500305 0.1359962522983551 0.16898036003112793 -0.07557334005832672 -0.24093706905841827 -0.06577607989311218 -0.2568178176879883 -0.18187418580055237 -0.22041238844394684 -0.09275417029857635 -0.13392512500286102 -0.003287020605057478 0.06527560949325562 0.15980510413646698 0.1016898825764656 0.051222480833530426 0.053374577313661575 0.23966766893863678 0.04381176084280014 -0.007927839644253254 0.03859689086675644 -0.18218238651752472 -0.034878361970186234 -0.17170172929763794 -0.07905084639787674 0.006335181184113026 0.05892786756157875 -0.0082519156858325 0.008670840412378311 -0.015442444011569023 -0.07835250347852707 0.013759065419435501 -0.06625507771968842 0.00783607829362154 0.03903531655669212 0.059172313660383224 -0.0016251455526798964 0.014438134618103504 0.0999964252114296 0.13460782170295715 0.14833572506904602 0.16824977099895477 0.09555034339427948 0.022928450256586075 0.06581918150186539 -0.045317210257053375 -0.1387719362974167 -0.054644882678985596 -0.14659430086612701 -0.1347113698720932 -0.06568848341703415 -0.056121956557035446 -0.06987584382295609 -0.08557910472154617 -0.015238461084663868 0.03012121096253395 -0.04206995666027069 -0.002713832538574934 0.051478780806064606 0.06147756054997444 0.07733742892742157 -0.01027563028037548 0.15698784589767456 0.028324929997324944 -0.1583002507686615 0.3068867027759552 0.06456860899925232 -0.3335297107696533 -0.10050231218338013 -0.3291661739349365 -0.577643632888794 0.17234808206558228 -0.08843933045864105 -0.24575957655906677 -0.22102443873882294 0.05224594473838806 0.17348971962928772 0.5697122812271118 0.2851763963699341 0.2969723343849182 0.14394383132457733 0.19012494385242462 -0.13354788720607758 -0.2946964502334595 -0.2023134082555771 -0.10098738968372345 -0.24836358428001404 -0.13478247821331024 -0.12853313982486725 -0.13678421080112457 -0.050395406782627106 -0.03910873085260391 0.14173126220703125 0.11920899897813797 0.19090808928012848 0.12554174661636353 0.05239036679267883 0.025412173941731453 0.08253365010023117 -0.01986861415207386 0.006611777003854513 0.21129116415977478 0.0714079961180687 0.007639204617589712 0.07046247273683548 -0.10876718908548355 0.0462057888507843 -0.16066734492778778 0.044862374663352966 -0.03622952476143837 -0.017747756093740463 -0.15699857473373413 -0.10604945570230484 -0.07011791318655014 -0.0458533801138401 -0.025418398901820183 0.09805765002965927 0.06397765129804611 0.007801841478794813 -0.11681023240089417 -0.10800450295209885 -0.1430077999830246 -0.1593746542930603 -0.01736285164952278 -0.1287725567817688 -0.054391924291849136 -0.05704515054821968 -0.10671623796224594 0.0401020348072052 -0.1978127658367157 -0.28531593084335327 -0.17315150797367096 -0.27235954999923706 -0.03937643766403198 -0.18200701475143433 -0.001606765203177929 -0.01228369027376175 0.1102614551782608 0.04920937120914459 0.022388465702533722 -0.027588678523898125 -0.030214864760637283 -0.09090685099363327 0.07894273102283478 0.17419633269309998 0.10580379515886307 0.1633024662733078 0.05170533433556557 0.09474896639585495 0.03476174548268318 -0.0040605273097753525 0.09566204249858856 0.012105865404009819 -0.03648236021399498 -0.0781371146440506 -0.014258557930588722 0.16687138378620148 0.09528865665197372 -0.030329518020153046 0.004135901108384132 0.07223977148532867 -0.013935438357293606 0.007918407209217548 0.0818881168961525 -0.09686248004436493 0.05145498737692833 0.020894447341561317 -0.028858870267868042 -0.04843089357018471 -0.011598876677453518 0.009763728827238083 -0.04812608286738396 -0.029044026508927345 0.09591571241617203 0.1284836232662201 0.07974126189947128 0.12378574907779694 0.008973819203674793 0.0714094489812851 0.05649982765316963 0.05454281345009804 0.04307735338807106 0.07270623743534088 0.06730253249406815 0.008288630284368992 -0.018902042880654335 -0.060724012553691864 -0.0367349311709404 -0.17582440376281738 -0.12747031450271606 -0.0868246853351593 0.0541391521692276 0.0710998922586441 0.02110281214118004 0.07498563826084137 -0.08374065160751343 -0.061792001128196716 -0.06932011246681213 0.012660429812967777 -0.02748207189142704 -0.1593252420425415 -0.006912852171808481 0.06906912475824356 0.004807475954294205 0.04226817190647125 0.020278025418519974 0.05442748963832855 -0.02060301974415779 0.029320964589715004 -0.10044228285551071 -0.09308221936225891 0.024945365265011787 -0.12530627846717834 -0.1490919589996338 0.002961288671940565 -0.022179629653692245 -0.04688079655170441 0.0636628270149231 -0.05124536529183388 0.033594682812690735 0.1002509593963623 -0.0760255828499794 -0.05934487283229828 -0.08894063532352448 0.004674948286265135 -0.013274616561830044 -0.008367649279534817 0.07556457072496414 0.09959316998720169 0.01566912792623043 0.16187350451946259 0.1304565668106079 0.03013056330382824 -0.002424323931336403 -0.08603979647159576 -0.06691444665193558 -0.1093207597732544 -0.04898809269070625 0.052519090473651886 0.06327147781848907 0.12435176968574524 0.14660656452178955 0.020751267671585083 0.041441988199949265 -0.14284200966358185 -0.13608264923095703 -0.009351680055260658 0.17750431597232819 -0.10212615132331848 0.06533712148666382 0.12635621428489685 0.024450775235891342 0.12284938246011734 0.14507004618644714 -0.1438194066286087 -0.2589181363582611 -0.10518068075180054 -0.13882534205913544 -0.2782779633998871 -0.2451350837945938 -0.005730489268898964 -0.23663325607776642 -0.2371872514486313 0.036995239555835724 0.10158639401197433 -0.015577761456370354 -0.042234309017658234 -0.0222264863550663 -0.0784793496131897 0.08891480416059494 0.07153356075286865 -0.01524542085826397 -0.08402236551046371 -0.12317656725645065 -0.012576454319059849 -0.03495999425649643 -0.010884569957852364 -0.002282718662172556 0.036774665117263794 -0.050600796937942505 -0.17932437360286713 0.05862617865204811 0.028215980157256126 -0.00877090822905302 -0.027405153959989548 0.007699979934841394 0.11520442366600037 -0.1315743625164032 -0.009195638820528984 -0.004838204476982355 -0.024290909990668297 -0.2802102565765381 -0.11122813075780869 -0.21176886558532715 -0.3162282705307007 -0.1564478874206543 -0.1436300277709961 -0.1852065473794937 -0.21998323500156403 0.04383731260895729 0.07896387577056885 0.09279900789260864 -0.15970082581043243 0.011369236744940281 -0.04294031485915184 -0.18479637801647186 -0.05554603040218353 -0.1944754421710968 -0.000744542689062655 -0.09609602391719818 -0.019074616953730583 0.08380771428346634 0.06744541972875595 0.061511993408203125 0.16278250515460968 -0.03366031125187874 -0.09804444760084152 0.11004699766635895 0.12472350895404816 0.030502190813422203 0.08947102725505829 0.06198257952928543 0.038914166390895844 0.03642440214753151 -0.024859262630343437 -0.06461511552333832 0.04198311269283295 0.16652227938175201 0.05850780010223389 -0.08152177184820175 -0.11912502348423004 -0.04450852423906326 0.006025261245667934 -0.034223027527332306 -0.04463212937116623 -0.03878994658589363 -0.16502907872200012 -0.1850874423980713 -0.13473621010780334 -0.11855025589466095 -0.08692101389169693 -0.003640711074694991 -0.1020597517490387 -0.12593278288841248 0.15139712393283844 0.09450815618038177 -0.06903153657913208 0.21207179129123688 0.03806664049625397 -0.0725603997707367 0.10238008201122284 -0.08490800112485886 -0.2656380832195282 -0.007731651421636343 0.13261550664901733 0.07769542932510376 0.21196676790714264 0.005195225588977337 -0.022759780287742615 0.24630646407604218 0.09051565825939178 -0.04146260768175125 0.06239297240972519 -0.08288200199604034 0.1752125471830368 -0.007086318451911211 0.04676501825451851 0.12315958738327026 -0.0795121043920517 0.051275670528411865 0.04603927955031395 -0.0010287687182426453 -0.017751211300492287 0.07165157049894333 -0.03401881828904152 0.011131413280963898 0.050052739679813385 -0.16175736486911774 -0.11412042379379272 -0.024984197691082954 0.0824451670050621 0.10735166072845459 -0.007685298100113869 0.011461913585662842 0.025195060297846794 0.03289041668176651 0.07203970104455948 0.023271530866622925 0.01752951368689537 0.05048366263508797 0.08204827457666397 0.03397247567772865 -0.23711462318897247 -0.18371053040027618 0.1421683132648468 -0.0888630747795105 0.08651479333639145 0.1907544583082199 -0.09209053963422775 -0.10837050527334213 0.06267853081226349 -0.2534003257751465 -0.1501777023077011 -0.020239591598510742 -0.05508323386311531 -0.0959460586309433 -0.05453571304678917 0.07173065841197968 0.024465426802635193 0.05529741197824478 -0.15050528943538666 -0.19280903041362762 -0.1106637567281723 -0.13280105590820312 -0.08715284615755081 -0.006655729841440916 0.05281798914074898 -0.136997789144516 -0.0325782485306263 0.09527439624071121 0.1067827045917511 0.07556109130382538 0.16895230114459991 0.025469927117228508 0.03856557235121727 0.10003402084112167 -0.03510550409555435 -0.10925720632076263 0.09946877509355545 0.12755140662193298 0.05876561626791954 0.14244745671749115 0.10749886929988861 0.09305034577846527 0.11369367688894272 -0.07277602702379227 -0.09192541241645813 0.06883444637060165 0.03583931550383568 -0.06043321266770363 0.17003583908081055 0.060850225389003754 -0.028381234034895897 0.12182409316301346 0.11968342959880829 0.1440298706293106 -0.1299196183681488 -0.08540190756320953 -0.029744010418653488 -0.10570403933525085 -0.03252528980374336 -0.08498431742191315 0.012538839131593704 0.12075833976268768 0.08432689309120178 -0.024969134479761124 0.019624948501586914 0.006192580331116915 0.035710860043764114 -0.008077332749962807 0.01247435249388218 -0.038529109209775925 0.024947410449385643 0.0077388412319123745 0.09648038446903229 0.017432497814297676 -0.03892272710800171 0.02755866013467312 -0.037548817694187164 -0.11004423350095749 -0.018622523173689842 -0.06782464683055878 -0.0417434386909008 -0.0355338454246521 -0.03134695068001747 0.05828961730003357 -0.025724101811647415 0.06967655569314957 0.15630322694778442 -0.1573505401611328 -0.03937922418117523 0.012851361185312271 -0.061612095683813095 0.054190125316381454 0.09924772381782532 -0.00392384547740221 0.05865094065666199 0.12192767858505249 -0.000903822248801589 -0.07717727869749069 -0.10160723328590393 0.06675500422716141 -0.06923326104879379 0.047769706696271896 0.13573960959911346 0.07160308212041855 0.061088405549526215 0.00045281770871952176 -0.014713856391608715 -0.04515291005373001 0.05032368749380112 -0.0139226745814085 -0.022496869787573814 0.10199873894453049 0.03934820741415024 -0.030304552987217903 0.1195196881890297 -0.024083923548460007 0.0920330211520195 0.11679947376251221 -0.06951923668384552 0.03120335564017296 -0.03185735270380974 -0.15555225312709808 0.019655292853713036 -0.05642079561948776 0.10719064623117447 0.038984812796115875 -0.049167707562446594 -0.008198758587241173 0.0177457295358181 -0.08830934017896652 -0.004148021340370178 -0.03950412943959236 -0.06593590974807739 -0.11299090087413788 0.181997150182724 -0.031364236027002335 -0.06865829974412918 0.15328118205070496 -0.03203927353024483 -0.19290970265865326 -0.03388668969273567 -0.10519605875015259 0.14055760204792023 -0.15047259628772736 -0.047776639461517334 0.14754119515419006 -0.1911064237356186 -0.11241023987531662 0.11894166469573975 -0.06002091243863106 0.0035119066014885902 -0.08222264051437378 -0.13317416608333588 -0.07574980705976486 -0.04482368752360344 -0.1219482347369194 0.01582617498934269 -0.0023475224152207375 0.10135272145271301 0.03986237198114395 -0.19240178167819977 0.0008539609843865037 0.12141557037830353 -0.2034299075603485 0.05748900771141052 0.11131507903337479 -0.05595995858311653 0.11872240155935287 -0.001939459820277989 -0.07477785646915436 -0.07277698814868927 -0.22986897826194763 -0.15119940042495728 -0.08081429451704025 -0.3762020468711853 -0.3550126254558563 -0.34493765234947205 -0.01784014143049717 -0.020088598132133484 -0.001104337046854198 0.022657452151179314 0.10559091717004776 0.03587350249290466 -0.16122427582740784 0.023173116147518158 -0.0777801126241684 -0.013861087150871754 0.04776411131024361 -0.012260479852557182 -0.09441213309764862 0.1037580594420433 -0.13406416773796082 -0.16321350634098053 0.038845427334308624 -0.22113017737865448 -0.1922752857208252 0.08094675093889236 -0.0018177446909248829 -0.0116939228028059 0.04179404675960541 -0.06092744693160057 0.03504238277673721 -0.03716856241226196 -0.005143210291862488 -0.1322859227657318 0.15422751009464264 -0.059996504336595535 -0.06366921216249466 0.06946773827075958 -0.07871535420417786 -0.11867889016866684 0.0628991574048996 -0.1354515254497528 -0.03511526808142662 0.05733546242117882 -0.01062809769064188 -0.08842924237251282 -0.05471711978316307 -0.021151738241314888 -0.10466276854276657 0.052499886602163315 0.08571083843708038 0.01729646697640419 0.08635922521352768 0.08390867710113525 -0.09279660135507584 -0.029203245416283607 -0.026578277349472046 -0.08715716004371643 -0.02316749282181263 -0.048351045697927475 -0.005982605274766684 0.019132208079099655 -0.04435628652572632 0.05411336198449135 0.027764348313212395 0.04286028817296028 -0.004642412066459656 0.011230063624680042 0.006182734854519367 0.048374880105257034 -0.04550210386514664 -0.02996762841939926 0.06664381176233292 -0.1425885409116745 -0.05030205473303795 0.12290430814027786 -0.1570311337709427 0.054122939705848694 -0.01926085725426674 -0.0616583377122879 -0.07539188116788864 -0.05418575182557106 -0.045157887041568756 0.014687702991068363 -0.1373371183872223 -0.08033940941095352 -0.05782439932227135 -0.45776820182800293 0.09893340617418289 0.3675663471221924 -0.08919674158096313 0.007011352106928825 0.008530440740287304 0.014495950192213058 0.03334811329841614 -0.0021235456224530935 -0.0741710513830185 0.01954028382897377 0.02734546549618244 -0.08657118678092957 0.045651085674762726 -0.04790413752198219 -0.06670103967189789 0.021717090159654617 -0.04103611037135124 0.06689023226499557 -0.07697100192308426 -0.032293230295181274 -0.03222900629043579 -0.0024515294935554266 -0.04147372767329216 0.05354427918791771 -0.048993226140737534 0.01904904469847679 -0.011234715580940247 0.02372821234166622 0.013756144791841507 -0.09982669353485107 0.02785729244351387 -0.006540607661008835 -0.10765087604522705 0.05567032843828201 0.032249026000499725 0.0411270335316658 0.017502935603260994 -0.023471716791391373 0.01416194997727871 -0.08368967473506927 -0.08638795465230942 -0.02456933818757534 -0.03652198612689972 0.010362018831074238 0.03507697582244873 0.08531232178211212 0.10406853258609772 -0.08238983154296875 -0.008612417615950108 -0.049781426787376404 -0.08170482516288757 0.005965366028249264 -0.017697792500257492 -0.07355215400457382 0.19250676035881042 -0.07819481939077377 -0.22551138699054718 0.14249706268310547 -0.16252727806568146 -0.1497192531824112 0.13523061573505402 -0.14877153933048248 0.07304111123085022 0.006659886799752712 -0.01284091453999281 0.0900275707244873 0.02121904492378235 -0.008531654253602028 -0.06595679372549057 0.006054157391190529 -0.045170582830905914 -0.08738996088504791 0.0394018292427063 -0.055114805698394775 -0.08310367912054062 0.06241969019174576 -0.07962070405483246 -0.10752156376838684 0.08426705747842789 0.062006302177906036 -0.05874017998576164 0.041058070957660675 -0.11152768135070801 -0.1438349336385727 0.08576303720474243 0.029040589928627014 -0.0935712680220604 0.0009166247909888625 0.03936373442411423 0.013811426237225533 -0.015145041979849339 0.053803909569978714 -0.03404848277568817 -0.02955494448542595 0.05113627016544342 -0.08511362969875336 -0.05623530223965645 0.007466542534530163 0.19579623639583588 -0.11302215605974197 0.06973940879106522 0.16157980263233185 -0.19127167761325836 0.015865851193666458 0.13405948877334595 -0.21311387419700623 0.03502083942294121 -0.060439854860305786 -0.02470160648226738 0.0394887700676918 -0.03949625417590141 0.021405087783932686 0.03558975085616112 0.01845518685877323 0.055913038551807404 0.1258355677127838 0.02791227214038372 -0.163862943649292 0.051056068390607834 0.06106259301304817 -0.14914992451667786 0.09439626336097717 0.10002066940069199 -0.1524839699268341 0.08003054559230804 -0.026984944939613342 0.1165446937084198 -0.10890824347734451 -0.10844383388757706 0.06555894017219543 -0.177680104970932 -0.11393243074417114 0.13476809859275818 -0.0282607302069664 -0.08461537212133408 -0.03954172879457474 -0.1043311208486557 0.02051813341677189 -0.018671147525310516 0.03405169025063515 0.06383229792118073 0.11227723956108093 0.020796922966837883 -0.0036528329364955425 0.025213731452822685 0.034376028925180435 0.06281030178070068 0.06302288919687271 0.047802407294511795 -0.1342487335205078 -0.022307751700282097 -0.02430383302271366 -0.13542602956295013 -0.08255522698163986 -0.004735324531793594 0.06576839089393616 -0.007651681546121836 0.12050234526395798 -0.030757809057831764 0.015595600008964539 -0.10711678117513657 -0.0827566459774971 -0.08915097266435623 0.0822373479604721 0.015790386125445366 0.0667414590716362 0.07550838589668274 -0.005013488698750734 -0.04693694785237312 -0.13952544331550598 0.1015733927488327 0.15486368536949158 0.13474416732788086 -0.0555703267455101 -0.02709958329796791 -0.17744259536266327 -0.11224615573883057 -0.09651276469230652 -0.08724671602249146 0.12650734186172485 0.011254150420427322 0.06374530494213104 -0.061262018978595734 -0.12369061261415482 -0.15003179013729095 0.014224417507648468 -0.07847625762224197 0.017817743122577667 -0.02439691126346588 0.006608473137021065 -0.019218163564801216 -0.038080740720033646 -0.15391245484352112 -0.13595940172672272 0.05897573009133339 0.04599441960453987 -0.01483780238777399 -0.048066504299640656 -0.05694236233830452 0.015143356285989285 0.13573041558265686 0.19177989661693573 0.20392489433288574 -0.04403353109955788 0.007323806174099445 0.09609214961528778 -0.3128076493740082 -0.16847333312034607 -0.19909702241420746 -0.04948464035987854 0.0612882524728775 0.04703706130385399 0.13489443063735962 0.09527388215065002 0.050089310854673386 -0.09109994769096375 0.004571627359837294 -0.049358464777469635 0.06779036670923233 0.044825825840234756 -0.02226436883211136 -0.05436231568455696 -0.006870171055197716 -0.02566080540418625 0.031638603657484055 0.12175760418176651 0.05112254619598389 -0.35038721561431885 -0.21582874655723572 -0.19621683657169342 -0.11830846220254898 -0.039979979395866394 -0.07554594427347183 -0.04572892189025879 0.03024723194539547 -0.10208417475223541 0.042578332126140594 0.06009187549352646 0.056552886962890625 -0.0528777539730072 -0.011323418468236923 -0.15148597955703735 -0.027246911078691483 0.08956661820411682 0.09551649540662766 -0.05086961016058922 0.044647540897130966 0.04253222420811653 -0.09900283813476562 -0.025624258443713188 0.022012725472450256 0.00679324334487319 -0.04712414741516113 -0.05396076664328575 -0.09499073773622513 -0.044999413192272186 -0.029737716540694237 -0.037107035517692566 0.03294139355421066 0.004558802582323551 0.024307435378432274 0.06453623622655869 0.017659056931734085 -0.01259104534983635 0.05190671235322952 -0.028971077874302864 -0.09786953777074814 -0.04338149353861809 -0.02243027836084366 0.08831819891929626 0.05640697851777077 0.0594552718102932 0.01797769032418728 -0.028581898659467697 -0.023325327783823013 -0.054241843521595 -0.14537276327610016 0.021468378603458405 -0.0341336615383625 -0.08254638314247131 0.01733163185417652 0.034782640635967255 0.12894029915332794 -0.02496740221977234 -0.1258547455072403 -0.023367878049612045 -0.033206839114427567 -0.18487663567066193 0.27892249822616577 -0.11639637500047684 -0.3165917694568634 -0.036588266491889954 -0.16854740679264069 -0.034744326025247574 -0.2545461654663086 -0.1097554862499237 -0.07938379049301147 -0.00942990556359291 0.0018456948455423117 -0.09680238366127014 0.018106592819094658 0.09031546860933304 -0.02572588250041008 -0.02408347651362419 -0.0005903179408051074 -0.02631867676973343 -0.07237457484006882 -0.08931660652160645 0.00804827082902193 -0.023403216153383255 -0.05547714605927467 0.03680365905165672 0.04448683187365532 -0.029134390875697136 0.121003158390522 0.11369199305772781 -0.012786938808858395 -0.1292048543691635 -0.14109745621681213 -0.1247294619679451 -0.06282807886600494 0.012477373704314232 0.02810693345963955 0.12436575442552567 0.08811818063259125 0.03637229651212692 -0.04287830367684364 -0.01698019541800022 -0.003722870023921132 -0.17221204936504364 -0.1869034469127655 -0.14846263825893402 0.08805140107870102 0.007086952216923237 0.12089098244905472 -0.1045447587966919 -0.08307468891143799 -0.14809808135032654 -0.13439279794692993 -0.032104481011629105 -0.030238332226872444 0.09994274377822876 0.0791439339518547 0.08690652251243591 -0.036654241383075714 0.03599979355931282 -0.016145745292305946 -0.21654962003231049 -0.1065535917878151 -0.19196005165576935 -0.07211162894964218 0.03571082279086113 0.07262777537107468 -0.021327199414372444 0.056450966745615005 0.07568327337503433 -0.20924556255340576 -0.029005076736211777 0.05287456512451172 0.011028503999114037 0.10225413739681244 -0.051881905645132065 0.03981659933924675 0.04056064784526825 -0.0627724751830101 -0.181280717253685 -0.005240218248218298 0.012472190894186497 -0.21329283714294434 -0.29472681879997253 -0.39777565002441406 -0.03113499842584133 -0.05488954111933708 -0.04454355686903 0.1858258694410324 0.15318770706653595 0.22433969378471375 -0.13294360041618347 -0.07070868462324142 -0.05525314435362816 -0.05941332131624222 0.0014007381396368146 0.08597637712955475 0.07749159634113312 -0.0002668320666998625 0.08247560262680054 -0.05530402064323425 -0.16960647702217102 -0.06734365969896317 0.05293720215559006 -0.04683010280132294 -0.06356192380189896 0.0701964795589447 -0.09488733112812042 0.007601098623126745 -0.05729291960597038 -0.11766798794269562 -0.17149512469768524 -0.04112139344215393 0.028558865189552307 0.03129253908991814 0.06435593962669373 0.07679445296525955 0.06513212621212006 -0.015187998302280903 -0.06838779896497726 0.00022057106252759695 -0.03448130190372467 0.0006693242467008531 0.02359144762158394 -0.07096444815397263 -0.06765171140432358 0.06037627533078194 0.06083744019269943 0.06526291370391846 0.05552133172750473 -0.16341696679592133 -0.07378681004047394 -0.1452871561050415 0.04732505604624748 0.04693819209933281 0.036483220756053925 0.08721566945314407 -0.027910377830266953 -0.09876985102891922 -0.13264745473861694 -0.21248596906661987 -0.1439947932958603 -0.13734564185142517 -0.09622859954833984 -0.053584448993206024 0.12425854057073593 0.0484854020178318 -0.09544523060321808 0.16984795033931732 0.1268988847732544 0.02103205770254135 0.16633985936641693 0.07518686354160309 0.02802082523703575 0.00958714447915554 0.07429739832878113 0.04258763790130615 0.10015883296728134 0.08051880449056625 0.029376255348324776 0.0365433543920517 0.026677312329411507 -0.006824152078479528 0.012167379260063171 0.031573690474033356 0.012634573504328728 -0.025122353807091713 -0.17004621028900146 -0.02904932200908661 -0.014143110252916813 -0.11179289221763611 -0.03437051549553871 0.030002277344465256 -0.07703006267547607 -0.10909245908260345 -0.026852503418922424 -0.028236553072929382 -0.049152571707963943 0.08201850205659866 0.057353317737579346 -0.06520699709653854 -0.3851170241832733 -0.3746703863143921 -0.2115577608346939 -0.2885286509990692 -0.1603815108537674 -0.009442322887480259 0.02156018279492855 0.007425609976053238 0.21642813086509705 -0.10909814387559891 -0.06336523592472076 -0.00028818316059187055 0.017241498455405235 0.00412786053493619 0.09851888567209244 0.02041834034025669 0.12817813456058502 0.007980870082974434 0.10929732024669647 0.10927513986825943 0.09988808631896973 -0.011817272752523422 0.014529270119965076 -0.009696855209767818 -0.08625982701778412 -0.011528761126101017 0.03423057124018669 -0.047629598528146744 0.05948894843459129 0.0606464222073555 -0.06622356921434402 -0.015094679780304432 0.06906063109636307 0.010455267503857613 -0.014932210557162762 0.05794914811849594 0.13609576225280762 0.06363902986049652 0.04637452960014343 0.15057331323623657 0.00906067993491888 -0.038224682211875916 0.13222691416740417 0.021927203983068466 -0.051984723657369614 0.03167391195893288 0.10316041857004166 0.042370982468128204 -0.4765295386314392 -0.2548942267894745 -0.32818567752838135 -0.4170030951499939 -0.18415577709674835 -0.32571282982826233 0.060477398335933685 0.0807763934135437 0.018080925568938255 -0.016307972371578217 -0.048172928392887115 -0.02242467738687992 -0.0047079334035515785 0.03416170924901962 -0.02346942201256752 0.022031355649232864 0.05814618989825249 0.04131573438644409 -0.0019649567548185587 0.024291817098855972 0.036375537514686584 -0.01817968487739563 0.014174222014844418 -0.016715751960873604 -0.20157760381698608 -0.23932330310344696 -0.0026752855628728867 -0.4521467387676239 -0.3356068432331085 -0.11239262670278549 -0.35894277691841125 -0.3767704963684082 -0.24886454641819 0.08019127696752548 0.06558899581432343 0.053545452654361725 0.014635404571890831 -0.035795658826828 0.002825092524290085 -0.08584935963153839 -0.002946864813566208 0.04289950430393219 -0.14178013801574707 0.07599495351314545 0.2782638669013977 -0.30723389983177185 -0.16380490362644196 0.15638840198516846 -0.27646559476852417 -0.05834530293941498 0.1743558794260025 0.14909079670906067 0.11753948777914047 -0.059126585721969604 0.10173138976097107 0.03195159137248993 -0.0780191570520401 0.11926820129156113 0.08551712334156036 -0.07147649675607681 0.03603707253932953 -0.12521862983703613 0.1275446116924286 0.14513887465000153 -0.027467679232358932 0.04477081075310707 -0.05648726224899292 0.037686072289943695 0.059239234775304794 0.06703587621450424 -0.005594181828200817 -0.09139260649681091 0.01764812506735325 -0.13004782795906067 -0.0774809941649437 0.06934405118227005 0.0018353838240727782 -0.07376279681921005 -0.11558271944522858 -0.2617410123348236 -0.08258815854787827 -0.29519733786582947 -0.1939091831445694 -0.09228461235761642 -0.20544420182704926 -0.06434594094753265 0.08823424577713013 0.03778092563152313 0.0789351537823677 0.017457006499171257 -0.07014887779951096 -0.003488547634333372 0.03383514657616615 -0.017207661643624306 -0.05796787515282631 0.0014946365263313055 0.009451156482100487 -0.029325544834136963 0.0005553904920816422 0.09606418758630753 -0.02315024472773075 -0.029644805938005447 0.00106422055978328 -0.07343636453151703 -0.03498246893286705 0.10155943781137466 0.07009812444448471 -0.03878959268331528 0.05370898172259331 -0.07965848594903946 -0.050672609359025955 0.049700696021318436 -0.010198390111327171 -0.030519967898726463 0.09163988381624222 0.10353685170412064 0.0786261036992073 -0.01258216891437769 -0.009200588800013065 -0.09578695148229599 -0.024909619241952896 0.07830576598644257 -0.042028844356536865 -0.10562079399824142 -0.05231369659304619 -0.09850002825260162 0.028273968026041985 0.06394628435373306 -0.046796347945928574 0.05849134549498558 0.051916319876909256 0.014158414676785469 -0.011002641171216965 0.029432766139507294 -0.029426967725157738 0.013061887584626675 -0.0004554153128992766 -0.021257879212498665 0.040021978318691254 -0.04620673134922981 0.04333554208278656 0.03224041685461998 0.0005099913687445223 0.031019821763038635 -0.18423563241958618 -0.2437886893749237 -0.0375295914709568 -0.06201303377747536 -0.03949349746108055 0.07051132619380951 -0.03127451613545418 0.005520426668226719 -0.12526598572731018 0.059807952493429184 0.018599551171064377 -0.10925895720720291 -0.0023626722395420074 -0.03260677307844162 -0.034205932170152664 0.06263016909360886 0.036830656230449677 -0.04753708839416504 0.046815529465675354 0.03733178600668907 0.04233276844024658 0.03017934039235115 0.05993703380227089 0.07341578602790833 0.046238988637924194 -0.01391606405377388 -0.17907534539699554 0.062219925224781036 0.022351356223225594 0.0035928944125771523 0.11365999281406403 0.016742249950766563 -0.0455346405506134 -0.020700644701719284 0.008059302344918251 -0.05465574935078621 -0.010636277496814728 0.011885550804436207 -0.03644353523850441 0.005227802786976099 0.06449152529239655 0.08248817175626755 -0.06833593547344208 -0.050382476300001144 0.005046606529504061 0.037806831300258636 -0.052878402173519135 0.06149457395076752 -0.03008757345378399 -0.03810437396168709 0.041377585381269455 -0.0838567242026329 0.02533109113574028 0.024294020608067513 0.017646409571170807 0.012429285794496536 -0.052083227783441544 0.024424757808446884 0.05297102779150009 -0.02622964233160019 0.03297291323542595 0.014604868367314339 0.041174765676259995 -0.02061307057738304 -0.007426964119076729 0.041838549077510834 -0.14993596076965332 0.06998401135206223 -0.05684240907430649 -0.0242408886551857 -0.017581062391400337 0.053729698061943054 -0.03239884972572327 -0.06869837641716003 -0.01391661912202835 0.016763243824243546 0.014530211687088013 0.03363237529993057 -0.02378144860267639 0.09341414272785187 -0.018608063459396362 -0.014538800343871117 -0.06975177675485611 -0.17740266025066376 0.01646852120757103 0.05399510636925697 -0.12691496312618256 0.07837618887424469 -0.15861450135707855 -0.004400085192173719 0.19373974204063416 -0.32846981287002563 0.18452340364456177 0.13645336031913757 -0.247014120221138 0.11608302593231201 -0.06607166677713394 -0.004153769928961992 -0.033650439232587814 -0.027935469523072243 -0.05358627438545227 0.03427857533097267 0.02721685729920864 0.011003611609339714 0.0710197165608406 -0.06271102279424667 0.030895056203007698 0.01898939162492752 -0.1818162053823471 0.19605185091495514 -0.046375490725040436 -0.1074509471654892 0.09463897347450256 -0.10863612592220306 -0.03469695895910263 0.1022518053650856 0.10470528900623322 -0.26027974486351013 -0.1505664885044098 -0.0663577988743782 -0.15216895937919617 0.02945556677877903 0.11689706891775131 0.08657215535640717 -0.09745011478662491 0.04186807572841644 -0.03298812359571457 -0.06738746911287308 -0.04340912401676178 0.058268219232559204 -0.03600181266665459 -0.010772143490612507 -0.04839533939957619 0.07706255465745926 0.013980327174067497 0.08355489373207092 -0.08495516330003738 0.017863135784864426 0.1633414477109909 -0.18033762276172638 0.13930915296077728 0.1122901663184166 -0.16625690460205078 -0.026322660967707634 0.04882926866412163 -0.2811373174190521 0.11656282842159271 -0.05453525483608246 -0.06299538910388947 0.10360316187143326 0.07959461212158203 -0.10941505432128906 -0.030452802777290344 0.1685357391834259 -0.31363722681999207 0.1405031532049179 0.08944098651409149 -0.22430969774723053 0.1764058768749237 -0.09462317079305649 -0.02848430536687374 -0.019802263006567955 -0.06359748542308807 -0.022815043106675148 0.11255066096782684 0.04034276679158211 -0.08309100568294525 0.06468614190816879 0.09690946340560913 -0.06683240830898285 -0.08683530241250992 0.06645147502422333 -0.08450163155794144 0.052946045994758606 0.04784061014652252 -0.003975283354520798 0.03226833790540695 0.019262632355093956 0.060054123401641846 0.00040921824984252453 -0.03405432030558586 -0.010222609154880047 -0.025377728044986725 0.05641329288482666 0.01940784975886345 0.011548951268196106 0.02304762229323387 -0.038219112902879715 -0.032637160271406174 0.03200233355164528 -0.022116046398878098 0.12500877678394318 -0.1235223188996315 0.08069867640733719 -0.0041288393549621105 -0.02915075607597828 0.050926391035318375 0.03937763348221779 -0.20743754506111145 0.04192209243774414 -0.04501451179385185 -0.009747299365699291 0.05906706675887108 -0.046373602002859116 -0.1218148022890091 0.25036191940307617 -0.12317481637001038 -0.08210097998380661 0.2401892989873886 -0.1803767830133438 -0.26483917236328125 0.30110278725624084 -0.21809716522693634 0.0657881498336792 -0.00920164491981268 -0.03523258864879608 0.07109571993350983 -0.009136292152106762 0.017115198075771332 0.06978964060544968 -0.030019598081707954 0.06842353194952011 0.07258854806423187 0.03882152959704399 0.05807172507047653 -0.041491005569696426 0.054493069648742676 -0.051750462502241135 0.05458745360374451 -0.02113579958677292 -0.10295318067073822 -0.18451890349388123 0.12484832108020782 -0.05993223190307617 0.01663977839052677 0.13108783960342407 -0.1581152379512787 0.19348303973674774 -0.24965621531009674 0.06259122490882874 -0.08028826862573624 0.0068769631907343864 -0.01336826104670763 -0.023866552859544754 0.011993875727057457 0.008922402746975422 -0.04696974903345108 0.05700470879673958 0.04421207308769226 0.020042460411787033 0.03162802383303642 -0.0641450509428978 0.016334911808371544 -0.0039057862013578415 -0.05408608540892601 0.07976424694061279 -0.09010344743728638 -0.0010433252900838852 0.028853558003902435 -0.08891098946332932 -0.02885579876601696 0.26452648639678955 -0.3790533244609833 0.03628498688340187 0.16770748794078827 -0.31401675939559937 0.17411082983016968 -0.07221503555774689 -0.009655436500906944 -0.041007138788700104 -0.053772080689668655 0.03327825665473938 -0.007658238988369703 0.010174845345318317 -0.011335835792124271 0.08414337038993835 -0.11513988673686981 0.05100228637456894 -0.004189878236502409 0.06191997230052948 -0.10080819576978683 0.01579553633928299 0.03148582577705383 -0.18855349719524384 0.09122038632631302 -0.031697120517492294 0.06159818544983864 -0.023770548403263092 0.039569191634655 -0.04014167934656143 0.004966497886925936 -0.029890025034546852 -0.09445726871490479 0.052511267364025116 0.07110408693552017 -0.07163511961698532 0.05566138029098511 -0.07184804230928421 -0.03190304711461067 0.07885637879371643 -0.11082737892866135 0.050624750554561615 -0.006828739773482084 -0.08152824640274048 0.11303969472646713 -0.08876989781856537 -0.19077812135219574 0.20820604264736176 -0.14299535751342773 -0.07957287132740021 0.16505420207977295 -0.1509064882993698 -0.038509685546159744 0.007282252889126539 0.06925789266824722 -0.053676754236221313 0.018824134021997452 0.04905913397669792 0.032811567187309265 0.06089191883802414 0.0017045498825609684 -0.07898366451263428 0.04090964421629906 -0.023592285811901093 -0.08985195308923721 0.05738929286599159 -0.0717511847615242 -0.07653496414422989 0.12710316479206085 0.03611384704709053 0.0494382306933403 -0.013173234649002552 0.0434572659432888 0.0712645947933197 -0.22427837550640106 0.1318759173154831 -0.0003276910283602774 -0.17038965225219727 0.14638133347034454 -0.07486371695995331 -0.024659553542733192 0.04232797399163246 -0.11609446257352829 -0.01907685212790966 0.0025823574978858232 -0.08376449346542358 -0.03368745371699333 0.052869342267513275 -0.048563357442617416 -0.03329905867576599 0.14486831426620483 -0.07606550306081772 -0.22608798742294312 0.12146279215812683 0.015134456567466259 -0.11764462292194366 -0.0375836119055748 0.008418288081884384 0.07353189587593079 0.03885059058666229 -0.043423842638731 -0.07332570105791092 0.055125024169683456 -0.04102471470832825 -0.06125206500291824 0.051509350538253784 -0.04054476320743561 0.07483291625976562 0.06549983471632004 -0.18684828281402588 -0.08829876035451889 0.019269034266471863 -0.1473189890384674 -0.09793214499950409 0.04557013884186745 -0.06525059789419174 0.06035048887133598 0.05720103532075882 -0.09064833074808121 -0.02822018601000309 0.05221094563603401 0.008277310989797115 -0.0770743191242218 0.016934199258685112 -0.020179735496640205 0.031226973980665207 0.06343526393175125 0.013043920509517193 0.058554790914058685 0.06095593422651291 0.029733844101428986 0.013340160250663757 0.03604322671890259 -0.0522703193128109 -0.11955225467681885 0.07045111060142517 -0.08336338400840759 -0.2430330365896225 -0.244538813829422 0.10580911487340927 -0.18977950513362885 -0.22967039048671722 -0.15306344628334045 -0.06611818075180054 0.06340055167675018 -0.33910441398620605 -0.3922783434391022 -0.247542142868042 -0.2128479927778244 -0.28120166063308716 -0.13903358578681946 0.049242325127124786 0.08543887734413147 -0.03877265006303787 -0.24411186575889587 -0.11766134947538376 0.08279424160718918 -0.21234019100666046 -0.16808350384235382 0.10556996613740921 -0.07886358350515366 0.014399617910385132 -0.08047423511743546 0.01983034424483776 -0.015144580975174904 -0.06955868005752563 -0.07172165811061859 -0.03244443237781525 -0.009784073568880558 -0.2532913088798523 -0.16864988207817078 0.013309813104569912 -0.16304710507392883 -0.06173718720674515 0.15213090181350708 -0.019270995631814003 0.11072105169296265 0.19930614531040192 -0.021265514194965363 0.12971244752407074 0.05267828702926636 -0.10421320050954819 0.038503214716911316 0.09667939692735672 -0.021134553477168083 -0.12333502620458603 0.002355832839384675 0.00427409028634429 -0.10711584240198135 -0.13887624442577362 0.08284386247396469 0.010042752139270306 -0.13655684888362885 0.03190481290221214 0.05466829240322113 -0.07794342935085297 0.07345899939537048 0.09506237506866455 0.025960206985473633 0.03858105093240738 0.13160860538482666 0.13509249687194824 -0.021371325477957726 0.05568970367312431 0.08317040652036667 0.05302337929606438 -0.038054209202528 -0.10875234007835388 0.08974991738796234 0.0011723071802407503 -0.1709795445203781 0.07388868182897568 0.06407315284013748 -0.0738397017121315 -0.13742701709270477 0.0505400076508522 0.07881983369588852 -0.041596729308366776 -0.06302802264690399 0.05830489099025726 -0.011215210892260075 -0.009795854799449444 -0.06679095327854156 -0.05227148160338402 0.14566612243652344 0.24833661317825317 -0.11211171746253967 -0.14649102091789246 0.07340974360704422 -0.0338749997317791 -0.006441869307309389 0.06852953881025314 -0.027866214513778687 -0.043472468852996826 -0.2664477825164795 -0.0213736854493618 -0.1104268804192543 -0.10099371522665024 -0.18681500852108002 -0.07718704640865326 -0.14345571398735046 0.05851855129003525 -0.03374820575118065 -0.1137423887848854 0.002605435438454151 0.011218192987143993 -0.11137762665748596 0.024936683475971222 0.005159203894436359 -0.058570876717567444 -0.11206816136837006 -0.03983243927359581 0.02497619390487671 0.05842570960521698 0.011336770839989185 0.008477446623146534 0.017385637387633324 0.08218564093112946 0.03667689114809036 -0.06658363342285156 -0.1337512582540512 -0.0035841381177306175 0.06503555178642273 -0.035457998514175415 -0.062094006687402725 0.05436768755316734 0.11202888190746307 0.036023665219545364 -0.20886725187301636 -0.3130418062210083 0.0051710945554077625 -0.0422729030251503 -0.23781448602676392 -0.11227993667125702 0.07782069593667984 -0.0599244087934494 -0.12596778571605682 0.09878865629434586 0.05365169420838356 -0.10502497106790543 0.0008209249353967607 0.0695207491517067 0.07575130462646484 -0.03888723626732826 0.08003044873476028 0.12956184148788452 0.023536570370197296 -0.0016935276798903942 -0.0949813574552536 0.04894435778260231 0.08072368055582047 -0.00573834078386426 0.09606505930423737 0.05800538510084152 0.04979821667075157 -0.19465035200119019 -0.07687292248010635 -0.04799510911107063 -0.1398298442363739 -0.11207973957061768 -0.14605003595352173 0.1412234753370285 0.09842780977487564 -0.06234302744269371 -0.13487625122070312 -0.09221722185611725 0.0030447770841419697 0.03116292878985405 -0.03711547330021858 -0.018650006502866745 0.041103579103946686 0.05830959603190422 0.046533338725566864 0.09516036510467529 0.010005614720284939 -0.01688864827156067 0.03215399384498596 0.02834468148648739 0.02658776193857193 0.0023427894338965416 0.0976651981472969 0.1323195993900299 0.007945356890559196 0.09839468449354172 0.07718998938798904 -0.010548963211476803 0.07999324798583984 0.08046062290668488 0.07780037820339203 0.0292136799544096 0.11284641176462173 -0.45820853114128113 -0.7145014405250549 -0.1837788075208664 -0.25791287422180176 -0.6865646243095398 -0.28486502170562744 -0.0748009979724884 -0.21878337860107422 -0.1360405832529068 -0.0373278446495533 0.06559792160987854 0.17207367718219757 -0.007025993429124355 -0.01514551043510437 0.03574339672923088 0.042687445878982544 0.04030856117606163 0.0231311172246933 0.01384894922375679 -0.09133098274469376 -0.004678527824580669 0.07440177351236343 -0.14134298264980316 -0.22102925181388855 0.07372142374515533 -0.019151730462908745 -0.1103176698088646 0.05614471808075905 0.16741858422756195 -0.09977272152900696 -0.06452587246894836 0.03632131218910217 0.11035063117742538 -0.08824329078197479 -0.04696139320731163 -0.02166219800710678 -0.07966847717761993 -0.023931795731186867 0.005120536312460899 -0.17451739311218262 -0.0005378512432798743 -0.058032020926475525 -0.07688485085964203 -0.037440281361341476 -0.13707192242145538 0.007094995584338903 0.015156184323132038 0.026571057736873627 0.0249592624604702 -0.03520487621426582 0.03735639899969101 0.031168203800916672 -0.049201466143131256 -0.005019973497837782 -0.005336693022400141 -0.0931972786784172 -0.04360802471637726 -0.06475010514259338 0.04335067793726921 0.012213467620313168 -0.03619058057665825 0.039800189435482025 -0.05510273948311806 -0.21850620210170746 -0.13874489068984985 -0.05569218471646309 0.026274124160408974 0.028807036578655243 0.026653429493308067 0.04525832086801529 -0.0011791151482611895 -0.03301398828625679 0.027163563296198845 -0.062096863985061646 -0.07369029521942139 0.03930143639445305 0.0023367051035165787 0.028155094012618065 0.10336171090602875 0.024512602016329765 0.1264912486076355 -0.18920737504959106 -0.12223215401172638 -0.11246952414512634 -0.05500590801239014 0.0029855617322027683 -0.10622148960828781 0.07058362662792206 0.047345902770757675 0.047249387949705124 -0.013606582768261433 0.017503555864095688 0.06344618648290634 -0.01673174276947975 0.04403972253203392 -0.031745441257953644 0.03759871795773506 -0.006886097136884928 0.04146166890859604 -0.21002814173698425 -0.10805593430995941 -0.12862469255924225 -0.1561521291732788 -0.08403170108795166 -0.13383837044239044 -0.10380832105875015 -0.05994360148906708 -0.12687060236930847 0.13453124463558197 0.03212664648890495 -0.04352511465549469 0.03403893858194351 -0.09294169396162033 -0.06953729689121246 0.005332309287041426 -0.005009509157389402 -0.022438999265432358 0.10868751257658005 0.0747632384300232 0.08849473297595978 0.07011649757623672 0.040571216493844986 0.0766763985157013 -0.008406656794250011 -0.06237339973449707 -0.006725628394633532 0.028959201648831367 0.002381717786192894 0.08285648375749588 -0.08956745266914368 -0.029124345630407333 0.010266867466270924 -0.0030071528162807226 -0.06976904720067978 -0.05951834097504616 -0.0256753321737051 0.007067230064421892 0.0018461965955793858 0.000979631207883358 -0.002728663384914398 0.011309579946100712 0.0832323208451271 -0.006679305341094732 0.005557315889745951 -0.009028716944158077 -0.039345014840364456 -0.030119050294160843 0.054756537079811096 -0.013296224176883698 -0.020180221647024155 0.05106079950928688 0.018884338438510895 0.04418550059199333 -0.1428648978471756 -0.08645961433649063 -0.13088105618953705 -0.12664014101028442 -0.1142033040523529 -0.140912264585495 -0.026813721284270287 -0.10530313849449158 -0.13074931502342224 0.11163078248500824 0.1078764796257019 0.11189047992229462 0.11831266433000565 0.14475353062152863 0.1642215996980667 0.11834082007408142 0.1362682729959488 0.11949767172336578 -0.12935984134674072 -0.03954178839921951 0.027820443734526634 -0.01793874055147171 -0.0019570346921682358 0.060437239706516266 -0.03730659559369087 -0.003885488025844097 0.07999429851770401 -0.12810400128364563 -0.11448191106319427 -0.14631275832653046 -0.1514880210161209 -0.09857026487588882 -0.0795368105173111 -0.0731378123164177 -0.09877719730138779 -0.06530174612998962 -0.027088439092040062 0.21556320786476135 -0.0635857954621315 -0.20012280344963074 0.030637376010417938 -0.27155107259750366 0.1046803891658783 0.15366746485233307 -0.22310103476047516 0.0016920551424846053 0.014167151413857937 0.07679307460784912 0.03039185330271721 0.03395645692944527 0.13106775283813477 -0.05544007197022438 -0.08389118313789368 -0.0028147888369858265 -0.06076240912079811 -0.09374193847179413 -0.15228129923343658 -0.06101587042212486 -0.10928139835596085 -0.1961951106786728 0.0030706520192325115 -0.06674981862306595 -0.19572331011295319 -0.022417200729250908 0.0817679762840271 0.03110470063984394 -0.09810339659452438 0.03989100083708763 0.022563626989722252 0.06039341539144516 0.007351693697273731 -0.009051221422851086 0.001536927535198629 0.020564300939440727 -0.052473362535238266 -0.013064234517514706 -0.04357004538178444 -0.040861159563064575 0.10317984223365784 0.0009768661111593246 -0.07642662525177002 -0.015799133107066154 -0.07899820804595947 -0.07951671630144119 -0.08867097645998001 -0.07297888398170471 -0.0448877178132534 -0.02722657099366188 -0.0596967414021492 -0.03237853944301605 -0.0925629511475563 0.015670374035835266 -0.006065764464437962 0.010880176909267902 -0.019578440114855766 -0.02664995938539505 -0.01927657052874565 0.03158069774508476 0.006741430144757032 -0.1472560614347458 -0.13423427939414978 -0.12088648974895477 -0.1603165715932846 0.06137404590845108 -0.11877691000699997 -0.011450212448835373 -0.04399769380688667 -0.03901800885796547 0.008584911935031414 0.012549782171845436 -0.05215144529938698 0.03832187131047249 -0.024153027683496475 -0.10357216000556946 0.030417615547776222 -0.00266328570432961 -0.06252206116914749 0.05468779057264328 0.0874018594622612 0.04714123159646988 -0.20877288281917572 -0.056951962411403656 0.1088782548904419 -0.10563018918037415 -0.09088242053985596 -0.021492090076208115 -0.048954203724861145 -0.018093319609761238 -0.0019488583784550428 -0.0653521940112114 -0.14613750576972961 -0.05756716430187225 -0.1092749759554863 -0.07891688495874405 -0.016745155677199364 -0.011256254278123379 -0.07089801132678986 -0.09753885120153427 -0.01684696041047573 -0.013342173770070076 -0.1296837329864502 0.015644149854779243 0.028586098924279213 -0.02120615914463997 0.014318892732262611 -0.07139730453491211 0.06373485922813416 0.013925852254033089 -0.05493956804275513 0.011874391697347164 -0.028862927109003067 -0.04529358074069023 -0.06269340962171555 -0.0879255086183548 -0.06713121384382248 -0.07400652766227722 0.021458016708493233 0.041485246270895004 -0.0039032013155519962 0.04666625335812569 0.03767924755811691 0.06256484240293503 0.036157917231321335 0.08930004388093948 0.04925013333559036 -0.015449090860784054 -0.04739732667803764 -0.05700920149683952 0.006844906136393547 0.02871699444949627 -0.0705677717924118 -0.07819347083568573 0.024892080575227737 -0.08856701105833054 -0.03159677982330322 -0.0579272136092186 0.01884716935455799 0.01939317025244236 -0.05315395072102547 -0.07128088921308517 -0.02380378730595112 -0.0008043934940360487 -0.05652007460594177 -0.01403289195150137 -0.014936408028006554 0.010808889754116535 -0.027872132137417793 0.02680022642016411 -0.04216635599732399 -0.037279583513736725 0.0027285583782941103 -0.05955134704709053 0.013752149417996407 -0.0026214737445116043 -0.04951973259449005 -0.010757694952189922 -0.0731189027428627 -0.025736352428793907 0.011486842297017574 0.038267120718955994 -0.05614237114787102 -0.06751228123903275 -0.02941003628075123 -0.05740366503596306 -0.018994620069861412 -0.07572680711746216 -0.04461926594376564 -0.05901573970913887 -0.048094604164361954 -0.02872648276388645 -0.07439637184143066 -0.06744285672903061 -0.039391420781612396 -0.06499845534563065 -0.034488826990127563 -0.02125055342912674 -0.08510147780179977 0.055763889104127884 0.048648297786712646 -0.05998924374580383 -0.019498175010085106 0.013411118648946285 -0.05132480710744858 -0.06542792916297913 0.05782496929168701 0.0026893047615885735 -0.056574057787656784 -0.09155584871768951 0.029748106375336647 0.002035356592386961 -0.060173578560352325 0.013514543883502483 -0.0017875159392133355 -0.02511691115796566 0.04674796387553215 -0.004599014762789011 0.04306640103459358 -0.04139135777950287 -0.0358562134206295 0.0034956084564328194 -0.03409093618392944 0.003450290532782674 -0.022498462349176407 -0.01850166730582714 -0.03766529634594917 0.014285567216575146 -0.003865076694637537 0.000904471380636096 0.025551091879606247 0.05728615075349808 0.04248407855629921 -0.05761292949318886 -0.06722284108400345 -0.011640319600701332 0.005860945209860802 0.0017338688485324383 -0.003999960608780384 0.0014079754473641515 -0.02938682585954666 -0.01738639362156391 0.06091926246881485 -0.0024799276143312454 -0.05986637994647026 -0.030185727402567863 -0.011714759282767773 -0.0059600770473480225 -0.037803150713443756 -0.05961833521723747 0.008440538309514523 -0.017207631841301918 -0.06540457159280777 -0.03487812727689743 0.015215513296425343 0.017987605184316635 0.00352454767562449 -0.07713298499584198 0.0032444309908896685 0.00024035519163589925 -0.012867400422692299 -0.01950518600642681 -0.008522612042725086 -0.03999617323279381 -0.045862846076488495 -0.04465417191386223 -0.04242358356714249 -0.09107068181037903 -0.01554649043828249 -0.08627580851316452 -0.07559220492839813 -0.01982770301401615 -0.0736735463142395 0.04379326105117798 0.015514208935201168 -0.05995975434780121 -0.01391479279845953 -0.05825689807534218 -0.0372297428548336 0.004248648416250944 -0.046058788895606995 0.009749231860041618 -0.0037208343856036663 -0.0356890894472599 -0.014765980653464794 -0.05749756470322609 -0.07756206393241882 -0.00769191375002265 0.03136192634701729 -0.06694962829351425 -0.007234703283756971 -0.019046638160943985 -0.04400814324617386 -0.04137124866247177 0.007918712683022022 -0.015024235472083092 0.010300708934664726 -0.015296136029064655 -0.023500096052885056 0.06489604711532593 -0.020636608824133873 0.03738830238580704 0.03886711597442627 -0.020905913785099983 -0.04836300387978554 -0.057849761098623276 0.0007139833178371191 0.014406783506274223 0.03428664430975914 -0.06222454085946083 -0.008118297904729843 0.050911761820316315 0.030654694885015488 0.04896915331482887 0.046263739466667175 -0.04660305380821228 -0.054675906896591187 -0.03965556249022484 -0.011099760420620441 -0.06156982481479645 -0.01766308769583702 -0.021593378856778145 0.02564815804362297 0.009961234405636787 0.00384154194034636 -0.012006768956780434 -0.010023443028330803 -0.05737559497356415 -0.069341279566288 -0.0528462715446949 -0.06424441933631897 0.006389569025486708 -0.054286956787109375 0.00983294378966093 -0.0058974651619791985 -0.010758023709058762 -0.066783607006073 -0.04455172270536423 -0.08277318626642227 -0.062031034380197525 0.005642044357955456 -0.08617035299539566 -0.014488527551293373 8.746398088987917e-05 -0.08160100132226944 -0.012824865989387035 0.027536043897271156 0.049180299043655396 -0.009740003384649754 0.012817317619919777 -0.034861426800489426 -0.01052661333233118 -0.016959114000201225 -0.04750816896557808 -0.04417257010936737 -0.07238714396953583 0.015431723557412624 -0.0032428153790533543 -0.055932171642780304 -0.042327024042606354 -0.01840658113360405 -0.08059225976467133 0.014736341312527657 -0.002717438852414489 -0.019505254924297333 -0.03440174460411072 0.007522054482251406 -0.0010567777790129185 -0.08069338649511337 0.010328632779419422 -0.051119040697813034 -0.009559007361531258 0.024698959663510323 -0.010147026740014553 -0.055435389280319214 -0.05544055625796318 -0.07038654386997223 -0.048956502228975296 -0.05622285231947899 0.01970706321299076 -0.06395438313484192 -0.01084032841026783 -0.09449322521686554 -0.006430550944060087 0.015506445430219173 -0.08173193037509918 -0.05150946229696274 -0.009932960383594036 -0.08466245234012604 -0.04697388783097267 -0.01995517686009407 0.011842743493616581 -0.03602498024702072 -0.020958779379725456 -0.07616724818944931 -0.07630167156457901 0.014594914391636848 0.010334308259189129 -0.05686541274189949 -0.0591014139354229 -0.04637855663895607 -0.017003586515784264 -0.06480707228183746 -0.046226393431425095 -0.0640731006860733 -0.05318157374858856 -0.0068678539246320724 0.004333110060542822 -0.014702579006552696 -0.05866878107190132 0.04804530367255211 0.019768940284848213 0.012272553518414497 -0.006026242394000292 0.014209521934390068 0.044357653707265854 -0.07185931503772736 -0.07040848582983017 -0.04106729477643967 -0.04151787608861923 -0.0753517672419548 -0.08879071474075317 -0.07681424170732498 -0.027970090508461 0.036580003798007965 -0.007151891943067312 -0.00219128024764359 -0.05286237969994545 -0.04770781099796295 -0.013630097731947899 -0.09882357716560364 -0.05391870439052582 -0.023372815921902657 0.01759062521159649 -0.05686217173933983 0.020823292434215546 -0.02908238396048546 -0.0799417570233345 0.015935620293021202 0.03951720520853996 -0.08266966789960861 -0.17185699939727783 -0.03828165680170059 -0.12543036043643951 0.004735755268484354 -0.06191674992442131 -0.07406606525182724 0.046806540340185165 0.14240212738513947 0.11134018003940582 -0.19059549272060394 -0.4147994816303253 -0.33421066403388977 -0.4841693639755249 -0.4284179210662842 -0.42417359352111816 -0.25744104385375977 -0.16834677755832672 -0.06440091133117676 0.018375327810645103 -0.07745209336280823 0.09037820994853973 0.07071385532617569 -0.03639337047934532 -0.1062311977148056 -0.01757103204727173 -0.08243775367736816 -0.12708653509616852 -0.05980870872735977 -0.29426196217536926 -0.11986908316612244 -0.07480434328317642 -0.17527012526988983 -0.10458415746688843 0.061562493443489075 0.05824756249785423 0.049660880118608475 -0.014914172701537609 -0.009634855203330517 -0.012371882796287537 0.04749070480465889 0.13355213403701782 -0.008040458895266056 0.09089942276477814 0.11157597601413727 0.015455065295100212 -0.08017153292894363 -0.01950383372604847 -0.020406672731041908 -0.00358216161839664 -0.024778258055448532 0.04846900701522827 0.05909440293908119 0.09068302065134048 0.10684842616319656 0.03138889744877815 0.0626102015376091 0.03268604353070259 -0.07401320338249207 0.008877516724169254 -0.028496962040662766 -0.05691857635974884 -0.015250996686518192 0.018541019409894943 -0.25032681226730347 -0.3285396695137024 -0.37495771050453186 -0.3963792324066162 -0.3413107395172119 -0.2929977774620056 -0.10072514414787292 -0.12188885360956192 -0.01316282618790865 -0.19855067133903503 -0.04612722620368004 0.054527539759874344 0.0178984347730875 -0.001174267614260316 -0.01987912319600582 -0.04023967310786247 0.05577356740832329 0.11847101151943207 -0.17661964893341064 -0.21736331284046173 -0.16636967658996582 -0.26295313239097595 -0.26732558012008667 -0.14622221887111664 -0.21533292531967163 -0.18486298620700836 -0.03492956981062889 0.06492802500724792 -0.03340582922101021 -0.00759667856618762 -0.08930562436580658 -0.23857013881206512 -0.07023576647043228 -0.22521397471427917 -0.33698123693466187 -0.076511450111866 0.060824405401945114 -0.13916002213954926 -0.09833508729934692 0.09968098998069763 0.04357480630278587 -0.01730716973543167 0.027872739359736443 0.0521816648542881 -0.08795858919620514 0.005117937456816435 0.011612679809331894 0.007071522995829582 -0.09167594462633133 -0.05224662646651268 0.04194709286093712 -0.04702502861618996 0.0025308243930339813 -0.03858643025159836 0.028670303523540497 0.06335531175136566 -0.01593964174389839 0.027692798525094986 -0.013821406289935112 0.046864792704582214 0.05100654810667038 -0.05220097303390503 0.04076185077428818 -0.0021357517689466476 0.022786783054471016 0.025597117841243744 0.035018399357795715 0.03314163163304329 0.08497946709394455 0.05617824196815491 0.05730722099542618 0.0929313451051712 -0.03469280153512955 -0.07237906754016876 -0.05083125829696655 -0.002832185709849 0.06499658524990082 -0.015393281355500221 0.07391238212585449 0.08872996270656586 0.15736563503742218 0.14507624506950378 -0.08564054220914841 0.022348636761307716 0.07033751904964447 0.001206335611641407 0.00012210506247356534 0.02688038907945156 0.0420416034758091 0.06403660029172897 0.4901273250579834 0.1540360301733017 -0.0903489738702774 0.08356733620166779 0.009219883941113949 -0.08508115261793137 -0.0041437288746237755 -0.291042685508728 -0.22362476587295532 0.09051927924156189 0.013954095542430878 0.08221134543418884 0.05374006927013397 -0.04126880690455437 -0.029406815767288208 0.027335934340953827 0.00147932767868042 -0.09702330827713013 0.022117506712675095 0.047018613666296005 -0.03085659071803093 -0.03757353127002716 0.051799628883600235 0.056324366480112076 0.05437282472848892 -0.025117045268416405 -0.008571028709411621 -0.03159395605325699 0.0479879267513752 0.05888039991259575 -0.15569792687892914 -0.041455525904893875 0.15983706712722778 0.12296584993600845 0.06475348770618439 0.11599758267402649 -0.13529066741466522 -0.1762450486421585 -0.0389779694378376 -0.16893525421619415 -0.05601710081100464 0.08292408287525177 0.051994070410728455 -0.011384700424969196 -0.0010630463948473334 -0.1273457556962967 -0.054149433970451355 0.0681379958987236 