0.051877710968256 0.0263987984508276 0.038075871765613556 0.09334024786949158 0.07549549639225006 -0.0013931372668594122 -0.009276685304939747 -0.020534183830022812 -0.032681114971637726 -0.0011500364635139704 -0.0022837286815047264 -0.04941188544034958 -0.004396448377519846 -0.02017855830490589 0.08208915591239929 0.07939570397138596 -0.0815349817276001 0.10238652676343918 0.0790555477142334 0.02010326087474823 -0.04320530220866203 -0.056787267327308655 -0.1130509078502655 -0.0060105216689407825 0.05346916988492012 0.07836443185806274 -0.0038505438715219498 -0.014458047226071358 0.04778017848730087 0.045303985476493835 -0.016838496550917625 0.10223878175020218 0.11540780961513519 0.07950221002101898 0.06615865975618362 0.01168054062873125 -0.025836320593953133 0.0359564907848835 0.0002344556269235909 0.019899724051356316 0.023072777315974236 0.015734637156128883 0.031001737341284752 0.050385329872369766 -0.03070550225675106 0.12749408185482025 -0.041999153792858124 -0.09348324686288834 0.06318937242031097 -0.1306428164243698 -0.24998897314071655 -0.029324673116207123 -0.2379995435476303 -0.17477992177009583 0.010812212713062763 -0.014932096004486084 -0.07778841257095337 -0.0026724382769316435 -0.007756426930427551 -0.015998082235455513 0.031127113848924637 0.025033434852957726 0.05380674824118614 -0.10098329186439514 0.0195027943700552 0.08535357564687729 -0.1536778062582016 -0.035792864859104156 -0.0489874966442585 -0.15287846326828003 -0.1109727993607521 -0.26810145378112793 -0.24446047842502594 -0.12137940526008606 -0.09348851442337036 -0.22538742423057556 -0.11044662445783615 0.004172038286924362 -0.2850383520126343 -0.11410858482122421 -0.13008606433868408 -0.057585880160331726 -0.12024953216314316 -0.06230853497982025 -0.008002008311450481 -0.18468041718006134 -0.3049517869949341 0.08111821860074997 -0.03140880540013313 -0.18360163271427155 0.10616310685873032 0.07835876196622849 0.030992070212960243 -0.01962912082672119 0.015496263280510902 -0.09972482919692993 0.10896230489015579 -0.01374875195324421 -0.15545658767223358 -0.11074815690517426 0.04577559977769852 -0.06362397968769073 -0.02494874596595764 0.057940516620874405 0.035165950655937195 0.06506192684173584 0.09876403212547302 0.07967101037502289 0.10765206813812256 -0.008371462114155293 -0.07329100370407104 -0.048597969114780426 -0.09807218611240387 -0.19430240988731384 0.04172933101654053 -0.004030440002679825 -0.02958781085908413 0.030596090480685234 -0.05709244683384895 -0.08592221885919571 0.019664285704493523 -0.05269472301006317 -0.07971279323101044 -0.08682655543088913 0.09924425184726715 0.09477680921554565 -0.06321416795253754 -0.09241137653589249 -0.12896448373794556 0.06400109082460403 0.008005140349268913 -0.036123715341091156 0.1637682318687439 0.09945110976696014 0.0963391363620758 -0.026468835771083832 -0.04768786579370499 -0.052912063896656036 -0.013284184969961643 0.04143426567316055 0.04179982468485832 0.024413878098130226 0.021555263549089432 -0.034365445375442505 -0.05450236797332764 0.09852989763021469 0.0033246814273297787 -0.17091646790504456 -0.14616388082504272 -0.004786170087754726 -0.006619665771722794 -0.018606388941407204 0.08605802804231644 0.016699979081749916 -0.1869475096464157 -0.16229167580604553 0.042373429983854294 -0.05877852439880371 -0.17109036445617676 0.16322410106658936 0.08448638767004013 -0.06042776256799698 0.13966813683509827 0.12534622848033905 0.10669875890016556 0.10142895579338074 0.06179551035165787 0.12312696874141693 0.1256515085697174 0.05417189747095108 0.12753617763519287 0.07598070800304413 0.005582737736403942 0.01257990300655365 0.010519862174987793 0.06216883286833763 0.042386673390865326 0.06863990426063538 -0.02991490252315998 -0.0031954804435372353 -0.08110889792442322 -0.03511366248130798 -0.03211366385221481 -0.05109633877873421 -0.03618445247411728 -0.04385243356227875 -0.05167047306895256 -0.09172894805669785 0.002097568241879344 0.05988500267267227 0.0002805340336635709 -0.07890325039625168 0.004410072695463896 -0.09452463686466217 0.019146380946040154 -0.11046652495861053 0.007695434149354696 0.07646572589874268 -0.04631200432777405 -0.05000489950180054 0.033081721514463425 0.0174479428678751 0.03124167211353779 -0.110208660364151 0.1155298501253128 0.095624178647995 0.007444285321980715 -0.03125907853245735 -0.06343547254800797 -0.03168448433279991 0.009527385234832764 0.059464313089847565 0.007282394450157881 -0.05984961614012718 0.003004651516675949 -0.026338592171669006 -0.061266299337148666 -0.006009948905557394 -0.18006055057048798 0.04991421848535538 -0.10894742608070374 -0.1257818043231964 -0.07362871617078781 0.06604257971048355 0.108144611120224 -0.04282667115330696 0.047282278537750244 0.0063762664794921875 -0.050261240452528 -0.008685579523444176 0.011628850363194942 -0.015008180402219296 -0.010450036264955997 0.0024777043145149946 0.050558220595121384 -0.03785393014550209 -0.07364390790462494 0.06245166063308716 0.04505712538957596 0.05392466485500336 0.13414745032787323 0.15499542653560638 0.11872971802949905 0.024078989401459694 -0.14522528648376465 -0.1544741988182068 0.14243663847446442 0.06169835478067398 0.1723303198814392 0.050837669521570206 0.15134842693805695 0.16467823088169098 0.1249365285038948 -0.03377380967140198 -0.2126515805721283 0.09619004279375076 -0.21177391707897186 -0.40222373604774475 0.08761193603277206 0.13438789546489716 -0.09472151100635529 -0.2837119996547699 -0.29240190982818604 -0.16437049210071564 -0.04008982330560684 -0.23987719416618347 -0.3030516505241394 -0.13849735260009766 -0.17533421516418457 -0.18369048833847046 -0.012260020710527897 -0.040621317923069 -0.07721705734729767 -0.012883094139397144 -0.06907350569963455 -0.10051727294921875 -0.056052807718515396 -0.05517612770199776 0.017068972811102867 0.2440473735332489 0.11589586734771729 -0.09887237846851349 0.12986375391483307 -0.10172919183969498 -0.1420336216688156 0.2817074954509735 -0.14360691606998444 -0.11343169957399368 0.002823874121531844 0.08225129544734955 0.02533283643424511 0.03748195990920067 0.1316627711057663 0.13257868587970734 0.03673474118113518 0.10939305275678635 0.13451862335205078 0.014520685188472271 0.0994715690612793 0.037564147263765335 0.06598488986492157 0.07580244541168213 0.04526194557547569 0.03954865410923958 0.06343253701925278 0.06175139173865318 -0.0765107125043869 -0.00432938477024436 -0.0410136803984642 0.004153032321482897 -0.011289463378489017 -0.0007923342054709792 -0.10003076493740082 0.01183705311268568 0.098115473985672 -0.08124414831399918 -0.09568856656551361 -0.05933569744229317 0.004645505920052528 0.09099502116441727 0.16413690149784088 -0.05141495168209076 0.07665488868951797 0.29056137800216675 -0.05341009795665741 0.029795058071613312 0.031271133571863174 0.05040420591831207 0.0018711142474785447 -0.016215652227401733 0.01939784176647663 -0.011256841011345387 -0.06001786142587662 -0.014741601422429085 -0.15013301372528076 0.09991728514432907 -0.10029976814985275 -0.32294467091560364 -0.15804316103458405 0.009396078065037727 -0.24517600238323212 -0.1726561337709427 0.05315665900707245 -0.021421482786536217 0.06599723547697067 0.011035268194973469 0.06330150365829468 0.0213859211653471 0.04905405640602112 -0.01484793983399868 0.043108586221933365 0.12612736225128174 -0.03833330422639847 -0.043007493019104004 0.02292700484395027 0.0018353902269154787 0.10264357179403305 -0.09570891410112381 0.07431457936763763 0.1847052276134491 -0.04946959391236305 -0.1144556924700737 -0.04731030762195587 0.014115056954324245 0.04728859290480614 0.149471715092659 0.06764153391122818 0.08001875877380371 0.11961770802736282 -0.14213526248931885 -0.015193934552371502 0.05284535139799118 -0.05783967301249504 -0.0167918112128973 0.09365623444318771 -0.024744249880313873 -0.10640295594930649 -0.05700153857469559 -0.006915959995239973 -0.03977803513407707 0.04990706965327263 0.004498838447034359 0.04802960902452469 0.07493191957473755 -0.058677755296230316 0.06522193551063538 0.10903564840555191 0.1290089637041092 0.10478176921606064 0.08403625339269638 -0.009420173242688179 0.03365897387266159 0.008010799996554852 -0.01521398313343525 0.0015455130487680435 0.007814076729118824 -0.11249067634344101 -0.007203005254268646 0.06172721087932587 -0.13822098076343536 -0.2515279948711395 -0.11604973673820496 -0.04514572024345398 -0.1832401305437088 -0.14514873921871185 -0.053513675928115845 -0.010309576988220215 0.03465455397963524 -0.06522152572870255 0.03243265300989151 0.03048698790371418 -0.007705485448241234 -0.09508717805147171 -0.12186424434185028 0.12601740658283234 0.12817460298538208 0.08731858432292938 0.03082646057009697 0.08467569202184677 0.0311984084546566 -0.024772746488451958 0.10288970917463303 0.06015464663505554 0.038456741720438004 -0.031288884580135345 -0.022795304656028748 0.02731437236070633 0.008681206032633781 0.03702817112207413 0.002548776101320982 0.047168243676424026 -0.040449339896440506 0.06114714592695236 0.06764058023691177 0.025434087961912155 -0.02152366377413273 0.09012001752853394 0.036463916301727295 -0.06600194424390793 -0.032018035650253296 0.019222548231482506 0.07456409931182861 -0.0758308619260788 0.16147424280643463 0.023823389783501625 0.012089059688150883 0.04253239929676056 -0.041036732494831085 -0.053540054708719254 -0.08258137106895447 -0.06362251937389374 0.036735862493515015 -0.02102397195994854 -0.06108066812157631 0.03808639943599701 0.013445543125271797 -0.03053596243262291 -0.11809093505144119 -0.05379336699843407 -0.02630186639726162 -0.017678530886769295 0.0748746320605278 -0.02347980998456478 0.0453532338142395 0.05950259044766426 0.04992026090621948 0.06172472611069679 0.06359832733869553 -0.016412226483225822 -0.0403013676404953 -0.04450473561882973 -0.07898574322462082 -0.017514605075120926 -0.0617016963660717 0.01860586181282997 -0.06395666301250458 0.04120437428355217 -0.09693355113267899 0.10008316487073898 0.14003469049930573 -0.11375945806503296 -0.22444932162761688 -0.02551800198853016 -0.06349201500415802 -0.233621746301651 -0.09419839084148407 0.1379978209733963 0.06461495906114578 0.15600210428237915 0.25718146562576294 0.1102260947227478 -0.15632294118404388 0.23677942156791687 0.0389518104493618 -0.14415758848190308 -0.031217006966471672 0.020113637670874596 0.035088181495666504 0.034635432064533234 -0.0370187982916832 0.020962491631507874 0.009956298395991325 -0.03379185497760773 0.0011370840948075056 -0.2154228836297989 -0.07451356947422028 0.07801736146211624 -0.2512025833129883 -0.07214652001857758 0.1344366818666458 -0.07353485375642776 0.06136534735560417 0.12211591005325317 0.04314189776778221 0.05734899640083313 0.02607608027756214 -0.04167166352272034 -0.003723139874637127 -0.04203988239169121 -0.045721862465143204 0.04074064642190933 0.027423176914453506 -0.13560868799686432 0.009250206872820854 -0.05464554950594902 -0.30953308939933777 -0.17835965752601624 -0.09640132635831833 -0.3104083240032196 -0.2016972452402115 0.024712862446904182 -0.06185004487633705 0.11014410853385925 -0.07222955673933029 -0.05599125474691391 0.05955571308732033 0.05456499010324478 -0.12930485606193542 0.03892985358834267 0.11400365829467773 0.03316725790500641 0.09236785769462585 0.09689710289239883 -0.022756384685635567 -0.07355371862649918 0.026695936918258667 -0.05893212929368019 -0.2236500233411789 -0.1837170571088791 0.0017985585145652294 -0.06948579102754593 0.08343645930290222 0.05474308505654335 0.01683751307427883 -0.0875646099448204 0.12042750418186188 0.11308842152357101 0.01548099610954523 0.03303774818778038 0.04074527695775032 -0.01597592979669571 0.07639976590871811 0.05794220045208931 0.05470385402441025 -0.00014382741937879473 0.05384514480829239 0.057390473783016205 0.05306049436330795 0.025187095627188683 0.04194403812289238 0.08291851729154587 0.12804313004016876 0.0639202743768692 0.018779654055833817 -0.07984024286270142 -0.13194075226783752 -0.058238089084625244 0.022625016048550606 0.004853966645896435 -0.07510318607091904 -0.059827838093042374 0.04019369184970856 -0.012279516085982323 -0.07376335561275482 -0.015756186097860336 0.0036098819691687822 1.923525360325584e-06 -0.03642477095127106 -0.056009840220212936 -0.05390582233667374 -0.052204642444849014 -0.06968028098344803 -0.06992451101541519 0.007658774498850107 -0.023986410349607468 -0.015849322080612183 -0.07966884970664978 -0.015088477171957493 0.01974332518875599 -0.002380485413596034 -0.012564210221171379 -0.03702373802661896 0.025504928082227707 -0.03554952144622803 -0.02714054100215435 -0.007247567176818848 -0.027277091518044472 -0.012756810523569584 -0.024259887635707855 -0.0655955895781517 -0.009828077629208565 0.01397420559078455 -0.05765397474169731 0.020581893622875214 0.008544276468455791 -0.038056712597608566 0.041120536625385284 0.03806554153561592 0.017891952767968178 -0.026015685871243477 0.01316858734935522 0.030368957668542862 -0.005791806615889072 -0.025599386543035507 -0.009375229477882385 -0.06880053132772446 0.0427410714328289 0.005787106696516275 -0.04089248552918434 -0.010640583001077175 -0.030909521505236626 -0.00907784141600132 -0.037734247744083405 0.015888337045907974 0.028566347435116768 -0.018215417861938477 0.03171054273843765 0.041792821139097214 -0.0530548095703125 -0.04082337021827698 -0.0015254458412528038 -0.03808607533574104 0.0361967459321022 0.05132640153169632 -0.033676110208034515 -0.019102364778518677 0.0037785000167787075 0.049460962414741516 -0.04909314215183258 0.018822675570845604 -0.04843660071492195 -0.0502626933157444 0.0523318313062191 0.0343782976269722 -0.05748097971081734 0.03523262217640877 -0.04230286180973053 0.04736343398690224 0.00638112798333168 -0.02090577594935894 0.0031291060149669647 -0.011233622208237648 -0.0026722000911831856 -0.06811105459928513 0.02907511591911316 -0.04184431955218315 -0.006162245757877827 -0.052799042314291 -0.041550178080797195 -0.023244688287377357 -0.005003724247217178 -0.0635867714881897 -0.01934300921857357 0.008679887279868126 -0.03735021501779556 -0.003479619277641177 -0.04163141921162605 -0.061192139983177185 -0.020492374897003174 0.028409499675035477 -0.008151463232934475 -0.0521857813000679 0.035433538258075714 -0.019499050453305244 -0.058164309710264206 0.013690645806491375 -0.05746496096253395 0.04032585769891739 -0.0026207950431853533 0.014722897671163082 -0.05197133123874664 0.011849122121930122 -0.017393574118614197 -0.010939252562820911 0.0167101938277483 -0.05304872989654541 -0.04068171977996826 -0.05465180054306984 -0.024212393909692764 -0.0024066418409347534 0.008532500825822353 0.015135066583752632 -0.03366390988230705 -0.008092431351542473 0.012824641540646553 -0.03682679682970047 -0.0664774551987648 -0.022126302123069763 -0.03699592500925064 0.027969704940915108 0.00940579641610384 0.008436703123152256 0.025045743212103844 -0.05209802836179733 -0.03093210607767105 -0.048191558569669724 -0.01422336045652628 -0.041591472923755646 -0.0025402677711099386 -0.027003183960914612 0.011693352833390236 -0.0573590062558651 -0.038622982800006866 0.038360532373189926 0.036876291036605835 0.0020784451626241207 -0.02891717292368412 -0.060335129499435425 0.0392470546066761 -0.008801770396530628 -0.019328534603118896 -0.015209430828690529 -0.024548685178160667 0.02256922982633114 -0.047343943268060684 -0.013355666771531105 0.0288905780762434 -0.02220308780670166 0.02078625187277794 0.0043336497619748116 -0.05962153896689415 -0.003560404060408473 -0.015199476853013039 -0.04822404682636261 -0.03656291589140892 0.03886495903134346 0.024226535111665726 0.05536539852619171 0.055351708084344864 0.014036607928574085 -0.018714549019932747 0.02816031128168106 -0.031219813972711563 0.04630344733595848 0.05273735523223877 0.04843360558152199 0.03923173248767853 -0.02269185706973076 -0.023640722036361694 -0.021252717822790146 -0.05280744284391403 0.055574119091033936 -0.030896499752998352 -0.00064389145700261 -0.016375750303268433 0.005147172138094902 -0.05938989296555519 -0.007994757033884525 0.0391656719148159 -0.030854512006044388 0.001056217122823 0.016579825431108475 0.038356341421604156 -0.06667370349168777 -0.029038866981863976 -0.04314553365111351 -0.056952450424432755 -0.0626029297709465 -0.004778162110596895 0.028251100331544876 0.0036977713461965322 -0.01877254620194435 -0.03191256523132324 -0.056910306215286255 0.05849466472864151 0.023355457931756973 -0.05045014247298241 0.013691158033907413 0.04052642360329628 0.03606420010328293 0.052796028554439545 0.05162323638796806 0.040569521486759186 -0.02162453532218933 0.006264414172619581 0.011096129193902016 -0.05999520793557167 0.009824315086007118 -0.045919112861156464 0.047255028039216995 0.030457250773906708 0.0528753362596035 0.05002561956644058 0.053460005670785904 -0.05783113092184067 -0.04984987527132034 -0.05018414556980133 0.04689330607652664 -0.031034614890813828 0.039862003177404404 0.01818706840276718 0.05202117934823036 -0.035797834396362305 -0.01470971293747425 -0.05699395015835762 -0.05135178938508034 -0.05379825830459595 0.013438072055578232 -0.03756629303097725 -0.005603400990366936 0.03703932464122772 0.020963940769433975 0.008193280547857285 -0.042100731283426285 0.024800477549433708 0.018189243972301483 -0.06454513221979141 -0.022817635908722878 -0.05503252148628235 -0.023783395066857338 0.003392709419131279 -0.06254713237285614 -0.05467384308576584 0.01316219475120306 0.04515065625309944 -0.03194640576839447 0.023119263350963593 -0.05639623478055 -0.029255377128720284 0.02470937743782997 -0.028235536068677902 0.0007773192483000457 -0.04436788335442543 0.011288486421108246 -0.021206621080636978 -0.01950058713555336 0.011694970540702343 0.004817536566406488 0.031043197959661484 -0.014065025374293327 -0.028548644855618477 0.033507876098155975 -0.011312908492982388 -0.05996318534016609 -0.049632616341114044 0.0007894420996308327 -0.007430593017488718 -0.06416486948728561 0.00733802979812026 -0.0065967426635324955 -0.010154880583286285 -0.02947007119655609 -0.007523688487708569 -0.04919563606381416 -0.27369216084480286 -0.02847927436232567 0.1800687462091446 -0.28994080424308777 -0.12219256162643433 0.12637917697429657 -0.1402675062417984 -0.006260889582335949 0.05439828708767891 -0.010346629656851292 -0.17468294501304626 -0.2452600747346878 -0.004222624469548464 -0.07442796975374222 -0.16837933659553528 0.16810926795005798 -0.015057810582220554 -0.10666792094707489 -0.1587902158498764 -0.08415001630783081 0.2421974092721939 -0.2788248658180237 -0.021106496453285217 0.2265087366104126 -0.1029542088508606 -0.03214234486222267 0.07890577614307404 -0.18872709572315216 0.010605020448565483 0.08407089114189148 0.08384545892477036 0.07447478175163269 0.14514145255088806 0.024941911920905113 0.08470160514116287 0.1707124412059784 -0.031691811978816986 -0.020077362656593323 -0.02961750514805317 0.04045000299811363 -0.0655142292380333 -0.019722839817404747 0.06707275658845901 -0.011064238846302032 -0.08150455355644226 0.13956764340400696 0.06438763439655304 -0.007075086236000061 0.11052288860082626 -0.013918259181082249 -0.04081041365861893 0.14399395883083344 -0.05510129779577255 -0.12424039840698242 -0.00761511642485857 -0.10798482596874237 -0.06850437819957733 -0.01795998401939869 -0.03342056646943092 -0.05861493945121765 -0.019243206828832626 -0.00725930742919445 -0.012919866479933262 -0.14589235186576843 -0.07629673182964325 -0.10923509299755096 -0.034651368856430054 0.048458993434906006 -0.05428820848464966 0.08562521636486053 0.17424088716506958 0.00686733890324831 -0.038828637450933456 0.11192431300878525 0.22732651233673096 -0.1284002661705017 0.02841976471245289 0.13146445155143738 -0.1292213350534439 0.0024153743870556355 0.1056191474199295 0.026238523423671722 0.15672454237937927 0.13406512141227722 0.05796029791235924 0.13134314119815826 0.1192731037735939 0.02997836098074913 0.0664723590016365 -0.040984656661748886 -0.1612023562192917 -0.038132116198539734 0.2689712643623352 -0.15442204475402832 -0.12837553024291992 0.1889381855726242 -0.1496337503194809 0.007690467871725559 0.18077686429023743 -0.031772781163454056 -0.0015783170238137245 0.04643280804157257 -0.0336921289563179 -0.017352769151329994 0.044927097856998444 -0.041003983467817307 -0.0006878108251839876 0.02463308721780777 -0.008327103219926357 0.05141277611255646 -0.011222722940146923 0.062252867966890335 0.06625252962112427 -0.12362098693847656 0.07064487785100937 0.029692983254790306 -0.1580401360988617 0.044108375906944275 0.06025721877813339 0.027665287256240845 -0.12277564406394958 -0.14784348011016846 -0.023035861551761627 -0.03613591566681862 -0.1356401890516281 -0.1159815788269043 -0.0445576012134552 0.021373821422457695 0.015432764776051044 -0.08271729946136475 0.05867374688386917 0.05636609345674515 -0.06532944738864899 0.013679513707756996 0.09048532694578171 -0.05145787075161934 -0.06310772895812988 0.037707388401031494 0.0022651657927781343 0.027212731540203094 0.00011775928578572348 -0.0015186035307124257 -0.008318566717207432 0.022750573232769966 -0.08539848029613495 -0.14094841480255127 -0.07447738200426102 0.0620594248175621 -0.07744041830301285 0.04145237058401108 0.14605304598808289 -0.014621888287365437 0.05155684053897858 -0.037090882658958435 0.08388303965330124 0.13646362721920013 -0.05364106968045235 0.09411528706550598 0.014041046611964703 0.04120795801281929 0.040323879569768906 0.08955373615026474 0.021994413807988167 -0.014032332226634026 -0.042940109968185425 0.11548741161823273 0.0660720095038414 0.0967731699347496 -0.006917574442923069 -0.005558210890740156 -0.023286350071430206 -0.0201428160071373 -0.05573903024196625 -0.014849756844341755 0.0014920707326382399 -0.002003027591854334 0.0174008309841156 -0.05896100029349327 -0.06783467531204224 0.02043524757027626 -0.09527391195297241 0.04131574183702469 0.023921165615320206 -0.035551901906728745 0.011144434101879597 0.0752546563744545 -0.005159671418368816 -0.03688123822212219 -0.017428360879421234 0.018523572012782097 -0.008548291400074959 -0.025766080245375633 -0.007997939363121986 0.07356120645999908 -0.07396165281534195 -0.1702546924352646 0.002546661300584674 -0.13837142288684845 0.014291773550212383 -0.05632000416517258 0.05559324845671654 0.0038964676205068827 0.048602186143398285 0.025123272091150284 -0.019756030291318893 -0.029880452901124954 0.09134621918201447 -0.016130724921822548 0.06786246597766876 0.056024812161922455 -0.03401217609643936 0.014188770204782486 -0.04958654195070267 0.019214622676372528 -0.0006295964121818542 -0.039593953639268875 -0.14590585231781006 0.043613284826278687 -0.07156789302825928 -0.2828379273414612 -0.15288479626178741 -0.24229788780212402 -0.18803420662879944 -0.1322689801454544 -0.33927780389785767 0.01776769384741783 -0.025384344160556793 0.023288756608963013 0.05700548738241196 -0.021909315139055252 -0.00422313529998064 -0.0005725699593313038 0.018668295815587044 -0.009924986399710178 -0.16775883734226227 -0.0302188228815794 -0.13043758273124695 -0.10977965593338013 -0.18458794057369232 -0.17465601861476898 0.011242788285017014 -0.12600001692771912 -0.16667519509792328 -0.3011572062969208 -0.045071449130773544 0.12033473700284958 -0.30323418974876404 -0.05098005384206772 0.08673333376646042 0.011842848733067513 0.05518755316734314 0.1634638011455536 0.08065878599882126 0.18449966609477997 0.02743496000766754 0.04603681340813637 0.11071726679801941 0.03603820130228996 -0.021891072392463684 0.10477893054485321 0.03516695648431778 -0.1580013483762741 -0.06455565989017487 0.07593396306037903 -0.36613553762435913 -0.2795493006706238 -0.030702054500579834 -0.407749742269516 -0.18686127662658691 -0.1325850635766983 0.05388462170958519 0.0624542310833931 0.07838810980319977 0.015831882134079933 -0.009605279192328453 -0.06663989275693893 -0.1541682332754135 -0.03560379892587662 -0.035919565707445145 0.09279096126556396 -0.09245677292346954 -0.1295463889837265 0.07503309100866318 -0.004193165805190802 -0.02780417539179325 0.21689896285533905 0.139237642288208 0.11562439054250717 0.08277913928031921 0.0327046774327755 0.05072343721985817 0.036217521876096725 0.027562113478779793 0.04026074334979057 0.04979812353849411 -0.0013331263326108456 0.03801866993308067 0.09796442836523056 0.12451323866844177 0.08965758234262466 0.027059834450483322 -0.02714361436665058 -0.04924219101667404 -0.04829273372888565 -0.21735863387584686 -0.23098117113113403 -0.16079609096050262 0.02862193062901497 0.11789240688085556 -0.07321470975875854 0.045700736343860626 -0.12723252177238464 0.08632523566484451 0.007538652513176203 -0.10354723036289215 -0.009644337929785252 0.0007354101398959756 0.1333809643983841 -0.07508968561887741 0.10696448385715485 0.1099780723452568 -0.11655222624540329 -0.0820332020521164 0.06324928253889084 0.009267524816095829 0.06442375481128693 -0.02511480823159218 0.00777991721406579 0.06801925599575043 0.013678090646862984 -0.04973093420267105 0.005284812767058611 -0.004947925917804241 0.07923353463411331 -0.018960613757371902 -0.14582307636737823 0.15664973855018616 -0.031167738139629364 -0.06426619738340378 0.06518033146858215 -0.16292022168636322 -0.1528363674879074 0.05020635947585106 0.0005492177442647517 -0.03858094662427902 0.04634581506252289 0.04870131239295006 0.03528992459177971 -0.002273672493174672 0.018675288185477257 -0.018630288541316986 0.10249467194080353 0.04727218672633171 0.1522151678800583 0.1418055295944214 -0.01620166003704071 0.1256720870733261 0.059075672179460526 0.06974372267723083 0.11822592467069626 0.12589584290981293 0.05350154638290405 -0.025089841336011887 0.17113131284713745 -0.000729405670426786 -0.044912420213222504 -0.07018371671438217 -0.08758585900068283 -0.1697477549314499 0.15663959085941315 0.0469965934753418 -0.07062670588493347 -0.056824054569005966 -0.1396901160478592 -0.16651350259780884 -0.0070457449182868 -0.18807420134544373 -0.1621234118938446 0.05469143018126488 0.10830710083246231 0.15917056798934937 0.003091520629823208 0.06140150874853134 0.06480497121810913 0.004808514378964901 -0.03377047926187515 -0.07305166870355606 -0.16124920547008514 -0.06701125204563141 0.041443947702646255 -0.09307122975587845 -0.048207126557826996 0.03488076105713844 -0.03957968205213547 -0.028991589322686195 0.00017062312690541148 0.07248691469430923 0.14777694642543793 -0.011894137598574162 0.1360855996608734 0.1320425420999527 0.06649364531040192 -0.058203671127557755 -0.08572651445865631 -0.020670108497142792 -0.22273841500282288 -0.15387676656246185 -0.42071282863616943 -0.11924517899751663 -0.1252836436033249 -0.28859394788742065 -0.02717386744916439 -0.035997893661260605 -0.22429083287715912 -0.03570149093866348 -0.0038148718886077404 -0.03383176028728485 -0.05128464475274086 0.028247026726603508 0.021741848438978195 -0.028605880215764046 0.04254204407334328 0.06057332083582878 -0.0833321139216423 -0.015974953770637512 -0.002769098151475191 0.012734305113554 -0.04753928631544113 0.04458336904644966 0.009582407772541046 0.006746895611286163 0.007615049369633198 -0.04881817102432251 -0.0028584811370819807 0.04173317924141884 -0.043612830340862274 -0.05756434425711632 -0.04177352413535118 0.008417757228016853 -0.07737107574939728 -0.10327649116516113 0.16075614094734192 0.03705492988228798 -0.03455733135342598 0.10959197580814362 -0.0024266925174742937 -0.059410106390714645 0.03202253580093384 -0.09077201038599014 -0.05660836771130562 -0.19638235867023468 0.01752442866563797 -0.029456591233611107 0.0009929923107847571 0.15538287162780762 0.08742626756429672 0.06808943301439285 0.030121736228466034 0.08703712373971939 0.025063281878829002 -0.0272234994918108 0.02069292776286602 0.021107790991663933 0.0006751163746230304 -0.0025732729118317366 0.03737083822488785 -0.029763493686914444 -0.026799378916621208 -0.030360540375113487 0.013998009264469147 -0.08304634690284729 0.05083343759179115 0.005142787471413612 0.040919747203588486 -0.002510440768674016 0.02116185985505581 0.032879237085580826 0.1376696527004242 -0.07880018651485443 -0.13191618025302887 -0.029290448874235153 0.015802329406142235 0.026547450572252274 0.04857524856925011 -0.06372056901454926 -0.045034363865852356 -0.22269411385059357 -0.2206573337316513 -0.14970065653324127 -0.05055651068687439 -0.01639535464346409 -0.08718246221542358 0.1462162733078003 0.1242169439792633 0.008279909379780293 -0.008154943585395813 -0.024556107819080353 0.0382145531475544 0.07742933928966522 0.04245125874876976 0.015120327472686768 0.03199272230267525 -0.01942581497132778 -0.006632572039961815 0.12533462047576904 0.061392705887556076 -0.07640237361192703 0.10764499753713608 0.025691883638501167 -0.14048685133457184 0.03693350777029991 -0.13059473037719727 -0.18536457419395447 -0.042781148105859756 0.00485601183027029 -0.021959101781249046 0.004783702548593283 -0.02559639886021614 0.03395972400903702 -0.045417606830596924 -0.04048145189881325 -0.05673447996377945 0.17689764499664307 0.06801554560661316 -0.04126705974340439 0.18178832530975342 0.09086307138204575 0.05448804795742035 0.031569961458444595 -0.2196742594242096 -0.10074516385793686 0.0674404427409172 -0.03423162177205086 -0.09335234761238098 -0.07358670234680176 -0.007896165363490582 -0.11980976909399033 -0.026514779776334763 -0.02133459597826004 -0.03700892627239227 0.03353293612599373 0.0292426235973835 -0.09593424201011658 0.05509514734148979 0.05275678262114525 -0.023687899112701416 -0.07202468812465668 -0.02165037766098976 -0.03827190026640892 0.026924926787614822 0.04095742106437683 0.04613437503576279 -0.022532470524311066 -0.02317015826702118 -0.06711927801370621 0.1020858883857727 0.11608073115348816 0.05080682411789894 0.05579230934381485 -0.010734143666923046 0.1286529153585434 -0.0828264057636261 0.061079900711774826 0.03702516853809357 -0.05980800837278366 -0.002932659350335598 -0.026226509362459183 0.1026405319571495 -0.04132121801376343 -0.19718921184539795 -0.02525731734931469 -0.24091674387454987 -0.3246058225631714 -0.22498264908790588 -0.26864486932754517 -0.33212506771087646 -0.05898233503103256 -0.007176661863923073 0.09653531014919281 -0.0359598733484745 -0.021356340497732162 0.08250781148672104 -0.06504634022712708 0.02162317931652069 0.06859083473682404 -0.05208207294344902 -0.037771373987197876 0.08716481178998947 -0.1549871861934662 -0.11837209761142731 0.13681107759475708 -0.2896774411201477 -0.14754988253116608 -0.0865912064909935 -0.045052919536828995 -0.03376181796193123 0.05090421810746193 -0.21316193044185638 -0.05668490380048752 -0.0106653468683362 -0.15470890700817108 0.002761088078841567 -0.02203710749745369 -0.1618996411561966 -0.022409843280911446 -0.042526114732027054 -0.12407326698303223 -0.03741397336125374 -0.04633188620209694 -0.06637537479400635 -0.03065934218466282 -0.053343698382377625 0.03088783659040928 -0.017964787781238556 0.07437002658843994 0.03343827277421951 0.0035316795110702515 0.004299706779420376 -0.010832427069544792 0.07501386106014252 0.04895436763763428 0.05654851347208023 -0.15264195203781128 -0.0627313032746315 -0.03949618712067604 -0.014211991801857948 0.02257625013589859 0.08256816864013672 0.20684804022312164 0.08559154719114304 0.004224621690809727 -0.07333972305059433 -0.07156255096197128 -0.03134353831410408 -0.07654979825019836 -0.01340888999402523 0.016553431749343872 -0.06639605760574341 -0.11978522688150406 -0.11799539625644684 -0.18124425411224365 -0.1869145631790161 -0.012398866005241871 -0.10349441319704056 -0.06433470547199249 -0.1283751279115677 -0.052024614065885544 -0.017483334988355637 0.017640478909015656 -0.03260764852166176 -0.04974421113729477 0.06117706373333931 0.06379813700914383 0.08080913126468658 0.058155618607997894 0.015477646142244339 0.00838073156774044 0.02931930311024189 0.14473816752433777 0.10170619934797287 0.07253805547952652 0.1389339119195938 0.05020032078027725 0.004055410623550415 0.10457023978233337 0.08334820717573166 -0.09864996373653412 0.010694380849599838 -0.002030454808846116 -0.06666065007448196 0.07023803889751434 0.18349936604499817 -0.1120678186416626 0.010886688716709614 0.0717117041349411 0.15673696994781494 0.19680330157279968 0.08781775832176208 0.0750516951084137 0.05666495859622955 0.014587009325623512 -0.02956908755004406 -0.08995497971773148 -0.1466667503118515 0.06554786115884781 0.0151474354788661 0.0066161691211164 0.047071944922208786 0.04678569361567497 0.108701691031456 0.016393011435866356 0.14554652571678162 0.13387398421764374 -0.04200906306505203 -0.08271101862192154 -0.2351658195257187 -0.05396086722612381 0.01175200380384922 4.190774052403867e-05 -0.08175550401210785 -0.04229580983519554 0.001228713197633624 0.11304447054862976 0.15379664301872253 0.0947846919298172 0.0689568892121315 0.05658286437392235 -0.010574729181826115 -0.00752793624997139 -0.02237178012728691 -0.07286815345287323 0.055192653089761734 0.045844320207834244 -0.009079927578568459 -0.03082217089831829 0.08455801755189896 0.020356381312012672 -0.03639831766486168 -0.03431234136223793 -0.013112912885844707 -0.0644327774643898 0.0016163488617166877 0.03173946589231491 0.016725385561585426 0.020359834656119347 0.07887125760316849 0.12883828580379486 0.0873430073261261 0.1794205605983734 -0.2237916886806488 -0.05589725449681282 -0.1540997177362442 -0.11703518033027649 -0.09110494703054428 -0.07923959195613861 -0.1144537553191185 -0.01945083774626255 0.026128245517611504 0.0863824412226677 0.13501402735710144 -0.04572388529777527 -0.026397913694381714 -0.013760197907686234 -0.14122167229652405 -0.08056899905204773 -0.11836197227239609 -0.09579676389694214 -0.06879499554634094 -0.03628008812665939 0.07177845388650894 -0.028428124263882637 0.011663875542581081 -0.011992553249001503 0.02297372929751873 0.07035740464925766 -0.02882012538611889 -0.04111778736114502 -0.0013735844986513257 -0.08272247761487961 -0.001610240782611072 0.008812054991722107 -0.0022041648626327515 -0.06365866959095001 -0.011261982843279839 -0.08744113892316818 0.02965669147670269 0.007403318304568529 -0.09208649396896362 0.08885598182678223 0.17968110740184784 -0.022523488849401474 0.030331114307045937 0.00458183977752924 0.010182676836848259 -0.04355885460972786 0.010055866092443466 -0.13262365758419037 -0.06007695198059082 -0.00239172438159585 0.06591083854436874 0.17843784391880035 0.1099950298666954 0.10849656909704208 -0.05218782648444176 0.01715099811553955 0.024059027433395386 0.017705727368593216 0.029044922441244125 -0.02443673461675644 -0.029370108619332314 0.02549024485051632 -0.018452249467372894 -0.010360495187342167 -0.0787719339132309 0.03594042360782623 -0.08544748276472092 -0.026792526245117188 0.08257763087749481 -0.09735620021820068 0.10845550149679184 0.04145874083042145 -0.02474367618560791 0.02446790039539337 0.05006105452775955 -0.01540712546557188 -0.0017027941066771746 -0.03531551733613014 -0.012346127070486546 0.03580031171441078 -0.006130114663392305 0.018756577745079994 0.04594169929623604 0.12306175380945206 0.07547374814748764 0.004875073209404945 0.05390254408121109 -0.1332220733165741 0.1324220448732376 0.23423773050308228 -0.13909071683883667 -0.05769124999642372 -0.09365743398666382 -0.11509008705615997 -0.0686841830611229 0.01720605418086052 -0.02752775326371193 -0.17039217054843903 0.024478070437908173 -0.05783354118466377 -0.10027027130126953 -0.03853068873286247 -0.02543613500893116 -0.05311201512813568 -0.005921901669353247 0.1394706517457962 0.092901811003685 0.06322858482599258 0.050325386226177216 -0.06411612778902054 -0.035693246871232986 -0.061345189809799194 0.023961585015058517 0.023057961836457253 0.030420862138271332 0.012666293419897556 0.05998653918504715 -0.03985806182026863 0.017067940905690193 0.07022963464260101 0.02007281966507435 0.06580799072980881 0.05956660583615303 -0.06375082582235336 -0.12264949083328247 -0.09903307259082794 0.042788706719875336 -0.006290880031883717 0.119428351521492 0.12684907019138336 0.16000857949256897 0.12403672188520432 -0.04904433339834213 -0.022116288542747498 -0.11880515515804291 -0.09576411545276642 -0.2300988733768463 -0.011925972998142242 0.1757020503282547 0.11682775616645813 0.24460946023464203 0.10866586118936539 0.00391934160143137 0.10157902538776398 -0.08806226402521133 0.05812651664018631 -0.04934661462903023 -0.004541989881545305 0.02813831716775894 -0.037038836628198624 0.05423752963542938 -0.06126312166452408 -0.11577268689870834 -0.29569101333618164 -0.23320689797401428 -0.10794007778167725 -0.010407334193587303 0.024137666448950768 0.03318240866065025 0.037440989166498184 0.09081338346004486 0.06193069741129875 -0.17907807230949402 -0.15069222450256348 -0.035526588559150696 -0.14848698675632477 -0.07406807690858841 0.03515138477087021 0.07282176613807678 -0.009124399162828922 0.004513448569923639 -0.06489894539117813 0.023321470245718956 -0.03537724167108536 0.032254915684461594 0.034697525203228 0.023884344846010208 0.013407662510871887 0.017922580242156982 -0.0013034504372626543 -0.0727364718914032 -0.02075285091996193 -0.08240875601768494 -0.11824837327003479 0.05321933329105377 0.036709755659103394 0.10731133073568344 0.09725002944469452 0.18176256120204926 0.001208565547131002 -0.0460045263171196 -0.10395558923482895 -0.02468120865523815 -0.0057805185206234455 -0.04011625796556473 0.015409905463457108 -0.06366496533155441 -0.009303099475800991 -0.17436380684375763 -0.1318328082561493 -0.1721261590719223 0.00539185618981719 0.00333186867646873 0.12217886745929718 0.11991139501333237 0.0870482474565506 0.26115530729293823 -0.014881161972880363 -0.014601914212107658 -0.05804506316781044 -0.09227552264928818 -0.13263843953609467 0.09425719082355499 0.03233954310417175 0.10815069824457169 0.03827405348420143 -0.26982805132865906 -0.13775144517421722 -0.2219063639640808 -0.054805029183626175 0.09882771223783493 0.12859989702701569 -0.04920061677694321 0.0871717557311058 0.07433781027793884 -0.05691336840391159 -0.09940606355667114 0.059795837849378586 0.1842966228723526 0.09579014033079147 0.2466479390859604 0.003222962375730276 -0.008920806460082531 0.041384682059288025 -0.0047980728559195995 -0.050706829875707626 -0.0013799561420455575 0.01845517009496689 0.1060183048248291 0.06092626973986626 0.06460209935903549 0.07472294569015503 0.13651835918426514 -0.15309669077396393 -0.16138623654842377 -0.11861912161111832 0.02207346074283123 0.07342714816331863 -0.03739768639206886 0.14591848850250244 0.20621360838413239 0.12172111868858337 -0.06587547063827515 -0.14006905257701874 -0.10297151654958725 0.002292411169037223 -0.05835294350981712 -0.06653846055269241 0.0812315121293068 0.1886124610900879 0.14471717178821564 -0.1011238545179367 -0.2096572369337082 -0.10047175735235214 -0.08300323039293289 0.008173784241080284 0.005212664138525724 0.10375741124153137 0.11200004070997238 0.10917968302965164 0.04948771744966507 -0.07772897928953171 0.05528196319937706 -0.049303896725177765 -0.006194708868861198 -0.046085745096206665 -0.050313640385866165 0.04561061039566994 -0.05034073069691658 0.031289055943489075 0.05970871075987816 -0.00334734283387661 0.023280521854758263 0.03890686854720116 0.06497413665056229 0.014978027902543545 0.002918535377830267 0.037420596927404404 -0.19375348091125488 -0.12438824772834778 -0.014744015410542488 -0.1505858153104782 -0.14818023145198822 -0.046452444046735764 0.058745987713336945 0.094811350107193 0.11695821583271027 -0.1636243611574173 -0.13276547193527222 -0.11929717659950256 0.0377294085919857 -0.07827039062976837 0.0415058471262455 0.0732920914888382 0.07175789773464203 0.047700393944978714 0.02079826034605503 0.031548503786325455 0.01212865486741066 0.012803347781300545 -0.053867656737565994 -0.062219854444265366 -0.013565102592110634 -0.038248296827077866 0.01709190383553505 0.06942203640937805 0.04328816384077072 -0.005946619436144829 0.0838017538189888 0.012372888624668121 0.058599065989255905 0.03813895955681801 0.11843188852071762 0.09760668873786926 -0.1624964326620102 -0.09922417253255844 -0.02659633569419384 0.017999745905399323 -0.001079260022379458 0.004275679588317871 0.21209712326526642 0.22452595829963684 0.08428436517715454 -0.024049246683716774 -0.0819648876786232 -0.0687728151679039 0.006679569371044636 -0.01617044396698475 -0.0057142977602779865 -0.18067792057991028 -0.029644031077623367 0.1737770140171051 0.01919644884765148 -0.06800152361392975 -0.08324512839317322 0.013034139759838581 -0.05635200813412666 -0.01568346470594406 -0.03905156999826431 0.0033231438137590885 0.03297329694032669 -0.01255139708518982 -0.19179195165634155 -0.15298688411712646 -0.06591586768627167 -0.18529875576496124 -0.12763619422912598 -0.0019526226678863168 0.04048094525933266 -0.03306533023715019 0.029324308037757874 -0.0002951029746327549 0.05839609354734421 0.014836050570011139 -0.03085373528301716 -0.0181188452988863 0.04001820087432861 -0.00030588661320507526 -0.054948803037405014 -0.09216140955686569 -0.12626205384731293 0.03578604757785797 0.034426070749759674 0.09890517592430115 0.08973848074674606 0.11413003504276276 0.09550554305315018 -0.11113486438989639 -0.21072396636009216 -0.34143051505088806 -0.18007586896419525 0.136734738945961 0.09606955945491791 0.06872862577438354 0.12332402169704437 0.13260678946971893 0.13614894449710846 -0.20064520835876465 -0.3304051458835602 -0.055341288447380066 -0.13710656762123108 -0.058904025703668594 -0.08090423792600632 0.0012086250353604555 0.17058037221431732 0.10863193869590759 -0.04491957277059555 -0.1774778515100479 -0.030107825994491577 -0.21588952839374542 -0.2593052089214325 0.012463893741369247 -0.1404612958431244 -0.10424453020095825 -0.025653496384620667 -0.09919260442256927 -0.10108590871095657 -0.0025631298776715994 0.05790626257658005 -0.18487277626991272 -0.13967680931091309 0.22487108409404755 0.15715645253658295 0.06383053213357925 -0.12449963390827179 -0.11954903602600098 -0.11983997374773026 -0.015088176354765892 0.07593102753162384 0.02266472764313221 0.125062957406044 0.184934601187706 0.11542698740959167 0.04740751534700394 0.04884403571486473 0.14604681730270386 -0.0721910148859024 -0.14259245991706848 0.012416773475706577 -0.12045486271381378 -0.2218848615884781 0.01025787927210331 0.027119429782032967 -0.0036207681987434626 0.07705522328615189 0.0002761385403573513 -0.014295198023319244 -0.005883374251425266 -0.007468630559742451 0.05959354341030121 -0.0069903903640806675 0.014325262978672981 0.01465170830488205 0.14206552505493164 -0.16054248809814453 -0.2842877209186554 0.05156926438212395 0.07255030423402786 -0.11979091167449951 0.19524645805358887 -0.11978281289339066 -0.0967988520860672 -0.08937077224254608 -0.03762271627783775 -0.007616037968546152 -0.17590561509132385 0.08424042165279388 0.03095276467502117 0.017581969499588013 -0.006429371424019337 0.016879800707101822 0.00020653271349146962 0.08231674134731293 0.015580899082124233 -0.0012687590206041932 -0.023433027788996696 -0.024246947839856148 0.013172504492104053 0.00034698715899139643 -0.030856555327773094 0.04147300869226456 -0.0052053178660571575 0.15762212872505188 0.028224213048815727 0.12242339551448822 0.1686348170042038 0.1671433001756668 -0.007379116956144571 0.001257852534763515 -0.01504566054791212 0.05325762555003166 0.055615950375795364 0.046527691185474396 0.02029118500649929 0.03714209049940109 -0.03465912491083145 -0.03635195270180702 -0.05305088683962822 0.026745393872261047 -0.07531823962926865 -0.07169489562511444 -0.22596201300621033 0.023873845115303993 -0.021192440763115883 -0.1075284332036972 0.06401453167200089 0.027309363707900047 0.14505761861801147 -0.05857516825199127 0.006264850031584501 0.08713427186012268 -0.21305592358112335 -0.11935023963451385 0.006679447367787361 0.01697210595011711 0.10131727159023285 -0.09644981473684311 0.04762974753975868 0.1640930026769638 0.037508774548769 0.07341046631336212 0.19412121176719666 0.05538651719689369 0.06323422491550446 0.05930763855576515 0.025144441053271294 -0.011865525506436825 -0.12369419634342194 0.05557594448328018 -0.08951248973608017 -0.0996391698718071 0.04691701754927635 0.07051738351583481 0.07499799877405167 0.045275650918483734 0.06507202237844467 -0.01427687518298626 0.0012578574242070317 -0.04363151267170906 -0.004608330316841602 0.012936358340084553 -0.056002553552389145 0.006950352806597948 -0.09414079040288925 -0.09663942456245422 0.05706442520022392 0.09807834774255753 -0.07327579706907272 0.09945477545261383 0.13038694858551025 0.027908271178603172 0.09539872407913208 -0.03286593779921532 -0.05712737888097763 0.05255589261651039 0.05724046751856804 -0.09113392978906631 0.07782621681690216 0.016649149358272552 0.14259684085845947 0.10586891323328018 0.049758173525333405 0.021778950467705727 -0.011548853479325771 -0.0965600237250328 -0.004282152745872736 0.002083017025142908 -0.12186241894960403 0.035638876259326935 0.009862067177891731 -0.019441427662968636 -0.06217300519347191 0.005863357800990343 0.05126958340406418 0.05208662152290344 -0.08083029836416245 -0.010425633750855923 0.04340576380491257 -0.02691846713423729 0.042591724544763565 0.045676339417696 -0.05069643631577492 -0.06511276215314865 0.03434119373559952 -0.0642486959695816 0.04911231994628906 0.008488254621624947 -0.07048092782497406 -0.06975605338811874 0.07628416270017624 0.006170439533889294 -0.05848274007439613 0.22879724204540253 0.2193678468465805 -0.012009951286017895 0.041026175022125244 -0.10488947480916977 -0.06302583962678909 0.07242941856384277 -0.07210298627614975 -0.019158875569701195 0.13421376049518585 0.029540931805968285 -0.04133082926273346 0.03415520116686821 0.0018099459121003747 0.022857101634144783 0.021589670330286026 -0.027581315487623215 0.08130861073732376 0.036106083542108536 -0.03379096835851669 0.011331534944474697 0.04179126024246216 0.052732232958078384 0.023601150140166283 0.022559110075235367 0.050487253814935684 0.05427607521414757 0.05379655957221985 0.06305308640003204 0.058564718812704086 0.018284818157553673 -0.015356156043708324 -0.030080078169703484 0.1484876126050949 0.10395123064517975 -0.042336851358413696 0.15717417001724243 0.15608133375644684 -0.04737328737974167 -0.019196180626749992 0.036264751106500626 -0.09326226264238358 0.014598785899579525 -0.007154474500566721 -0.07945118099451065 -0.031154107302427292 -0.0985964834690094 -0.07191925495862961 -0.006570653989911079 -0.009470691904425621 0.07298622280359268 0.0276066605001688 -0.02174355648458004 0.06835877895355225 -0.0726209208369255 -0.07645589113235474 0.022509317845106125 0.06269804388284683 0.17608073353767395 0.017307255417108536 -0.10736119747161865 0.12219034880399704 0.027157871052622795 -0.1421077400445938 -0.07133986055850983 -0.041662346571683884 0.0407460518181324 0.0332779586315155 0.016994770616292953 -0.022738642990589142 -0.050425343215465546 0.04061570018529892 0.0239731315523386 0.01510461512953043 0.013032197020947933 -0.10376141220331192 -0.15376083552837372 -0.1125769317150116 -0.14517757296562195 -0.2936355471611023 -0.3049246072769165 -0.13634026050567627 -0.21652427315711975 -0.2083733081817627 -0.023741306737065315 -0.055666666477918625 0.04950728267431259 -0.2980157434940338 -0.32724159955978394 -0.16762743890285492 -0.17660976946353912 -0.37223923206329346 -0.13472247123718262 0.006724368780851364 0.09019316732883453 -0.2682761251926422 0.1449269950389862 0.19952604174613953 -0.009567594155669212 0.03553092107176781 0.158049538731575 -0.08232591301202774 0.11597427725791931 0.1134941503405571 0.12879295647144318 0.007122913375496864 0.04290415719151497 0.03920895606279373 -0.30616727471351624 -0.3198666274547577 -0.1877603828907013 0.10401502251625061 0.08630318939685822 0.1900739073753357 0.025037167593836784 -0.02721267379820347 0.08465134352445602 -0.10167676210403442 -0.12315037846565247 -0.07456593215465546 0.024556171149015427 0.007211435120552778 -0.029734406620264053 0.1381799876689911 0.0087323859333992 0.017751023173332214 0.16445006430149078 0.18575571477413177 0.20758391916751862 -0.02373163402080536 0.010668681934475899 -0.020981334149837494 -0.061163514852523804 -0.0969410166144371 -0.030957063660025597 -0.10203185677528381 -0.040800340473651886 -0.06350033730268478 -0.0560712106525898 0.027419937774538994 -0.013473600149154663 0.007606804370880127 0.03801635280251503 -0.007286905776709318 -0.0011121960124000907 0.05333710461854935 -0.05315759778022766 0.015578889288008213 0.00026901790988631546 -0.030611826106905937 0.00509011372923851 -0.007035899441689253 -0.05247356370091438 -0.052206333726644516 -0.04449952393770218 0.040350764989852905 0.04148893058300018 -0.012919795699417591 0.01851879432797432 0.0220874585211277 0.04222021624445915 0.005172670818865299 0.03228946775197983 -0.02249327301979065 0.0018014993984252214 -0.042236700654029846 -0.04447957128286362 -0.006684805732220411 -0.050422005355358124 0.017529357224702835 0.03638540580868721 0.004589965101331472 -0.05402401462197304 0.029154345393180847 0.0383562371134758 -0.03416121006011963 -0.08882693201303482 -0.022559350356459618 0.03537621349096298 -0.06847937405109406 -0.05284283682703972 0.01553492620587349 -0.0037657003849744797 0.0006942077889107168 0.05514763295650482 -0.0508362352848053 0.03628760203719139 -0.05558169633150101 -0.018013935536146164 0.046897951513528824 -0.02896411530673504 -0.04403107985854149 -0.004094480536878109 0.046556852757930756 -0.0391373336315155 -0.06938426196575165 0.030744483694434166 0.00828474573791027 -0.055674463510513306 -0.04343407601118088 -0.000917515775654465 0.025924574583768845 -0.049051422625780106 -0.02771809510886669 0.008507809601724148 -0.0152671430259943 0.011323650367558002 0.03261175379157066 -0.009216521866619587 0.01671217940747738 -0.06332287192344666 -0.006796015426516533 -0.02881847321987152 -0.05296526849269867 -0.022485459223389626 -0.051523685455322266 -0.0820782333612442 -0.025685392320156097 0.031227760016918182 -0.05625121295452118 -0.021373718976974487 -0.025830570608377457 -0.041304219514131546 0.018032552674412727 -0.07637172937393188 0.049604449421167374 -0.06340793520212173 -0.02373656816780567 -0.03206067532300949 -0.0402369424700737 0.036585740745067596 -0.01935558393597603 0.01808234676718712 -0.028784677386283875 -0.006789022125303745 -0.039073359221220016 0.0416230708360672 -0.06758777797222137 -0.015443872660398483 0.007254059426486492 -0.06368032097816467 -0.01794135570526123 -0.0357767753303051 0.031869031488895416 -0.031749527901411057 -0.06580232083797455 -0.05237531289458275 0.004400460049510002 0.04450438916683197 -0.07063224166631699 -0.06533181667327881 -0.05171213671565056 -0.0636378675699234 -0.022757427766919136 0.02377646043896675 -0.06184341013431549 -0.018589187413454056 0.0007129870355129242 0.004360477440059185 0.01525494921952486 -0.02327740378677845 -0.0393780879676342 -0.05315611883997917 -0.064637191593647 -0.0005855883355252445 0.018185319378972054 0.006475420668721199 0.047834474593400955 0.05645494535565376 0.016480527818202972 -0.028037594631314278 0.028825584799051285 0.025259526446461678 -0.023532040417194366 -0.06485632807016373 -0.0667324885725975 0.04109785705804825 -0.05125974863767624 0.04466693848371506 -0.06191259250044823 -0.027790874242782593 -0.014919450506567955 0.03870522603392601 -0.005750460084527731 -0.06661185622215271 0.020736565813422203 0.001300904667004943 -0.06639108061790466 0.03323357552289963 0.04021664708852768 -0.018036147579550743 -0.015522490255534649 0.009656170383095741 -0.020769894123077393 -0.042561713606119156 -0.008303854614496231 0.02590705081820488 -0.04633023217320442 0.0024314073380082846 -0.057103145867586136 -0.0548868291079998 0.0029806524980813265 -0.0009428678313270211 0.019846856594085693 -0.053213417530059814 -0.04483876749873161 0.006823174189776182 0.014489385299384594 -0.05859152972698212 -0.04935085028409958 -0.04541335627436638 -0.03649172931909561 0.046287406235933304 0.03223976492881775 0.04786016047000885 0.05074791982769966 0.03296220675110817 -0.030878061428666115 -0.06662894040346146 -0.05135156586766243 -0.054315585643053055 0.030214479193091393 -0.04259796068072319 0.029237842187285423 -0.03434101864695549 -0.050959788262844086 -0.002411981113255024 -0.03038075752556324 -0.010817100293934345 -0.01778622716665268 -0.07045892626047134 -0.0634070485830307 0.028569413349032402 0.001760336454026401 -0.01742500625550747 0.009539570659399033 -0.00578031362965703 0.017489783465862274 -0.04194143787026405 -0.034131698310375214 0.020014183595776558 0.0058235423639416695 -0.009025726467370987 -0.008589696139097214 0.02518836222589016 0.02707495354115963 0.012540959753096104 -0.05622360110282898 -0.046009741723537445 -0.029977919533848763 -0.04124839976429939 -0.03566567599773407 -0.03351232409477234 0.02340754121541977 -0.035015206784009933 0.05581082031130791 0.05413089320063591 0.052923526614904404 0.0446879044175148 0.03191525116562843 -0.042704761028289795 0.04181445762515068 -0.0551530197262764 -0.02132680080831051 0.028906237334012985 -0.02472241222858429 -0.02272726781666279 -0.04803960770368576 -0.0771208330988884 -0.012335087172687054 0.0009359147516079247 -0.05314610153436661 -0.00928234588354826 -0.004189544823020697 -0.04473187401890755 -0.0012692940654233098 -0.06043243035674095 0.025454064831137657 -0.05544028803706169 0.025487737730145454 0.031087690964341164 0.02531476318836212 -0.05322204530239105 0.008487498387694359 -0.015172718092799187 -0.05641276761889458 0.012770574539899826 0.043785180896520615 0.0007553989998996258 -0.054157428443431854 -0.03421958163380623 -0.04303007200360298 0.03541833907365799 -0.07211320102214813 -0.05679131671786308 0.005365191493183374 0.01570565439760685 -0.029632650315761566 -0.06590907275676727 -0.009738681837916374 0.033619895577430725 0.048411089926958084 -0.010150943882763386 -0.03976699709892273 0.009573790244758129 0.035524915903806686 -0.041804809123277664 0.006427912972867489 0.020364949479699135 -0.025235863402485847 -0.06183908134698868 -0.060108426958322525 -0.05348573252558708 -0.03664044290781021 0.01763175055384636 -0.017962390556931496 0.042058467864990234 -0.011117232032120228 0.0581512376666069 -0.04932788386940956 -0.010883992537856102 0.056076519191265106 -0.03365326672792435 0.019137630239129066 -0.0158267542719841 -0.06422692537307739 0.20440645515918732 0.244205504655838 0.14514446258544922 0.0912356898188591 0.11758275330066681 -0.07746043801307678 -0.35951584577560425 -0.42093712091445923 -0.4059014916419983 -0.04894811287522316 -0.07924266904592514 -0.02563728205859661 -0.03172355890274048 -0.1164248064160347 -0.08302053809165955 0.0063406373374164104 -0.02239445224404335 0.06742218136787415 0.016947118565440178 0.10279222577810287 0.0923389419913292 0.0006638986524194479 0.030173415318131447 0.025374043732881546 -0.047492776066064835 -0.02229807898402214 0.01722767762839794 0.022280728444457054 0.014564260840415955 -0.08090302348136902 -0.029308069497346878 0.007210973650217056 -0.04789179190993309 -0.0730641707777977 -0.10856977850198746 0.001188635709695518 0.016289200633764267 0.11381883174180984 0.002008317271247506 0.0968150645494461 0.09872240573167801 0.030549438670277596 -0.23598137497901917 -0.20021146535873413 -0.21350383758544922 0.002323230030015111 -0.0025689511094242334 -0.02583986707031727 0.022547395899891853 0.027616899460554123 -0.07610375434160233 0.046514857560396194 -0.015994759276509285 -0.05797260254621506 -0.08089441061019897 0.02631787769496441 0.029030371457338333 0.016000408679246902 0.06898679584264755 0.104590505361557 0.07056311517953873 0.07788356393575668 -0.030637016519904137 -0.055763546377420425 0.04471622034907341 0.025838028639554977 -0.020300118252635002 0.0356762669980526 -0.08615148812532425 -0.012476988136768341 -0.01491946168243885 -0.07490544021129608 0.04492110013961792 0.08135002106428146 0.08519633114337921 -0.04225804656744003 0.01965446025133133 0.023436982184648514 -0.07122324407100677 -0.19874858856201172 -0.08589755743741989 -0.046253759413957596 -0.05057727172970772 0.041073452681303024 0.02901097573339939 -0.018899859860539436 -0.04483454301953316 0.06802259385585785 -0.015086207538843155 0.0025953324511647224 0.07467907667160034 0.0740196630358696 -0.016222042962908745 -0.04173513501882553 -0.040351126343011856 -0.10793847590684891 -0.02236822061240673 0.094962477684021 -0.01908731274306774 0.09891372174024582 0.15447260439395905 0.13441550731658936 -0.15851826965808868 -0.16012170910835266 -0.13286001980304718 -0.3551006615161896 -0.4465814232826233 -0.3002481162548065 0.07768691331148148 0.06887343525886536 -0.01704210601747036 0.07743235677480698 0.092239610850811 -0.03029276430606842 -0.05598872900009155 -0.0415787436068058 0.013210376724600792 -0.04960097000002861 -0.06695158779621124 -0.12138885259628296 -0.004086023662239313 0.01808113232254982 -0.06588134914636612 0.024166783317923546 -0.025692693889141083 0.009788434952497482 -0.009903731755912304 0.026290809735655785 0.012088465504348278 -0.014886857010424137 0.006303138565272093 0.024869387969374657 0.04276242107152939 0.01300437469035387 0.024199699983000755 0.054718561470508575 0.1155276745557785 -0.015923814848065376 -0.012372678145766258 -0.12039615958929062 -0.09236779063940048 -0.10938353836536407 -0.04538150131702423 -0.02877085469663143 0.09528306126594543 0.15566237270832062 0.028329869732260704 -0.016564086079597473 0.1284521073102951 0.012324828654527664 -0.040137872099876404 -0.13733044266700745 -0.07042829692363739 0.03221981227397919 -0.01635999232530594 0.04031488671898842 0.01200876198709011 0.010600312612950802 0.07867611944675446 0.027760716155171394 0.10374385118484497 0.11131254583597183 0.034198082983493805 0.047412384301424026 0.03643712028861046 0.08989311754703522 -0.014141444116830826 0.024005766957998276 0.05326641723513603 -0.032959576696157455 -0.010749856010079384 -0.09353990852832794 -0.07345186918973923 -0.08606384694576263 0.01053694635629654 -0.058624282479286194 -0.019783493131399155 0.03203177452087402 0.011908313259482384 -0.02710682898759842 0.02709716372191906 0.03928877413272858 0.05906317010521889 -0.024821754544973373 -0.11118943989276886 0.01734023354947567 -0.08992055058479309 -0.15188083052635193 0.10095202177762985 0.15838752686977386 0.04353665933012962 -0.04713655263185501 0.11937864869832993 -0.08750464767217636 -0.08247696608304977 -0.13415095210075378 -0.25585418939590454 -0.14118942618370056 -0.018650105223059654 -0.0038801466580480337 0.031768426299095154 -0.004330585710704327 -0.07974869757890701 -0.04190395772457123 -0.04236006736755371 0.01413645502179861 0.021762413904070854 0.06165431812405586 0.10684101283550262 0.09008222818374634 -0.033505212515592575 0.12212017178535461 0.09885912388563156 -0.00010966885020025074 -0.10437187552452087 -0.022166958078742027 -0.06783977895975113 -0.010695106349885464 0.026237985119223595 -0.042499907314777374 -0.006421602796763182 -0.03375817835330963 0.011982068419456482 0.03379159793257713 0.015346605330705643 -0.06621291488409042 0.08962978422641754 0.07825557142496109 0.017321856692433357 0.020256133750081062 0.09098798036575317 0.07023700326681137 -0.00913144275546074 0.021083099767565727 -0.03237907215952873 -0.11261312663555145 -0.02175818756222725 0.0050775231793522835 -0.02852228842675686 -0.005673759616911411 -0.02986111305654049 -0.00298095541074872 -0.11843525618314743 0.1428552269935608 0.18483570218086243 0.05867469683289528 -0.03492065891623497 -0.0686461552977562 -0.06444147229194641 -0.2948300838470459 -0.4198329448699951 -0.3514890968799591 0.01444307342171669 -0.029547542333602905 -0.04173264652490616 -0.002805372467264533 0.036925628781318665 -0.08596227318048477 -0.02352946810424328 -0.04576953500509262 -0.16623985767364502 0.06266956031322479 -0.0411742627620697 -0.06073364242911339 0.03785876929759979 0.03499709442257881 -0.08037115633487701 0.07533512264490128 -0.02708302065730095 0.01051329355686903 0.46396493911743164 0.5081589818000793 0.23936420679092407 0.13910694420337677 0.1397167444229126 -0.09427441656589508 -0.5312970280647278 -0.669596791267395 -0.6116765141487122 -0.025525279343128204 0.06585583835840225 0.014945746399462223 -0.05848614126443863 -0.07780203223228455 0.0682171881198883 0.0050496929325163364 -0.07899554073810577 0.06356688588857651 0.12037703394889832 0.13103125989437103 0.13414356112480164 0.08231373876333237 0.03431635722517967 0.04434191435575485 -0.04371881112456322 -0.10513123869895935 -0.03384929522871971 0.03042486310005188 0.1222701370716095 0.061229437589645386 0.060921672731637955 -0.02495993860065937 0.10331152379512787 -0.1133800819516182 -0.09945598989725113 0.03312314301729202 -0.042630746960639954 -0.10263767838478088 0.0573299303650856 -0.09420964121818542 -0.06584378331899643 0.07872027158737183 0.026623960584402084 -0.009401539340615273 -0.01448784302920103 -0.011623083613812923 -0.022331921383738518 0.017624178901314735 0.023296348750591278 -0.016993960365653038 -0.01150437444448471 0.03816189244389534 -0.042889345437288284 -0.011351821012794971 -0.0517079196870327 -0.01211120281368494 0.034321703016757965 -0.1731218844652176 -0.21830211579799652 -0.14703741669654846 -0.33723852038383484 -0.3781571388244629 -0.08787833154201508 -0.009904792532324791 0.03189973160624504 0.019787313416600227 0.04180170223116875 0.021496573463082314 0.009813829325139523 -0.03516237437725067 -0.026722146198153496 0.06359942257404327 -0.007466569077223539 0.015275630168616772 0.13794903457164764 0.053734272718429565 0.02210206352174282 0.0668618381023407 0.14247964322566986 0.07757814973592758 0.02464669942855835 -0.035267628729343414 0.03856905922293663 0.03535334765911102 -0.036566223949193954 -0.0020149003248661757 0.028812317177653313 -0.15882951021194458 -0.22874198853969574 -0.1573326289653778 -0.11563554406166077 0.117341049015522 0.1515357345342636 -0.4040641188621521 -0.06049223244190216 0.027014441788196564 -0.3290754556655884 -0.19295212626457214 0.04592130333185196 0.05207524076104164 0.042509693652391434 0.0059007881209254265 0.003394404659047723 -0.011770179495215416 0.05180521309375763 0.02764439582824707 -0.002758375136181712 0.024780400097370148 0.10951077193021774 0.00983977410942316 -0.0566323958337307 0.11554267257452011 0.03847936540842056 -0.000262342655332759 0.06519420444965363 0.09772001206874847 0.09061041474342346 0.12990379333496094 0.254550963640213 0.2515665292739868 -0.2475779801607132 -0.35895100235939026 -0.2012917697429657 -0.23877942562103271 -0.40325137972831726 -0.2580065429210663 0.19273903965950012 0.14204303920269012 0.03485088422894478 -0.022116027772426605 0.005470071919262409 0.003715922124683857 0.05465646833181381 -0.11671457439661026 -0.12924353778362274 0.10691554844379425 0.16687338054180145 0.11527453362941742 0.06847430765628815 0.08955337852239609 0.01560504175722599 -0.08017003536224365 -0.032329753041267395 -0.04443756863474846 0.046401847153902054 0.03563231602311134 0.008683733642101288 -0.05014428123831749 0.03900979086756706 -0.014097066596150398 -0.007751479744911194 0.045031704008579254 -0.015373717993497849 0.22428841888904572 0.16721180081367493 0.09885424375534058 -0.0722336545586586 -0.14634518325328827 -0.09056197851896286 -0.15875637531280518 -0.23131300508975983 -0.351033091545105 0.0783361867070198 -0.015360035933554173 -0.10572246462106705 -0.09493881464004517 0.01088434737175703 -0.025961361825466156 -0.15533581376075745 -0.07755357772111893 -0.052658237516880035 -0.041163962334394455 -0.10084075480699539 -0.06252054125070572 0.035976797342300415 0.006369839888066053 0.024647673591971397 0.07080535590648651 0.14142295718193054 0.1301621049642563 0.02102476917207241 0.04155191034078598 0.05444306135177612 0.04738491773605347 -0.031370583921670914 -0.01228640042245388 -0.011909483931958675 0.07539563626050949 0.0392281711101532 -0.08724650740623474 -0.09287069737911224 -0.0795259103178978 -0.08494188636541367 -0.08270728588104248 -0.03471830114722252 0.034040145576000214 -0.07219315320253372 0.023018894717097282 -0.004957823548465967 -0.04517029598355293 -0.11754350364208221 -0.08958742767572403 -0.08895326405763626 -0.10991813242435455 -0.13072709739208221 -0.19718500971794128 0.03861077129840851 0.014720214530825615 -0.010246283374726772 0.005007507745176554 -0.10590942949056625 -0.1183188259601593 -0.006694549694657326 -0.08944659680128098 -0.11178289353847504 -0.06307412683963776 0.07359397411346436 0.07396470010280609 -0.03375173732638359 0.02771008387207985 -0.008548019453883171 -0.05563121289014816 0.033363908529281616 0.03568023443222046 -0.019346002489328384 0.04097114875912666 0.04063618928194046 0.034154489636421204 0.05437009781599045 0.08960089832544327 0.007335939910262823 0.06321980804204941 0.02559053525328636 -0.030406616628170013 -0.03628728166222572 0.020800422877073288 0.049324508756399155 0.039431340992450714 0.030477019026875496 -0.03350215405225754 0.055757321417331696 0.012976162135601044 -0.04152444005012512 0.08400046080350876 0.18879728019237518 0.010959719307720661 -0.22505824267864227 -0.10634279251098633 -0.1329585760831833 -0.42467543482780457 -0.3479197919368744 -0.27559950947761536 0.08737429976463318 0.059941504150629044 0.1234414353966713 -0.10053795576095581 -0.1492849439382553 -0.008510341867804527 -0.3376545310020447 -0.32139408588409424 0.0042902622371912 0.09077963978052139 0.1532825380563736 0.11157850921154022 -0.37907877564430237 -0.23965877294540405 -0.10668418556451797 -0.48373162746429443 -0.5322083830833435 -0.12188845872879028 0.087458536028862 0.03163709118962288 0.012540846131742 0.057424988597631454 -0.012882900424301624 -0.011822428554296494 -0.06209052354097366 -0.013158386573195457 -0.017027804628014565 0.05028364807367325 -0.002774045104160905 -0.04994679614901543 0.08354273438453674 0.024128712713718414 0.03847768157720566 -0.10659227520227432 -0.008262951858341694 -0.029800089076161385 0.16970279812812805 0.16928155720233917 0.225650817155838 0.09588541090488434 0.031875621527433395 0.08511471003293991 -0.11393802613019943 -0.06655324250459671 -0.07415906339883804 -0.009947950951755047 0.02057773806154728 -0.042401157319545746 0.030782751739025116 0.037660129368305206 -0.1299169808626175 0.04411691427230835 0.03546496480703354 -0.14457234740257263 -0.1254827380180359 -0.1503819227218628 0.016382837668061256 0.0366826057434082 0.06330044567584991 0.09255199879407883 0.1210772693157196 0.07177026569843292 0.11283540725708008 -0.032412026077508926 0.07895100861787796 0.11667635291814804 0.019906826317310333 0.033013924956321716 0.11465014517307281 -0.039285510778427124 0.06034136191010475 0.08914747834205627 -0.0490250326693058 0.006833693943917751 0.04550078138709068 -0.32038575410842896 0.03035830147564411 0.0438467338681221 -0.1400635838508606 0.06293515861034393 0.17627021670341492 -0.07170349359512329 -0.02907300926744938 -0.02696571685373783 -0.0044347732327878475 0.002941787475720048 -0.05780493840575218 -0.015926089137792587 -0.06900762021541595 0.017629453912377357 0.042945124208927155 0.0036481840070337057 -0.05102105811238289 0.0032215688843280077 0.0006236796616576612 0.05806612968444824 -0.056067660450935364 -0.09171167761087418 0.006041152868419886 0.021074490621685982 0.03006139025092125 -0.03667960315942764 -0.019129935652017593 -0.010405688546597958 -0.058255817741155624 -0.020456083118915558 -0.022587569430470467 -0.017960617318749428 0.12211769074201584 0.08552931249141693 0.174711212515831 0.03612668439745903 0.05063587799668312 0.10009275376796722 0.05865492671728134 0.060948070138692856 0.12116242200136185 0.10613714158535004 -0.07121385633945465 -0.17586728930473328 0.1410873979330063 0.042904406785964966 -0.11853283643722534 0.16212305426597595 0.033507175743579865 -0.0058189090341329575 -0.22483107447624207 -0.26451441645622253 -0.18488411605358124 -0.252604216337204 -0.23450562357902527 -0.1466701477766037 -0.19082944095134735 -0.13491280376911163 -0.17815646529197693 -0.12132445722818375 -0.005626672878861427 -0.11846033483743668 0.031986624002456665 0.06927060335874557 -0.040975943207740784 0.024577179923653603 0.07327370345592499 -0.03332711383700371 -0.06995123624801636 -0.030016347765922546 0.005299264099448919 -0.1685747653245926 -0.13586899638175964 0.050091635435819626 -0.19841095805168152 -0.053117603063583374 0.18465003371238708 -0.2277730405330658 -0.2403259128332138 -0.2300524115562439 -0.19380588829517365 -0.10901162028312683 -0.14385658502578735 -0.09796911478042603 -0.09949830919504166 -0.14950524270534515 0.1557462215423584 0.09387654811143875 0.03559553250670433 0.1200428381562233 -0.043342042714357376 -0.13664866983890533 0.30651095509529114 0.03315672650933266 -0.2178342342376709 -0.14525382220745087 -0.01966661773622036 0.06721452623605728 -0.10272348672151566 0.06364639103412628 0.1217949166893959 -0.06911493837833405 0.08107497543096542 0.20111890137195587 0.04015658050775528 -0.025853097438812256 -0.0370330847799778 0.010319946333765984 0.032959841191768646 -0.00730197923257947 -0.0578189454972744 0.05341889336705208 0.035417165607213974 0.021535247564315796 -0.017372293397784233 -0.0026108315214514732 0.07528620213270187 -0.06897281110286713 -0.12072106450796127 0.06227916106581688 -0.07348106056451797 -0.04453231766819954 0.08842725306749344 0.07697737962007523 0.19266602396965027 0.08003832399845123 -0.021208522841334343 0.1814313530921936 0.0036293664015829563 -0.013998737558722496 0.15129786729812622 -0.0504089817404747 0.032103538513183594 0.10473303496837616 -0.065613754093647 0.01049785315990448 0.08655808866024017 0.015970878303050995 0.08553985506296158 0.1849515289068222 -0.0195509921759367 -0.012646711431443691 -0.048487819731235504 0.004158144351094961 0.06881876289844513 0.011842181906104088 -0.05411273241043091 -0.019008085131645203 -0.066724494099617 0.03026401996612549 -0.05425671860575676 0.04227851703763008 0.040637437254190445 0.012167222797870636 -0.06344179064035416 0.05759725719690323 0.03516833856701851 0.019024541601538658 -0.11885988712310791 0.038275912404060364 0.07271371781826019 -0.26470863819122314 -0.03734854608774185 0.06880546361207962 -0.17356935143470764 -0.006603090092539787 0.0768360123038292 0.07694047689437866 0.05049293488264084 -0.06285250931978226 0.03262633830308914 -0.03790314868092537 -0.15456663072109222 0.05911610275506973 -0.033710580319166183 -0.007637744303792715 0.057234153151512146 0.0686970204114914 -0.007893573492765427 0.01301890891045332 -0.004475895315408707 0.042872365564107895 -0.03313911333680153 -0.006239879410713911 -0.011280858889222145 0.09335903078317642 0.017301294952630997 0.072331503033638 -0.00012808144674636424 -0.05800814926624298 0.19485120475292206 -0.2398904711008072 -0.014302712865173817 0.16527849435806274 -0.009553184732794762 0.02327515184879303 0.05295967310667038 0.016938000917434692 0.021199718117713928 0.06325753778219223 0.051022451370954514 -0.040938884019851685 0.05644583702087402 -0.018768874928355217 -0.0042851767502725124 0.10625512897968292 -0.0022641276009380817 0.03845108672976494 0.15265680849552155 0.00555116543546319 0.11860658973455429 0.11470256745815277 -0.08113356679677963 -0.07521960884332657 -0.01565001718699932 -0.11426633596420288 0.05675526708364487 0.013740897178649902 0.06875337660312653 0.08959487825632095 0.12401513755321503 -0.28548958897590637 -0.12376932054758072 -0.052012212574481964 -0.35486266016960144 -0.1613396555185318 -0.014343930408358574 -0.1380987912416458 -0.01577647589147091 -0.0003680590889416635 0.060072824358940125 0.07328628748655319 -0.09743725508451462 -0.017875179648399353 -0.048197053372859955 -0.14863038063049316 -0.07088783383369446 0.021643618121743202 0.028961101546883583 -0.1010238528251648 -0.08335332572460175 0.04140106588602066 -0.18097075819969177 -0.10752597451210022 0.08210776746273041 -0.07934395968914032 0.13306598365306854 0.18405944108963013 -0.2046765834093094 -0.17872674763202667 0.031924810260534286 -0.04555656760931015 -0.03263847529888153 -0.035727862268686295 0.013400262221693993 0.05524131655693054 0.05855077877640724 0.04125971719622612 0.045908767729997635 0.0028493658173829317 0.1383121907711029 0.08372902870178223 0.09761009365320206 0.025017110630869865 -0.003366427728906274 0.01995539665222168 0.00595860555768013 -0.045942775905132294 0.0915718525648117 0.02905566245317459 0.043794598430395126 0.12164689600467682 -0.05312952399253845 -0.035777747631073 -0.07068580389022827 -0.023916857317090034 0.06621771305799484 0.06138938292860985 -0.11029714345932007 0.011071527376770973 -0.012072253972291946 -0.16745033860206604 -0.09772956371307373 -0.19448241591453552 0.04917002469301224 0.028329508379101753 -0.023492878302931786 -0.06325489282608032 0.040429092943668365 -0.003462513443082571 0.015456435270607471 0.015794357284903526 -0.019794035702943802 -0.018037663772702217 0.003576833289116621 0.0025967000983655453 -0.018772898241877556 -0.0031853802502155304 0.07884294539690018 0.03494729846715927 -0.067303366959095 0.010594499297440052 0.042498454451560974 -0.030944837257266045 -0.05699547007679939 -0.07337997853755951 -0.08119971305131912 -0.01567385159432888 -0.0218675397336483 0.05966496840119362 0.08141305297613144 0.011021391488611698 -0.031919967383146286 -0.034954361617565155 0.010217870585620403 0.04412757232785225 0.020002445206046104 -0.033337850123643875 0.053143974393606186 -0.0032712805550545454 -0.0722360908985138 -0.171199768781662 -0.09731069207191467 0.0004720789729617536 0.06265716999769211 0.1462353616952896 -0.10415231436491013 0.08402413129806519 0.16476330161094666 -0.12541861832141876 -0.05103761702775955 -0.07844196259975433 -0.033248383551836014 -0.02896847389638424 -0.005586431827396154 -0.045752085745334625 0.08131740242242813 -0.03928961232304573 -0.1362336426973343 -0.14548982679843903 0.01368599571287632 -0.1240188479423523 -0.03226412087678909 0.09800899028778076 0.17288798093795776 0.2813846170902252 0.2976279854774475 0.07837211340665817 0.11864376068115234 0.06888266652822495 0.17481616139411926 0.1267550140619278 0.1328589767217636 -0.1836671680212021 -0.15916036069393158 -0.10266002267599106 0.06743524968624115 0.021311962977051735 0.008400707505643368 -0.0171451885253191 0.019066672772169113 -0.056924279779195786 0.06495688855648041 0.01286308653652668 -0.03634969890117645 -0.07714898884296417 -0.002526327734813094 0.03941726312041283 -0.011356751434504986 -0.0405987985432148 0.04049093276262283 0.19867262244224548 0.11827374994754791 0.23612047731876373 0.08753277361392975 -0.22291046380996704 -0.10731857270002365 0.18783259391784668 0.006023874506354332 -0.059791918843984604 0.16859793663024902 0.09982604533433914 0.007892598398029804 0.06256458163261414 0.03020797111093998 0.10304165631532669 -0.08505745232105255 -0.028537597507238388 -0.01041781809180975 -0.04685305431485176 -0.05054699629545212 0.003091725753620267 -0.045332517474889755 -0.01286894828081131 0.026531454175710678 0.024583136662840843 -0.007814486511051655 -0.01946120895445347 -0.07684922963380814 -0.0107865110039711 0.003432371886447072 0.04400215297937393 -0.047527384012937546 0.05334222689270973 -0.06791186332702637 -0.13578657805919647 -0.06565141677856445 -0.20084735751152039 -0.17671769857406616 -0.13282272219657898 -0.22793032228946686 -0.1353771835565567 -0.06709125638008118 -0.1260751187801361 -0.23424310982227325 -0.023711932823061943 -0.03691216558218002 0.0711003914475441 0.14372631907463074 -0.1341898888349533 -0.12939739227294922 -0.11876418441534042 -0.03176388517022133 -0.07989147305488586 -0.16122539341449738 0.1534833312034607 0.06980382651090622 -0.033749599009752274 0.06492932140827179 0.08340086787939072 0.00013037568714935333 0.07431386411190033 0.07092629373073578 0.03272370249032974 0.020423851907253265 0.07095331698656082 0.054930780082941055 0.03216259554028511 -0.06980212032794952 -0.0036161893513053656 0.01738809421658516 -0.0710531696677208 -0.05246314778923988 -0.052411023527383804 -0.040983252227306366 0.03055357001721859 -0.16432400047779083 -0.15331362187862396 -0.035057708621025085 -0.06105584651231766 -0.06535094231367111 0.006351247429847717 0.15676867961883545 0.048400234431028366 0.01278801541775465 0.17185209691524506 -0.05121534317731857 -0.12014907598495483 0.00033998655271716416 -0.0864018052816391 0.004844366107136011 -0.15601857006549835 -0.1499057114124298 -0.05240090936422348 0.01666950061917305 -0.023579642176628113 -0.04677802324295044 -0.056472402065992355 0.04465090483427048 -0.04938497766852379 -0.05925703048706055 0.03986963629722595 -0.012819511815905571 0.04460025951266289 0.038544610142707825 0.1328013688325882 -0.022877460345625877 -0.08216752856969833 -0.01206071674823761 -0.10240684449672699 -0.013062570244073868 0.06668931990861893 0.05091619864106178 0.050470296293497086 0.05118932947516441 -0.045964717864990234 -0.017063913866877556 0.005806625355035067 -0.017896536737680435 -0.017058374360203743 0.034890882670879364 -0.2918342053890228 -0.2209414392709732 -0.019990911707282066 -0.35147297382354736 -0.29877257347106934 -0.15782947838306427 -0.16286857426166534 -0.09887716919183731 -0.13747087121009827 -0.06695915758609772 -0.07664996385574341 0.00558302691206336 -0.017939234152436256 -0.0023922566324472427 0.05593890696763992 -0.05478169023990631 0.010995102114975452 0.017769115045666695 -0.05124444514513016 -0.07632626593112946 -0.03524186462163925 -0.05558448284864426 -0.1714363694190979 -0.09701278060674667 0.07744573801755905 0.17516420781612396 0.15346643328666687 0.15970171988010406 0.09643343091011047 0.040318917483091354 0.1297706663608551 0.1337416023015976 0.09553015232086182 -0.2818938195705414 -0.09576798975467682 0.0759197250008583 0.10239477455615997 0.018488096073269844 -0.035626355558633804 -0.09618823975324631 -0.08684998750686646 -0.07682354003190994 -0.03090895712375641 0.0019397700671106577 0.008182057179510593 -0.1761806309223175 -0.17039573192596436 0.001537754200398922 0.08197754621505737 0.006739423610270023 0.07403125613927841 -0.05586223676800728 0.06964746862649918 -0.030369604006409645 0.03740115091204643 0.032446347177028656 0.13970184326171875 0.062020570039749146 -0.014844941906630993 -0.018003569915890694 0.08287258446216583 0.11858904361724854 -0.018792197108268738 -0.23382249474525452 -0.15479686856269836 -0.047152306884527206 -0.09490197151899338 -0.13517169654369354 0.008062873035669327 -0.10778393596410751 -0.14158444106578827 -0.08787107467651367 -0.08947720378637314 -0.05878825858235359 -0.025154579430818558 -0.03905153647065163 0.11056698113679886 0.07336340099573135 0.12771360576152802 0.08517013490200043 0.13740813732147217 0.04510078579187393 0.007868768647313118 -0.06698301434516907 -0.009293271228671074 -0.056564852595329285 0.018109653145074844 -0.1219896748661995 -0.11960077285766602 0.06575540453195572 -0.032125718891620636 -0.05225192382931709 0.013703687116503716 -0.023234877735376358 -0.05219493806362152 0.022276777774095535 -0.020053960382938385 0.03660521283745766 -0.021033454686403275 -0.11539875715970993 -0.07521718740463257 0.0014258651062846184 -0.046767864376306534 -0.15675225853919983 0.01581152155995369 0.08815523982048035 -0.0939403846859932 0.07659808546304703 -0.06420236825942993 -0.0016648460878059268 -0.058149393647909164 -0.025574229657649994 -0.06397955864667892 0.02862721122801304 -0.014091452583670616 -0.02297327294945717 -0.06846677511930466 0.07617858797311783 -0.018263831734657288 0.2561168968677521 0.06343875825405121 -0.039679110050201416 0.20245058834552765 0.09459332376718521 -0.049901701509952545 0.049768347293138504 0.0033099488355219364 -0.0264185331761837 0.028291914612054825 -0.002949663670733571 -0.06236381083726883 0.0787925124168396 -0.0366012342274189 0.09822196513414383 0.08819327503442764 0.052609752863645554 0.11336060613393784 0.10101332515478134 0.010387767106294632 0.07588182389736176 0.016227394342422485 0.07490687817335129 0.10378887504339218 -0.09466218203306198 -0.11274290084838867 -0.14490994811058044 -0.029257457703351974 -0.04995457082986832 0.00793952215462923 -0.0010010309051722288 0.044536907225847244 0.14923399686813354 0.12865231931209564 -0.15320557355880737 -0.09532113373279572 -0.13206812739372253 -0.18059690296649933 -0.11073032766580582 -0.02750827558338642 -0.09830982983112335 -0.03897670656442642 -0.048522841185331345 -0.024586724117398262 0.12629151344299316 0.14102928340435028 -0.04983935505151749 0.07410351932048798 0.026717256754636765 0.010632719844579697 0.08227179944515228 0.006086805835366249 -0.025870434939861298 -0.08175871521234512 0.04176093637943268 -0.06954710185527802 0.028798462823033333 -0.021549660712480545 -0.1751035749912262 -0.010522219352424145 -0.07915110141038895 -0.15664449334144592 -0.11368942260742188 -0.11941417306661606 -0.017666827887296677 -0.061441339552402496 0.0346832349896431 0.09682568907737732 0.07593010365962982 0.10856696963310242 0.038689933717250824 3.328642196720466e-05 -0.0024333177134394646 0.023339491337537766 -0.05059082806110382 0.015163205564022064 0.004768803715705872 -0.0014376079197973013 -0.013843338936567307 -0.08032490313053131 -0.03023659996688366 -0.21791498363018036 -0.03880172595381737 -0.2751513123512268 -0.12637904286384583 -0.10999838262796402 -0.25786492228507996 -0.09185615181922913 0.016141992062330246 0.08847667276859283 0.041730619966983795 0.0027596536092460155 0.134054034948349 -0.006234923377633095 0.063417449593544 -0.1029663011431694 -0.16568298637866974 0.10418859124183655 0.055399090051651 -0.02908276952803135 0.0309835784137249 -0.040329381823539734 0.0562593974173069 -0.04048122838139534 -0.06223389133810997 -0.03134702891111374 -0.014784933999180794 -0.0626048892736435 0.03895197808742523 0.020525667816400528 -0.037432823330163956 0.027320370078086853 0.003302968107163906 -0.027204422280192375 -0.07811934500932693 -0.0786186084151268 -0.056332916021347046 -0.008768516592681408 0.026549531146883965 -0.007512818556278944 -0.00574808195233345 0.0036276401951909065 0.01798766851425171 -0.06548439711332321 -0.07552589476108551 0.0907645970582962 0.11401444673538208 -0.08407578617334366 -0.0017998284893110394 -0.04973758012056351 0.06281204521656036 0.0493687242269516 -0.07046261429786682 -0.007238718215376139 0.06902354955673218 -0.11403881013393402 -0.010032331570982933 -0.04440699890255928 -0.1804410219192505 0.04866030812263489 -0.15661324560642242 -0.26236411929130554 0.06688177585601807 0.006405700463801622 0.024486571550369263 0.054083604365587234 -0.03574104607105255 0.0016179928788915277 0.0775030180811882 -0.007355888374149799 -0.004669378511607647 -0.04393162205815315 -0.03568241745233536 0.1359117031097412 0.04075139760971069 0.017384398728609085 -0.00040680699748918414 0.05506989732384682 -0.03723600134253502 -0.07596885412931442 0.007835032418370247 -0.007629239000380039 -0.04106072336435318 -0.04421314224600792 -0.008681581355631351 -0.023744354024529457 -0.04490862041711807 0.013346293941140175 0.06390637159347534 0.12434647977352142 0.08953536301851273 0.19702748954296112 0.056310415267944336 -0.0671316608786583 0.10648959875106812 0.07534173876047134 0.06725920736789703 0.13097618520259857 -0.016874289140105247 -0.057717833667993546 0.10571382939815521 0.15101498365402222 0.05642853304743767 0.009699844755232334 0.14447884261608124 0.10399826616048813 0.02860329858958721 0.055466290563344955 0.11397605389356613 0.1583605259656906 0.04085607826709747 -0.02724984847009182 -0.08138024061918259 0.08682216703891754 0.07468616217374802 -0.19304637610912323 0.011390499770641327 0.03153921291232109 0.06950049847364426 -0.0218913946300745 0.053588759154081345 -0.09599442034959793 -0.012307390570640564 -0.04180378466844559 -0.10576081275939941 0.03487752005457878 0.016019735485315323 -0.05926496908068657 -0.07427660375833511 -0.0631084069609642 0.08098908513784409 -0.09864082932472229 -0.029422005638480186 0.04751742258667946 -0.29619985818862915 -0.3409997224807739 -0.12081088870763779 -0.33758974075317383 -0.385201096534729 -0.3413650095462799 -0.3165002167224884 -0.39333370327949524 -0.22737489640712738 -0.08641162514686584 -0.07545517385005951 -0.03383539617061615 -0.07463029772043228 -0.038819774985313416 0.07969796657562256 0.10097717493772507 0.07231786847114563 0.16513758897781372 0.06621626019477844 0.10829713940620422 0.1540803164243698 0.10250487923622131 0.12458209693431854 0.12281365692615509 -0.05176840350031853 -0.1591394543647766 -0.1113351359963417 -0.09773345291614532 0.07290895283222198 0.022690195590257645 -0.14787110686302185 -0.01825389638543129 0.015347818844020367 -0.13517598807811737 -0.036929234862327576 0.0681249126791954 0.04904535040259361 0.09096257388591766 -0.043303232640028 -0.03026304952800274 -0.06184330955147743 -0.07401161640882492 -0.19249650835990906 -0.07670363038778305 -0.0590568482875824 0.053851015865802765 0.040719423443078995 0.035072799772024155 -0.04656737670302391 0.03694112226366997 -0.032696548849344254 0.00787266530096531 0.056956470012664795 0.023287951946258545 0.007145947311073542 0.011655961163341999 -0.046685103327035904 0.038535792380571365 0.07526049017906189 -0.05604482442140579 0.1943051964044571 0.06287001073360443 -0.004314388148486614 -0.01980547420680523 -0.01712530292570591 0.010804969817399979 -0.0728154256939888 0.031308963894844055 -0.028782494366168976 -0.03446165472269058 -0.09233099967241287 -0.07491565495729446 0.03495929762721062 -0.00960345659404993 -0.14552444219589233 0.09086129069328308 0.03557618707418442 -0.04768585041165352 0.008353074081242085 0.03969573229551315 0.04807550087571144 -0.01813526824116707 -0.07978951930999756 -0.008068970404565334 -0.048849254846572876 -0.10729365795850754 -0.03424522653222084 -0.23825764656066895 -0.1656133234500885 0.014707103371620178 0.025299694389104843 0.045385684818029404 0.08138486742973328 -0.17200861871242523 -0.1485181599855423 -0.0245968084782362 -0.008504419587552547 -0.06100446358323097 -0.05381098389625549 -0.035468801856040955 0.045847296714782715 -0.030121851712465286 0.042272090911865234 0.117215596139431 0.17473064363002777 0.034134481102228165 0.18739692866802216 0.2350653111934662 -0.05222802981734276 0.049623653292655945 0.11849312484264374 -0.07261928170919418 0.0634721964597702 -0.03694278746843338 -0.1607462614774704 -0.03390894830226898 -0.16560861468315125 0.11869717389345169 0.08203823864459991 0.09675569832324982 0.12078820914030075 0.07447521388530731 0.04884247109293938 0.016602175310254097 0.10523737221956253 -0.033698584884405136 -0.07222838699817657 -0.08699768036603928 0.006802660413086414 0.039207275956869125 -0.03871669992804527 -0.14761148393154144 0.03152671456336975 -0.0028120798524469137 -0.059756066650152206 -0.07521768659353256 -0.10831531137228012 0.0531359426677227 -0.14907117187976837 -0.2095535695552826 -0.13783828914165497 -0.3013685345649719 -0.2701124846935272 -0.33434367179870605 -0.0472310334444046 -0.03724140673875809 -0.05778859928250313 0.006230612751096487 -0.05918392539024353 -0.0007430610712617636 0.09074219316244125 0.03179243579506874 0.03651818260550499 -0.006635203026235104 0.029987968504428864 0.05774262174963951 -0.15583062171936035 -0.10583662241697311 -0.12600143253803253 -0.16337238252162933 -0.2880091369152069 -0.2794436812400818 0.12257889658212662 0.1810566484928131 0.05564558878540993 0.04451588913798332 -0.04431188106536865 0.04993222653865814 -0.049446951597929 -0.1550382673740387 0.043165743350982666 -0.060343094170093536 -0.017969932407140732 -0.0025049448013305664 -0.023471897467970848 0.0012529573868960142 -0.03970706835389137 0.1183636486530304 0.18636369705200195 0.06482304632663727 0.002970367204397917 -0.029064064845442772 -0.05001182481646538 -0.07526688277721405 -0.04717349633574486 -0.012556859292089939 -0.0401325561106205 -0.08031469583511353 -0.03330013528466225 0.06416069716215134 0.0154306935146451 0.046352796256542206 -0.03532863035798073 -0.012981978245079517 -0.02574135735630989 0.026251384988427162 0.0372440442442894 0.010206310078501701 0.07302413880825043 0.03141423687338829 -0.106990747153759 0.04831178858876228 -0.040792327374219894 -0.00674375519156456 0.10600554943084717 0.08259014785289764 0.12220164388418198 -0.037941209971904755 -0.0321943424642086 -0.031599000096321106 0.015561280772089958 0.046181898564100266 -0.04757607355713844 0.03980633616447449 0.04685409367084503 0.06698301434516907 -0.02924385853111744 -0.030190370976924896 0.04474273696541786 -0.0034569730050861835 -0.05847309157252312 0.06466326117515564 0.03487642481923103 0.015432128682732582 0.06931257992982864 -0.06382177025079727 -0.00018090868252329528 -0.09310988336801529 -0.05158326402306557 0.05499938502907753 -0.05394328385591507 -0.01248649787157774 -0.0005623450269922614 0.10584007948637009 -0.0218889769166708 -0.04219292104244232 -0.05283171311020851 0.010711248964071274 0.00842911284416914 -0.03335714712738991 0.06185973435640335 0.061684224754571915 0.011686929501593113 -0.02588317170739174 -0.19341132044792175 -0.17810209095478058 -0.20889237523078918 -0.1389537900686264 0.009199758991599083 -0.05470605939626694 -0.04859789460897446 0.008047128096222878 -0.16370762884616852 -0.09995473176240921 -0.1509111523628235 -0.3810834586620331 -0.35194504261016846 -0.3109251856803894 -0.25487399101257324 -0.14820456504821777 -0.12551292777061462 0.026195451617240906 -0.01722962036728859 0.11329285800457001 0.02914183773100376 -0.04568047448992729 0.06849057972431183 0.0017428833525627851 -0.03536810353398323 -0.06695226579904556 -0.004280939698219299 -0.06182502210140228 0.047774121165275574 -0.11260142922401428 -0.004825046751648188 0.043595459312200546 -0.05384280905127525 -0.025884849950671196 0.0588422529399395 -0.03165115788578987 -0.026494644582271576 -0.04364711418747902 -0.03178618848323822 -0.07173974066972733 -0.1342187225818634 -0.09964242577552795 -0.10456167906522751 -0.10812865942716599 0.012574853375554085 0.010712086223065853 0.11830605566501617 0.12350138276815414 0.005665042903274298 0.13356806337833405 0.01805051602423191 -0.08817246556282043 -0.056536715477705 -0.06786677986383438 -0.037609610706567764 -0.052909620106220245 0.04264996200799942 0.015279294922947884 0.004364466294646263 0.06883493065834045 0.10191521048545837 0.04717584326863289 -0.016264893114566803 -0.10167436301708221 -0.06735239923000336 0.05608087405562401 0.020361820235848427 -0.024667443707585335 0.008631129749119282 0.02167529985308647 -0.031064916402101517 -0.009749233722686768 -0.12068841606378555 -0.08410793542861938 0.08864226937294006 0.066373310983181 -0.08844916522502899 0.08558472990989685 0.08115239441394806 0.08164093643426895 -0.1191549301147461 -0.1789286583662033 -0.18563291430473328 -0.24091829359531403 -0.2743000090122223 -0.17924395203590393 0.03010684810578823 -0.07247551530599594 -0.05021823197603226 -0.04188239201903343 0.04740908741950989 -0.007107361685484648 0.02117643691599369 -0.01771283708512783 0.04937712848186493 0.013574136421084404 -0.03947531059384346 -0.05506831780076027 -0.1580667495727539 -0.10401499271392822 -0.15179601311683655 -0.05162682384252548 -0.02164113149046898 -0.031834594905376434 0.024927038699388504 0.002034297678619623 -0.03199886530637741 0.0440155528485775 0.09614012390375137 0.05801704525947571 0.023369237780570984 0.0741453468799591 0.05460401624441147 0.07435588538646698 0.023680265992879868 0.034478310495615005 0.07841021567583084 -0.06133632734417915 -0.08270776271820068 0.13312089443206787 0.017072943970561028 0.00559206260368228 0.08995380997657776 0.03693447634577751 0.020827369764447212 0.05851854011416435 0.1314021646976471 0.09468849748373032 0.12721629440784454 0.036283109337091446 0.08317060023546219 -0.027002569288015366 -0.04117680341005325 -0.09557677805423737 -0.004290727898478508 0.02811463735997677 -0.04847671464085579 0.029263818636536598 0.023098692297935486 -0.019740818068385124 -0.03174953535199165 0.03675751015543938 -0.09112228453159332 -0.1400914341211319 -0.18813680112361908 -0.14193622767925262 -0.07280896604061127 -0.0775429755449295 -0.05307384580373764 0.07833455502986908 -0.043635044246912 -0.09029725939035416 -0.32885706424713135 -0.19519540667533875 -0.23150286078453064 -0.18240197002887726 -0.19871766865253448 -0.24686171114444733 -0.13966667652130127 -0.2361856997013092 -0.1585375815629959 -0.07380977272987366 -0.01359477173537016 -0.08146078884601593 -0.005477115977555513 -0.012928059324622154 0.030956624075770378 -0.007310689426958561 0.0538860522210598 0.10198627412319183 0.01055644080042839 -0.04643331840634346 0.0011972994543612003 -0.026030998677015305 -0.021319271996617317 0.06422233581542969 0.07014630734920502 -0.0049667879939079285 0.04686323553323746 -0.08962468057870865 -0.07311031222343445 -0.06825552880764008 0.04544500634074211 -0.011286220513284206 -0.06016232445836067 0.05430571734905243 0.007548085413873196 0.05482640862464905 0.043931376188993454 -0.047674477100372314 0.05570050701498985 0.0652455985546112 -0.05381275713443756 -0.021087586879730225 0.07778256386518478 0.008656950667500496 -0.04683962091803551 -0.04490832984447479 -0.018487993627786636 0.02089107222855091 -0.012084992602467537 0.14412401616573334 0.08903077989816666 0.015292663127183914 0.13343292474746704 0.08747928589582443 -0.18162158131599426 -0.279590368270874 -0.17438136041164398 -0.03396322950720787 -0.0499008446931839 -0.04348653927445412 0.05096052587032318 0.03923215717077255 -0.048490624874830246 -0.12022695690393448 -0.2646166682243347 -0.18740291893482208 -0.29866063594818115 -0.24854286015033722 -0.12217430025339127 -0.33970773220062256 -0.2731400430202484 -0.08626830577850342 0.06242063641548157 -0.0077864606864750385 -0.023027431219816208 -0.03099592961370945 -0.015811746940016747 0.003631359664723277 -0.007846510969102383 -0.025210320949554443 -0.002949830610305071 0.014791589230298996 -0.08110928535461426 -0.06192333996295929 0.03546304628252983 0.002989777596667409 -0.019643167033791542 -0.014697537757456303 -0.05414866656064987 -0.0757899060845375 -0.24997930228710175 -0.20122192800045013 -0.12865202128887177 -0.11790422350168228 -0.08751379698514938 -0.13958211243152618 -0.01851348578929901 -0.026923488825559616 -0.16954034566879272 0.043741676956415176 -0.04123523458838463 0.02784786745905876 0.10122451186180115 0.03170044720172882 -0.06525570154190063 0.1748916506767273 0.11619541794061661 0.008724398910999298 0.01126642245799303 0.058826398104429245 -0.031178226694464684 0.004983110353350639 -0.04121457040309906 -0.031708549708127975 -0.01171119511127472 -0.013430467806756496 0.05632760375738144 -0.08724608272314072 -0.09436409920454025 -0.02799350395798683 0.054502591490745544 -0.0041945441626012325 0.06024441495537758 0.08989826589822769 0.01583653688430786 0.1392582803964615 0.028365474194288254 0.014921305701136589 -0.007567068096250296 0.02091163396835327 -0.02325756847858429 -0.00024660557392053306 0.041415661573410034 -0.03625623509287834 0.0049471803940832615 0.10220152884721756 0.06826160848140717 0.033196866512298584 0.026863209903240204 0.06334075331687927 0.05415579676628113 0.08194791525602341 0.10425223410129547 0.1646106094121933 0.05373837426304817 -0.05629280209541321 0.026193886995315552 0.02257656864821911 -0.07469245791435242 -0.012588831596076488 0.08248105645179749 0.08335806429386139 0.0683547705411911 -0.02542956918478012 -0.023868102580308914 -0.05254631116986275 -0.022872667759656906 0.04137741029262543 -0.11527533084154129 0.08960679918527603 0.027066944167017937 0.004138183314353228 0.02318226732313633 0.024473078548908234 0.012631108984351158 0.12618722021579742 0.01616550423204899 0.055107008665800095 0.09303994476795197 0.06743708997964859 0.06657915562391281 0.010213347151875496 -0.03873243182897568 0.03288684040307999 -0.1909201443195343 -0.093956857919693 0.05743574723601341 -0.023250622674822807 -0.17205019295215607 -0.14635778963565826 -0.020355306565761566 0.021016286686062813 0.011498462408781052 0.024363363161683083 0.01381757017225027 -0.0178536269813776 -0.0407673604786396 -0.08477305620908737 -0.08111855387687683 -0.04281596466898918 -0.2123672515153885 -0.020084835588932037 -0.26064056158065796 -0.30558788776397705 -0.09996173530817032 -0.32268691062927246 -0.29673364758491516 -0.14882560074329376 0.06490693986415863 0.0731789767742157 -0.001436011865735054 0.0012551286490634084 -0.09649019688367844 -0.08427145332098007 -0.12411683797836304 -0.11925297975540161 -0.1368277221918106 0.06350302696228027 0.029802363365888596 0.01727181486785412 -0.1326158493757248 -0.24290187656879425 0.12319117039442062 0.13229510188102722 0.18723885715007782 0.14294977486133575 -0.10618336498737335 -0.22499318420886993 0.06824158877134323 -0.19531257450580597 -0.20644740760326385 0.05873988941311836 -0.19646577537059784 -0.08228353410959244 -0.18918918073177338 0.02311049960553646 0.0411372110247612 -0.009379417635500431 -0.05137993022799492 0.024709278717637062 -0.04040136933326721 -0.02940535359084606 -0.022621501237154007 -0.018790410831570625 0.02048485167324543 0.03912942111492157 0.026764240115880966 -0.07497145235538483 0.11408647149801254 -0.06673206388950348 -0.028571849688887596 0.019114332273602486 0.01815919578075409 -0.006624704226851463 -0.023522596806287766 0.06273709982633591 0.03433893993496895 -0.022633371874690056 0.09107738733291626 0.023000843822956085 0.04754940792918205 -0.003001699224114418 0.025627581402659416 -0.08660878241062164 -0.09164414554834366 0.06715943664312363 -0.10563111305236816 -0.0945316031575203 -0.059417326003313065 -0.08563732355833054 -0.06316040456295013 0.12831686437129974 0.09250269085168839 0.12954089045524597 0.046114761382341385 0.05852058529853821 -0.01310695894062519 0.06483619660139084 -0.057685405015945435 -0.005647802725434303 -0.017641780897974968 0.029594892635941505 0.020983735099434853 0.08293843269348145 0.020226100459694862 -0.026676392182707787 0.07941387593746185 0.06110744550824165 0.04604446515440941 -0.0935264527797699 -0.18276318907737732 -0.019632946699857712 -0.3213457465171814 -0.40481823682785034 -0.09618473052978516 -0.45613694190979004 -0.4212789237499237 -0.1446203887462616 -0.13816477358341217 -0.048066623508930206 -0.03599550575017929 -0.09811566025018692 -0.11607804894447327 0.060279447585344315 -0.15619055926799774 -0.12772773206233978 0.03894065320491791 -0.019868476316332817 -0.07344736903905869 0.03067305125296116 -0.03290713578462601 0.004455420654267073 0.06868550181388855 -0.010879440233111382 -0.051581766456365585 0.09292247891426086 -0.02723739482462406 0.056988425552845 0.15181998908519745 -0.020096970722079277 -0.051986586302518845 0.10668198764324188 0.10149122774600983 0.011617027223110199 0.08387976139783859 -0.053989145904779434 -0.012150117196142673 -0.052614931017160416 0.007637553848326206 0.029621973633766174 -0.014096923172473907 0.048380106687545776 0.017981594428420067 -0.027845021337270737 0.041211578994989395 0.005242223851382732 0.01683528907597065 0.0021816918160766363 0.04296811670064926 -0.0341985747218132 -0.02846522629261017 -0.040854208171367645 -0.04030349478125572 0.046989720314741135 -0.02589188702404499 -0.0388585701584816 0.06316521763801575 0.023879464715719223 -0.04719503968954086 0.06781383603811264 -0.02683176100254059 0.03416633605957031 0.16010992228984833 0.023785315454006195 0.15764811635017395 0.09377080202102661 0.06396359205245972 0.12115316092967987 0.15831325948238373 0.06659094989299774 0.04371565952897072 -0.1775152087211609 -0.18647944927215576 0.09995972365140915 -0.13128162920475006 -0.08038575202226639 0.18558500707149506 -0.11625859141349792 0.01695089414715767 0.14855314791202545 -0.016391495242714882 0.003062416333705187 0.04103386402130127 0.011735408566892147 0.061151765286922455 -0.03981394320726395 0.033650580793619156 -0.01148227509111166 -0.027509957551956177 0.043056897819042206 -0.040589019656181335 -0.0046852873638272285 -0.013928052969276905 0.081802599132061 0.030380668118596077 0.05921129509806633 -0.01091180369257927 0.07199864834547043 0.10250937938690186 -0.05157049000263214 0.03908076509833336 -0.08600320667028427 -0.12382391840219498 -0.05700799077749252 -0.07752256840467453 -0.07694750279188156 0.041999783366918564 -0.16918115317821503 -0.10896754264831543 -0.24146424233913422 -0.15242373943328857 -0.13713400065898895 -0.22387711703777313 0.009987358935177326 -0.10038187354803085 -0.16437426209449768 