0.04611344262957573 0.13320159912109375 -0.09966644644737244 -0.15503354370594025 -0.09571725130081177 0.0676373764872551 -0.039143599569797516 0.12207546085119247 -0.02966223657131195 -0.030377285555005074 -0.15753842890262604 -0.05376552790403366 -0.29574090242385864 -0.22946710884571075 -0.10072698444128036 -0.055016111582517624 0.03781536594033241 0.11109354346990585 -0.17051033675670624 -0.13870491087436676 0.07119731605052948 0.10217400640249252 -0.07613241672515869 0.1647876352071762 -0.020867113023996353 0.06443441659212112 0.23067352175712585 -0.1875157505273819 -0.11512135714292526 -0.06620659679174423 -0.1073804572224617 0.15767894685268402 -0.1433727741241455 -0.08829732239246368 -0.1677626222372055 -0.16976886987686157 -0.12899640202522278 0.19770920276641846 0.07732295989990234 0.09131649136543274 0.06129341199994087 -0.0802009105682373 0.05739995464682579 -0.16807059943675995 -0.10847298055887222 -0.09626151621341705 0.19999463856220245 0.13918128609657288 -0.04423724487423897 0.1065673902630806 0.18482816219329834 0.24439220130443573 0.12848657369613647 0.0760464072227478 0.0773899182677269 -0.16110751032829285 0.06409923732280731 -0.21361024677753448 -0.24522092938423157 -0.13133732974529266 0.13672515749931335 0.09315908700227737 -0.1051969826221466 0.05848633125424385 0.11523373425006866 0.0181711595505476 0.013476002030074596 0.012239024043083191 0.11515391618013382 0.262439489364624 -0.09938271343708038 -0.0789630338549614 0.07472099363803864 0.16423866152763367 0.18832768499851227 0.1633606106042862 0.001787748420611024 -0.19094093143939972 0.06482315808534622 -0.10739399492740631 -0.24070824682712555 0.1490965485572815 0.2083732783794403 -0.15482451021671295 0.04568883776664734 -0.028522305190563202 -0.05529767647385597 -0.09461580216884613 0.06099506840109825 -0.14169429242610931 0.0968177542090416 0.20118412375450134 0.20698492228984833 0.11029253900051117 -0.17630471289157867 -0.13717588782310486 0.11954407393932343 0.03982466086745262 -0.16598445177078247 -0.11718614399433136 0.2557479739189148 0.19058340787887573 -0.08988361805677414 -0.08372822403907776 -0.2078104019165039 -0.007502581924200058 -0.17941255867481232 -0.15298409759998322 -0.0326378159224987 0.060344990342855453 -0.11623621731996536 0.217695415019989 -0.1737302839756012 0.20634326338768005 0.19565509259700775 -0.30302679538726807 -0.06870397925376892 0.0407683327794075 0.09435193240642548 0.06194945052266121 0.2111542820930481 -0.021152261644601822 0.0009938761359080672 0.2170472890138626 -0.25384145975112915 -0.033893026411533356 -0.15589064359664917 -0.08819004148244858 -0.013315992429852486 -0.20160098373889923 -0.14565902948379517 0.18749485909938812 -0.11561654508113861 -0.09423024952411652 0.31615906953811646 -0.018212268128991127 0.015354184433817863 -0.011020611971616745 0.11521053314208984 0.19318389892578125 0.22587163746356964 0.1788090020418167 0.24161207675933838 0.025959063321352005 -0.20807775855064392 -0.15022219717502594 0.10239814966917038 -0.030498825013637543 -0.17524287104606628 -0.19757777452468872 -0.22514423727989197 -0.24131359159946442 -0.07046735286712646 0.1456436663866043 0.13639795780181885 -0.12305249273777008 0.17619095742702484 -0.13131508231163025 0.008538701571524143 -0.03983587771654129 -0.024340679869055748 0.02320457063615322 -0.16843079030513763 -0.1903063803911209 -0.09960882365703583 0.005373240914195776 0.05758298933506012 0.10911011695861816 -0.09473484009504318 0.09325890988111496 0.18305855989456177 -0.0821833610534668 0.20585709810256958 0.056379545480012894 -0.2257189303636551 0.2742108702659607 0.02252175658941269 -0.14342240989208221 0.17243355512619019 -0.22475770115852356 0.02171280048787594 -0.017579272389411926 0.06907106190919876 0.01652512699365616 0.2687129080295563 0.09038882702589035 -0.12920844554901123 -0.0348854698240757 -0.271487295627594 0.17717358469963074 0.2623295187950134 0.20664770901203156 -0.16088473796844482 0.01943088322877884 -0.11277707666158676 -0.21241919696331024 -0.17388540506362915 0.05730584263801575 -0.08498892188072205 0.05515239015221596 0.04324249550700188 0.07608135789632797 -0.17829924821853638 -0.14349274337291718 -0.1919989287853241 0.07430359721183777 -0.07867923378944397 0.18689318001270294 0.10104266554117203 0.01779632642865181 -0.003096342319622636 -0.05258079245686531 -0.006953518837690353 -0.0563553124666214 -0.01730026863515377 0.008806576952338219 -0.1799645572900772 -0.061276793479919434 0.2402305006980896 -0.30841442942619324 -0.09551852941513062 0.29152023792266846 0.22001324594020844 0.11477023363113403 -0.12850110232830048 0.08577617257833481 -0.14200793206691742 -0.042440105229616165 -0.2069396823644638 -0.16968965530395508 0.004696873482316732 0.3098800778388977 0.06665674597024918 0.08354872465133667 0.1563410758972168 -0.07278013974428177 0.13639239966869354 -0.295511931180954 -0.19576413929462433 0.09838943928480148 0.1606774628162384 0.16687805950641632 -0.15191338956356049 0.0331072062253952 0.10433214157819748 -0.15883758664131165 0.1887751966714859 -0.17037270963191986 0.0393010713160038 0.02902628481388092 -0.05924315005540848 0.08576694130897522 0.13707378506660461 -0.11215002089738846 -0.13133400678634644 -0.10117173939943314 -0.2916198670864105 0.06068231165409088 -0.11654669046401978 -0.17970439791679382 -0.11478707194328308 0.1389005482196808 0.1298840194940567 0.19867123663425446 0.11311328411102295 -0.0625518336892128 0.004676045384258032 0.0906592383980751 0.1906794160604477 0.11985516548156738 -0.28544124960899353 -0.2350187450647354 -0.37308037281036377 -0.012181735597550869 -0.1923479437828064 -0.27660542726516724 0.22051502764225006 -0.11294940859079361 0.012262934818863869 -0.016869710758328438 0.006196907721459866 -0.18859189748764038 -0.12817156314849854 0.18642373383045197 0.033367134630680084 0.23215945065021515 -0.018593648448586464 0.11086029559373856 -0.061930280178785324 0.05904495716094971 -0.09423451870679855 0.12090515345335007 0.12231265008449554 0.018574655055999756 -0.007650457788258791 -0.12155386060476303 0.1269795000553131 -0.13219702243804932 0.1955648809671402 0.04883085936307907 -0.013299107551574707 -0.1304008662700653 -0.056158993393182755 0.21351861953735352 -0.07590369135141373 -0.058062586933374405 0.0315929539501667 0.15119028091430664 0.13084165751934052 0.06867651641368866 -0.3826714754104614 -0.0390741229057312 0.24849171936511993 -0.2363210767507553 0.1111239343881607 0.1025783121585846 -0.03241969272494316 0.04675183445215225 0.1467776894569397 -0.1942717581987381 0.014565454795956612 0.17437568306922913 -0.31035977602005005 0.06627301126718521 0.02503405325114727 0.027709629386663437 0.08284997195005417 -0.05116868019104004 0.0189586840569973 -0.12570324540138245 -0.32706794142723083 -0.29197025299072266 0.19421355426311493 0.05426771938800812 -0.23476910591125488 0.046154774725437164 0.17230144143104553 0.23682329058647156 0.1962781697511673 0.07798215746879578 -0.059568777680397034 -0.0016151652671396732 0.0730821043252945 -0.04050550237298012 -0.21017077565193176 0.22344383597373962 0.10362072288990021 0.047423165291547775 -0.1590626835823059 0.01554128434509039 -0.08461905270814896 0.08860407769680023 -0.1256614476442337 -0.0018061264418065548 0.08250448852777481 0.054732099175453186 -0.10154271125793457 0.15893159806728363 -0.1546337902545929 0.0109317097812891 -0.18434439599514008 -0.3038902282714844 -0.2601763606071472 0.22513893246650696 0.08301403373479843 0.13805009424686432 0.2594554126262665 -0.16284073889255524 -0.13196347653865814 -0.17903321981430054 -0.26020199060440063 0.038918036967515945 -0.1813979595899582 -0.1749945878982544 -0.25673723220825195 -0.10713246464729309 0.09329985082149506 0.10465890169143677 0.05887969210743904 0.0700688436627388 0.10917457938194275 -0.11984528601169586 0.05337746441364288 0.14291852712631226 -0.012531379237771034 0.13757120072841644 0.05647483840584755 0.0686967521905899 -0.12513048946857452 0.045313239097595215 -0.02409544587135315 -0.06323671340942383 -0.13130420446395874 -0.1569899171590805 -0.18702520430088043 0.09524312615394592 0.1356690376996994 -0.021203303709626198 -0.10418777167797089 0.15708371996879578 0.16846518218517303 0.0435589998960495 -0.10090320557355881 0.1827164739370346 0.07675426453351974 -0.16769954562187195 0.3154606223106384 0.1895391345024109 -0.1761571317911148 0.20176909863948822 -0.01495276391506195 -0.10755030065774918 0.1238381415605545 0.047645874321460724 -0.1289004683494568 -0.02336004190146923 -0.08472856134176254 -0.08475468307733536 0.014362053945660591 0.18766939640045166 0.05153467878699303 -0.17167165875434875 0.03662128373980522 0.22853665053844452 0.1102275624871254 -0.32342529296875 0.040622297674417496 -0.17152604460716248 -0.20547139644622803 0.22942548990249634 -0.16888336837291718 0.024661438539624214 0.16145220398902893 0.017589952796697617 -0.1295424848794937 -0.06572986394166946 0.05085320025682449 -0.13883638381958008 0.08001174032688141 -0.2552218735218048 -0.24238434433937073 -0.2001577913761139 -0.027315638959407806 0.13399621844291687 -0.1928819864988327 0.17404891550540924 -0.06389382481575012 0.01339603029191494 -0.08531344681978226 -0.2566262185573578 0.18809416890144348 0.1681939661502838 0.24448034167289734 0.11468398571014404 -0.07329808920621872 0.21088548004627228 -0.0312278401106596 0.018469149246811867 -0.2134539932012558 0.10089588910341263 -0.3887958228588104 -0.09639084339141846 0.24849429726600647 -0.3334827423095703 -0.1070723831653595 0.27381113171577454 0.10866212844848633 -0.1801520138978958 -0.06928921490907669 -0.42533615231513977 -0.03203371912240982 0.3318161070346832 -0.16327837109565735 -0.2517624497413635 0.16261473298072815 -0.19346477091312408 -0.2864697575569153 0.21277421712875366 -0.40553179383277893 0.04554273933172226 0.05940262973308563 -0.3352600336074829 -0.3315407335758209 0.23580360412597656 0.023304415866732597 0.11049355566501617 0.09047891199588776 0.02253001555800438 -0.050002872943878174 -0.04467996209859848 -0.06506489217281342 -0.01731731742620468 0.09295345097780228 -0.10831444710493088 0.19007477164268494 -0.020259065553545952 -0.23168736696243286 -0.14895151555538177 0.21155428886413574 0.1697363704442978 -0.21275688707828522 0.14319701492786407 0.1288764476776123 0.13957391679286957 0.1440236121416092 -0.17042231559753418 0.025131067261099815 0.0727527067065239 -0.09226840734481812 0.0036663231439888477 -0.1412055343389511 0.06922149658203125 -0.10440436005592346 -0.0063262637704610825 0.032551202923059464 -0.010656428523361683 -0.09779054671525955 0.05288916081190109 0.10256221890449524 -0.08034521341323853 0.0613219253718853 -0.040179282426834106 0.13748186826705933 -0.15524175763130188 -0.15283511579036713 -0.10864150524139404 0.21099546551704407 -0.02635609172284603 -0.02922600880265236 -0.05764548107981682 0.24758687615394592 0.2556323707103729 -0.19635224342346191 -0.23620612919330597 -0.15936456620693207 -0.01751825585961342 -0.08637912571430206 -0.14112097024917603 -0.06498738378286362 0.05379676818847656 0.060909517109394073 -0.015153663232922554 -0.06951182335615158 -0.013065517880022526 0.07961519807577133 0.2912445366382599 -0.24620114266872406 0.08860836923122406 -0.025761637836694717 0.3934156894683838 -0.3024207353591919 -0.2904741168022156 0.2708657383918762 -0.13336393237113953 0.12947161495685577 -0.104376420378685 0.026069819927215576 0.0025760692078620195 0.2641587555408478 -0.15162649750709534 -0.26460230350494385 -0.06738875061273575 -0.12949496507644653 0.1869400441646576 -0.16965752840042114 0.2657153308391571 0.02854233793914318 -0.026456497609615326 0.17037972807884216 0.07249775528907776 0.2747710049152374 0.21605850756168365 -0.08768055588006973 -0.21883104741573334 -0.06974560767412186 0.14471328258514404 -0.16318845748901367 -0.23758037388324738 0.04763692989945412 0.16891056299209595 -0.031665217131376266 -0.18397191166877747 -0.3763371407985687 -0.05600978806614876 0.012813989073038101 -0.14329297840595245 0.05210612714290619 0.12469770759344101 0.22245486080646515 0.27210164070129395 0.04006702080368996 -0.29219064116477966 -0.17729508876800537 0.30853983759880066 0.083575040102005 0.028071550652384758 -0.14076831936836243 0.27470651268959045 0.24621397256851196 0.17822034657001495 -0.19443613290786743 -0.026654796674847603 -0.10793755948543549 0.11705507338047028 -0.25916919112205505 -0.19215835630893707 0.1566486656665802 -0.12057317793369293 -0.2014770358800888 -0.06092025712132454 -0.030264345929026604 -0.1958484649658203 0.1427457481622696 -0.1926664113998413 0.019589072093367577 0.28343310952186584 0.13609516620635986 -0.03422597423195839 0.16055746376514435 0.05539020895957947 -0.12389128655195236 0.24597586691379547 0.042346879839897156 -0.16092155873775482 0.10448460280895233 -0.21337708830833435 0.2219623178243637 0.001292659668251872 -0.29784008860588074 0.05296861007809639 0.20148064196109772 -0.004718969110399485 0.014684290625154972 0.22419749200344086 -0.025820579379796982 -0.0074091763235628605 -0.003748480696231127 -0.30148303508758545 -0.06580256670713425 0.10633071511983871 -0.22106288373470306 -0.08972828090190887 0.22811612486839294 -0.13674254715442657 -0.1561211496591568 0.2680011987686157 -0.2310991734266281 0.21455106139183044 -0.12271962314844131 -0.03121710568666458 0.08207378536462784 -0.11523549258708954 0.1469772458076477 -0.1624293476343155 -0.30876830220222473 -0.17175111174583435 -0.05306686460971832 0.2651223838329315 0.006153227295726538 0.11545063555240631 -0.02304910495877266 0.04408912733197212 0.204522967338562 -0.26729917526245117 0.009554870426654816 0.1744530349969864 0.013376527465879917 0.16954031586647034 -0.10277585685253143 0.13851046562194824 -0.1760958731174469 -0.07742511481046677 -0.19483782351016998 -0.006874902173876762 -0.03359488770365715 0.11151368916034698 -0.07590683549642563 -0.08429652452468872 0.13150349259376526 -0.09732545912265778 0.1552392989397049 -0.18417780101299286 -0.0827316865324974 0.0004799988819286227 0.07930248230695724 0.12349239736795425 -0.06395307183265686 -0.15113024413585663 0.07749801129102707 0.09981279075145721 0.012135783210396767 -0.15663546323776245 0.18473131954669952 0.1292218416929245 -0.07239662855863571 -0.2965751588344574 0.15485535562038422 -0.2257295697927475 -0.012103160843253136 0.012780040502548218 -0.13922706246376038 0.07326027005910873 -0.19717079401016235 -0.060022223740816116 -0.18850742280483246 0.02781090885400772 0.03639679774641991 0.21206563711166382 -0.04288341850042343 0.19557593762874603 0.03914937376976013 -0.05782013386487961 -0.22460447251796722 -0.201311394572258 0.2309914380311966 -0.04451002553105354 0.05393562465906143 0.058199718594551086 0.1708182990550995 0.2051699012517929 0.19611378014087677 -0.2000814825296402 -0.054512545466423035 -0.10402251780033112 -0.15095824003219604 0.057351261377334595 0.13675224781036377 -0.17047302424907684 0.1160796508193016 -0.09815354645252228 -0.07452511787414551 0.14317993819713593 -0.0688360333442688 -0.03153466433286667 -0.2380940467119217 0.16754502058029175 -0.04714065417647362 -0.23417983949184418 0.02041596919298172 -0.18355192244052887 -0.180394247174263 0.03296675160527229 0.18530820310115814 -0.10729193687438965 0.15370213985443115 0.225022554397583 0.07950545847415924 -0.151770681142807 -0.07288119196891785 -0.09757698327302933 -0.13388831913471222 0.03583219274878502 0.07409551739692688 0.23530595004558563 0.07376284897327423 -0.037727490067481995 -0.041079454123973846 0.17658208310604095 -0.10871253162622452 -0.20404642820358276 0.08107048273086548 0.10275104641914368 -0.20432770252227783 0.24091364443302155 0.05866197869181633 -0.14298394322395325 -0.018409429118037224 0.16183114051818848 -0.2707812488079071 -0.002776100765913725 0.08943607658147812 -0.22436188161373138 0.18832816183567047 0.1334259957075119 0.12557609379291534 -0.11543193459510803 0.1463962197303772 -0.2303762584924698 0.24029318988323212 -0.18483178317546844 -0.23480992019176483 0.2006216049194336 0.0387677326798439 0.031150201335549355 -0.15509474277496338 -0.1771402508020401 -0.09699075669050217 -0.2181597650051117 -0.048707447946071625 0.048303231596946716 0.016368355602025986 0.05711577832698822 0.19945214688777924 0.05323567986488342 -0.12156041711568832 -0.13155904412269592 -0.10571230947971344 -0.14807727932929993 -0.09133314341306686 -0.04627681523561478 0.05210382491350174 -0.06206674128770828 0.19227205216884613 -0.14994701743125916 -0.009866667911410332 0.25974979996681213 0.23998793959617615 -0.12172064185142517 0.10107173025608063 0.05858445167541504 -0.0696575790643692 -0.08761071413755417 -0.039934393018484116 -0.20762377977371216 0.05985323712229729 0.060297172516584396 -0.07143200933933258 0.25569236278533936 0.04485487565398216 0.15206865966320038 0.23086059093475342 -0.11690793186426163 0.008707710541784763 -0.04013446345925331 -0.0822637602686882 -0.12206349521875381 0.002405287465080619 -0.11786126345396042 0.13920994102954865 0.04419137164950371 0.04340307414531708 -0.07859298586845398 0.06373480707406998 -0.12738358974456787 -0.21190539002418518 0.11424799263477325 -0.017013536766171455 -0.12787221372127533 -0.06395011395215988 0.09017341583967209 -0.08343586325645447 0.02606065385043621 0.13061988353729248 0.10993245244026184 -0.05427440628409386 -0.06286369264125824 0.030876291915774345 0.09828849136829376 0.012041544541716576 0.04551064223051071 -0.10496088117361069 0.23309674859046936 0.032193832099437714 -0.23116514086723328 0.04902385175228119 -0.2257630079984665 -0.07972921431064606 -0.13705027103424072 0.1739591658115387 -0.2780982255935669 0.19374720752239227 0.39101430773735046 -0.019080666825175285 -0.025806784629821777 