-0.06387123465538025 0.014651481993496418 -0.03140391409397125 -0.024831421673297882 -0.027788355946540833 0.08053839951753616 -0.002163232769817114 -0.02971043437719345 -0.11576639115810394 0.006165938917547464 -0.036372728645801544 0.1089215949177742 0.010858671739697456 -0.03495825082063675 0.036421358585357666 -0.08325862884521484 -0.007316839415580034 -0.04422193020582199 0.004445747006684542 -0.028575755655765533 0.0023508737795054913 -0.020921112969517708 -0.16315194964408875 0.05444232001900673 0.025364907458424568 0.08930396288633347 -0.05039375647902489 0.11917698383331299 -0.022654438391327858 -0.006102197337895632 0.0561896488070488 0.0508025586605072 -0.027367115020751953 -0.01673734188079834 0.001956474967300892 -0.08168850094079971 -0.1476971060037613 0.030971713364124298 -0.04369460791349411 -0.022950241342186928 -0.03622762858867645 -0.09427394717931747 0.009901904501020908 -0.002944912062957883 -0.008342544548213482 -0.07870151847600937 0.1082114428281784 -0.02123061753809452 -0.01714245416224003 0.1603727638721466 -0.009013118222355843 -0.056243859231472015 -0.046520963311195374 -0.02777244709432125 -0.028454914689064026 0.04458686336874962 -0.027537040412425995 -0.018090881407260895 0.008073236793279648 0.1828729510307312 -0.08578833192586899 0.007047342602163553 -0.03573734313249588 -0.02061556838452816 0.005035306327044964 0.08486661314964294 0.03412565216422081 -0.07457074522972107 -0.09234853833913803 -0.03307764232158661 -0.008487291634082794 0.04149012640118599 -0.0006524943746626377 0.10233080387115479 -0.055899158120155334 -0.042178716510534286 -0.0341164655983448 -0.03278819099068642 0.07138671725988388 -0.011834636330604553 -0.042619429528713226 0.056594643741846085 -0.02800740674138069 0.06789690256118774 -0.09770235419273376 0.10205265134572983 -0.0014399036299437284 -0.10287440568208694 -0.01777813397347927 -0.12867285311222076 -0.06611163169145584 -0.08838840574026108 -0.011358283460140228 -0.04211077839136124 -0.04503973573446274 0.007819336839020252 -0.019760699942708015 -0.009646390564739704 -0.020501188933849335 -0.049593485891819 -0.01027868315577507 0.004706312902271748 0.032043516635894775 -0.03875202685594559 -0.046179670840501785 -0.025168614462018013 0.008628824725747108 0.1298719048500061 -0.01692989096045494 -0.08084584027528763 0.009503797627985477 0.11463318765163422 -0.028180215507745743 -0.0143734784796834 -0.06496431678533554 0.017570380121469498 -0.08360440284013748 -0.08696247637271881 0.029349764809012413 -0.04446949437260628 0.16374258697032928 2.5619985535740852e-05 0.05526062101125717 0.07009151577949524 -0.004999145865440369 0.00422711530700326 -0.018398666754364967 0.015140694566071033 0.0327465757727623 -0.0017467286670580506 -0.02642202563583851 -0.045000433921813965 -0.025153305381536484 0.037002284079790115 0.061888646334409714 -0.07552097737789154 -0.021779170259833336 -0.027338257059454918 0.06327251344919205 -0.02815133146941662 -0.051730670034885406 -0.03083198145031929 -0.05569513142108917 -0.013076325878500938 0.05733238160610199 -0.038803450763225555 -0.08495412021875381 0.03252376243472099 -0.01893537864089012 0.14912134408950806 -0.05576590076088905 -0.05439271405339241 -0.041986268013715744 0.009730691090226173 -0.005742207169532776 0.00023807911202311516 -0.01449180580675602 -0.0619393065571785 0.02407360076904297 -0.007213324308395386 0.0010777912102639675 -0.1433144360780716 -0.09201757609844208 0.060587357729673386 -0.009907287545502186 -0.015521700493991375 -0.026124918833374977 -0.04853042960166931 -0.030279776081442833 -0.022639213129878044 0.05403917655348778 0.015727486461400986 0.0687214657664299 -0.13550209999084473 -0.021752256900072098 0.0586731843650341 -0.16018621623516083 -0.02872261218726635 -0.032881882041692734 -0.022939736023545265 -0.015697505325078964 0.013037425465881824 0.022236982360482216 -0.000810913450550288 -0.038445234298706055 -0.10946165025234222 -0.12021469324827194 -0.00048700356273911893 0.09407272934913635 -0.053046125918626785 -0.013188577257096767 -0.05294078215956688 -0.003962078131735325 -0.02518615871667862 -0.04307204484939575 0.07691092789173126 -0.0035754868295043707 -0.05205082520842552 -0.12976515293121338 -0.04011969268321991 -0.037810955196619034 -0.03314140439033508 -0.023107977584004402 -0.05568484216928482 0.003970467951148748 -0.010620953515172005 -0.013723131269216537 -0.01311416458338499 0.0408170185983181 0.006768862716853619 0.043019335716962814 0.16922420263290405 0.008240561932325363 -0.08527876436710358 -0.024653784930706024 -0.05186989903450012 -0.025942673906683922 0.032212190330028534 0.021485989913344383 -0.01938232034444809 -0.07856755703687668 -0.03756708279252052 0.09464533627033234 0.007692940067499876 -0.04312145337462425 -0.11682204157114029 0.031074726954102516 -0.08734066039323807 0.006190242245793343 0.0715077742934227 -0.03067590668797493 0.1335759162902832 0.005871250759810209 -0.14967630803585052 -0.04345393180847168 -0.01549641601741314 -0.007421848364174366 -0.044403981417417526 0.05785265192389488 -0.005083289463073015 -0.018017513677477837 0.0732375755906105 -0.03947079926729202 -0.0581466406583786 0.09041880816221237 0.007636803202331066 -0.03603280335664749 -0.025125380605459213 -0.08702650666236877 -0.04631092771887779 -0.02980019897222519 0.17621244490146637 -0.04671161621809006 -0.027948079630732536 -0.02746463194489479 -0.11916611343622208 0.001380924484692514 -0.16161389648914337 0.10845077782869339 0.04058371111750603 -0.0549943670630455 -0.04137022793292999 -0.017382968217134476 -0.012766346335411072 0.0850820541381836 -0.11248967796564102 0.023026950657367706 -0.1128753200173378 -0.018417488783597946 0.0015922454185783863 -0.044603053480386734 -0.05431811884045601 -0.03542071953415871 0.05816593021154404 0.10868019610643387 0.028005387634038925 0.00376817025244236 -0.06208961829543114 -0.04384788125753403 -0.13736078143119812 -0.06551063805818558 0.00030198905733413994 -0.03899616003036499 -0.008531170897185802 -0.028523126617074013 -0.003767510410398245 -0.023323850706219673 0.04220550134778023 0.0036917459219694138 0.06700184941291809 -0.0562211237847805 -0.03023150935769081 -0.026903871446847916 -0.019700974225997925 -0.016333861276507378 0.11378254741430283 0.05879533290863037 0.060543522238731384 0.00991525687277317 -0.02941044420003891 0.06946510821580887 -0.054033227264881134 -0.04796416312456131 -0.16124308109283447 0.081572525203228 0.03712281212210655 -0.026455068960785866 -0.04565086588263512 -0.04964002966880798 0.007236732169985771 -0.019774343818426132 -0.027534829452633858 -0.03903840482234955 -0.015444121323525906 -0.0683162584900856 -0.03663405030965805 -0.03548480570316315 -0.04410974681377411 0.016475992277264595 -0.026833608746528625 0.049154456704854965 -0.02086910791695118 -0.08564566820859909 -0.02472672611474991 -0.010382209904491901 0.08790308237075806 0.03221816197037697 -0.027944765985012054 -0.03663521260023117 -0.016337482258677483 -0.035411592572927475 -0.005105958320200443 -0.0023561285343021154 0.049130629748106 -0.0584699884057045 -0.012830940075218678 0.0010468597756698728 0.006557443644851446 -0.05761018022894859 -0.049878139048814774 -0.017170513048768044 0.21425947546958923 -0.07484641671180725 -0.04753980040550232 -0.017010623589158058 -0.06463167071342468 -0.032860055565834045 -0.025184590369462967 -0.015006222762167454 0.09862764179706573 -0.11595895141363144 -0.08798499405384064 -0.10636382550001144 0.12101193517446518 -0.06727391481399536 -0.04884035140275955 -0.03553419187664986 -0.022722434252500534 -0.02964620292186737 -0.04139360412955284 -0.011572184972465038 -0.02527601085603237 -0.09609311819076538 -0.014843459241092205 -0.05145644769072533 0.09587562829256058 -0.026421697810292244 -0.010637837462127209 0.07042289525270462 -0.0002631692623253912 -0.12977401912212372 -0.027270488440990448 0.0003655563632491976 -0.06611192971467972 0.060192447155714035 0.1483536660671234 -0.021172475069761276 0.14127203822135925 -0.14638720452785492 0.026630358770489693 -0.10812892019748688 0.06884212791919708 -0.047473445534706116 -0.011651838198304176 -0.01906375214457512 0.017316892743110657 -0.00654147332534194 -0.0019211333710700274 0.016036633402109146 -0.009554685093462467 -0.03199043497443199 -0.0004841075569856912 0.03721275180578232 0.13707345724105835 -0.11340239644050598 -0.0471852645277977 -0.1163586676120758 -0.07095133513212204 -0.016113199293613434 -0.03800337761640549 -0.055470436811447144 -0.00919069442898035 -0.02823573164641857 -0.04185571148991585 -0.029975051060318947 -0.009000816382467747 -0.0001017742179101333 0.00045360313379205763 -0.0075912694446742535 0.009438428096473217 -0.04383523389697075 0.006770467851310968 0.03926941007375717 -0.13175734877586365 -0.0680362805724144 -0.0636996403336525 -0.05674302205443382 -0.028739482164382935 -0.1342085599899292 -0.04815010726451874 -0.02761184796690941 -0.053402893245220184 0.013774622231721878 0.026983624324202538 -0.02316863462328911 -0.04985933378338814 0.026103448122739792 -0.09995545446872711 -0.017928767949342728 0.0025807979982346296 -0.04634884372353554 -0.016067830845713615 0.0011470802128314972 -0.09325471520423889 0.13215965032577515 -0.0075973267666995525 0.17101673781871796 0.13289472460746765 -0.015677889809012413 -0.06262540817260742 -0.05499468371272087 0.16544324159622192 0.13407151401042938 -0.010416368022561073 -0.08979282528162003 -0.10701688379049301 0.010477415286004543 -0.06449589878320694 -0.09111467748880386 -0.043848708271980286 -0.028250496834516525 0.010937587358057499 -0.057891324162483215 0.12981313467025757 -0.010316655971109867 0.04637528955936432 0.07858478277921677 -0.01669022999703884 -0.039367906749248505 -0.016060879454016685 -0.021910633891820908 -0.04384075850248337 0.1393553912639618 -0.02989203669130802 -0.03025236167013645 0.016835857182741165 -0.0498230904340744 -0.012246291153132915 0.07960989326238632 -0.0040016183629632 0.013153676874935627 0.012739332392811775 -0.10080652683973312 0.026953808963298798 0.026459312066435814 -0.09527404606342316 -0.17738857865333557 -0.0021157488226890564 -0.12559494376182556 0.05278543382883072 -0.02164776436984539 -0.03125765547156334 -0.04509963095188141 -0.040467895567417145 0.058691393584012985 -0.03735639154911041 0.03504376858472824 0.1524772346019745 -0.13328461349010468 -0.0799708440899849 -0.03908888250589371 -0.05345333367586136 -0.048075318336486816 -0.011469383724033833 -0.0207628533244133 -0.041064612567424774 0.05549067258834839 0.01653539389371872 0.01566198095679283 -0.04157799854874611 -0.041382789611816406 -0.08468557149171829 -0.012333688326179981 0.058660488575696945 -0.019630664959549904 -0.0023039812222123146 -0.14329496026039124 -0.05266040563583374 0.01125338114798069 0.10798308998346329 0.04529711231589317 -0.058424726128578186 