0.0601358562707901 -0.02205636352300644 0.006229889579117298 0.06009705364704132 -0.021663667634129524 -0.24296322464942932 0.011597869917750359 0.20251189172267914 0.19647732377052307 0.02068251185119152 -0.012517720460891724 0.2084091156721115 -0.03292698785662651 0.014441883191466331 -0.41316312551498413 -0.08629301190376282 -0.013899336569011211 0.01608421839773655 -0.02331346832215786 0.0356297492980957 -0.5493500232696533 0.0322936549782753 0.08836410194635391 -0.06389471143484116 0.08971896022558212 -0.2577497661113739 0.12480592727661133 -0.23308506608009338 0.027815788984298706 -0.044502705335617065 0.10552608966827393 0.26806536316871643 0.00873840507119894 -0.011614535935223103 0.09540090709924698 -0.01706286147236824 -0.10567596554756165 -0.1277739703655243 0.05336791276931763 -0.02508477494120598 0.06279650330543518 0.09151123464107513 -0.04952343553304672 -0.01765185035765171 0.032949306070804596 -0.3007235527038574 0.4622345566749573 -0.027246367186307907 -0.023388609290122986 0.09144014865159988 -0.3465688228607178 -0.010454114526510239 -0.18873918056488037 0.03307102248072624 0.01045283954590559 -0.06848569959402084 0.0037081465125083923 -0.04386553913354874 0.004561830777674913 -0.10435623675584793 -0.09879574179649353 0.0268855020403862 -0.005657898727804422 -0.07239092886447906 -0.0064382110722362995 -0.1553759127855301 0.05469653755426407 0.09040416777133942 -0.011603749357163906 0.007660110481083393 0.0020332050044089556 0.11147557944059372 -0.037645868957042694 -0.18440169095993042 0.031690362840890884 0.10215958207845688 0.22080940008163452 -0.06183233484625816 0.40419870615005493 0.05943366885185242 0.009088552556931973 -0.012219011783599854 0.020649973303079605 -0.00164559215772897 0.09755893796682358 -0.18530981242656708 0.007692866027355194 -0.038589153438806534 0.006229579448699951 -0.04406231269240379 0.009097203612327576 -0.00677828211337328 0.0935463160276413 0.0075549110770225525 0.20613254606723785 0.013010233640670776 -0.04217854142189026 -0.006026220507919788 -0.02678126096725464 -0.35013094544410706 -0.017253192141652107 -0.007293899077922106 -0.4501836895942688 -0.47864294052124023 -0.005486509762704372 0.022979972884058952 -0.10815435647964478 0.07562659680843353 0.18118150532245636 0.3003489673137665 -0.0029084894340485334 -0.2812582850456238 0.030056582763791084 -0.024925127625465393 -0.7178301215171814 0.04818697273731232 -0.02256009727716446 0.36195963621139526 -0.12569497525691986 0.006755342707037926 0.30973920226097107 0.1322740763425827 0.00380906043574214 0.10944724828004837 -0.41492533683776855 -0.03853355720639229 -0.019636336714029312 0.02778087742626667 -0.060193467885255814 0.00595891522243619 -0.006319246720522642 -0.028537677600979805 0.003758505918085575 -0.1811436414718628 -0.1596878468990326 0.05651979520916939 -0.014335663057863712 -0.25053778290748596 0.16205814480781555 0.031337399035692215 0.010182233527302742 -0.00710990559309721 -0.014164070598781109 0.019969811663031578 -0.020644571632146835 -0.014521484263241291 0.09371142834424973 -0.007610928732901812 0.060336269438266754 -0.4820422828197479 -0.025305408984422684 -0.05957111716270447 0.12158616632223129 -0.011999998241662979 0.005240324884653091 -0.019190171733498573 -0.03175406530499458 0.048266515135765076 -0.14032399654388428 -0.03889648616313934 0.14055421948432922 -0.08165505528450012 -0.0710400864481926 -0.12605972588062286 -0.04110749810934067 0.028169147670269012 -0.05981284752488136 0.011588132940232754 -0.021331502124667168 0.0769357904791832 0.019930681213736534 0.015232907608151436 0.03254222497344017 0.11728067696094513 0.01555604673922062 -0.39251604676246643 -0.008429081179201603 -0.029147736728191376 0.015390779823064804 -0.011303662322461605 0.0036090777721256018 0.009118017740547657 -0.09854331612586975 -0.006261487025767565 0.10828251391649246 -0.46655815839767456 0.05938717722892761 0.011923890560865402 0.06568977236747742 -0.010172808542847633 -0.014644961804151535 -0.000601875246502459 -0.06309743225574493 0.020687561482191086 -0.461791068315506 0.11254734545946121 0.02508910931646824 -0.05042625218629837 0.003294573398306966 0.3937704861164093 -0.003727215575054288 -0.0058395094238221645 0.31679728627204895 -0.11255379766225815 0.024575622752308846 0.018316125497221947 -0.0023202744778245687 -0.019070874899625778 0.15852507948875427 -0.3616989850997925 0.04290877655148506 0.3425329029560089 0.026424607262015343 -0.07925552129745483 0.13402873277664185 -0.08664077520370483 -0.061272475868463516 -0.32779741287231445 0.4599694013595581 0.02457284741103649 -0.020542144775390625 0.02035333588719368 0.20391398668289185 -0.0031461401376873255 -0.011547019705176353 -0.12520915269851685 0.10524926334619522 -0.044825609773397446 0.15163876116275787 0.03442619368433952 0.0014896175125613809 0.04781217500567436 -0.010058613494038582 -0.08346237242221832 0.08604247868061066 -0.018294354900717735 -0.037546828389167786 -0.03126748278737068 -0.4862183928489685 -0.011626103892922401 0.11200534552335739 0.13064543902873993 0.1769055426120758 0.07069829106330872 0.027301760390400887 -0.008228780701756477 -0.0032685252372175455 -0.037475887686014175 0.10795671492815018 -0.031003540381789207 -0.02983659692108631 -0.651829183101654 0.14080120623111725 -0.0007526369299739599 -0.009992027655243874 -0.15404920279979706 0.1283138543367386 -0.11190586537122726 0.10190717875957489 -0.5412729978561401 -0.005890867207199335 -0.02917437069118023 -0.02231154963374138 0.03334016725420952 0.021265598013997078 0.10992199182510376 0.09950793534517288 0.20240318775177002 -0.0005676132277585566 -0.04834618419408798 -0.002223643474280834 0.01701732538640499 0.02791040576994419 0.14841154217720032 -0.2894890308380127 0.8034747838973999 -0.039999593049287796 -0.03236065432429314 -0.13200636208057404 0.12337419390678406 -0.5814194083213806 -0.2477315068244934 -0.022369353100657463 -0.01945713348686695 -0.014096181839704514 0.02301577478647232 0.028225097805261612 -0.00683696148917079 -0.027379721403121948 0.13068373501300812 -0.03452582657337189 0.00869507435709238 -0.0064510563388466835 0.004172155167907476 -0.020521873608231544 -0.27167198061943054 -0.09812181442975998 -0.08231925964355469 -0.06679096817970276 -0.024669306352734566 0.2964971661567688 0.04410354793071747 0.012973845936357975 0.028653409332036972 -0.2055668979883194 -0.17163918912410736 0.02655266970396042 -0.01949404738843441 0.03967909514904022 -0.3672078549861908 -0.0482417494058609 0.06983480602502823 0.049499452114105225 0.012665603309869766 0.004182277247309685 -0.22934898734092712 0.004598028026521206 -0.06189318746328354 -0.008371233940124512 0.02099868841469288 -0.2884475290775299 0.0014720085309818387 -0.15392804145812988 -0.031025251373648643 -0.03982330858707428 -0.24338765442371368 -0.11959622800350189 0.01191362738609314 0.027207590639591217 -0.03771592676639557 -0.0214279443025589 -0.21653656661510468 -0.3264996111392975 -0.10785097628831863 0.00028854203992523253 0.005376425571739674 0.0014522529672831297 0.04634890332818031 0.07177720963954926 0.20645764470100403 -0.003264606697484851 -0.09059465676546097 -0.20256753265857697 0.00395804550498724 -0.030819885432720184 0.05134672671556473 0.09149321168661118 -0.08318562805652618 -0.017808349803090096 0.0684022307395935 0.3021494150161743 0.25841331481933594 0.05025879666209221 -0.3902300000190735 0.2190861850976944 -0.008482293225824833 -0.0461745522916317 0.011214127764105797 0.014827609993517399 -0.03377348929643631 0.02630487084388733 -0.01476715225726366 0.24016213417053223 0.009270352311432362 -0.02233959548175335 0.11153130233287811 -0.33149033784866333 -0.003710814518854022 0.011832871474325657 0.02453681081533432 0.09156437963247299 0.0319298580288887 -0.01046814862638712 -0.4395178556442261 -0.384869247674942 -0.1003117710351944 0.14633001387119293 0.014847799204289913 -0.17136476933956146 0.1902354657649994 -0.6698119044303894 -0.039000220596790314 0.020534206181764603 -0.004913138225674629 -0.275672972202301 0.09705523401498795 0.0013868426904082298 0.019253036007285118 -0.28477245569229126 0.029079623520374298 -0.016807392239570618 0.004584435373544693 0.21851365268230438 -0.401668518781662 0.013194509781897068 -0.003774283453822136 0.063106469810009 0.005387534853070974 -0.012681372463703156 0.04191866144537926 -0.4756137728691101 -0.0022263862192630768 -0.03097556158900261 -0.46184608340263367 -0.39539292454719543 0.014140886254608631 0.0808660015463829 0.010532581247389317 -0.035554975271224976 0.015189307741820812 -0.25987276434898376 0.02721889317035675 0.04324080049991608 0.051322050392627716 -0.25559353828430176 -0.25877001881599426 -0.012363865040242672 -0.031919509172439575 0.07569817453622818 -0.28654664754867554 -0.013248472474515438 0.1515568196773529 0.02592710591852665 -0.6022255420684814 -0.011911317706108093 -0.10302522778511047 0.14304190874099731 -0.021242326125502586 -0.0017220380250364542 0.00973510928452015 -0.05759540572762489 -0.02524295076727867 -0.018162952736020088 0.10345187783241272 0.193770632147789 -0.3600921034812927 0.06610438227653503 0.04595627263188362 -0.025102555751800537 0.347858190536499 -0.006175684276968241 -0.07850056141614914 -0.14066863059997559 5.726998278987594e-05 0.1829422265291214 0.12510548532009125 -0.011436342261731625 -0.07873315364122391 0.029241928830742836 0.1216868981719017 0.007347865495830774 0.09550682455301285 -0.4338158369064331 -0.09775824099779129 0.008569327183067799 -0.30602601170539856 0.21254898607730865 0.21389439702033997 0.0016280933050438762 -0.01564599759876728 0.006630369927734137 -0.01455923542380333 -0.18357329070568085 -0.00367691065184772 0.017587844282388687 0.05388803407549858 -0.010640811175107956 0.025893457233905792 0.2897503972053528 0.03744703158736229 0.024636218324303627 0.05942057818174362 -0.10997707396745682 0.07127180695533752 -0.20789816975593567 0.06060781329870224 0.14756730198860168 -0.010808026418089867 0.05777663365006447 0.17233583331108093 0.024401282891631126 0.02338803932070732 -0.007581132929772139 0.0030621716286987066 0.1967843770980835 0.05525798723101616 -0.3011452555656433 -0.27537769079208374 -0.4987488090991974 0.1269468516111374 -0.02760653756558895 0.1160823181271553 -0.017686007544398308 0.020002294331789017 -0.037421707063913345 0.07984190434217453 -0.4814009368419647 0.03128925338387489 -0.0385383777320385 0.006596105173230171 0.012859620153903961 -0.05582983046770096 -0.04062730446457863 0.24695082008838654 0.17428471148014069 0.10536585003137589 0.15869660675525665 -0.033145271241664886 -0.004261423833668232 -0.08401095122098923 -0.22362369298934937 0.008328009396791458 0.012789644300937653 -0.22291883826255798 -0.04980098083615303 -0.061559177935123444 -0.041927069425582886 -0.22861848771572113 0.03117644041776657 -0.3609277307987213 -0.32585272192955017 0.012880069203674793 -0.031188873574137688 -0.03294649347662926 0.006751015782356262 -0.05907900258898735 -0.32584962248802185 -0.009255982004106045 -0.005048201885074377 -0.0006284915143623948 -0.0015712236054241657 -0.008824088610708714 0.10083914548158646 0.037801966071128845 -0.2838906943798065 0.25690364837646484 -0.041374970227479935 -0.1591815948486328 -0.00018396854284219444 0.07862474024295807 0.06342653930187225 0.056912150233983994 -0.546153724193573 -0.09649727493524551 -0.02840294875204563 0.015199165791273117 0.14335882663726807 -0.15535853803157806 0.5866045951843262 -0.02040017396211624 0.11815899610519409 -0.011258840560913086 0.05704126134514809 -0.10637308657169342 0.006089214235544205 -0.016473906114697456 -0.027682749554514885 0.18154440820217133 -0.5049450397491455 -0.04669678211212158 -0.011879872530698776 -0.30404895544052124 0.19427263736724854 0.10987628251314163 -0.12810079753398895 -0.03480718657374382 0.03311168774962425 0.18061789870262146 0.016950802877545357 0.026690814644098282 -0.03702028468251228 -0.3106116056442261 0.11748947948217392 0.03308354690670967 -0.02797316201031208 0.05197213962674141 -0.02685082145035267 -0.2185872495174408 -0.4124239981174469 -0.004462311044335365 0.008549434132874012 0.025404764339327812 -0.02117430791258812 0.02169511839747429 0.040790122002363205 -0.29373934864997864 0.018542062491178513 0.13834749162197113 0.10816239565610886 0.010284306481480598 -0.09108772873878479 0.08011650294065475 0.001594693399965763 -0.25394630432128906 -0.02916756086051464 -0.5280635356903076 -0.3677295744419098 0.1418730616569519 0.0012298888759687543 0.06418397277593613 0.006689014378935099 0.11814436316490173 -0.028433604165911674 -0.2844272553920746 -0.10121230781078339 0.025969984009861946 -0.20919714868068695 0.0344761461019516 -0.015483376570045948 0.006703928112983704 -0.004971181973814964 0.26264092326164246 -0.0263129360973835 0.015725912526249886 -0.2563687860965729 -0.41800442337989807 0.008443409577012062 -0.033169835805892944 0.09054670482873917 0.817558228969574 0.06821048259735107 0.18109433352947235 -0.03500695526599884 -0.23516295850276947 0.012798082083463669 0.01777852326631546 -0.06274578720331192 -0.1664797067642212 0.01588076911866665 -0.23490707576274872 0.13111241161823273 -0.04691538214683533 -0.38409745693206787 -0.3948993384838104 -0.05140739679336548 -0.7930536866188049 0.11826882511377335 -0.006319369189441204 -0.03038814850151539 0.02471131831407547 -0.25106143951416016 -0.0035780579783022404 -0.014474418945610523 0.008312222547829151 0.04692426323890686 -0.29543593525886536 -0.317076712846756 0.17527303099632263 -0.03764597699046135 -0.17734277248382568 0.12545956671237946 0.01898271217942238 0.011790415272116661 -0.04678662121295929 -0.02139844000339508 -0.008271317929029465 -0.033731844276189804 0.014566496945917606 -0.06545300036668777 0.18391378223896027 -0.026586834341287613 -0.027481064200401306 -0.04812777042388916 -0.12257830053567886 0.18653704226016998 0.20135602355003357 0.01147626806050539 -0.28581592440605164 -0.02846972830593586 -0.2805140018463135 -0.32311803102493286 -0.01001013908535242 0.012542344629764557 0.0023921728134155273 -0.016781430691480637 -0.2766544222831726 -0.006337576080113649 -0.0049048783257603645 0.0017885605338960886 -0.0314641147851944 -0.0320475809276104 0.10460269451141357 0.10903804749250412 0.18603195250034332 0.09790031611919403 -0.0367773100733757 0.11558785289525986 -0.2553127408027649 0.09073019027709961 -0.02896515466272831 -0.05496802553534508 -0.00048259217874147 0.022040490061044693 0.03026372380554676 0.16666443645954132 -0.0025387604255229235 -0.036044083535671234 0.38690054416656494 0.38441064953804016 -0.01612626202404499 -0.22072555124759674 0.043909650295972824 -0.06905750185251236 0.024676062166690826 -0.012956525199115276 -0.036704692989587784 0.32417595386505127 -0.5837310552597046 0.010143390856683254 -0.02091190591454506 0.4455471932888031 0.019632158800959587 -0.022626323625445366 -0.017438789829611778 -0.10196112841367722 -0.08815295994281769 -0.006606183480471373 0.024335158988833427 -0.03464305400848389 -0.002953603398054838 -0.3893088400363922 0.4350980818271637 -0.011570400558412075 -0.10416537523269653 0.030047046020627022 0.00177644076757133 0.1999976485967636 0.4665135443210602 -0.04086099565029144 -0.16740381717681885 -0.19228559732437134 0.0015661841025575995 0.08773570507764816 0.0004053338197991252 0.05229298397898674 -0.03250698000192642 -0.017325593158602715 0.2547663152217865 -0.23429295420646667 0.20872199535369873 -0.20871712267398834 0.05775771290063858 0.02008124813437462 -0.2604278028011322 -0.037639737129211426 0.06540102511644363 0.15014785528182983 0.010865529999136925 0.03191877529025078 0.04343624413013458 -0.3449111580848694 -0.014425643719732761 -0.06820710003376007 0.03728798031806946 -0.23924431204795837 0.18309567868709564 0.0480162538588047 0.006457154639065266 0.14107221364974976 0.01435264851897955 -0.06512171030044556 -0.016524197533726692 0.031116293743252754 0.005533961579203606 0.3514919579029083 -0.03877060115337372 -0.04148036986589432 -0.03234648331999779 0.04075055569410324 0.22361880540847778 -0.1971607357263565 -0.09694122523069382 -0.01249341107904911 -0.03399321064352989 0.05750127136707306 0.034149739891290665 0.05120311677455902 0.05989750102162361 0.21813592314720154 0.03392733260989189 0.032403286546468735 0.05332795903086662 -0.016176896169781685 -0.0316392257809639 0.023762192577123642 -0.2894078195095062 -0.1860474944114685 -0.1836993247270584 0.03402245417237282 0.007784456480294466 0.15022310614585876 0.12880025804042816 -0.3998441696166992 0.1520075798034668 -0.015501516871154308 -0.04239797219634056 -0.02338794432580471 -0.011146388947963715 -0.006360687781125307 0.11216500401496887 0.02823442406952381 0.06296636909246445 -0.04805803298950195 0.004860313609242439 -0.004757701884955168 0.0023392236325889826 0.019664155319333076 -0.17109045386314392 0.0788777768611908 -0.025453241541981697 0.18297061324119568 0.015080244280397892 -0.3465390205383301 -0.0046989633701741695 -0.009095375426113605 -0.017378561198711395 -0.6417953372001648 -0.16363734006881714 -0.01243435125797987 -0.045063458383083344 -0.029276061803102493 -0.3940448462963104 0.3021584153175354 0.13300885260105133 0.10410837084054947 0.016061918810009956 -0.020133214071393013 -0.37562528252601624 -0.05088694393634796 -0.09302285313606262 0.01815301738679409 -0.008460802026093006 -0.3434832990169525 -0.5421174168586731 0.16679994761943817 -0.032329708337783813 -0.03001341037452221 0.03426705300807953 0.26717907190322876 -0.010766671970486641 0.0016937702894210815 0.0005815376644022763 0.04574301093816757 -0.18388627469539642 0.5662711262702942 0.07198408991098404 -0.05314712971448898 -0.0646328553557396 -0.00785056035965681 0.06870361417531967 0.12612755596637726 -0.14719590544700623 0.007111282087862492 0.11759356409311295 0.049645163118839264 -0.018294109031558037 -0.025975199416279793 0.3155856728553772 0.3840540945529938 0.006556965410709381 0.04285335913300514 0.0847909078001976 -0.11499843001365662 -0.20682495832443237 0.1837025284767151 -0.4267352223396301 -0.3628520965576172 -0.13384002447128296 0.013221182860434055 0.02454371191561222 0.013069684617221355 -0.03026953898370266 0.015881814062595367 0.02737712673842907 -0.23655778169631958 -0.025192206725478172 -0.04048554226756096 -0.3750607967376709 0.6221062541007996 -0.026200028136372566 -0.12354671955108643 -0.011843186803162098 -0.0731498971581459 0.0037956819869577885 -0.03172411397099495 -0.18374313414096832 -0.06433764100074768 -0.20425882935523987 -0.5038266777992249 -0.4178323745727539 0.0018856159877032042 -0.45214563608169556 -0.3035616874694824 -0.20581912994384766 -0.0040252190083265305 -0.00924275815486908 0.2596193552017212 0.0696868896484375 -0.03314552456140518 0.028822798281908035 -0.09455610811710358 0.024524250999093056 0.030527601018548012 -0.0011860033264383674 -0.311373770236969 -0.19833756983280182 0.11582273989915848 7.166989962570369e-05 0.10080842673778534 0.015264236368238926 0.004867535550147295 0.020420048385858536 -0.20011304318904877 0.02397775836288929 0.08016471564769745 0.26771214604377747 0.3043445348739624 0.0011686867801472545 -0.019584793597459793 0.14453206956386566 -0.009073641151189804 0.024088814854621887 0.05083450302481651 -0.023489104583859444 0.07095960527658463 0.06009664759039879 -0.2749467194080353 -0.099558524787426 -0.019305773079395294 -0.00993276759982109 0.2809871733188629 -0.36822694540023804 -0.02457520179450512 -0.46696507930755615 0.033388424664735794 -0.26578986644744873 0.041531357914209366 0.01113948691636324 0.1327478587627411 0.1659867763519287 -0.029984749853610992 0.024817438796162605 -0.017978854477405548 -0.029594892635941505 -0.03508920222520828 -0.024078011512756348 0.06765379011631012 -0.0654171034693718 -0.27840572595596313 0.14082872867584229 -0.013795427046716213 0.05120597779750824 0.014334088191390038 -0.08514672517776489 -0.10785604268312454 0.01807277835905552 -0.30337733030319214 -0.06497344374656677 -0.012038213200867176 -0.024207472801208496 -0.3186543583869934 -0.42158880829811096 0.01794563978910446 0.4974587559700012 -0.3816535770893097 -0.21654602885246277 -0.017322901636362076 -0.1598515659570694 -0.19293689727783203 -0.09394534677267075 -0.014081583358347416 -0.02462409995496273 -0.0029470811132341623 0.04964269697666168 0.19402596354484558 -0.0046095047146081924 -0.021375685930252075 -0.5599531531333923 -0.03468578681349754 -0.0022149281576275826 -0.35416650772094727 -0.04988783970475197 -0.017111701890826225 -0.6349652409553528 0.02490854077041149 0.005653190892189741 -0.16766905784606934 0.28055477142333984 0.6551133990287781 -0.014066082425415516 0.04599351808428764 -0.3383563160896301 -0.047537945210933685 0.02693505398929119 -0.021597817540168762 0.004372586961835623 -0.09641251713037491 -0.008281786926090717 -0.3849586844444275 -0.21010755002498627 0.5128080248832703 -0.008961056359112263 0.01691523753106594 0.05960468575358391 -0.022117551416158676 -0.03846758231520653 0.019168710336089134 0.31585776805877686 -0.24213244020938873 -0.04213852807879448 0.02303151972591877 -0.028436919674277306 0.015263713896274567 0.06740181893110275 0.018559398129582405 0.0635029524564743 0.09193471074104309 0.26535582542419434 -0.18712522089481354 -0.016843747347593307 -0.015725048258900642 -0.18621572852134705 -0.04926863685250282 -0.018238838762044907 0.03185954689979553 0.01167985051870346 -0.011125555261969566 0.08401764929294586 -0.010116304270923138 -0.30676597356796265 -0.0008021385874599218 0.12007547169923782 0.24102070927619934 -0.013272811658680439 -0.009410944767296314 -0.1332331895828247 -0.02695349045097828 -0.04989084601402283 0.05413656681776047 -0.04400311037898064 -0.005748815834522247 -0.028631005436182022 -0.03823494166135788 -0.0026999586261808872 0.29574263095855713 0.012729824520647526 0.12583991885185242 -0.35160893201828003 0.18593299388885498 -0.3871031701564789 0.09828969091176987 0.052201274782419205 0.021468164399266243 0.17609912157058716 -0.07482018321752548 -0.1657860279083252 -0.031888145953416824 -0.006381535436958075 -0.4374295473098755 0.08479807525873184 0.1626746654510498 0.07255824655294418 -0.32736191153526306 -0.0023449049331247807 -0.14396493136882782 0.025007648393511772 -0.03635138273239136 0.02647913061082363 0.022935442626476288 0.10642921924591064 -0.3817187547683716 0.005668380297720432 -0.04219473898410797 -0.08202280104160309 -0.04412899538874626 0.19548724591732025 0.5594483613967896 -0.007908047176897526 -0.02205795608460903 -0.1178276538848877 0.014957582578063011 -0.01948392577469349 -0.03298966586589813 -0.026535967364907265 -0.1998501569032669 -0.021927623078227043 0.019985295832157135 0.005217147059738636 -0.03434791415929794 0.13715961575508118 0.22305691242218018 0.5326195955276489 0.016187027096748352 -0.0017529267352074385 0.013285152614116669 -0.0517486110329628 0.020919647067785263 -0.08237501233816147 0.0006353650242090225 -0.15197543799877167 -0.12949736416339874 0.2586636543273926 0.38081178069114685 0.18897129595279694 0.017771203070878983 -0.016431758180260658 0.031726107001304626 0.08098624646663666 -0.21098294854164124 -0.5700374245643616 -0.03962323069572449 0.014882242307066917 -0.03149152547121048 -0.027564937248826027 0.03131652995944023 -0.2960011065006256 -0.20170564949512482 -0.0026700161397457123 0.03173545002937317 0.03292447328567505 -0.008976616896688938 -0.03392466902732849 -0.023995164781808853 -0.10238658636808395 0.0009504984482191503 0.007979403249919415 0.1562938690185547 -0.18752683699131012 -0.005242623388767242 -0.019088201224803925 0.0321480929851532 -0.17875880002975464 -0.11888272315263748 -0.3509490191936493 -0.03598681464791298 -0.1368989795446396 -0.03813563659787178 -0.05654887109994888 -0.2956673502922058 -0.3767944574356079 0.06319856643676758 0.5545592904090881 -0.5463270545005798 -0.020966216921806335 -0.02532516047358513 -0.246798574924469 -0.03359450027346611 0.05253112316131592 -0.1911342293024063 -0.025196705013513565 -0.0035814493894577026 0.018745707347989082 0.10360926389694214 0.047807492315769196 -0.026068849489092827 -0.019808530807495117 0.0034508558455854654 -0.06962274760007858 0.11103024333715439 -0.02282019704580307 -0.031128529459238052 0.16039493680000305 -0.36328354477882385 0.004047824069857597 -0.06800388544797897 -0.0039019989781081676 -0.03520061448216438 -0.03693027421832085 0.22689305245876312 -0.028852976858615875 0.19827575981616974 -0.030048755928874016 0.0807226374745369 -0.27409327030181885 -0.035789649933576584 -0.010025707073509693 -0.031737085431814194 -0.22136783599853516 -0.01282001007348299 0.08786123991012573 -0.011880500242114067 -0.2642490267753601 0.04287821426987648 0.01676004007458687 -0.3759370446205139 0.08330494165420532 0.10755372792482376 -0.005193242337554693 -0.00410362659022212 -0.017988290637731552 0.025263072922825813 0.01323781255632639 -0.015431531704962254 0.11286116391420364 -0.1964193880558014 -0.26118966937065125 -0.07942807674407959 0.1769540160894394 -0.03446381539106369 -0.005393543746322393 0.06356436759233475 0.021066319197416306 -0.01571955718100071 0.006163719575852156 0.02847142145037651 0.028747374191880226 -0.13131311535835266 -0.02462846413254738 0.002785963239148259 -0.2370990365743637 0.5151761174201965 0.006268857512623072 0.10889731347560883 0.01511296071112156 -0.034619659185409546 0.05756828933954239 0.008292557671666145 0.0224459245800972 -0.10111618787050247 0.3907320499420166 0.032401107251644135 -0.003440090222284198 0.3232176899909973 0.08951785415410995 -0.025374704971909523 0.004929717164486647 -0.04199765995144844 -0.04872705414891243 -0.031760841608047485 0.00046767477761022747 0.017927102744579315 -0.01261372584849596 -0.05749552696943283 -0.31361642479896545 -0.011337827891111374 -0.03485247865319252 0.035004135221242905 -0.049388810992240906 -0.17512892186641693 0.0773092582821846 0.052396126091480255 0.08538622409105301 -0.010762076824903488 0.03163716197013855 -0.3278261423110962 0.07385198026895523 -0.4095354974269867 0.037830084562301636 0.009680170565843582 -0.11072419583797455 -0.06080319732427597 0.1900424361228943 -0.15070407092571259 -0.03429980203509331 -0.044260844588279724 0.17930251359939575 -0.042240872979164124 0.06615875661373138 -0.33070576190948486 -0.021045729517936707 -0.05112472549080849 0.014590831473469734 0.25662562251091003 0.017440561205148697 0.01958415098488331 -0.09262079000473022 0.12913274765014648 0.029215948656201363 -0.19474445283412933 -0.023920131847262383 -0.09526506811380386 -0.03406094014644623 0.12625253200531006 0.09966067224740982 0.017493313178420067 -0.3718990683555603 -0.4057265818119049 -0.014844556339085102 0.006252775434404612 0.16075487434864044 -0.38870659470558167 -0.061260826885700226 0.05088021978735924 0.18950751423835754 -0.04730725288391113 -0.014775529503822327 0.056892216205596924 0.005077066365629435 0.05597003921866417 -9.769711323315278e-05 0.06137882173061371 0.19665664434432983 -0.010305515490472317 0.09016391634941101 -0.05048162117600441 0.02911856770515442 -0.019539859145879745 -0.3103961646556854 0.030954578891396523 -0.09239043295383453 0.04020121321082115 0.015345323830842972 0.13367238640785217 -0.3385586738586426 -0.20832666754722595 0.035218749195337296 0.008427266962826252 -0.04509078338742256 0.005725773051381111 -0.007160037290304899 -0.051835671067237854 -0.22927843034267426 0.011507418937981129 -0.21247808635234833 -0.03363882005214691 -0.03399670869112015 0.0033906889148056507 0.00016616481298115104 0.0019661029800772667 -0.1541266143321991 -0.4321972131729126 -0.09168929606676102 0.20305149257183075 0.002354663796722889 0.2480538785457611 0.002914383076131344 -0.021046916022896767 0.10903056710958481 -0.17716892063617706 0.1212686225771904 0.020317258313298225 -0.015434169210493565 -0.040166936814785004 0.06372947990894318 -0.10993055999279022 -0.11610718071460724 0.21318158507347107 -0.04077202454209328 -0.013786970637738705 0.46501609683036804 0.018682604655623436 0.07200214266777039 0.0014866425190120935 -0.027087273076176643 -0.3535918593406677 0.30411747097969055 0.5491412281990051 -0.011986898258328438 -0.018991682678461075 0.15491989254951477 -0.628007173538208 -0.025421086698770523 -0.042057354003190994 -0.006986039225012064 -0.024315539747476578 -0.2789958417415619 -0.25693002343177795 -0.26578670740127563 -0.0063842120580375195 0.023249918594956398 0.02453899197280407 0.1244870126247406 -0.30278298258781433 -0.13420456647872925 -0.029223652556538582 -0.06676644086837769 -0.07715967297554016 0.016883669421076775 -0.055890604853630066 -0.030394241213798523 0.18558096885681152 0.10860216617584229 0.0015039818827062845 -0.329956591129303 -0.13869331777095795 0.43230894207954407 -0.017715873196721077 -0.19771432876586914 0.06945939362049103 0.12356026470661163 -0.030746230855584145 -0.0044463942758738995 -0.025577791035175323 -0.006870287004858255 0.02506471797823906 -0.010445301420986652 0.08576135337352753 0.00644709262996912 0.01886207051575184 -0.03555591031908989 -0.07580653578042984 -0.024379879236221313 -0.14590215682983398 0.016216794028878212 0.11258094012737274 -0.0837157815694809 0.026502693071961403 0.05307244509458542 0.05521807074546814 0.2767805755138397 0.10907723009586334 -0.12246864289045334 0.6644018888473511 0.4809357821941376 0.022175047546625137 -0.049778230488300323 -0.023569712415337563 0.04228302091360092 -0.12980110943317413 -0.034025780856609344 -0.007480357773602009 0.020215170457959175 0.14855025708675385 -0.021550253033638 -0.016498809680342674 -0.03088320419192314 -0.09224385768175125 -0.3605526089668274 0.08173782378435135 0.010341583751142025 0.02461693063378334 -0.08989983797073364 -0.010952167212963104 -0.04010986536741257 -0.214903324842453 -0.016743645071983337 -0.19620314240455627 -0.2922877371311188 0.009873989969491959 -0.0007953779422678053 -0.1832025647163391 0.18827210366725922 0.023076597601175308 -0.03394594043493271 0.19649526476860046 0.04405280947685242 -0.19514717161655426 0.19732363522052765 0.41461095213890076 0.028972866013646126 -0.038002632558345795 0.006203091237694025 0.20082524418830872 -0.4237501621246338 -0.03466363623738289 0.2612311542034149 -0.03565215319395065 0.1996036022901535 -0.0063898153603076935 0.370644211769104 0.004073840565979481 0.05625123903155327 -0.04207992926239967 0.03856636956334114 -0.022757379338145256 -0.05084627494215965 -0.026451461017131805 0.15270008146762848 -0.30500492453575134 0.10948766767978668 0.14962488412857056 -0.2756195664405823 0.01680123805999756 -0.06640346348285675 0.00520508736371994 -0.5952345728874207 -0.28542497754096985 -0.0025725271552801132 0.411356657743454 -0.21490193903446198 0.014573692344129086 -0.12061898410320282 0.2026953101158142 0.12188310921192169 0.02018103562295437 -0.4571458101272583 -0.18780387938022614 0.06009555608034134 0.008030916564166546 -0.26403167843818665 -0.06598293781280518 0.08077269047498703 -0.057056281715631485 0.005858398973941803 0.03533288836479187 -0.013985293917357922 -0.32716846466064453 0.05540597438812256 0.0062038046307861805 0.22528699040412903 -0.030261807143688202 -0.04093698039650917 -0.04741375520825386 -0.029058141633868217 -0.01277871709316969 0.2485424280166626 -0.18000595271587372 -0.3620714545249939 -0.030093802139163017 0.10052915662527084 0.04959931969642639 0.008568122051656246 0.11053971946239471 0.38986626267433167 0.008131829090416431 -0.02617328055202961 0.007488771807402372 -0.028311533853411674 -0.07076870650053024 -0.02839728817343712 -0.3974440097808838 0.009755977429449558 -0.07314500957727432 0.21828965842723846 0.015313629992306232 -0.12376867979764938 0.01487862877547741 -0.014085494913160801 0.026607122272253036 0.02261326275765896 -0.009976114146411419 -0.0048783281818032265 -0.015396341681480408 -0.015278790146112442 -0.04510156065225601 0.1214953064918518 0.007647555787116289 -0.3246098756790161 -0.09160330891609192 0.034374598413705826 0.40020328760147095 -0.0008189090294763446 -0.03264034911990166 -0.10348488390445709 0.10383839905261993 -0.07356546074151993 0.013332088477909565 0.18132926523685455 0.011978372000157833 -0.039515942335128784 0.048216793686151505 0.015691159293055534 -0.018701277673244476 -0.07960077375173569 -0.08602585643529892 0.017643917351961136 0.023669550195336342 -0.23919355869293213 0.017832612618803978 -0.04294101893901825 0.235322967171669 -0.006990496534854174 -0.0180132407695055 -0.06372819095849991 -0.02504916302859783 0.031488023698329926 -0.0705377385020256 -0.00988441426306963 -0.10677654296159744 0.17750969529151917 -0.08432434499263763 0.03416690230369568 -0.018291985616087914 0.10394024103879929 0.021001122891902924 -0.10173755884170532 -0.018408602103590965 -0.13822785019874573 -0.032935600727796555 0.025441281497478485 -0.002169926417991519 -0.2817256450653076 -0.21018095314502716 0.08216466754674911 -0.023675275966525078 0.027121437713503838 0.14086245000362396 -0.04309367015957832 0.03384143486618996 -0.062162499874830246 -0.02899734117090702 0.003082330571487546 -0.19784703850746155 -0.021780284121632576 -0.02243388071656227 0.07069215178489685 -0.259498655796051 -0.2548229694366455 -0.16752927005290985 -0.007501407992094755 0.021133296191692352 0.031597789376974106 0.0013030937407165766 -0.05762961134314537 -0.03724997863173485 -0.04705144464969635 0.15192538499832153 -0.010203405283391476 -0.05084433779120445 -0.03330754116177559 0.03285276144742966 -0.04903286695480347 0.18975593149662018 -0.1702435314655304 -0.021159935742616653 0.020550694316625595 0.011125697754323483 -0.06587431579828262 -0.009264406748116016 -0.04401784390211105 0.014294655993580818 0.12493283301591873 0.06051700562238693 -0.10655681788921356 -0.1457284539937973 -0.17995907366275787 0.0013548179995268583 0.0792003646492958 0.030300229787826538 -0.03503551334142685 0.0586884543299675 -0.31116241216659546 0.0011531461495906115 0.06533829122781754 0.004713847767561674 -0.24497228860855103 -0.04851147532463074 -0.023716531693935394 0.14412792026996613 -0.04839884117245674 -0.2063840627670288 -0.03391367197036743 0.004818236455321312 0.0022770625073462725 0.03299388289451599 -0.25609707832336426 0.020978722721338272 -0.00450997706502676 -0.1264808028936386 -0.18606659770011902 -0.022636033594608307 -0.013335170224308968 0.11890124529600143 -0.1053427904844284 -0.1724303513765335 0.0014954357175156474 -0.03392733260989189 0.29617536067962646 -0.0307181216776371 0.011943512596189976 -0.06525274366140366 0.07663967460393906 0.0037325716111809015 -0.2989787459373474 -0.2386191040277481 -0.05231722816824913 0.11206823587417603 0.1533777117729187 0.01991436816751957 0.09469053149223328 -0.16545157134532928 -0.007944458164274693 -0.0060682096518576145 -0.0073357243090868 0.06287872046232224 -0.031909406185150146 -0.013425801880657673 -0.01963924430310726 0.002686187392100692 0.09614444524049759 -0.057842813432216644 -0.026545003056526184 -0.025064047425985336 0.05414480343461037 -0.3063361346721649 -0.07914978265762329 -0.01976725459098816 0.005205671302974224 -0.017158737406134605 -0.031019583344459534 -0.12786069512367249 0.0009056103881448507 -0.01775400899350643 0.127443328499794 -0.40053150057792664 0.2862430214881897 0.006258321460336447 -0.057391829788684845 -0.061094287782907486 -0.2764759957790375 -0.04583396017551422 0.012190326116979122 -0.0410347655415535 -0.08208321034908295 0.050320640206336975 0.01236098911613226 -0.3424762785434723 -0.17974674701690674 -0.21863344311714172 0.1684056967496872 -0.019742941483855247 -0.028966443613171577 0.010608352720737457 0.051760829985141754 0.0033663909416645765 0.1677829772233963 0.02986781671643257 0.0332055501639843 0.07323884218931198 -0.4087933599948883 -0.15770070254802704 0.10467567294836044 -0.20542404055595398 -0.03873452916741371 0.0736827626824379 0.018512645736336708 0.04787106439471245 -0.03671945631504059 0.09353094547986984 0.024408504366874695 0.15374527871608734 -0.014559103175997734 -0.2886603772640228 0.006564226001501083 -0.0773029699921608 -0.3722410202026367 0.02486884407699108 -0.0034864654298871756 -0.20340955257415771 0.007744309958070517 -0.10274484753608704 -0.18800123035907745 -0.030886126682162285 -0.02050044760107994 0.07159806042909622 -0.2332422435283661 -0.022192899137735367 0.015571028925478458 0.17218272387981415 0.21943818032741547 0.007708640769124031 -0.015983369201421738 -0.031019670888781548 -0.027624625712633133 -0.1260475069284439 0.20941905677318573 -0.01535708736628294 0.07948443293571472 -0.008444076403975487 0.03877020254731178 -0.13246209919452667 -0.09903743863105774 0.020087987184524536 0.06848931312561035 0.15772660076618195 -0.013259796425700188 -0.15727071464061737 -0.25853148102760315 0.17148496210575104 -0.020826134830713272 -0.021482301875948906 -0.3295673727989197 0.18238845467567444 -0.3012886941432953 0.14444604516029358 -0.14153753221035004 -0.04387209936976433 -0.09067821502685547 -0.026480143889784813 0.009649616666138172 -0.05535505339503288 -0.006133288610726595 0.02739306353032589 0.012249595485627651 0.09414853155612946 0.007137414533644915 -0.14392556250095367 0.09397348016500473 -0.08774960041046143 -0.020665593445301056 -0.0939657911658287 0.025005899369716644 0.1310798078775406 -0.004406204912811518 -0.2367168366909027 -0.08924414217472076 -0.03399944305419922 0.1260332465171814 -0.10616811364889145 -0.04331973195075989 0.033882610499858856 0.1989634931087494 -0.38763460516929626 -0.029808389022946358 0.09789779782295227 0.11167128384113312 0.04185642674565315 0.006909624673426151 0.03655654937028885 0.015092780813574791 0.05646386370062828 -0.22017167508602142 -0.09325066953897476 0.05649173632264137 0.0038947288412600756 0.1402381956577301 -0.0357402041554451 -0.06059550866484642 -0.02304953709244728 -0.09458636492490768 0.08132044225931168 -0.14545811712741852 -0.013914067298173904 -0.05486924946308136 -0.12034435570240021 -0.166639506816864 0.0335809625685215 -0.0050768242217600346 0.006783184129744768 -0.0153022650629282 0.019513510167598724 0.002279909560456872 -0.0553705208003521 -0.13336962461471558 0.015973692759871483 0.02439122274518013 -0.021996337920427322 0.025799458846449852 0.017240041866898537 0.004685582593083382 0.04536387696862221 -0.2194427102804184 0.042486004531383514 0.1206822395324707 -0.14901550114154816 -0.0329340361058712 -0.16322311758995056 0.029023800045251846 -0.021255237981677055 -0.1653825044631958 0.08584452420473099 0.12963399291038513 -0.02209855057299137 -0.00825513619929552 -0.03443653881549835 -0.04575429856777191 0.16679811477661133 -0.06926620751619339 -0.219874307513237 -0.02687915787100792 0.013453168794512749 -0.09335018694400787 -0.09775196760892868 -0.16732937097549438 0.022638438269495964 -0.028300674632191658 0.1551383137702942 0.21429486572742462 -0.12875671684741974 0.02894090861082077 0.020426081493496895 0.05989081785082817 0.29804226756095886 0.033092208206653595 0.012602509930729866 0.006986268796026707 0.06271833926439285 0.2079026848077774 0.010613052174448967 -0.0603526309132576 0.010035992600023746 0.01103630568832159 -0.015063646249473095 -0.2226298600435257 0.03790251538157463 -0.1100129708647728 0.0088496133685112 0.07531864196062088 0.1371729075908661 -0.042671967297792435 -0.013478174805641174 -0.22080647945404053 0.29852160811424255 -0.16173164546489716 0.003898057620972395 0.17654810845851898 -0.014318075962364674 -0.3098512589931488 0.08660547435283661 0.2261611819267273 -0.0793486163020134 0.17386551201343536 -0.04577034339308739 0.02067006565630436 -0.0374147891998291 -0.01182509120553732 0.003739746753126383 0.022007547318935394 0.020471567288041115 -0.024556655436754227 -0.03006785176694393 -0.019374240189790726 0.184814453125 -0.013415306806564331 0.0759093165397644 0.01395205408334732 -0.22928684949874878 -0.04664331302046776 -0.02100404165685177 0.01136977318674326 0.11059225350618362 0.19313094019889832 0.07392615079879761 0.17858614027500153 0.015214947983622551 0.2132430523633957 -0.13772328197956085 0.13827230036258698 -0.052799198776483536 -0.01557917706668377 -0.012212888337671757 -0.25500643253326416 -0.016413383185863495 -0.005568362772464752 -0.06788802891969681 -0.025994624942541122 -0.020836109295487404 -0.020245764404535294 -0.1252536177635193 0.09913066774606705 -0.17171718180179596 0.024121806025505066 0.05080190300941467 0.004997251555323601 0.028334442526102066 -0.141561359167099 -0.10394811630249023 -0.03735732287168503 -0.18410775065422058 -0.08264084160327911 -0.24515226483345032 0.01665046438574791 0.14274950325489044 -0.26286691427230835 -0.008394547738134861 0.03042660839855671 0.1578255593776703 -0.005617818795144558 -0.3888179659843445 -0.24564404785633087 -0.3795332610607147 -0.17155936360359192 -0.06029422581195831 -0.038050681352615356 -0.4212469458580017 0.2189042717218399 -0.02236752212047577 -0.09509367495775223 0.01935373991727829 0.017357856035232544 -0.028850186616182327 -0.12444035708904266 -0.20249448716640472 -0.062117282301187515 0.08470208942890167 -0.013047830201685429 -0.026077643036842346 0.021282531321048737 -0.02497047185897827 -0.2760733366012573 0.13531345129013062 -0.07652628421783447 -0.030295858159661293 -0.1536802500486374 0.0004820897593162954 0.12306205928325653 -0.04439353570342064 0.01587074249982834 0.019057663157582283 -0.008087166585028172 0.013942554593086243 0.04004008322954178 -0.021077636629343033 -0.12816525995731354 -0.04031318426132202 -0.5860518217086792 0.017392834648489952 -0.20645935833454132 0.08627825975418091 0.03137967735528946 -0.044865597039461136 -0.20243005454540253 -0.24334187805652618 -0.2501010298728943 0.00292177964001894 0.014830805361270905 0.029863689094781876 0.05020727962255478 -0.12271711975336075 -0.0357588529586792 -0.01181164849549532 0.010531418025493622 -0.0312220249325037 -0.028734056279063225 -0.2502232491970062 -0.00683968560770154 -0.029775654897093773 -0.029144758358597755 -0.24194090068340302 0.21423479914665222 0.2653350830078125 0.054335057735443115 -0.07440835237503052 -0.008985687978565693 0.06478244066238403 -0.3193844258785248 -0.08685117214918137 0.04891861230134964 -0.02753700502216816 -0.040409862995147705 -0.13019421696662903 -0.04477813467383385 0.15541240572929382 0.10126402229070663 -0.12642644345760345 -0.04882102087140083 -0.02192755416035652 0.03795226663351059 -0.009000432677567005 -0.029399201273918152 0.0306228194385767 0.06836391240358353 0.25196731090545654 -0.040719516575336456 -0.003637570422142744 0.002247782191261649 0.006262868642807007 0.1676354557275772 0.028835438191890717 0.043939556926488876 -0.10488438606262207 -0.02508745901286602 -0.18953393399715424 0.01277195941656828 -0.03090881183743477 0.5779804587364197 0.26904866099357605 -0.047493766993284225 0.020519450306892395 0.14234532415866852 0.0031280715484172106 -0.23605842888355255 -0.03297184780240059 -0.33511266112327576 0.02668488398194313 0.04999298229813576 0.07774918526411057 0.02428474649786949 0.013080941513180733 0.26127108931541443 -0.012693338096141815 -0.00432175537571311 0.020569516345858574 -0.027348969131708145 -0.011801937595009804 -0.029578933492302895 0.001750594237819314 0.014043118804693222 -0.16443492472171783 0.002736607100814581 -0.020211156457662582 -0.5716499090194702 -0.031426601111888885 -0.06658594310283661 0.16382673382759094 0.12881062924861908 -0.009024490602314472 -0.17415201663970947 -0.06669865548610687 0.05698428303003311 -0.002928461180999875 -0.018266241997480392 -0.07256495207548141 -0.007821140810847282 -0.013070755638182163 0.13572518527507782 -0.20034924149513245 -0.0008155392715707421 -0.21954643726348877 -0.19975760579109192 -0.03422030061483383 -0.020154234021902084 0.028660288080573082 0.10032770037651062 0.5300403833389282 -0.05726446211338043 -0.0723479762673378 0.06384994834661484 -0.20441897213459015 -0.08775603771209717 -0.3718949556350708 0.021347709000110626 0.017133241519331932 -0.28696754574775696 0.02487611398100853 0.004287607502192259 -0.026677999645471573 0.1920226365327835 -0.13640038669109344 -0.035960473120212555 0.020839182659983635 0.01220349594950676 0.04469815641641617 0.14722493290901184 -0.006973030511289835 0.21276120841503143 -0.0010658900719136 -0.03353864699602127 -0.015866905450820923 -0.0532638356089592 -0.014708055183291435 0.10404111444950104 -0.056696195155382156 -0.032500848174095154 -0.13307511806488037 0.38304442167282104 0.18380479514598846 0.1619785875082016 -0.059127189218997955 0.13374917209148407 -0.022384345531463623 0.08690118044614792 0.09141677618026733 0.7787815928459167 -0.03286011144518852 0.09427552670240402 0.004066241905093193 0.17651677131652832 0.020708823576569557 -0.26894456148147583 0.06347113102674484 -0.06529147177934647 0.13044290244579315 0.04470932483673096 -0.01804467663168907 -0.021042421460151672 -0.013435862958431244 -0.15880240499973297 -0.0072162579745054245 0.014630863443017006 0.21659919619560242 0.014794922433793545 0.01818338967859745 -0.00282297027297318 0.19123364984989166 0.17303533852100372 -0.1827475130558014 -0.3291378617286682 0.025744883343577385 -0.45583027601242065 0.0010228739120066166 0.01838613860309124 0.29830023646354675 -0.11465948075056076 -0.08388563990592957 -0.22254294157028198 -0.29909127950668335 -0.007871361449360847 0.08106521517038345 0.048867736011743546 0.08125358819961548 0.11916637420654297 0.018128039315342903 -0.021581655368208885 0.01888495683670044 0.007817543111741543 -0.002261403715237975 0.006467504892498255 -0.006737465504556894 -0.0382445752620697 0.004419148899614811 0.07449318468570709 0.08165592700242996 -0.2623753845691681 -0.0323629304766655 0.06585947424173355 0.03741590306162834 -0.0005932777421548963 -0.031299080699682236 -0.017094789072871208 -0.02510412596166134 -0.0035281330347061157 0.32334375381469727 -0.038309771567583084 -0.1640845090150833 -0.32199087738990784 0.29036423563957214 -0.046142563223838806 0.014605643227696419 0.04479067400097847 0.1475193351507187 -0.2710062861442566 0.004941638093441725 0.03463039919734001 -0.025797707960009575 -0.4353411793708801 0.08684765547513962 -0.012491358444094658 0.006666317582130432 -0.21355216205120087 -0.10321960598230362 -0.6113365292549133 0.031660713255405426 -0.00011224099580431357 -0.03734389320015907 0.016222257167100906 -0.01844741962850094 0.12496642023324966 -0.2575961947441101 -0.010553636588156223 -0.1011291965842247 0.03540102764964104 0.0861859917640686 -0.1703382134437561 -0.3452911376953125 -0.03232409805059433 0.012450848706066608 -0.029361989349126816 -0.030157608911395073 0.044829074293375015 -0.28553223609924316 -0.009101237170398235 -0.07021908462047577 -0.3843904733657837 0.05302407220005989 -0.037909552454948425 0.039669353514909744 -0.24707329273223877 -0.023316971957683563 -0.06703152507543564 0.23314261436462402 0.024180788546800613 -0.08667878806591034 -0.1699124574661255 0.016421765089035034 -0.04509070888161659 -0.5549742579460144 -0.29526060819625854 -0.005566235166043043 0.006222689989954233 -0.5959771871566772 0.0874864012002945 -0.015291963703930378 0.024116946384310722 -0.04731312766671181 0.02003435045480728 0.2199058085680008 -0.23779767751693726 -0.00943028461188078 0.14262737333774567 -0.010800260119140148 0.014731457456946373 -0.2093006670475006 0.003459225408732891 -0.012455038726329803 0.24682354927062988 -0.15517689287662506 -0.018917066976428032 -0.10983330756425858 0.1587446630001068 -0.25888970494270325 -0.009975400753319263 -0.01596459560096264 -0.2991286516189575 -0.2882278859615326 -0.026365220546722412 0.0150535823777318 0.017329353839159012 0.016038939356803894 0.27470430731773376 -0.04090550169348717 -0.20919404923915863 0.015725307166576385 0.007437455467879772 0.0010755581315606833 -0.028063340112566948 0.27068474888801575 -0.012762816622853279 -0.18141654133796692 0.060762420296669006 -0.1797059178352356 -0.04204118251800537 0.1448466181755066 0.006407989654690027 -0.4162580370903015 -0.010680149309337139 -0.17953366041183472 -0.05388399958610535 -0.006491623818874359 0.11183448135852814 0.022981395944952965 -0.03544331714510918 0.028126029297709465 -0.1673898994922638 -0.3364819586277008 -0.2529524564743042 0.06810370832681656 -0.1732790619134903 0.003127285046502948 -0.07558254897594452 -0.025468183681368828 0.01909828558564186 0.06714580208063126 -0.04962582513689995 0.08541916310787201 -0.10505354404449463 -0.004043606109917164 0.04514274373650551 -0.04201563075184822 -0.034715693444013596 -0.02506064996123314 0.32369571924209595 0.09083946794271469 -0.1388908326625824 0.014377260580658913 0.04205000028014183 0.14140887558460236 0.10871183127164841 -0.009902906604111195 0.13678130507469177 -0.009079010225832462 -0.02854415960609913 0.009481037966907024 -0.032117195427417755 -0.042555324733257294 -0.11227987706661224 0.0020836431067436934 -0.07703676074743271 -0.0016065238742157817 0.016459722071886063 0.013970380648970604 0.0006340000545606017 -0.004612579010426998 0.22628161311149597 -0.44454270601272583 -0.17732515931129456 -0.20844361186027527 -0.034255869686603546 0.052512142807245255 -0.033841993659734726 -0.0003671433951240033 -0.21607598662376404 0.03689037635922432 0.12275082617998123 -0.038182616233825684 -0.026598375290632248 -0.06503162533044815 0.13858656585216522 0.3980497121810913 -0.09531232714653015 0.17268165946006775 -0.017392992973327637 -0.0039284126833081245 -0.36675214767456055 0.03230944275856018 -0.14260850846767426 -0.023991871625185013 0.019152848049998283 0.12234216928482056 -0.3381986916065216 -0.3852163851261139 -0.011573364026844501 -0.02083396166563034 0.11518491804599762 0.050956178456544876 -0.04728090018033981 0.005293530877679586 0.044887177646160126 0.021615052595734596 -0.4654475450515747 0.2195369303226471 -0.022546252235770226 -0.07799067348241806 0.02416869066655636 -0.0034215357154607773 0.09066180139780045 -0.5764482617378235 -0.1800287514925003 -0.019320223480463028 -0.1486636847257614 -0.07036806643009186 0.015461512841284275 -0.027858663350343704 -0.5139017105102539 -0.2012181580066681 -0.2175453156232834 -0.029456574469804764 -0.1601327806711197 -0.21393761038780212 0.04119205102324486 -0.3813537061214447 0.3576509654521942 0.024440143257379532 -0.04224681109189987 -0.08328208327293396 -0.01627572625875473 0.02780972607433796 -0.017424721270799637 0.014309742487967014 0.015277745202183723 0.1407533884048462 -0.003580643329769373 -0.03538048639893532 0.08842041343450546 -0.141822949051857 -0.03004760481417179 -0.3243221044540405 -0.024439020082354546 -0.09737859666347504 0.029038365930318832 -0.03240596875548363 -0.06529197841882706 0.04564881697297096 -0.09494169801473618 0.26602163910865784 0.036568280309438705 -0.4524555504322052 -0.32441967725753784 -0.09289897978305817 0.04706384241580963 -0.03864314779639244 0.02203960344195366 -0.28425347805023193 0.09187757968902588 -0.0385044664144516 -0.04588320478796959 0.16433846950531006 -0.016281718388199806 0.027363784611225128 -0.00273339357227087 0.12885358929634094 -0.027638887986540794 -0.19589963555335999 0.003656757529824972 -0.3170035779476166 0.01240726001560688 -0.0208372063934803 -0.3126233220100403 0.10562670230865479 -0.052516110241413116 0.42735418677330017 0.11805985122919083 -0.030659770593047142 -0.02552134171128273 -0.12496617436408997 0.12073156982660294 0.004696536809206009 -0.0061140405014157295 -0.39083731174468994 0.007124486844986677 0.2622162699699402 -0.276202917098999 -0.05669097229838371 0.07877782732248306 -0.01936826854944229 0.02744317054748535 -0.500863254070282 -0.23053652048110962 -0.025352254509925842 -0.2644197344779968 -0.006383886560797691 0.1102529838681221 -0.04762078821659088 -0.3552197515964508 0.047117915004491806 -0.2813265919685364 -0.17824706435203552 0.031569331884384155 -0.036640964448451996 -0.059051353484392166 0.015085195191204548 0.14778874814510345 0.19410686194896698 0.02022106945514679 0.09614785015583038 0.08149182796478271 -0.03932814300060272 -0.09416518360376358 0.007576193660497665 0.2729913294315338 0.327140748500824 -0.033108633011579514 -0.2835780382156372 -0.18917198479175568 -0.01032961905002594 -0.15402548015117645 0.06589975208044052 0.23077914118766785 -0.026212863624095917 -0.12909013032913208 -0.031533773988485336 0.1908087581396103 -0.03402861952781677 0.09380189329385757 -0.330931156873703 0.17497524619102478 -0.0021660756319761276 0.027886880561709404 -0.009767934679985046 0.02737671323120594 0.4544820487499237 -0.023467015475034714 -0.01317637413740158 0.030580047518014908 -0.017890959978103638 -0.008994960226118565 0.1786746084690094 0.011700574308633804 -0.03289315849542618 -0.11290805041790009 -0.2282978594303131 -0.06486190110445023 0.03633560612797737 -0.18900270760059357 -0.34180381894111633 -0.03137490153312683 -0.2119295597076416 0.3820340037345886 -0.01601148024201393 -0.0011541545391082764 0.01683887094259262 -0.047674570232629776 0.03188115730881691 -0.010870108380913734 -0.12955202162265778 0.08163335919380188 -0.0662936419248581 -0.3464145362377167 0.02804020419716835 -0.14561250805854797 -0.007445392664521933 -0.007015665993094444 -0.009111865423619747 0.13130179047584534 0.006398103665560484 -0.012498707510530949 0.007203062996268272 -0.017652127891778946 0.015444246120750904 -0.11726292222738266 -0.01409208681434393 -0.48017826676368713 0.09359239041805267 0.21251843869686127 -0.043640900403261185 0.01664239913225174 -0.016476241871714592 -0.1476234644651413 -0.42032188177108765 0.012436547316610813 0.001577431452460587 0.10083026438951492 -0.02680519036948681 0.03705533593893051 0.01712045818567276 0.0017374699236825109 -0.0243858452886343 0.19352713227272034 0.046264540404081345 0.010198503732681274 0.04221358522772789 -0.2502524256706238 -0.005765156354755163 -0.004300402011722326 0.1565680205821991 -0.05717338249087334 -0.036319002509117126 0.04481413960456848 -0.008033878169953823 0.03286106511950493 0.3139756917953491 0.036107249557971954 0.02968885749578476 -0.01051207073032856 0.11351898312568665 0.10192805528640747 0.06073317304253578 -0.02339993789792061 -0.06643588095903397 -0.33663734793663025 0.11267693340778351 -0.007369100581854582 0.006946092005819082 -0.03127656131982803 -0.15248669683933258 -0.10917769372463226 -0.27754318714141846 0.010912229306995869 0.0024445350281894207 0.0008283929782919586 0.08225882798433304 -0.0422421470284462 -0.027782276272773743 -0.03609297052025795 0.0068496111780405045 0.0027996653225272894 -0.016763368621468544 -0.05835818871855736 -0.028580177575349808 0.164152592420578 0.3349398970603943 -0.39853575825691223 0.3200814425945282 0.04016467183828354 0.007636415306478739 -0.18601669371128082 -0.05200650542974472 -0.029383357614278793 0.007393453735858202 -0.02094258926808834 -0.004521056544035673 0.011251457035541534 -0.014287778176367283 0.390292763710022 -0.013766516931355 -0.11280308663845062 -0.35536473989486694 -0.14533357322216034 -0.023891055956482887 0.008931451477110386 0.010362611152231693 0.033839013427495956 -0.019248705357313156 0.033748988062143326 0.02419593557715416 -0.10942670702934265 0.04805876687169075 -0.31894823908805847 -0.30917808413505554 -0.25799691677093506 -0.040862951427698135 0.13701984286308289 0.009008624590933323 -0.03720527142286301 -0.12184034287929535 -0.03887387737631798 -0.023076176643371582 0.03556349128484726 -0.04134957864880562 -0.2043519914150238 -0.036794859915971756 0.284490168094635 0.11089057475328445 0.0037005606573075056 0.11452765762805939 -0.017735382542014122 0.016951007768511772 0.01804090291261673 0.0132755683735013 0.34167298674583435 -0.05018959566950798 0.016262182965874672 0.06970176845788956 0.2188442200422287 -0.044579677283763885 -0.0011208289070054889 -0.12425398081541061 -0.2931455671787262 0.00600340636447072 -0.41248202323913574 0.031496308743953705 0.31457558274269104 -0.007529214955866337 0.006079108454287052 0.1381494253873825 0.014219759963452816 -0.015579069033265114 -0.3560253977775574 -0.32022619247436523 0.02459881454706192 -0.03692697733640671 0.2715708017349243 -0.02092439867556095 -0.08140270411968231 0.03494526818394661 0.021621040999889374 -0.0511782206594944 -0.03740416467189789 0.18205633759498596 0.013851320371031761 0.03303446248173714 -0.057816583663225174 -0.021313324570655823 0.02418861724436283 0.14071767032146454 -0.0895620658993721 0.0026008356362581253 0.07572025805711746 -0.4916897118091583 0.01368603203445673 -0.008824404329061508 0.0018912384985014796 -0.05778507888317108 0.02051718719303608 -0.2447853833436966 0.008131188340485096 -0.11883991211652756 -0.16092132031917572 -0.2536528408527374 0.33403024077415466 0.04680684208869934 -0.1318584829568863 -0.20761573314666748 -0.051803749054670334 -0.02559027262032032 0.10545741021633148 0.01233010645955801 -0.06542442739009857 0.04249564930796623 -0.012060334905982018 -0.44104859232902527 0.0017895566998049617 -0.0119068194180727 0.01382506638765335 -0.024390293285250664 0.024252092465758324 0.025126494467258453 0.0016983692767098546 -0.04120426997542381 -0.26884764432907104 0.13010351359844208 0.0910593643784523 0.11463671177625656 -0.3048887252807617 0.08835175633430481 0.13312356173992157 0.07614285498857498 -0.020749876275658607 0.06537678092718124 0.01784714125096798 -0.020725484937429428 0.026841377839446068 0.00242703128606081 -0.02624369040131569 0.020290128886699677 -0.2955639958381653 -0.25012028217315674 -0.033860236406326294 -0.09591403603553772 -0.35127532482147217 0.018030662089586258 0.010739735327661037 -0.010294017381966114 -0.014131241478025913 -0.234699547290802 -0.03560931608080864 0.01027925219386816 -0.0005996910622343421 -0.0880555585026741 0.08192742615938187 -0.015835750848054886 -0.04828040301799774 -0.095250204205513 0.09371412545442581 -0.02320062927901745 0.0038857045583426952 -0.03527553752064705 -0.027895241975784302 0.02799634262919426 0.04637226089835167 0.05713268741965294 -0.16015475988388062 -0.03484088554978371 0.011921935714781284 -0.04110751673579216 -0.31687235832214355 -0.09201451390981674 0.03893309831619263 0.23362085223197937 0.0015301514649763703 0.1901402324438095 -0.32315343618392944 0.2590174078941345 0.025101665407419205 0.02194313146173954 -0.32912203669548035 0.12713530659675598 -0.055953092873096466 0.05964073911309242 0.1268320530653 -0.014006274752318859 -0.2531275451183319 0.028359495103359222 0.008754773065447807 -0.010975830256938934 0.008387376554310322 -0.03356766328215599 -0.006914894562214613 -0.12658020853996277 0.010853939689695835 -0.14504124224185944 -0.14771689474582672 -0.32330238819122314 -0.25314122438430786 -0.30262789130210876 -0.02160092256963253 0.12220609933137894 -0.01895086281001568 -0.11950667947530746 -0.057485803961753845 0.004371171351522207 0.13785728812217712 -0.2719389796257019 -0.04196261987090111 -0.007936758920550346 0.08121203631162643 -0.24044176936149597 0.031457871198654175 0.08278022706508636 -0.24953468143939972 -0.009827472269535065 -0.027231860905885696 -0.0042542750015854836 0.028267869725823402 -0.2628507614135742 0.16148915886878967 -0.2009139209985733 0.14675845205783844 0.032026175409555435 -0.07035931944847107 -0.055887702852487564 0.023019757121801376 -0.03043525107204914 -0.0748094990849495 0.030626069754362106 -0.265989750623703 0.03008381836116314 -0.047585997730493546 -0.03742460906505585 0.009084094315767288 0.5026671290397644 -0.015816032886505127 -0.04566391929984093 -0.020619455724954605 0.019130021333694458 0.002293587429448962 -0.02216940000653267 -0.05225460231304169 0.02682931162416935 -0.13673853874206543 -0.07414693385362625 0.0004022461944259703 0.003323971526697278 -0.0026543326675891876 -0.022740410640835762 0.02036452852189541 -0.21091920137405396 0.052880462259054184 0.032710250467061996 0.011187827214598656 -0.46267566084861755 -0.05319664627313614 0.01847556233406067 0.10204261541366577 0.03344620391726494 -0.003202197141945362 -0.03633879870176315 -0.012402371503412724 -0.013011853210628033 -0.019775230437517166 -0.1258862018585205 -0.1415119767189026 -0.07259031385183334 0.00813890341669321 0.027400117367506027 -0.03125638887286186 0.0545702688395977 0.05912938714027405 -0.01926674135029316 -0.04296083375811577 0.028548097237944603 0.13994726538658142 -0.31261059641838074 -0.011692295782268047 0.014864630997180939 0.013520595617592335 0.05739758163690567 0.015287388116121292 -0.011021467857062817 0.0002744104713201523 -0.029412832111120224 -0.20444706082344055 -0.2038283497095108 0.053684964776039124 -0.03362146392464638 -0.06182435527443886 -0.0032153052743524313 -0.05660192668437958 0.08741456270217896 0.026950383558869362 0.018995501101017 -0.008150839246809483 0.11437647044658661 -0.050391532480716705 0.03869972378015518 -0.2524431347846985 0.12221279740333557 -0.22823366522789001 0.010181115940213203 -0.12451891601085663 -0.058531753718853 -0.17734375596046448 0.13596315681934357 -0.24939794838428497 0.013639201410114765 -0.03536979854106903 0.034793443977832794 -0.027252472937107086 -0.01057134848088026 -0.015503362752497196 -0.029610181227326393 -0.025684380903840065 -0.08803918957710266 -0.0005307768587954342 0.04197290539741516 0.09578890353441238 -0.13206152617931366 0.004254526924341917 0.17673900723457336 0.028651947155594826 -0.07456942647695541 -0.06718572229146957 -0.018653132021427155 0.1733403503894806 0.15322543680667877 -0.24269136786460876 0.07877706736326218 0.0791202187538147 -0.029653238132596016 -0.22144368290901184 0.14092452824115753 0.13922010362148285 0.019104206934571266 0.011395848356187344 -0.11290829628705978 -0.10890981554985046 -0.0068991403095424175 -0.022655265405774117 0.05883050709962845 -0.02597048133611679 0.011148335412144661 -0.011775059625506401 0.11046905070543289 0.22154676914215088 -0.007248208858072758 -0.0016914682928472757 0.11913830786943436 -0.02030663751065731 -0.03280404210090637 -0.23459018766880035 0.1602437049150467 -0.010439201258122921 -0.10316458344459534 0.19265171885490417 0.10048806667327881 0.022935664281249046 0.09945844858884811 -0.20609112083911896 0.027396032586693764 -0.02835286222398281 -0.2318570464849472 0.04343950003385544 -0.18777363002300262 -0.052748724818229675 0.4966738522052765 -0.2729153633117676 0.016663873568177223 0.01989777386188507 -0.2642393410205841 0.29233336448669434 0.014162236824631691 -0.10484077781438828 0.02674945257604122 0.3694779872894287 -0.010579660534858704 0.05682961642742157 0.02666255086660385 -0.034658171236515045 -0.07184574007987976 0.00965092983096838 -0.0005020201788283885 -0.00674082338809967 0.0011327366810292006 -0.34840404987335205 -0.10019224882125854 0.08599366247653961 0.09059194475412369 0.00017044751439243555 0.029747826978564262 -0.3044307231903076 -0.0010438214521855116 -0.06229985132813454 -0.12615647912025452 -0.027138708159327507 0.37263166904449463 0.11004219204187393 0.02157195284962654 0.7739951610565186 -0.21984221041202545 -0.2564113736152649 -0.025980116799473763 -0.06904292851686478 0.4136942923069 0.0943477600812912 0.0029235389083623886 0.4634512960910797 -0.2924348711967468 -0.37831559777259827 -0.01531665027141571 -0.02232620120048523 0.015986649319529533 -0.002827659947797656 -0.12025903910398483 0.02351396158337593 0.014233964495360851 -0.11498762667179108 0.009817632846534252 0.0021970209199935198 -0.33080482482910156 -0.019170744344592094 0.006023374851793051 -0.05565880239009857 0.18365061283111572 0.02395167201757431 0.11236832290887833 0.14700622856616974 0.07744140177965164 -0.048020731657743454 -0.427822470664978 -0.16413763165473938 0.012625282630324364 -0.030144453048706055 -0.01053000707179308 -0.04784737899899483 -0.08877065777778625 -0.020527169108390808 -0.07152032852172852 0.027741268277168274 -0.1824011206626892 -0.06607475876808167 -0.03521629050374031 -0.25202369689941406 -0.01104555744677782 0.022498439997434616 0.004491496365517378 -0.1328185349702835 0.22399365901947021 -0.008041943423449993 -0.022484194487333298 0.030557049438357353 -0.01879223808646202 0.10733158141374588 -0.015263671986758709 -0.025005433708429337 -0.5644803047180176 -0.033571336418390274 -0.3892904222011566 -0.018325280398130417 -0.012448971159756184 -0.3054742217063904 -0.32951417565345764 0.0398598276078701 -0.037595704197883606 -0.24518515169620514 -0.008871774189174175 0.11756480485200882 0.028412142768502235 0.8160082101821899 -0.003673894563689828 0.05988618731498718 -0.40125417709350586 0.01888953149318695 -0.010691897012293339 0.000682756130117923 -0.024176616221666336 0.015223520807921886 -0.3713824152946472 0.022691451013088226 0.031452726572752 -0.028292711824178696 -0.03591282293200493 -0.04016245901584625 0.209961399435997 -0.028391940519213676 -0.18309737741947174 -0.2648278772830963 0.12179777771234512 -0.17135007679462433 0.05438375845551491 0.13160662353038788 -0.022523466497659683 0.056040067225694656 0.12075057625770569 -0.03365189954638481 -0.03311486914753914 -3.503242987790145e-05 -0.09911654889583588 -0.37067466974258423 -0.27220383286476135 0.0425761453807354 0.2475510686635971 0.0029365294612944126 -0.1649845540523529 -0.258248507976532 0.03700893372297287 0.006405343301594257 0.032654374837875366 -0.09741894900798798 -0.5373698472976685 -0.05462712422013283 0.012160544283688068 0.04703853279352188 -0.3915385901927948 -0.5008859038352966 0.006226675119251013 0.017979523167014122 0.017703380435705185 0.40539032220840454 0.023856282234191895 -0.01664246805012226 0.023828323930501938 0.12222687900066376 0.09858469665050507 -0.014945280738174915 -0.0011237380094826221 -0.32141363620758057 -0.0369320772588253 0.1677030771970749 0.030599115416407585 -0.6203518509864807 0.04686525836586952 0.02311047911643982 -0.02119864895939827 0.16369812190532684 -0.032937224954366684 0.1469324380159378 -0.015275462530553341 -0.33169499039649963 -0.13824088871479034 -0.3802448511123657 -0.18864955008029938 -0.10915815085172653 -0.026154622435569763 0.03563506901264191 -0.00709386495873332 0.1739758402109146 -0.4614886939525604 -0.17018845677375793 -0.09785119444131851 -0.15009699761867523 -0.03775393217802048 -0.15756970643997192 0.0027788151055574417 -0.4623015522956848 -0.31486889719963074 -0.057140547782182693 -0.10737954825162888 -0.03505675494670868 -0.04655778780579567 -0.017111733555793762 0.029405541718006134 -0.0647943988442421 0.041223812848329544 0.03587023541331291 0.09173429757356644 -0.019742168486118317 0.04188019037246704 -0.013053768314421177 0.11218242347240448 0.10695333033800125 -0.05696999281644821 0.23271726071834564 0.02548660710453987 0.16478502750396729 -0.005197430960834026 -0.056143324822187424 -0.3531663119792938 0.11865116655826569 -0.0938248559832573 0.30916744470596313 0.2512763738632202 0.008887630887329578 0.08957794308662415 -0.39365798234939575 0.06241777166724205 0.008670369163155556 0.21477358043193817 -0.036144234240055084 -0.06433743238449097 0.011896003037691116 0.053278110921382904 -0.05585068091750145 0.02614731900393963 0.0158354751765728 0.013513772748410702 -0.4616522490978241 -0.08060775697231293 -0.2864247262477875 0.0012968246592208743 -0.10975033789873123 -0.29655027389526367 0.02828347310423851 0.0028046933002769947 0.004888077266514301 -0.0412488617002964 -0.01605646312236786 -0.050520654767751694 0.026018941774964333 0.11819669604301453 0.06777895241975784 -0.28436562418937683 -0.2212146818637848 -0.030031433328986168 -0.10519958287477493 -0.26246896386146545 0.4079751670360565 -0.020775649696588516 -0.06548262387514114 0.03360163792967796 -0.19758668541908264 0.10121675580739975 -0.01493986789137125 -0.07703012228012085 -0.022938793525099754 -0.1261274814605713 0.10262715071439743 -0.04188445955514908 0.00931819062680006 0.021965034306049347 -0.02922307327389717 0.020363783463835716 0.03389501944184303 -0.0172764603048563 -0.025740494951605797 -0.03460267558693886 -0.3849533200263977 0.22803425788879395 0.13300976157188416 -0.10775306820869446 0.012595816515386105 0.02478945441544056 -0.010229429230093956 -0.024048950523138046 0.0012906788615509868 -0.11692987382411957 -0.02334023080766201 -0.018661625683307648 -0.07487141340970993 -0.30875444412231445 -0.021427780389785767 0.20424483716487885 0.25112617015838623 -0.008739802055060863 -0.05234402045607567 -0.04104830324649811 -0.03298427164554596 0.07145589590072632 0.0440383180975914 0.02788712829351425 0.00025840726448222995 -0.12299065291881561 0.5686837434768677 -0.03688438609242439 -0.009969704784452915 -0.09118592739105225 0.13748246431350708 -0.00027314084582030773 -0.016993995755910873 -0.03708706796169281 0.02643710747361183 -0.13255687057971954 -0.04467951878905296 0.03378033638000488 0.23067981004714966 -0.02167891524732113 -0.0790085420012474 0.1862199306488037 0.20002618432044983 -0.031994111835956573 0.1171087846159935 -0.2737770974636078 0.03302649036049843 -0.29124972224235535 -0.08728116005659103 -0.13481014966964722 -0.03776109591126442 -0.011188066564500332 0.24960847198963165 -0.12502048909664154 0.17780157923698425 -0.4181310832500458 -0.007571328431367874 -0.017949990928173065 0.08362752199172974 -0.014872206375002861 -0.1518462747335434 4.434589936863631e-05 0.001902789226733148 0.00905271153897047 0.02009638212621212 0.1355474889278412 0.0025108959525823593 0.07377506792545319 -0.05624151602387428 0.18939025700092316 -0.00032753130653873086 -0.16943888366222382 -0.022323647513985634 0.016257792711257935 -0.00211154343560338 -0.06192663311958313 -0.10641120374202728 -0.003512218128889799 0.23663458228111267 -0.6097942590713501 -0.014100242406129837 -0.046130724251270294 -0.14076796174049377 0.49894392490386963 -0.15136519074440002 0.05958198755979538 0.20371749997138977 -0.01744992658495903 -0.014305314049124718 -0.0055847796611487865 0.007098817732185125 0.014387463219463825 -0.25784844160079956 0.12117186188697815 -0.3754827678203583 -0.03086903877556324 0.1503596305847168 0.059593409299850464 -0.004719706252217293 -0.01780526153743267 0.39993974566459656 0.10399562120437622 0.4619395434856415 0.015393225476145744 0.0008037061779759824 0.10955996811389923 -0.06926208734512329 -0.43586111068725586 0.05791304633021355 0.009882657788693905 -0.021259622648358345 -0.03352433070540428 0.010202704928815365 -0.024233689531683922 0.22009757161140442 0.024888169020414352 -0.23119018971920013 -0.038961540907621384 -0.005073047708719969 -0.03763021528720856 -0.012258634902536869 0.004553094040602446 0.4189687967300415 0.10279868543148041 0.15726760029792786 0.1447136551141739 -0.019889796152710915 0.092653289437294 -0.028848126530647278 -0.007181049324572086 -0.06250995397567749 0.04050567001104355 -0.02405776083469391 0.02897154539823532 -0.003347118617966771 -0.002368687419220805 0.02069678343832493 -0.4049561619758606 -0.18202155828475952 -0.676874577999115 -0.01897391490638256 -0.05332453176379204 -0.13943128287792206 -0.016209017485380173 -0.04621722176671028 0.027012886479496956 0.015538488514721394 0.13831131160259247 0.043037623167037964 -0.2880167067050934 0.018163645640015602 -0.0015101769240573049 0.07897496968507767 0.004484709817916155 -0.022148847579956055 0.027088988572359085 0.01769358478486538 -0.050101857632398605 0.5135399699211121 -0.2588929533958435 -0.22909317910671234 -0.07554838806390762 -0.026483621448278427 0.03844599425792694 0.06334415823221207 -0.06617409735918045 -0.11456220597028732 0.008362691849470139 0.31219494342803955 -0.24081411957740784 -0.037133120000362396 -0.022071514278650284 0.4430862367153168 -0.43119901418685913 0.12601257860660553 0.0043398551642894745 0.0682869702577591 -0.501191258430481 -0.08114354312419891 -0.04281599074602127 -0.22026976943016052 -0.22073563933372498 -0.138436958193779 -0.03605892136693001 0.035425249487161636 -0.016872605308890343 -0.036111753433942795 -0.025465840473771095 0.008805996738374233 -0.2015342116355896 0.009687711484730244 0.043738339096307755 0.06696099042892456 -0.4096500277519226 -0.04444137215614319 -0.036842286586761475 -0.042749494314193726 0.046944573521614075 -0.05500425025820732 -0.0028527318499982357 0.009031719528138638 0.04443427547812462 0.32844769954681396 -0.5177080035209656 0.09907206147909164 -0.16135276854038239 0.04712393507361412 -0.10354901105165482 0.13240402936935425 -0.0031646869610995054 0.043535493314266205 0.11921032518148422 0.013883102685213089 -0.01509618666023016 0.019960133358836174 0.07634842395782471 0.00672984030097723 0.016862215474247932 0.00048069897457025945 -0.3074107766151428 0.07392705976963043 0.15953348577022552 -0.04727863520383835 -0.3699251413345337 -0.00889799278229475 0.024570951238274574 0.12874753773212433 -0.04220028221607208 0.04550754651427269 -0.6802636981010437 0.05138251930475235 0.21125665307044983 0.016506711021065712 -0.17796358466148376 -0.1126050278544426 -0.010945908725261688 0.002043261658400297 0.15087859332561493 -0.0013450905680656433 -0.252062052488327 0.16849786043167114 -0.007077736780047417 0.08158640563488007 0.051105402410030365 -0.04855871945619583 0.06928833574056625 -0.032286107540130615 -0.026334572583436966 -0.024768216535449028 0.02726368047297001 0.1318524181842804 -0.05334340035915375 -0.37099239230155945 0.189061239361763 -0.219862699508667 -0.07733925431966782 -0.01961171254515648 -0.038905080407857895 -0.042225081473588943 -0.040324628353118896 -0.4340513348579407 -0.48755353689193726 -0.03508666157722473 0.10639654099941254 0.03989362716674805 0.006261397153139114 -0.145307719707489 -0.02895493432879448 -0.07353683561086655 0.35958850383758545 0.032631125301122665 -0.2942729592323303 -0.16291193664073944 -0.036740828305482864 -0.33102941513061523 0.13682812452316284 -0.20630085468292236 -0.002027942333370447 0.3120768368244171 -0.2538188397884369 0.02289261668920517 0.03173764422535896 -0.15368536114692688 0.47024989128112793 -0.35861366987228394 -0.02703033946454525 -0.012043897062540054 0.03222282603383064 0.00946495495736599 -0.3309883773326874 -0.014731969684362411 -0.035824429243803024 0.1927429437637329 0.02231639437377453 -0.006378800142556429 0.04035947099328041 0.013594883494079113 -0.03337247297167778 0.020761612802743912 -0.4441126585006714 -0.47155556082725525 -0.11213319003582001 -0.30668795108795166 -0.3584468364715576 -0.03747439384460449 -0.036235466599464417 -0.2429576814174652 -0.044108424335718155 0.036706436425447464 0.01524334866553545 -0.03560589253902435 -0.09743442386388779 -0.04340425878763199 0.17071081697940826 0.0330309197306633 0.12093685567378998 -0.025558773428201675 0.039368901401758194 -0.2923596203327179 -0.008552826941013336 -0.023855060338974 -0.017132027074694633 -0.05876358598470688 -0.2599988579750061 0.009971503168344498 -0.041487693786621094 0.007075858768075705 0.011321385391056538 -0.23722566664218903 -0.0066642495803534985 0.22242668271064758 0.059290241450071335 -0.32768556475639343 -0.28844377398490906 0.022767432034015656 -0.022712042555212975 0.15253804624080658 0.5435585379600525 0.03714022412896156 -0.0022271755151450634 0.09150099754333496 -0.010192355141043663 -0.2118668109178543 -0.002034995472058654 -0.07513021677732468 -0.004293469712138176 -0.008782860822975636 0.15400981903076172 0.027490325272083282 -0.006322115194052458 -0.21872147917747498 -0.03558937832713127 0.006932135671377182 0.111373171210289 0.005343104247003794 -0.023287413641810417 -0.01653875969350338 -0.019358396530151367 -0.011694707907736301 -0.48492369055747986 0.020915957167744637 0.16601327061653137 -0.24609945714473724 0.038098737597465515 0.21431748569011688 -0.16199177503585815 -0.02660028077661991 0.013044445775449276 -0.10147909075021744 0.20029813051223755 0.20324718952178955 0.028462164103984833 -0.019000926986336708 0.23475199937820435 -0.3230966031551361 0.16005846858024597 -0.16387590765953064 0.13103443384170532 -0.011550335213541985 0.14446453750133514 0.1336127519607544 -0.015068908222019672 -0.04826721176505089 -0.009740391746163368 0.08469639718532562 0.03120659664273262 -0.031131848692893982 -0.07607678323984146 -0.04627663642168045 -0.39418625831604004 0.2500312924385071 -0.4857117831707001 -0.014049976132810116 0.0035129026509821415 -0.2194049209356308 -0.03742346912622452 0.0021863982547074556 0.012306674383580685 0.04891887679696083 0.17464831471443176 -0.04084915295243263 0.016949640586972237 -0.6352959871292114 -0.02197165973484516 0.0007583392434753478 -0.14294132590293884 -0.3053596019744873 -0.010092293843626976 -0.001668163575232029 -0.04297266900539398 -0.11697988212108612 -0.0018155984580516815 -0.023444315418601036 0.02863055095076561 0.10186982154846191 -0.03504007309675217 -0.3631860017776489 -0.2511195242404938 0.44095343351364136 -0.001460389350540936 0.052857089787721634 0.01296044047921896 -0.008171305060386658 0.26060500741004944 0.026415659114718437 -0.01359584927558899 -0.05821848288178444 -0.02596089243888855 0.39063724875450134 -0.0359470471739769 0.5983485579490662 -0.041329968720674515 0.009876228868961334 0.13147640228271484 -0.018809711560606956 0.004729918669909239 -0.017267242074012756 -0.048795342445373535 -0.4648277759552002 -0.012412525713443756 0.03421047329902649 0.05862937495112419 -0.040783438831567764 -0.03459327667951584 -0.03745732083916664 -0.07530955225229263 -0.24388615787029266 -0.08949784189462662 0.10785579681396484 -0.03730929270386696 -0.22650618851184845 0.03286322206258774 -0.007522247266024351 0.43576106429100037 0.05401593819260597 -0.023466894403100014 -0.4195905029773712 -0.2925460934638977 0.0189144816249609 0.027323344722390175 0.21689584851264954 -0.042366836220026016 0.15586364269256592 -0.006790061481297016 -0.018936770036816597 0.02491847798228264 -0.027373839169740677 0.027150070294737816 -0.05403141677379608 -0.04596512019634247 -0.007268907502293587 -0.004223694559186697 0.1253158152103424 0.10425734519958496 0.04036565124988556 -0.0422520749270916 0.11990596354007721 -0.36150869727134705 -0.0034110471606254578 -0.025792287662625313 -0.029883626848459244 -0.019997458904981613 0.028969770297408104 -0.6278213858604431 0.025260986760258675 -0.042821239680051804 -0.2835261821746826 -0.3337518870830536 -0.22619479894638062 -0.030013464391231537 -0.1346702128648758 0.05640990659594536 -0.31375235319137573 -0.044083792716264725 0.18477775156497955 0.002485412172973156 0.6945794820785522 0.14674557745456696 0.02377184107899666 0.34979110956192017 0.04056376963853836 -0.09669606387615204 0.03213411942124367 -0.032302066683769226 -0.02241709642112255 -0.022352997213602066 0.003661869326606393 -0.03726716339588165 -0.03456363454461098 -0.04796576872467995 -0.0733032375574112 -0.0842316672205925 0.06101120635867119 0.020000092685222626 0.012982598505914211 0.07575610280036926 -0.010612822137773037 -0.005877490155398846 -0.02795899286866188 0.01555879507213831 -0.03809566795825958 -0.042884133756160736 0.021785501390695572 0.10853862762451172 -0.4665270149707794 -0.5512314438819885 -0.0030560605227947235 -0.30465030670166016 0.06706924736499786 -0.030897170305252075 0.024749157950282097 0.22888444364070892 -0.05514643341302872 -0.12201082706451416 -0.1044096052646637 -0.018782157450914383 -0.027535084635019302 -0.4835716187953949 -0.08966272324323654 -0.04945347458124161 -0.016522832214832306 -0.0758916586637497 0.03739233687520027 -0.0015610860427841544 -0.017209036275744438 -0.028446318581700325 0.041188281029462814 -0.1748879849910736 -0.13301336765289307 -0.04393596947193146 -0.2973659932613373 -0.03626265004277229 -0.08620580285787582 -0.029833415523171425 -0.3809047043323517 0.04067273065447807 -0.08655892312526703 -0.2781897187232971 -0.0044730971567332745 0.2607864737510681 0.13570071756839752 -0.057664353400468826 0.026252178475260735 -0.0008938857936300337 0.20823384821414948 0.10489048063755035 -0.15482695400714874 0.009617529809474945 -0.2803943157196045 -0.0009158928296528757 -0.3490752875804901 0.025910383090376854 0.1868332475423813 -0.046281393617391586 0.017669664695858955 0.01818457990884781 0.01094152219593525 -0.44149309396743774 -0.05240030586719513 -0.2388686239719391 -0.24645499885082245 -0.03287729620933533 -0.6874971389770508 0.037361398339271545 -0.01177444402128458 -0.03577953949570656 -0.016311202198266983 0.10803910344839096 -0.10315124690532684 -0.021168097853660583 0.18210753798484802 -0.3319379985332489 -0.05113500356674194 -0.045105189085006714 0.010248959064483643 -0.3286566734313965 0.11559548228979111 -0.34138450026512146 -0.05594097450375557 -0.005226277280598879 0.002202525967732072 0.014675695449113846 -0.03164781630039215 -0.2588152289390564 0.10319147258996964 -0.22290043532848358 0.0377531461417675 -0.03029467537999153 -0.1508062332868576 -0.034731797873973846 -0.06051458418369293 -0.010514341294765472 -0.36119940876960754 -0.02379630319774151 -0.12181336432695389 -0.012251577340066433 0.018367169424891472 -0.004376105032861233 0.2477918267250061 0.28318074345588684 0.015386437997221947 -0.020661404356360435 -0.01834273152053356 -0.04411855712532997 0.02635040134191513 -0.00696356687694788 0.08599289506673813 0.01746920682489872 0.022573992609977722 0.03238392621278763 0.004233163315802813 0.014649647288024426 -0.03692803904414177 -0.004003896377980709 -0.1249748021364212 -0.39543503522872925 -0.27040690183639526 -0.19330604374408722 -0.012494254857301712 -0.5376284718513489 0.031189139932394028 -0.010425688698887825 -0.012260227464139462 0.07300180196762085 0.09827197343111038 0.028569910675287247 -0.03882337734103203 -0.10878854244947433 0.15613383054733276 -0.12246554344892502 0.17160870134830475 0.10699138045310974 -0.004931916017085314 -0.005322352051734924 0.11086544394493103 -0.009564842097461224 -0.2209230661392212 -0.023438841104507446 0.038592856377363205 -0.2161228358745575 0.09044919162988663 -0.39715173840522766 0.021103762090206146 -0.020028088241815567 0.021396784111857414 -0.21006923913955688 0.022135330364108086 -0.02391756884753704 -0.013268686830997467 -0.06054408475756645 0.0984082967042923 -0.2648320496082306 0.1623212695121765 -0.017634650692343712 -0.019180970266461372 0.01839379221200943 -0.22947359085083008 0.2003200501203537 0.06657208502292633 0.0004526873817667365 -0.15532715618610382 -0.03918958455324173 -0.02848217822611332 -0.0325087308883667 0.29736360907554626 -0.3552180826663971 0.20933283865451813 -0.02934960089623928 -0.035089608281850815 0.7638211846351624 0.2432507872581482 -0.032635655254125595 0.21296608448028564 0.19547602534294128 0.12470534443855286 0.0020663246978074312 -0.041520629078149796 -0.028096502646803856 -0.046154942363500595 0.0527423620223999 0.0009941390017047524 0.12187516689300537 -0.03453758731484413 0.017313910648226738 0.18629148602485657 -0.3483051359653473 -0.024773219600319862 -0.16127000749111176 -0.02611680142581463 0.14687857031822205 -0.08985696732997894 -0.01522315014153719 0.11683761328458786 0.1254429817199707 -0.5729958415031433 0.008111754432320595 0.09305927157402039 -0.2209145873785019 -0.5291098952293396 0.45736628770828247 -0.33033326268196106 0.03531940281391144 -0.0002155332185793668 0.11635331809520721 -0.20054663717746735 -0.02186422049999237 0.019245771691203117 -0.03736259788274765 -0.03197501599788666 -0.026134468615055084 0.017618348821997643 0.025639735162258148 0.15316732227802277 -0.001875034999102354 -0.03144557774066925 -0.11580246686935425 0.006118712015450001 -0.009977858513593674 0.08517083525657654 0.1179533377289772 0.021768169477581978 0.14443911612033844 -0.18743719160556793 -0.06674812734127045 -0.002815133659169078 -0.15466012060642242 -0.5372537970542908 0.028469238430261612 -0.02900075539946556 -0.33409133553504944 0.0007715523242950439 0.13943691551685333 -0.08935347199440002 -0.6339448094367981 -0.006203922908753157 -0.03513268008828163 -0.008323361165821552 0.02372170053422451 0.2761857807636261 -0.04725634679198265 -0.3672536611557007 -0.0033150305971503258 -0.09325305372476578 -0.009140394628047943 0.032282646745443344 -0.03595792129635811 -0.11997389048337936 -0.043480005115270615 -0.016306277364492416 -0.010593711398541927 -0.041992902755737305 -0.015172314830124378 0.181648850440979 0.21705959737300873 0.08213667571544647 -0.009441612288355827 0.028113683685660362 -0.008201822638511658 -0.17981654405593872 -0.024497834965586662 -0.12809094786643982 -0.3921002745628357 0.018438437953591347 -0.17211218178272247 -0.012448101304471493 -0.025333719328045845 -0.5598236918449402 0.16053549945354462 0.5828890204429626 0.009258316829800606 -0.5757339000701904 0.017663277685642242 0.025016404688358307 -0.02243097685277462 0.11595834791660309 -0.194011390209198 -0.34363502264022827 0.0062555172480642796 -0.03213265910744667 -0.014564605429768562 -0.02284250035881996 -0.3365510404109955 0.025558941066265106 -0.024846140295267105 -0.3671934902667999 -0.003856522496789694 -0.018336152657866478 -0.10318446904420853 -0.008139858022332191 -0.028435006737709045 -0.1852482408285141 0.15258727967739105 -0.349069207906723 -0.3116023540496826 0.0808904841542244 0.32576578855514526 -0.01883898302912712 -0.05242276191711426 -0.6142541766166687 -0.022930972278118134 -0.008938654325902462 -0.04461624473333359 -0.021703625097870827 -0.23326997458934784 0.04911429435014725 0.2903948128223419 0.04058189317584038 -0.507193386554718 -0.11347901821136475 -0.013882962986826897 0.06680276989936829 -0.025052020326256752 -0.020099742338061333 0.04729422181844711 0.043344274163246155 -0.04730172082781792 -0.0010022320784628391 -0.03607965260744095 0.03710904344916344 0.03829522803425789 -0.07093099504709244 -0.0038576957304030657 -0.12717123329639435 -0.17874734103679657 -0.3037945330142975 0.002157455775886774 0.02758180908858776 -0.003461167449131608 -0.17022211849689484 -0.5948832035064697 0.02974892593920231 -0.10233241319656372 -0.12267932295799255 0.010216007940471172 0.08038868755102158 0.0023097009398043156 -0.45479053258895874 -0.02231796830892563 -0.6304764151573181 -0.23602326214313507 -0.021532922983169556 0.025979667901992798 0.1678338646888733 -0.030679164454340935 0.0506482869386673 -0.058859933167696 -0.0158200953155756 -0.026428818702697754 -0.03697914630174637 0.0020691396202892065 -0.005587838124483824 0.2082977592945099 0.01177002303302288 -0.4481763243675232 0.0861426293849945 -0.3124389350414276 0.3706842362880707 -0.3641965091228485 0.012933910824358463 -0.04640889912843704 0.1374950259923935 -0.155517116189003 0.0227702297270298 -0.01765543408691883 -0.027415361255407333 0.12255725264549255 0.05244218185544014 -0.24461188912391663 -0.3456536531448364 0.09641353785991669 -0.003610774874687195 0.07126573473215103 0.06722703576087952 -0.001063598901964724 -0.008227010257542133 -0.013945464044809341 -0.3675386607646942 0.046414151787757874 -0.06441552937030792 0.03789650648832321 -0.03278797119855881 -0.291389137506485 0.006781180389225483 -0.15451109409332275 0.027129916474223137 0.022035935893654823 0.23747283220291138 0.00011836120393127203 -0.018153680488467216 0.000611634983215481 -0.03313031420111656 -0.22711734473705292 -0.00624373834580183 0.012554599903523922 0.005744661204516888 -0.012903299182653427 0.03979819267988205 0.1447804570198059 -0.28539517521858215 -0.002961047925055027 -0.004883896093815565 0.009150408208370209 0.10329918563365936 -0.008843904361128807 0.06509464234113693 -0.05860678106546402 -0.22750738263130188 -0.21894116699695587 0.09915754199028015 -0.2070496529340744 -0.2293529063463211 -0.03502752259373665 -0.382731556892395 0.00032881501829251647 -0.10193189978599548 0.06029742956161499 -0.07233443856239319 -0.0064627365209162235 0.04236101359128952 -0.04156656935811043 -0.3979816138744354 -0.07362326979637146 -0.3630361258983612 0.12757271528244019 0.0007985212141647935 -0.028914237394928932 -0.010927598923444748 0.02297022007405758 0.010986672714352608 0.023472990840673447 0.1795124113559723 -0.03159518539905548 0.014330057427287102 -0.24352174997329712 -0.2338956892490387 0.009847579523921013 -0.03291826322674751 -0.25766828656196594 0.08122323453426361 0.15328921377658844 -0.21900172531604767 0.004641280509531498 -0.03548817336559296 -0.016668787226080894 -0.029059071093797684 -0.39092743396759033 -0.1627337783575058 -0.11258130520582199 -0.3207269608974457 0.34037134051322937 0.02994215488433838 -0.05299730226397514 -0.3215208649635315 0.014765223488211632 -0.007245831191539764 0.24626073241233826 0.0344526544213295 -0.0083890650421381 -0.022964218631386757 -0.3085477948188782 0.014607681892812252 -0.026533853262662888 0.02623337134718895 -0.03667890280485153 0.1708390712738037 0.25906527042388916 0.1860061138868332 0.026712508872151375 0.11245265603065491 0.33525365591049194 -0.01825767569243908 -0.045466162264347076 0.000954289105720818 -0.060589831322431564 0.016463540494441986 0.25888389348983765 0.006317227613180876 -0.22344176471233368 0.10118389129638672 0.12906576693058014 0.43489694595336914 0.023286238312721252 -0.012535590678453445 -0.22615869343280792 -0.18341512978076935 0.000229919096454978 -0.08500970900058746 0.030373279005289078 -0.3937879502773285 -0.40385544300079346 0.014350512996315956 0.0417923778295517 0.14447760581970215 0.010164914652705193 0.3123840093612671 -0.02640647627413273 0.02948896400630474 -0.008883056230843067 0.0036880066618323326 -0.013166932389140129 -0.3562396168708801 0.08837075531482697 -0.17149800062179565 0.19867950677871704 0.13734839856624603 -0.3642773926258087 0.35381606221199036 0.08531252294778824 0.016332706436514854 0.004879180807620287 -0.030006516724824905 0.008941817097365856 -7.268985064001754e-05 0.135436549782753 -0.020346594974398613 -0.507855236530304 0.11061270534992218 -0.06952016800642014 -0.01715579815208912 0.15752695500850677 0.17379812896251678 -0.0025369110517203808 0.014897048473358154 -0.3594675660133362 -0.01992442086338997 0.2784034311771393 0.23634503781795502 0.00020793206931557506 -0.042401399463415146 -0.33719292283058167 -0.4677881896495819 -0.03569956496357918 0.009639954194426537 -0.22681957483291626 -0.4302365183830261 -0.047080300748348236 0.00810186006128788 -0.028594594448804855 0.04476066306233406 0.16247378289699554 0.021833013743162155 -0.04717548191547394 -0.06166986748576164 -0.03513816371560097 -0.07936959713697433 -0.344722181558609 -0.09093455225229263 -0.0705452412366867 -0.17081069946289062 -0.2683890163898468 0.025177001953125 -0.22628732025623322 0.14773893356323242 -0.24433088302612305 -0.03049103170633316 0.0021178126335144043 0.14100532233715057 0.0772918313741684 -0.2912936806678772 -0.0006583862705156207 0.22885043919086456 0.00970381684601307 0.10913188755512238 0.020663339644670486 -0.23446127772331238 0.005106705706566572 0.007144979666918516 0.01599445566534996 0.0024824365973472595 -0.3957471549510956 0.02990633435547352 0.20490780472755432 0.12774688005447388 0.17040154337882996 0.10569459199905396 0.07155734300613403 -0.013695819303393364 -0.3091329336166382 -0.020519519224762917 0.1671072542667389 -0.030574392527341843 0.02366236224770546 -0.010139879770576954 -0.05503344163298607 -0.004690095316618681 0.04685796797275543 -0.17631928622722626 0.06373695284128189 -0.3005530536174774 0.1306474655866623 0.4812160134315491 0.007546914741396904 -0.048841413110494614 -0.013237753883004189 0.006203289609402418 0.13699981570243835 -0.1859799474477768 -0.050560254603624344 -0.23176197707653046 0.027861623093485832 -0.38308411836624146 -0.07564109563827515 -0.03876012936234474 0.005198055412620306 -0.17825475335121155 -0.07447171211242676 -0.1498764455318451 0.012294100597500801 -0.031269144266843796 -0.22159288823604584 -0.4023853540420532 -0.03987198695540428 -0.15918681025505066 -0.014348860830068588 0.006345947273075581 0.025981556624174118 -0.023704111576080322 0.006108107976615429 0.019924860447645187 0.031736623495817184 0.1748775839805603 -0.00921813677996397 0.002603724831715226 -0.03394944220781326 -0.01993439346551895 0.009672227315604687 -0.41703036427497864 0.24010634422302246 0.2247288078069687 0.1679268330335617 0.013212239369750023 0.027098488062620163 -0.11382248997688293 0.030027594417333603 0.11635217070579529 0.07429148256778717 -0.2704317569732666 5.13443628733512e-05 0.013129254803061485 -0.036168090999126434 0.20146414637565613 0.027982506901025772 0.026414621621370316 0.018870515748858452 -0.032110221683979034 0.011521276086568832 0.3335758447647095 0.020721247419714928 0.0543653666973114 0.006234676577150822 -0.013771897181868553 0.18685561418533325 -0.09448473900556564 0.08547910302877426 -0.002905093366280198 0.021862922236323357 0.0951191782951355 0.1041082963347435 -0.03884382173418999 -0.06283494085073471 -0.038049113005399704 -0.013640488497912884 0.4191053509712219 0.2855917811393738 0.21207351982593536 0.011510548181831837 0.016213547438383102 -0.03263036161661148 -0.29436102509498596 0.08456779271364212 0.1291123926639557 -0.014899380505084991 0.0638224184513092 0.11810369789600372 -0.017515407875180244 0.014194813556969166 -0.07453940063714981 -0.0037193726748228073 0.19002987444400787 -0.029275143519043922 0.1431839019060135 -0.4969750642776489 -0.6350380182266235 -0.29456523060798645 0.010549361817538738 -0.08898790925741196 -0.22633545100688934 0.00919219758361578 0.032502349466085434 -0.024696413427591324 0.012421305291354656 -0.02762136608362198 -0.030364274978637695 -0.30533719062805176 0.048161596059799194 -0.004819946829229593 -0.39126116037368774 0.3981321156024933 -0.06779617071151733 0.15020401775836945 -0.033019211143255234 -0.099447101354599 0.01097467727959156 0.0008681698236614466 0.059811946004629135 -0.5932639241218567 0.14731155335903168 -0.1705026775598526 0.008532225154340267 -0.24326537549495697 0.09417569637298584 -0.22627612948417664 -0.42138031125068665 -0.025411192327737808 0.015200440771877766 0.503889262676239 0.14595231413841248 0.025589358061552048 0.007476396858692169 -0.16267818212509155 0.015621109865605831 -0.035470589995384216 0.0056772977113723755 0.1761503666639328 0.2937362492084503 -0.23112869262695312 -0.011132455430924892 0.0036214226856827736 -0.03273915871977806 0.07065536081790924 0.14782828092575073 0.6011654138565063 0.023694872856140137 -0.060385812073946 -0.18234024941921234 -0.3086729347705841 0.026747573167085648 0.14453721046447754 0.13893304765224457 -0.01697468012571335 0.01874660700559616 0.2640446424484253 0.014958328567445278 0.09211710840463638 0.025914853438735008 -0.32762837409973145 -0.0410921536386013 0.0012356427032500505 -0.038068998605012894 0.10241914540529251 0.17179754376411438 -0.0010705436579883099 -0.043449580669403076 -0.034982938319444656 -0.32596176862716675 -0.019465040415525436 0.18983560800552368 -0.013336771167814732 -0.21490056812763214 0.026126673445105553 -0.051043614745140076 0.022706065326929092 -0.04333854839205742 -0.0063209813088178635 0.08493133634328842 0.0640043318271637 0.13787610828876495 -0.11937204748392105 0.2722325921058655 -0.04234260320663452 -0.2025199681520462 -0.07035902887582779 0.12035226076841354 -0.3593350350856781 0.011445609852671623 -0.35483071208000183 0.15967343747615814 0.01586771197617054 0.055281080305576324 -0.5872477889060974 -0.09238225221633911 0.03903909772634506 -0.2886284291744232 -0.20247267186641693 -0.14279280602931976 -0.02818329818546772 -0.06647823750972748 0.2628527581691742 0.07274408638477325 -0.0424790233373642 -0.04430816322565079 -0.018556565046310425 0.058859553188085556 0.02598653919994831 0.03499889001250267 -0.03918541595339775 -0.08039679378271103 0.010207358747720718 -0.028897786512970924 0.1833515167236328 -0.012878606095910072 -0.03384970873594284 0.3054993450641632 0.14805328845977783 0.06891627609729767 -0.25317642092704773 -0.15613317489624023 -0.411166250705719 0.01080875750631094 0.03937818855047226 0.08861061185598373 -0.02377983182668686 0.024102361872792244 -0.011964204721152782 -0.029354410246014595 0.16541270911693573 0.005181761458516121 -0.10408569872379303 0.008767059072852135 -0.3580993711948395 0.19335457682609558 -0.0325603149831295 -0.007639335002750158 0.030658483505249023 -0.014590093865990639 0.019372249022126198 -0.4285331070423126 0.3727722465991974 0.029349850490689278 -0.0008683173218742013 0.021641485393047333 -0.0023770832922309637 -0.27729249000549316 0.018801836296916008 -0.09241530299186707 0.16051635146141052 0.10288799554109573 0.011672165244817734 -0.004372951574623585 0.03937797620892525 -0.21302548050880432 -0.2946750819683075 -0.03921438753604889 0.015318664722144604 0.042546216398477554 0.029122259467840195 0.030376745387911797 0.01600918173789978 0.2001408487558365 0.031034283339977264 -0.13079284131526947 -0.2692599892616272 -0.0050134602934122086 -0.0005371203878894448 -0.3044792413711548 -0.041522640734910965 0.010418420657515526 -0.10736798495054245 -0.009948577731847763 -0.020504280924797058 -0.02539399079978466 0.029606623575091362 -0.0006855372339487076 -0.28763699531555176 0.02147500030696392 0.3210572898387909 0.15710687637329102 -0.3379259705543518 0.15990276634693146 0.019584443420171738 -0.3115842044353485 -0.017470616847276688 0.0677204579114914 -0.1718887984752655 -0.1359778493642807 0.026651976630091667 0.015603167936205864 -0.054366420954465866 0.23145230114459991 -0.20612387359142303 0.1580352485179901 -0.15225377678871155 -0.028652802109718323 -0.06168367341160774 0.09739566594362259 -0.007777360733598471 -0.028776193037629128 -0.00618448480963707 0.11703839153051376 -0.20665578544139862 -0.06362389773130417 0.011874058283865452 -0.4181751012802124 -0.09993074834346771 0.04212728887796402 -0.19512967765331268 0.011599521152675152 0.023843996226787567 -0.18054194748401642 0.021923046559095383 0.007352209184318781 0.002271510660648346 0.0858263447880745 -0.07652512192726135 0.027347469702363014 0.0018772355979308486 0.14474597573280334 0.029788943007588387 0.02180524542927742 0.022782929241657257 0.03366507589817047 -0.0026264027692377567 0.002184730488806963 0.019518887624144554 -0.025459082797169685 0.0007831678376533091 0.041984423995018005 -0.05119910091161728 0.16238246858119965 0.0998816266655922 0.11311487853527069 -0.3020321726799011 -0.2255328893661499 0.012845146469771862 -0.3349308967590332 -0.003798202844336629 0.09818456321954727 0.39584317803382874 -0.029988031834363937 -0.017971564084291458 0.04576526954770088 0.01217249222099781 0.08595866709947586 -0.019675467163324356 0.2739769518375397 0.002245238982141018 0.012306754477322102 -0.2545697093009949 0.01086729671806097 0.011977930553257465 -0.025053169578313828 -0.02855767495930195 0.17275641858577728 0.06276275962591171 -0.04077107831835747 -0.3079470098018646 0.7702531218528748 -0.04267052561044693 -0.018080927431583405 -0.018352175131440163 -0.6140140891075134 -0.03842903673648834 0.13718123733997345 0.03525982052087784 -0.4223915636539459 -0.008731942623853683 0.0024737974163144827 -0.34872743487358093 0.29988932609558105 -0.11506689339876175 -0.23862288892269135 0.3159765899181366 -0.03797316551208496 -0.2586309015750885 -0.16419006884098053 -0.041776303201913834 -0.5960641503334045 0.1450829952955246 0.013170428574085236 0.01000374648720026 0.028969766572117805 -0.27044668793678284 -0.01761184260249138 0.011226069182157516 -0.013148187659680843 0.019284138455986977 0.2612476050853729 -0.44372957944869995 0.001199799939058721 -0.015516338869929314 -0.15280523896217346 0.21862517297267914 0.008641865104436874 -0.037850141525268555 0.036620672792196274 0.05627875402569771 -0.04816318303346634 -0.2838148772716522 0.012144947424530983 0.11971984803676605 -0.015964213758707047 0.05900608375668526 -0.28957465291023254 -0.050040360540151596 0.07204706966876984 0.08373427391052246 0.2209148406982422 -0.03688713163137436 -0.2638757526874542 -0.021044887602329254 0.3123660087585449 -0.17689919471740723 -0.018978269770741463 0.14949361979961395 0.10015623271465302 -0.1142142191529274 0.05457288399338722 0.009950467385351658 -0.012866209261119366 -0.035893429070711136 -0.04755885899066925 0.02253846451640129 -0.019947601482272148 0.0226792860776186 0.15962089598178864 -0.1781354397535324 0.30357182025909424 -0.18144428730010986 -0.33523717522621155 0.10903814435005188 0.0018619598122313619 0.0239020474255085 -0.006652038544416428 -0.032144516706466675 -0.007676532492041588 0.1001695990562439 -0.0009649857529439032 -0.02128787152469158 0.23926827311515808 -0.22604131698608398 -0.01557956077158451 -0.11577040702104568 0.09355530887842178 -0.04572043567895889 -0.05363443121314049 -0.4019019901752472 0.000438816990936175 0.0365760400891304 -0.3304423987865448 -0.022831492125988007 0.008005271665751934 0.05781587213277817 -0.32049331068992615 -0.026167012751102448 -0.05306260287761688 0.2272467017173767 -0.23691776394844055 0.012942636385560036 0.013000852428376675 