-0.04298871383070946 -0.07362972944974899 0.0804811418056488 0.10675874352455139 0.11995343863964081 -0.031213216483592987 -0.019313286989927292 0.006624099798500538 0.07628244161605835 0.06201289966702461 0.08994047343730927 0.11212269961833954 -0.10705913603305817 -0.019081471487879753 -0.06115715205669403 -0.13031938672065735 -0.10401758551597595 -0.21957863867282867 -0.257739782333374 -0.09812421351671219 -0.04210030660033226 -0.12319923937320709 -0.023525169119238853 -0.06394119560718536 0.17468272149562836 0.007580567616969347 0.0014611504739150405 0.22258245944976807 0.11940344423055649 -0.021658843383193016 0.20051831007003784 0.1259666383266449 0.02616250328719616 0.14590999484062195 0.20046819746494293 0.1459587961435318 -0.14301170408725739 -0.21847745776176453 -0.1752835214138031 -0.06316382437944412 -0.19267237186431885 -0.15098071098327637 -0.2910503149032593 -0.22610127925872803 -0.175640270113945 -0.08540697395801544 -0.18459226191043854 -0.1353834867477417 -0.15258866548538208 0.09878131002187729 -0.017705436795949936 0.13891488313674927 0.050268400460481644 0.061289671808481216 -0.03160903975367546 0.07374344021081924 0.11154597252607346 -0.008539869450032711 0.03850411996245384 0.05874995142221451 0.12496616691350937 0.07740858197212219 0.1226743757724762 -0.07404617220163345 -0.057725690305233 0.04256477206945419 -0.012379973195493221 -0.09380897879600525 -0.1262277215719223 -0.07792152464389801 -0.0911206379532814 -0.06694763153791428 -0.13646112382411957 0.07388929277658463 0.03382527455687523 -0.28935670852661133 -0.20655128359794617 0.11011097580194473 0.1392727941274643 -0.032732799649238586 -0.337211549282074 -0.03193134814500809 0.17210814356803894 0.19898897409439087 0.06586951017379761 -0.04587246850132942 0.07844042032957077 0.21688853204250336 0.16756881773471832 -0.03674260899424553 0.08048589527606964 0.03864561393857002 0.10771522670984268 0.012469600886106491 -0.07659084349870682 -0.042762789875268936 0.052039071917533875 -0.10710830241441727 -0.07861049473285675 -0.0033959972206503153 -0.06928357481956482 -0.0254326481372118 -0.0655008926987648 -0.05244821310043335 -0.20235498249530792 0.05073743313550949 -0.06115604564547539 -0.07207278162240982 0.016838621348142624 0.1635126918554306 0.12412212044000626 0.006505598314106464 0.09239285439252853 0.08459313213825226 -0.032749444246292114 0.04137575998902321 0.04865410178899765 0.09182263910770416 -0.10960354655981064 -0.2228231281042099 -0.01994463987648487 0.01731257140636444 0.009260596707463264 0.12453781813383102 0.02732083946466446 -0.12066857516765594 -0.013034137897193432 0.12229140847921371 0.0704183354973793 0.052199963480234146 0.09252603352069855 0.2557770311832428 0.0723416805267334 0.005378144793212414 0.007237161975353956 0.4463358521461487 0.2752905786037445 0.0548752024769783 -0.0313071683049202 -0.07791093736886978 0.14600735902786255 -0.14877280592918396 -0.13487833738327026 -0.22868448495864868 -0.14849300682544708 -0.14468379318714142 -0.1386224776506424 0.047545693814754486 0.10185760259628296 0.03650166466832161 -0.08698410540819168 0.05835997313261032 0.07800859212875366 0.032548923045396805 -0.13539348542690277 -0.07592453807592392 -0.19598734378814697 -0.20627973973751068 -0.18403026461601257 -0.1476532220840454 0.24595485627651215 0.0284381452947855 -0.11285816133022308 -0.05609271302819252 -0.0030333444010466337 0.22291646897792816 0.06949860602617264 0.045128513127565384 0.05965582653880119 0.03469311445951462 0.14414280652999878 0.13785883784294128 0.15617677569389343 0.09682198613882065 -0.022336915135383606 -0.24313051998615265 -0.05366327986121178 0.06262081861495972 -0.0840655192732811 0.036553964018821716 -0.27616795897483826 -0.08816073834896088 -0.03303491696715355 -0.06426891684532166 0.02463170327246189 -0.19417710602283478 -0.23590950667858124 -0.01224306970834732 -0.1529507040977478 0.048442840576171875 0.22732408344745636 0.04673748463392258 -0.05719621852040291 -0.10875721275806427 -0.21283607184886932 0.2783479392528534 0.06552424281835556 0.09610868990421295 -0.04517705366015434 -0.06500662863254547 -0.05970132350921631 0.10992889106273651 0.0018045362085103989 0.06594230234622955 0.009060856886208057 -0.2723475396633148 -0.2036280483007431 -0.018068982288241386 0.062105320394039154 0.0531613752245903 0.0076104565523564816 -0.13970322906970978 -0.10087615251541138 0.005286356899887323 -0.12575054168701172 0.15240459144115448 -0.008819974958896637 -0.09600511938333511 -0.11371026933193207 -0.12514926493167877 0.15741805732250214 0.16497503221035004 0.1704288274049759 0.10627727955579758 0.007591188419610262 -0.09426723420619965 0.23081383109092712 0.29222673177719116 0.14885224401950836 0.15391212701797485 -0.06867965310811996 -0.05808839574456215 0.020165331661701202 0.03140741214156151 0.07822020351886749 -0.18416881561279297 -0.2891038954257965 -0.29384294152259827 -0.14302657544612885 0.0896323025226593 -0.0015463227173313498 -0.11900509148836136 -0.19777162373065948 0.04399759694933891 0.07362420111894608 0.038985125720500946 0.0831863135099411 0.07682762295007706 0.048685938119888306 0.04171871393918991 0.06190738081932068 0.08409607410430908 0.10400186479091644 0.16213351488113403 -0.00699172168970108 0.01760159246623516 0.3100694417953491 0.06115572154521942 -0.07604499906301498 -0.06411392241716385 -0.12001466006040573 -0.10739204287528992 0.05337857827544212 0.17025406658649445 0.08526202291250229 0.16761288046836853 0.08286423236131668 0.016651032492518425 0.07403883337974548 -0.04009772092103958 0.011080989614129066 -0.06563229858875275 -0.11138566583395004 -0.12387536466121674 -0.06267751008272171 -0.03400421515107155 0.15696585178375244 0.25078776478767395 0.11564265191555023 0.009361873380839825 -0.1851026862859726 -0.3527165949344635 -0.17265205085277557 -0.3312857747077942 -0.1815885752439499 0.0366305336356163 -0.09815157204866409 -0.04209960997104645 0.013733236119151115 0.20385566353797913 0.11915359646081924 0.2407754808664322 0.181587815284729 0.06019945070147514 0.10775132477283478 -0.02085784822702408 0.12437213212251663 0.01445156242698431 -0.026022354140877724 0.06586317718029022 0.03937143832445145 0.05587706342339516 -0.012352206744253635 -0.03571193292737007 -0.11028669774532318 0.030274152755737305 -0.09333373606204987 -0.12374453991651535 0.04561846703290939 0.15156161785125732 0.034319255501031876 -0.07635396718978882 -0.12627384066581726 -0.07728492468595505 -0.027023136615753174 -0.017269061878323555 0.13369977474212646 0.0762781873345375 -0.11518464982509613 -0.2415124773979187 -0.21013683080673218 0.13698431849479675 0.034652549773454666 0.03312264010310173 -0.13372930884361267 -0.12933917343616486 -0.13661111891269684 0.13038823008537292 0.057369399815797806 -0.005854393821209669 0.10717592388391495 0.015255489386618137 -0.03856705501675606 -0.12144409865140915 -0.028646329417824745 0.20558521151542664 0.10563743859529495 0.0013306657783687115 0.1261357069015503 0.025263944640755653 0.14750514924526215 0.2409767061471939 0.04853876680135727 0.028958817943930626 -0.04602188244462013 0.15583482384681702 0.2346155047416687 0.12048037350177765 0.16252806782722473 -0.00023086462169885635 -0.022094033658504486 0.09916985034942627 -0.021588584408164024 -0.03920382633805275 -0.07949291169643402 0.04074130952358246 -0.059174537658691406 -0.01548396423459053 0.08740152418613434 0.07358558475971222 0.03774779289960861 0.029626131057739258 0.055265940725803375 0.012676623649895191 0.0023555662482976913 0.08042506128549576 0.08777858316898346 -0.1433858573436737 -0.16052748262882233 -0.07804415374994278 0.0922551155090332 -0.018835734575986862 -0.00905844010412693 -0.05681484565138817 0.026362456381320953 0.048423223197460175 -0.12701980769634247 -0.14432594180107117 -0.1368183046579361 -0.009823117405176163 -0.0018881168216466904 -0.21843859553337097 -0.2421266734600067 -0.06851298362016678 -0.05681423470377922 0.07767551392316818 0.060923196375370026 -0.14356110990047455 -0.14368639886379242 0.002700128359720111 -0.0079824673011899 0.19182313978672028 0.006984713487327099 -0.017623579129576683 -0.18252357840538025 -0.07905387133359909 0.14435018599033356 -0.0024708048440515995 -0.01162570808082819 0.00023506373690906912 -0.08059083670377731 -0.022715898230671883 0.18463332951068878 0.02102699875831604 -0.3324264585971832 0.00030148535734042525 0.061140693724155426 0.199369415640831 -0.1282849907875061 0.19225406646728516 -0.03939785435795784 -0.19566141068935394 0.16709959506988525 0.33321613073349 0.354552686214447 0.012275855988264084 0.01693216897547245 0.00621821591630578 0.09017899632453918 0.12547779083251953 -0.14883215725421906 -0.07426296174526215 0.10933821648359299 0.2624660134315491 0.11709008365869522 -0.07072633504867554 -0.18458989262580872 0.06028242036700249 0.10811170935630798 -0.12714064121246338 0.1487637311220169 0.09730183333158493 0.08602172136306763 0.0062240855768322945 0.04702834039926529 -0.18096734583377838 -0.042240966111421585 0.0952397957444191 0.20342403650283813 0.21166826784610748 -0.33965864777565 0.16450585424900055 0.2299322932958603 0.03231900930404663 -0.2034899890422821 -0.11888708919286728 -0.13725924491882324 0.028228679671883583 -0.06861067563295364 0.11070132255554199 -0.015655681490898132 -0.08802704513072968 -0.037837523967027664 0.048471301794052124 -0.05718350037932396 -0.21370811760425568 -0.04837784916162491 -0.0006751409964635968 0.23161138594150543 0.08169825375080109 -0.021024007350206375 -0.029365867376327515 0.028807606548070908 0.196298286318779 0.0829673781991005 0.04679173603653908 -0.007397990208119154 -0.22739553451538086 0.012182742357254028 0.10358309000730515 0.03825252130627632 -0.04943610727787018 -0.2510383129119873 -0.14873924851417542 0.04468739777803421 -0.0497305691242218 -0.05279390141367912 0.03682432323694229 0.1537802368402481 -0.19067123532295227 -0.18246780335903168 -0.27054363489151 -0.03513996675610542 0.26094597578048706 -0.027202343568205833 -0.07491351664066315 0.03213696554303169 -0.06639527529478073 0.2942604124546051 0.21232914924621582 -0.056243330240249634 0.03674960136413574 -0.25975218415260315 0.18514254689216614 0.3074846863746643 -0.04411792382597923 0.08952023088932037 -0.03474722430109978 -0.07930812239646912 0.1246776282787323 0.0033488303888589144 0.12925605475902557 0.03556205704808235 -0.03588031604886055 -0.15823225677013397 -0.050659146159887314 0.0894368439912796 0.008920537307858467 0.03866679221391678 -0.046476833522319794 0.011023318395018578 0.05964795500040054 0.042716216295957565 0.1425665020942688 -0.12049344927072525 -0.04307141527533531 -0.046263229101896286 0.026998143643140793 0.10423576831817627 0.11792126297950745 -0.03709271550178528 0.0010350232478231192 0.007737873587757349 -0.05369742214679718 0.07765952497720718 -0.0059458306059241295 -0.05122717469930649 -0.09745993465185165 0.09199848026037216 -0.1014886423945427 -0.003587775630876422 -0.19662033021450043 -0.14350934326648712 0.201274573802948 0.026707950979471207 -0.1339261531829834 -0.0745449885725975 -0.24221979081630707 0.0017752863932400942 0.008829397149384022 -0.1305874139070511 -0.17071282863616943 -0.2964620888233185 -0.03889570012688637 0.0022010700777173042 -0.09016666561365128 -0.1722893863916397 -0.14260730147361755 -0.07501552999019623 -0.05016273632645607 -0.004986745771020651 0.00016355850675608963 -0.04897414520382881 0.049607716500759125 0.044643476605415344 -0.012175926938652992 -0.07027826458215714 -0.06505872309207916 0.10487814992666245 0.008944988250732422 -0.006509979255497456 0.05333101749420166 0.06591907888650894 0.11660191416740417 0.009915066882967949 0.1286761611700058 0.10371161997318268 -0.05371938273310661 0.027343815192580223 0.10810603946447372 0.1464938521385193 0.04961400851607323 0.03679869696497917 -0.08776994049549103 0.09631690382957458 0.1738092005252838 -0.06824450194835663 0.07895907759666443 0.055770378559827805 0.013145995326340199 -0.014516377821564674 -0.15092608332633972 -0.0700913742184639 -0.08346225321292877 -0.07910860329866409 -0.008011523634195328 0.07421520352363586 -0.16384899616241455 -0.07722790539264679 0.062488965690135956 0.22603729367256165 0.039377644658088684 -0.06487182527780533 -0.1968783438205719 -0.05425272136926651 0.07353378087282181 0.11415322870016098 0.09802569448947906 -0.03843722119927406 -0.10911785811185837 -0.03495385870337486 0.06414154171943665 -0.01023897621780634 -0.09178076684474945 0.02088039368391037 0.06423454731702805 -0.06223752722144127 0.07624848186969757 -0.007230650167912245 -0.12190890312194824 -0.024057650938630104 0.04276913404464722 -0.1164921224117279 -0.040012504905462265 -0.0028796589467674494 -0.10080397129058838 0.0629132091999054 -0.024378672242164612 -0.045763541013002396 -0.13226690888404846 0.08237624913454056 -0.11255483329296112 -0.03344253450632095 -0.18180608749389648 -0.056168802082538605 0.07248416543006897 -0.004825389012694359 0.007849189452826977 0.01524802390486002 0.04565605893731117 -0.029761018231511116 -0.04608035460114479 0.015636708587408066 -0.017181815579533577 -0.17318373918533325 0.09755276143550873 0.11892175674438477 -0.07795543223619461 0.03861096501350403 0.029723232612013817 -0.08668899536132812 -0.013457882218062878 0.09844249486923218 0.17166921496391296 0.06905736774206161 0.10207779705524445 0.2074233889579773 -0.020029595121741295 -0.0762174129486084 0.04172547906637192 0.09314693510532379 -0.02412843331694603 0.025908462703227997 -0.0006837823311798275 -0.09470541030168533 0.017640559002757072 0.018279580399394035 -0.0795719251036644 -0.04111860692501068 0.019755808636546135 -0.039320170879364014 -0.0028011570684611797 -0.005805837456136942 0.06276721507310867 0.06633235514163971 -0.022184597328305244 0.047556888312101364 0.005263404920697212 -0.03920184448361397 -0.10737794637680054 -0.019864967092871666 -0.04261230304837227 0.010120686143636703 -0.0010554918553680182 0.03419716656208038 0.043529361486434937 -0.05305776745080948 -0.12925474345684052 -0.11406396329402924 0.10810930281877518 -0.06545522809028625 -0.15193569660186768 -0.0844360962510109 0.032778140157461166 -0.03956160694360733 0.00011476725194370374 -0.02841934561729431 -0.04707564786076546 -0.001519042649306357 -0.10731210559606552 -0.024848060682415962 -0.016643323004245758 -0.1282014101743698 -0.08688478916883469 0.008448912762105465 -0.0462697334587574 -0.18790234625339508 -0.14399561285972595 0.009417271241545677 0.0005308224936015904 0.014918164350092411 -0.009238837286829948 0.060951221734285355 0.001829719403758645 0.12909141182899475 0.10743606835603714 0.10030493885278702 0.07439287006855011 0.10468104481697083 -0.039473775774240494 0.10493207722902298 0.0177167821675539 0.006176129914820194 0.07205140590667725 0.12975427508354187 0.031182797625660896 -0.07341530174016953 0.06408414989709854 0.08002248406410217 0.0184045247733593 0.10067617893218994 0.1726987361907959 -0.0065916115418076515 -0.09923648089170456 -0.04917661100625992 -0.14047139883041382 -0.0774427130818367 0.14046454429626465 0.16891299188137054 0.03651854395866394 0.06845688819885254 0.030648939311504364 0.12634827196598053 0.10151483863592148 -0.25312602519989014 0.19414788484573364 0.07810612767934799 -0.1057472974061966 -0.1657939851284027 0.11782802641391754 -0.25776103138923645 -0.16303688287734985 0.11506805568933487 0.1670113056898117 0.17913365364074707 0.018931793048977852 0.16928410530090332 0.2245076298713684 0.13129520416259766 -0.11908140778541565 -0.06676298379898071 -0.038266684859991074 -0.12576080858707428 -0.08353601396083832 0.01281062513589859 -0.055027808994054794 0.00846314150840044 0.05630403012037277 0.10756417363882065 0.01331465132534504 -0.1542886644601822 -0.05148350074887276 0.1411079466342926 0.10698606073856354 0.06339986622333527 -0.11248210072517395 -0.11018132418394089 0.1196952685713768 0.14336340129375458 -0.08633307367563248 0.01925358921289444 -0.1327762007713318 -0.00577090447768569 0.0070396726951003075 0.051090896129608154 -0.017434541136026382 -0.11533617228269577 0.015401864424347878 0.1540626585483551 0.06375620514154434 -0.03777965158224106 -0.03396517410874367 0.10891389846801758 -0.04686382785439491 0.038586512207984924 0.0168768260627985 -0.026852769777178764 -0.011458172462880611 0.05733034759759903 0.0034468660596758127 -0.10255656391382217 -0.16755954921245575 0.1844574213027954 0.1372237652540207 -0.11011520028114319 -0.08712282031774521 0.029387274757027626 -0.11877269297838211 0.14286333322525024 0.05861205235123634 -0.017819872125983238 -0.09255249798297882 0.0031779163982719183 -0.0690641701221466 -0.13635371625423431 0.03724025934934616 0.13972198963165283 -0.09214865416288376 -0.122785784304142 -0.013276415877044201 0.10793540626764297 0.025314215570688248 0.10611450672149658 0.0933118462562561 -0.03146716207265854 0.027405859902501106 0.16696321964263916 0.11884482949972153 0.006538507994264364 -0.0306505486369133 0.0800914317369461 0.06586750596761703 -0.07960964739322662 0.06878693401813507 -0.10383862257003784 -0.08012745529413223 0.022911882027983665 -0.16365830600261688 -0.11634131520986557 -0.09279675781726837 -0.20477820932865143 -0.13727620244026184 -0.13881172239780426 -0.013013624586164951 -0.04370832070708275 -0.12626539170742035 -0.2425697296857834 -0.1926347017288208 0.047359395772218704 -0.027915814891457558 -0.12401358783245087 -0.2260676622390747 -0.18092089891433716 -0.008544296957552433 -0.01235718559473753 -0.19752374291419983 -0.11229794472455978 -0.2020607590675354 -0.04532402753829956 0.030560309067368507 0.07933441549539566 -0.05499418079853058 -0.002478958573192358 0.0013623351696878672 0.014612837694585323 0.04322770982980728 0.021011168137192726 -0.060807712376117706 0.06681817024946213 0.12258343398571014 0.11332735419273376 0.006213870830833912 -0.09324697405099869 0.05526530370116234 0.110761858522892 -0.05900103598833084 -0.0492459274828434 0.18334829807281494 0.08372871577739716 -0.10054666548967361 0.006358825135976076 0.022779570892453194 -0.05436646193265915 0.17455698549747467 0.18404856324195862 0.07905928045511246 -0.13782596588134766 -0.08243399858474731 0.07870940119028091 0.051315512508153915 -0.1975427120923996 -0.015683934092521667 0.08428739011287689 0.1522550731897354 -0.056998223066329956 0.21184419095516205 0.09001229703426361 -0.027552127838134766 0.11639449000358582 0.03359045460820198 0.22013455629348755 -0.06993251293897629 -0.15963387489318848 0.0549231581389904 0.005665833596140146 -0.06515096127986908 0.02381819486618042 -0.05368223786354065 -0.15445232391357422 -0.07924559712409973 0.13386426866054535 0.10962849855422974 0.09941355884075165 -0.028373289853334427 0.02942267619073391 0.1830117404460907 0.058520231395959854 -0.05294487252831459 -0.24985195696353912 -0.13025666773319244 0.15097446739673615 -0.018759647384285927 -0.03916763886809349 -0.009125451557338238 -0.07264319062232971 0.11336880922317505 0.0619843415915966 -0.10773903131484985 0.01273178867995739 -0.09740754961967468 -0.008302654139697552 0.013596256263554096 0.14090685546398163 0.07694710046052933 0.1501673012971878 0.09994737803936005 0.11014268547296524 -0.024185502901673317 0.024823689833283424 0.11106031388044357 0.19242744147777557 -0.04756578430533409 -0.20588277280330658 -0.09151043742895126 -0.02819879911839962 0.1305149644613266 -0.1757470667362213 -0.2062997817993164 -0.33474767208099365 -0.008118237368762493 0.04096560925245285 -0.12796834111213684 -0.25598371028900146 -0.2039327770471573 -0.05595337226986885 0.021046902984380722 -0.0136364521458745 -0.07787515223026276 -0.18347685039043427 0.14908264577388763 0.027631213888525963 -0.01959993503987789 0.07234758138656616 0.06231244280934334 -0.08454865217208862 -0.04843153432011604 -0.09480765461921692 0.0038686678744852543 -0.148258239030838 -0.1705283224582672 0.03324475884437561 -0.10069551318883896 -0.18733446300029755 -0.15276357531547546 0.06711920350790024 -0.030468126758933067 -0.10596629977226257 -0.09142468869686127 -0.1241660863161087 0.10215947031974792 -0.022655757144093513 -0.04180707037448883 0.061739105731248856 0.05350760370492935 0.11394169181585312 0.17489534616470337 0.0813094973564148 0.0948229730129242 -0.08666706085205078 -0.06956417113542557 0.18289729952812195 0.0975063145160675 0.031038856133818626 -0.11179058998823166 0.020913029089570045 0.243329256772995 0.0008674865821376443 -0.12981773912906647 -0.01979675702750683 -0.08928144723176956 0.1343102604150772 -0.09002494066953659 -0.07153099775314331 -0.10845119506120682 -0.029756352305412292 -0.07584860920906067 -0.13475114107131958 -0.027731146663427353 0.06626427918672562 -0.16367322206497192 0.038194335997104645 0.1658758521080017 0.07167382538318634 0.10795648396015167 0.004775314126163721 -0.07521356642246246 -0.09115974605083466 0.07592520117759705 0.08377610146999359 -0.09843578934669495 0.008876202628016472 0.008033166639506817 -0.028736142441630363 -0.12497074156999588 -0.13034610450267792 0.11151336133480072 0.017665375024080276 -0.006112274248152971 -0.022343121469020844 -0.10637418925762177 0.1142040267586708 0.023294128477573395 -0.048912327736616135 -0.07103210687637329 -0.0745854377746582 0.07505175471305847 0.13953006267547607 -0.08118816465139389 -0.11491513252258301 -0.11024077981710434 0.02850080095231533 -0.024437079206109047 -0.21172499656677246 -0.3475427031517029 -0.3432420492172241 0.074037104845047 -0.09034370630979538 -0.035823024809360504 -0.21086621284484863 -0.05494484677910805 -0.038452476263046265 -0.04241877794265747 0.022315802052617073 -0.1053897887468338 0.08764103800058365 -0.03761022537946701 0.052831366658210754 -0.05609877035021782 -0.01001497358083725 0.10584331303834915 -0.2423383593559265 0.021409528329968452 -0.08786917477846146 -0.16896936297416687 -0.0677628219127655 -0.12140047550201416 0.1553088277578354 -0.051271483302116394 -0.10507162660360336 -0.09255426377058029 0.004054690711200237 0.1749616414308548 -0.02775408886373043 0.02321251854300499 0.030139435082674026 -0.11143075674772263 0.0525253601372242 0.033541541546583176 -0.003420954803004861 0.032140523195266724 -0.27281078696250916 0.06094326078891754 0.031697649508714676 -0.10681547224521637 0.00934415590018034 0.20518842339515686 0.10345727950334549 -0.21755263209342957 0.13437414169311523 0.046861980110406876 0.12704655528068542 0.19618651270866394 -0.0067439209669828415 0.0338451974093914 -0.07573580741882324 0.04268341884016991 0.23827354609966278 -0.08572280406951904 -0.11588116735219955 -0.2098912000656128 -0.03350840508937836 0.17158395051956177 0.09033636003732681 -0.028651472181081772 0.052793312817811966 0.09252224117517471 0.20531706511974335 -0.10694971680641174 0.03289132937788963 -0.017263058573007584 0.07993540912866592 -0.1831302046775818 -0.029428184032440186 0.07549214363098145 -0.1367342323064804 0.05236617103219032 0.06983011215925217 -0.042712122201919556 -0.0003284516860730946 -0.03713667020201683 0.05284499004483223 0.12034735083580017 0.08685993403196335 0.04399506747722626 -0.05772023648023605 0.08893518149852753 -0.018757473677396774 -0.023647835478186607 -0.022864043712615967 -0.062317416071891785 0.08551900088787079 0.06632567197084427 0.03831262141466141 0.03850885108113289 -0.12909920513629913 -0.012713262811303139 0.09428976476192474 -0.014111668802797794 0.07652092725038528 0.05790245532989502 -0.002903424436226487 0.25385144352912903 -0.1040554940700531 -0.09918590635061264 0.08273699134588242 -0.06434611231088638 0.022542716935276985 -0.17453616857528687 -0.0560910627245903 -0.07700708508491516 -0.13838879764080048 0.0007823611376807094 0.03744522109627724 -0.093757264316082 -0.060980185866355896 -0.02847772091627121 0.13222025334835052 0.022744441404938698 0.04384005069732666 0.01393918413668871 -0.03989499434828758 -0.08717849850654602 -0.13156315684318542 0.06645262986421585 0.1737852841615677 -0.15381380915641785 -0.13015219569206238 -0.0008229681407101452 0.10439971834421158 0.0996091365814209 -0.12021872401237488 0.04557356238365173 0.13035449385643005 0.0024345635902136564 -0.03983621671795845 -0.01610715128481388 0.022302238270640373 -0.03736363351345062 -0.06512149423360825 0.08009526878595352 -0.14053188264369965 -0.04041290283203125 0.013863161206245422 -0.04635655879974365 -0.02793208695948124 -0.06855954974889755 0.2510509490966797 -0.016831742599606514 -0.1335839182138443 0.02931215800344944 -0.08526267856359482 -0.10560763627290726 0.024870220571756363 0.1064400002360344 -0.024231744930148125 -0.11729086190462112 0.0060153198428452015 0.17727118730545044 0.03647589311003685 -0.048712488263845444 -0.020803358405828476 -0.1066894605755806 0.0557597316801548 0.11830880492925644 -0.01849873922765255 -0.12672404944896698 -0.03632795065641403 -0.0035261791199445724 -0.03724544867873192 0.047343213111162186 0.026496101170778275 0.005331143736839294 0.07312668859958649 0.0717887133359909 0.1249578595161438 0.16260626912117004 0.1072908490896225 0.20845460891723633 0.14214830100536346 0.1892513483762741 0.022013256326317787 -0.06192066892981529 -0.14389896392822266 -0.08718006312847137 -0.14113034307956696 0.05398331582546234 -0.10227120667695999 -0.11195284873247147 -0.2250480204820633 -0.16129206120967865 0.07921027392148972 0.1906072497367859 0.11209142953157425 0.013326198793947697 0.057301443070173264 -0.03155525401234627 0.07323340326547623 0.060268815606832504 -0.05944034829735756 -0.010405991226434708 -0.03616948053240776 -0.05983683094382286 -0.0037382522132247686 0.022236205637454987 -0.06219669058918953 0.05409827455878258 0.04828141629695892 0.006936198566108942 -0.06334362924098969 0.03142692893743515 -0.08767832070589066 -0.16971760988235474 -0.18717312812805176 -0.20217019319534302 0.03619585186243057 0.04506964609026909 0.009371349588036537 0.021999968215823174 -0.08457395434379578 -0.0992983803153038 0.04091791436076164 -0.06405730545520782 0.007137725595384836 -0.04602796211838722 -0.07012820988893509 0.06171931326389313 0.1974770873785019 0.18295665085315704 0.16757458448410034 0.0667291060090065 0.06452903151512146 -0.07414642721414566 -0.07998969405889511 0.04893745109438896 0.060785066336393356 -0.10353181511163712 -0.13802270591259003 -0.14309284090995789 -0.1404585987329483 -0.01111551746726036 0.12962600588798523 0.05709230154752731 -0.0678582489490509 -0.11174055188894272 -0.11634320765733719 0.04185867682099342 0.025172557681798935 -0.01105395145714283 -0.11708135902881622 -0.12661929428577423 -0.11548810452222824 -0.16063450276851654 -0.18147705495357513 -0.061647895723581314 -0.04566747695207596 -0.17390452325344086 -0.11659599840641022 -0.1686011254787445 -0.13039128482341766 0.06681261956691742 -0.14281047880649567 -0.04526226967573166 -0.0583663284778595 -0.17774181067943573 0.05952418968081474 -0.024135544896125793 0.05773112550377846 -0.01125273946672678 -0.046091534197330475 -0.09444931149482727 -0.026980949565768242 -0.09485409408807755 -0.14368005096912384 -0.14063939452171326 -0.15156182646751404 0.09250261634588242 0.0822533369064331 0.08132865279912949 0.1334899365901947 0.0045770336873829365 0.17489998042583466 0.2994237244129181 0.316577672958374 0.12482129037380219 0.1457991898059845 -0.034520410001277924 0.02064438909292221 0.02430598810315132 -0.04387295991182327 -0.04608858376741409 0.07037315517663956 0.04222509264945984 0.15160764753818512 0.09631620347499847 0.013355204835534096 0.06180117651820183 -0.0030807508155703545 -0.12505139410495758 -0.04562855884432793 -0.012120798230171204 0.010204190388321877 0.010394781827926636 0.1961684376001358 0.1628873646259308 0.19264905154705048 0.0481686145067215 0.14744794368743896 0.040392931550741196 -0.009334935806691647 0.06595296412706375 -0.11621790379285812 -0.2895641624927521 -0.19112922251224518 -0.19953325390815735 -0.06428951025009155 0.021746866405010223 0.19570566713809967 0.14303743839263916 0.1339372992515564 0.09971284866333008 -0.15527622401714325 0.03314187005162239 -0.05716625601053238 0.10448592156171799 -0.09947002679109573 -0.04940203204751015 -0.024744363501667976 -0.1722671538591385 -0.17186158895492554 -0.2884480357170105 0.09154319763183594 0.0493197999894619 -0.09750048071146011 -0.17667101323604584 0.014628016389906406 0.1622171252965927 -0.021890075877308846 -0.06260688602924347 0.07756099849939346 0.12741351127624512 0.037102967500686646 0.0010140716331079602 -0.015155359171330929 0.08844513446092606 0.17046016454696655 0.02526869624853134 0.05159532651305199 0.0445333793759346 0.07876864075660706 -0.1289469599723816 0.1615627259016037 0.055848028510808945 -0.028432922437787056 -0.005779721774160862 -0.1453159898519516 -0.014140579849481583 -0.017591282725334167 -0.17383043467998505 -0.25436532497406006 0.04494091495871544 -0.05949430912733078 -0.27248167991638184 -0.3084234595298767 0.04753690958023071 0.016063300892710686 -0.05540822073817253 -0.0926903784275055 -0.07911387085914612 0.058179859071969986 -0.003114460501819849 -0.06154397502541542 -0.08157583326101303 -0.0887826532125473 -0.06959659606218338 -0.02582697570323944 -0.013466684147715569 -0.13414891064167023 -0.20237329602241516 -0.059245359152555466 -0.09878873080015182 -0.04606826975941658 -0.14568161964416504 -0.16824060678482056 0.019641948863863945 -0.044467754662036896 -0.08292323350906372 -0.0023643928579986095 -0.03744865208864212 0.029890792444348335 0.011710550636053085 0.07430613040924072 -0.049159809947013855 0.15217211842536926 0.14064224064350128 0.00157338532153517 0.013757854700088501 -0.06745047867298126 0.032942112535238266 0.2992001473903656 0.3055652678012848 -0.04150303080677986 0.07898535579442978 0.05557567998766899 0.13495518267154694 0.09225393086671829 0.1524238884449005 0.01971990428864956 -0.004177993629127741 -0.030328962951898575 -0.10783158987760544 0.06592261046171188 -0.014450899325311184 -0.08031941950321198 -0.08571405708789825 -0.04641524329781532 0.15319520235061646 -0.03743608668446541 -0.19059039652347565 0.011167480610311031 0.12218359857797623 -0.07427076995372772 -0.08617107570171356 -0.06767574697732925 0.06931418180465698 0.055175743997097015 -0.036802589893341064 -0.1019342765212059 -0.0011630498338490725 -0.05800841748714447 -0.05115033686161041 -0.09774400293827057 -0.044784896075725555 -0.1233518049120903 -0.16882473230361938 -0.13901202380657196 -0.10997473448514938 -0.0369051992893219 0.056885771453380585 0.052563849836587906 0.06533360481262207 0.05079098045825958 0.060841817408800125 0.03608284518122673 0.02284342236816883 -0.09310092777013779 -0.059336960315704346 0.06645544618368149 -0.04001963883638382 -0.13902057707309723 -0.12352528423070908 0.07322394102811813 0.08704899996519089 -0.08796357363462448 -0.17776067554950714 -0.0937577560544014 0.040623538196086884 -0.06117704138159752 -0.29512953758239746 -0.10274481773376465 0.031928449869155884 0.03139396384358406 -0.1300986260175705 -0.1676846444606781 0.003584925550967455 0.1657819002866745 0.024785861372947693 -0.05213165283203125 0.017525600269436836 0.22275836765766144 0.17153260111808777 -0.13240163028240204 -0.11335793137550354 0.004509371239691973 -0.12743708491325378 -0.13570857048034668 -0.01861184649169445 0.07439406216144562 0.20371945202350616 0.09398646652698517 0.14850135147571564 0.12886618077754974 0.3034221827983856 0.29217851161956787 0.14944858849048615 0.17186905443668365 -0.016616135835647583 -0.11562520265579224 -0.1853768676519394 -0.18993616104125977 -0.11871268600225449 0.049466509371995926 0.006508050486445427 -0.1313333809375763 -0.23245546221733093 -0.1934700310230255 -0.040564730763435364 0.04906614124774933 0.011058003641664982 -0.1491408497095108 -0.015337065793573856 -0.06977548450231552 0.10524507611989975 -0.09446822106838226 -0.0709027573466301 -0.05159761756658554 -0.09812507033348083 0.004737533163279295 0.026821158826351166 0.009316544979810715 -0.011802411638200283 0.1104440838098526 0.059284377843141556 -0.10997356474399567 -0.10496725887060165 0.09088636934757233 -0.0567600280046463 -0.07118571549654007 -0.15354791283607483 -0.18643856048583984 -0.07085621356964111 -0.04605915769934654 -0.15836404263973236 -0.1921064257621765 -0.016604572534561157 0.04353064298629761 -0.04045708850026131 -0.06818873435258865 -0.024098169058561325 0.08373689651489258 0.006146059837192297 0.21940164268016815 0.1971559375524521 0.22088931500911713 0.055340688675642014 0.1369703710079193 0.05172400921583176 0.029043877497315407 0.0563395656645298 0.04560147225856781 0.062320929020643234 0.09792428463697433 -0.07166281342506409 -0.009623791091144085 -0.07635531574487686 -0.012638846412301064 0.1119605228304863 0.0630231648683548 0.24128949642181396 0.04781191051006317 0.04257109388709068 -0.00687253987416625 -0.09137684851884842 -0.0657912865281105 -0.11960931122303009 -0.14739640057086945 -0.11827326565980911 -0.1985301822423935 -0.22057197988033295 -0.1532735973596573 -0.020691214129328728 -0.045761559158563614 -0.17361097037792206 -0.18509960174560547 -0.12911386787891388 0.07269556820392609 0.030119219794869423 0.043053265661001205 -0.050977736711502075 -0.0653609111905098 0.018864139914512634 -0.19070743024349213 -0.01749122515320778 -0.12089302390813828 0.012745514512062073 -0.0683615580201149 -0.19956330955028534 -0.22872671484947205 -0.1374453455209732 -0.06065349280834198 -0.1649739146232605 0.06779484450817108 0.23908941447734833 0.2386305034160614 0.07668130099773407 -0.02135164849460125 0.17556771636009216 0.2686406672000885 0.29588761925697327 0.13139991462230682 0.14165428280830383 -0.2333410084247589 -0.23750682175159454 -0.10284459590911865 0.04402267932891846 0.05320226028561592 -0.06638851761817932 0.07600071281194687 -0.03777296468615532 -0.15103763341903687 -0.2196005880832672 -0.026447638869285583 -0.10977841913700104 -0.21174472570419312 0.03275854140520096 -0.003042918397113681 0.18296003341674805 0.24008718132972717 0.29430127143859863 0.22961468994617462 0.15682774782180786 0.05202985182404518 0.16989687085151672 0.19570884108543396 0.06742852181196213 -0.024671969935297966 -0.31378665566444397 -0.33587536215782166 -0.18775179982185364 -0.16940627992153168 -0.007190587464720011 0.019379235804080963 0.06387734413146973 -0.028471169993281364 -0.025550352409482002 -0.12055905163288116 0.009280131198465824 0.14249564707279205 0.29943951964378357 0.23332779109477997 0.06591615080833435 -0.10386954993009567 -0.1000978872179985 0.22936362028121948 0.2636057138442993 0.15685760974884033 -0.09925860911607742 -0.15964363515377045 -0.2167331725358963 -0.22888049483299255 -0.09471568465232849 0.031896259635686874 0.06979936361312866 -0.12370377779006958 -0.12464112788438797 -0.15981000661849976 -0.05700285732746124 -0.04677152633666992 0.04425935447216034 -0.09975163638591766 -0.17864105105400085 0.05768793821334839 0.13881856203079224 0.15280112624168396 0.06929930299520493 0.016385609284043312 -0.18709087371826172 -0.0855289027094841 0.24160172045230865 0.14352336525917053 -0.04856991767883301 -0.3532291054725647 -0.2225254625082016 -0.003519531572237611 0.13675735890865326 0.1697312444448471 -0.16829736530780792 -0.08685138076543808 -0.18057143688201904 -0.1412488967180252 0.06889929622411728 0.13588063418865204 0.08154765516519547 -0.023006154224276543 0.003902160096913576 -0.0760350450873375 0.11966068297624588 0.21006624400615692 0.20956186950206757 0.006275805179029703 -0.09323272854089737 -0.024751974269747734 0.14699964225292206 0.26553651690483093 0.21844597160816193 0.14790037274360657 -0.22703732550144196 -0.23729917407035828 -0.08392374962568283 0.06581571698188782 -0.030976707115769386 -0.074416384100914 -0.13528038561344147 -0.12603974342346191 -0.09020338207483292 0.008593597449362278 0.0012999923201277852 0.02777981199324131 -0.08458930253982544 -0.08225694298744202 -0.1723426729440689 -0.025121722370386124 -0.138200044631958 -0.05157971382141113 -0.09951506555080414 -0.0889691635966301 0.08243197202682495 -0.01994076743721962 -0.18656009435653687 -0.13967496156692505 -0.11337392032146454 -0.03237871453166008 -0.15021836757659912 -0.22910214960575104 -0.10351600497961044 0.04515780881047249 -0.06371526420116425 -0.27684763073921204 -0.27184849977493286 -0.19610239565372467 -0.043165888637304306 -0.06384670734405518 -0.1644166260957718 -0.014711087569594383 0.25526493787765503 0.14982731640338898 -0.09794016927480698 0.09478769451379776 -0.04570959508419037 0.03457866609096527 0.2111586332321167 -0.008095210418105125 0.16871806979179382 0.35851821303367615 0.3069095015525818 -0.029999995604157448 -0.2660010755062103 -0.2337414026260376 0.179579496383667 0.36643508076667786 0.3379374146461487 0.08042233437299728 0.05184539034962654 -0.16475342214107513 -0.13617995381355286 -0.164762943983078 -0.025639435276389122 0.03925194963812828 0.14322346448898315 0.07752447575330734 -0.06476559489965439 -0.04100650176405907 -0.013385238125920296 -0.07855267822742462 0.014083275571465492 -0.04842553660273552 -0.21026043593883514 -0.3238462805747986 -0.15052227675914764 0.1775924265384674 0.2535236179828644 -0.25482121109962463 -0.2663011848926544 -0.19661767780780792 -0.2010316699743271 0.044315312057733536 0.14087793231010437 0.1659604012966156 -0.02042960748076439 -0.07992354780435562 -0.1298425942659378 0.05913606286048889 -0.07746848464012146 0.038225773721933365 0.10640030354261398 0.19283512234687805 -0.0787375345826149 -0.06998714804649353 0.08547419309616089 -0.09098857641220093 -0.03217709809541702 -0.12487588077783585 0.09587474167346954 0.051256850361824036 -0.18566034734249115 -0.23723556101322174 -0.16892680525779724 0.09624146670103073 -0.11995096504688263 -0.25964775681495667 -0.04161263629794121 -0.13510461151599884 -0.023635543882846832 -0.22638028860092163 -0.1999989002943039 0.04063831642270088 -0.16365878283977509 0.11757072061300278 0.06859155744314194 -0.09525129944086075 -0.025049112737178802 -0.0539785660803318 -0.035658903419971466 0.09272623062133789 0.06943290680646896 0.06221582740545273 0.01880737580358982 0.15465903282165527 -0.01627405174076557 -0.22702430188655853 -0.022724736481904984 0.1273212879896164 0.14519453048706055 -0.12694676220417023 -0.26180121302604675 0.14073319733142853 -0.03798839449882507 -0.14979425072669983 -0.34236112236976624 -0.04565698653459549 0.17291715741157532 0.035166241228580475 0.07397148758172989 -0.027459334582090378 0.15186913311481476 0.0557108074426651 0.09062940627336502 -0.0036744605749845505 0.02716633304953575 0.06073696166276932 0.006129889283329248 0.10093774646520615 0.06481535732746124 -0.09964253008365631 -0.14637798070907593 -0.10962212085723877 -0.011921703815460205 -0.09722467511892319 -0.1652851551771164 0.039548322558403015 0.0805744156241417 -0.05018196254968643 -0.19138672947883606 -0.06170521304011345 0.20185184478759766 -0.02018461748957634 -0.01581437885761261 -0.13193932175636292 0.08241259306669235 -0.08218139410018921 0.058827273547649384 -0.00144901592284441 0.07308275252580643 0.2151079773902893 -0.029096586629748344 -0.035850271582603455 0.04775653034448624 0.23359639942646027 0.23773013055324554 0.03013617731630802 -0.04432060942053795 0.08548891544342041 0.1269129514694214 0.09984376281499863 -0.1599707305431366 -0.1404925137758255 0.08773577213287354 0.15580512583255768 -0.0021132477559149265 -0.24141158163547516 0.08573465794324875 0.08522013574838638 0.05788539722561836 -0.13515497744083405 -0.02252965234220028 -0.04733950272202492 -0.05800849199295044 -0.14511561393737793 -0.008626905269920826 0.10860852152109146 0.22933891415596008 -0.08872323483228683 -0.08909725397825241 -0.1025865226984024 -0.13436472415924072 -0.1530149281024933 0.05569345876574516 -0.04873723164200783 0.028039289638400078 0.007930353283882141 0.07523985952138901 -0.1688285768032074 -0.06617971509695053 0.04181528091430664 0.14535415172576904 0.2204275131225586 -0.11635944992303848 -0.06622665375471115 0.025069257244467735 -0.058364588767290115 0.05870860069990158 -0.12455543130636215 -0.013992507010698318 -0.11469408124685287 -0.09157347679138184 0.011199229396879673 -0.1025274395942688 0.13487371802330017 -0.09232708811759949 -0.16705293953418732 -0.38424694538116455 0.03527326136827469 0.09241533279418945 -0.2936781346797943 -0.1802821308374405 0.10993221402168274 -0.025505270808935165 -0.2608163356781006 -0.2724863588809967 0.24451111257076263 0.3841230571269989 0.08518858253955841 0.025991622358560562 0.04425140842795372 -0.1434922069311142 -0.09069245308637619 -0.027018779888749123 0.1306380331516266 0.25678929686546326 0.011183008551597595 -0.2345498502254486 -0.11707619577646255 -0.06428718566894531 0.15806087851524353 0.16498741507530212 0.061394888907670975 -0.08972702920436859 -0.1673225313425064 0.034828003495931625 0.125492125749588 0.11006595194339752 0.0020034429617226124 -0.04116757959127426 -0.030795203521847725 -0.11039736121892929 -0.0345299169421196 -0.11304237693548203 -0.2672393023967743 -0.16179639101028442 -0.3290668725967407 0.16244037449359894 0.021216966211795807 -0.13630841672420502 -0.017731906846165657 -0.24869000911712646 -0.13257858157157898 0.12578698992729187 0.014521979726850986 0.1464800238609314 0.04394882172346115 0.01034632883965969 0.06899236142635345 0.07205263525247574 0.19733229279518127 0.22653073072433472 0.06705135852098465 0.14026537537574768 0.1324201077222824 -0.045468252152204514 -0.0006428305641748011 0.05420593544840813 -0.006836854387074709 -0.18520265817642212 -0.23200072348117828 -0.09675697237253189 0.15922361612319946 0.013691927306354046 -0.0161771010607481 -0.08963887393474579 -0.2516361474990845 -0.03688991069793701 0.02450941875576973 0.008721199817955494 0.0457124225795269 0.10698342323303223 -0.03115307353436947 0.0024608904495835304 0.16699542105197906 0.04740191623568535 0.031970202922821045 0.045135606080293655 0.12648621201515198 0.036446668207645416 -0.012375183403491974 0.04061484709382057 0.04672514274716377 -0.14886978268623352 -0.017465127632021904 -0.11188215017318726 -0.23066823184490204 0.027361372485756874 -0.19172625243663788 -0.18422481417655945 -0.0624348483979702 -0.15187188982963562 -0.13320225477218628 -0.14962150156497955 -0.30822527408599854 -0.12482531368732452 0.012923634611070156 -0.07661094516515732 -0.15742985904216766 -0.2377251535654068 -0.040244344621896744 0.019586734473705292 0.019627366214990616 -0.21514077484607697 0.11438392847776413 0.1336919516324997 -0.03674895316362381 0.09375769644975662 -0.042316410690546036 -0.06555197387933731 -0.05483456328511238 0.15081214904785156 0.12352650612592697 0.15623146295547485 0.22768300771713257 -0.14202336966991425 -0.15397870540618896 -0.023837922140955925 0.19960662722587585 0.1316554695367813 0.06249005347490311 0.0057106479071080685 0.1477871835231781 -0.00010879187902901322 -0.056345775723457336 -0.010156475938856602 0.1076204925775528 -0.06123395636677742 0.1281156688928604 0.021586280316114426 0.11635687202215195 0.03286058083176613 0.10649830102920532 0.050382088869810104 -0.009511137381196022 -0.21847407519817352 -0.2565059959888458 -0.06729310005903244 0.07116669416427612 0.043658021837472916 0.06533389538526535 -0.14251214265823364 -0.2601548731327057 -0.006404020357877016 -0.08423055708408356 -0.12115765362977982 0.0793696790933609 0.18558433651924133 -0.10663417726755142 0.01751798577606678 0.12700627744197845 0.08554600179195404 0.0958702564239502 0.19327642023563385 0.30823788046836853 0.1698782742023468 -0.09140746295452118 -0.1507420539855957 0.06434319913387299 -0.10623858869075775 -0.10541564971208572 0.05653340369462967 0.09431707859039307 -0.13359323143959045 -0.1931399255990982 -0.07726229727268219 0.10929073393344879 0.025356195867061615 -0.2055717557668686 -0.21771861612796783 -0.030965963378548622 0.056810762733221054 0.11088596284389496 -0.17064271867275238 -0.0406821109354496 0.0861084833741188 0.14472024142742157 0.06690781563520432 -0.2214115858078003 0.08320892602205276 0.187358096241951 0.1771754026412964 0.030719837173819542 -0.12530896067619324 -0.16362808644771576 -0.11416946351528168 0.1805507391691208 0.0879383236169815 -0.27017179131507874 -0.1548091024160385 0.09302656352519989 0.24646343290805817 0.09119952470064163 -0.2685129642486572 0.005132574588060379 0.16033244132995605 0.14385370910167694 -0.08103372156620026 -0.10443970561027527 0.060983750969171524 0.028758076950907707 0.0816563069820404 -0.14350628852844238 -0.09949056804180145 0.026103580370545387 -0.01819351129233837 0.03701880946755409 -0.19967563450336456 -0.004537377506494522 -0.08188527077436447 0.10732195526361465 0.10147180408239365 -0.01846369355916977 -0.02199604921042919 -0.019781991839408875 0.18052805960178375 0.06567463278770447 -0.12426720559597015 -0.002577761188149452 0.04622672125697136 0.06701391935348511 -0.02017071284353733 -0.10900500416755676 0.11956862360239029 0.09343457967042923 0.057686883956193924 -0.05225202441215515 -0.07272467017173767 0.12994465231895447 0.11967618018388748 0.055005501955747604 0.01907619833946228 -0.0447603240609169 -0.31629329919815063 -0.4008992314338684 -0.23946650326251984 0.10213235765695572 0.22057124972343445 -0.198287233710289 -0.26010772585868835 0.02654220350086689 0.22009627521038055 0.20088793337345123 -0.23299042880535126 -0.21640552580356598 0.22393134236335754 0.2649698257446289 0.17734462022781372 -0.35488325357437134 0.02840738743543625 0.24881139397621155 0.1246982142329216 -0.013987514190375805 -0.3207193911075592 0.1687832772731781 -0.034432750195264816 0.033841755241155624 -0.11604257673025131 0.108424611389637 -0.009449717588722706 -0.10319118201732635 -0.04991599917411804 -0.0844963937997818 0.00961362011730671 -0.0859484076499939 -0.16143648326396942 -0.07180264592170715 -0.04769357293844223 -0.08582016825675964 -0.08420435339212418 0.02513349987566471 -0.12251858413219452 -0.019816163927316666 -0.15071065723896027 -0.1371244639158249 -0.16469991207122803 0.017687562853097916 0.09354960918426514 -0.012338652275502682 -0.22811666131019592 0.0682695060968399 0.08905888348817825 0.07261461764574051 0.1379438191652298 -0.025558892637491226 -0.06920178979635239 0.051538825035095215 0.028150778263807297 -0.002749033970758319 -0.2726254463195801 0.00029280807939358056 0.14807601273059845 -0.02292907051742077 -0.2355964034795761 -0.049768202006816864 0.15986637771129608 0.04448380693793297 -0.20670968294143677 0.11125118285417557 0.12187367677688599 -0.08975400775671005 -0.1859852522611618 -0.02734515070915222 0.09124505519866943 -0.01783715933561325 -0.06808097660541534 -0.17582212388515472 -0.05020498111844063 -0.12827114760875702 -0.07470115274190903 -0.12305551767349243 -0.013198299333453178 -0.022165121510624886 0.06549309939146042 -0.16137133538722992 -0.21815280616283417 -0.08736256510019302 0.056593362241983414 0.11826793104410172 0.007916493341326714 -0.2758001387119293 -0.18153853714466095 0.2642594277858734 0.13514402508735657 0.0885823518037796 -0.05067487433552742 -0.21035107970237732 0.1460118591785431 -0.04284869134426117 0.06831470876932144 -0.07642757892608643 -0.07569378614425659 0.1358974426984787 -0.045568376779556274 -0.07961979508399963 -0.07222049683332443 0.01240504626184702 0.09366267174482346 -0.2621240019798279 -0.2537308633327484 -0.21359999477863312 0.029271569103002548 0.34981057047843933 -0.09257307648658752 -0.15125411748886108 -0.3448426425457001 -0.10726862400770187 0.42282745242118835 0.277511864900589 0.13944078981876373 -0.21827168762683868 -0.10319177806377411 0.3438892960548401 0.24869155883789062 0.12273073196411133 -0.24396073818206787 0.03144014626741409 0.21053001284599304 0.020474759861826897 0.05115952342748642 0.12585613131523132 0.09514889866113663 0.07028931379318237 -0.11367971450090408 -0.0531294047832489 -0.035676609724760056 0.2064293473958969 0.1005326434969902 0.03461560234427452 -0.20325608551502228 -0.0958251804113388 0.20073415338993073 0.15276089310646057 0.01865353249013424 -0.21082065999507904 -0.1300273835659027 0.11469846218824387 0.05086985230445862 0.09992297738790512 -0.07853896915912628 -0.07743843644857407 0.09466501325368881 0.005976340267807245 -0.039377424865961075 -0.0074655432254076 0.001641292474232614 0.0030386492144316435 -0.017143025994300842 0.019622275605797768 -0.010368159972131252 -0.07145831733942032 -0.14327014982700348 0.13956591486930847 0.036757953464984894 0.12187390774488449 0.11173074692487717 -0.3278742730617523 0.32068830728530884 0.15316201746463776 0.21260564029216766 -0.16165493428707123 -0.12155177444219589 0.3076114356517792 0.17777682840824127 0.16165317595005035 0.05219642445445061 -0.06021696701645851 0.1419621855020523 0.03142460808157921 0.09984608739614487 -0.10277771949768066 -0.03401922434568405 -0.07531686872243881 -0.025916313752532005 0.17470307648181915 0.024123424664139748 -0.06959233433008194 -0.013910985551774502 0.019259046763181686 -0.2296246588230133 -0.10151837766170502 -0.1174694150686264 -0.05296800285577774 0.15139271318912506 -0.1320096105337143 -0.28224414587020874 -0.22481948137283325 -0.13739943504333496 0.10899441689252853 0.023900102823972702 -0.2230498045682907 -0.3737126290798187 -0.017436044290661812 0.0698443204164505 0.1744760274887085 0.05891632288694382 0.017970159649848938 -0.020649394020438194 0.05868006870150566 -0.017959626391530037 -0.11856184154748917 -0.16128922998905182 0.04507547244429588 -0.020005447790026665 -0.12524279952049255 -0.2824951708316803 -0.2481633722782135 -0.0954190343618393 0.1204950287938118 0.10695425420999527 -0.1876605600118637 -0.1786048263311386 -0.15230165421962738 0.07886117696762085 -0.006696109194308519 -0.09161069989204407 -0.06848520785570145 -0.09549087285995483 