-0.02554967813193798 0.13122887909412384 -0.14708729088306427 -0.1904231160879135 -0.19128982722759247 0.1476372629404068 0.12907300889492035 0.18564894795417786 -0.09431247413158417 -0.11805221438407898 0.16012348234653473 0.21829916536808014 -0.07127851992845535 -0.17233705520629883 -0.21206647157669067 0.2570466101169586 0.3706589639186859 0.34989967942237854 -0.006739492528140545 -0.14833004772663116 0.19509312510490417 0.3094174563884735 0.21598438918590546 0.3937281370162964 0.05219724774360657 0.1275903433561325 0.3484336733818054 -0.13783860206604004 -0.18049213290214539 -0.11127428710460663 -0.09330762922763824 0.38390469551086426 0.09779822826385498 -0.03856898099184036 -0.16889113187789917 -0.40956732630729675 0.012231973931193352 0.43079447746276855 0.22072763741016388 0.03351734206080437 -0.15220391750335693 0.06085406616330147 0.3570258915424347 -0.12330316752195358 -0.27585673332214355 -0.1426885575056076 0.3225169777870178 0.3203948140144348 -0.08025132119655609 -0.10020752996206284 0.08252551406621933 0.24200065433979034 0.08659667521715164 0.021603979170322418 0.1544855833053589 -0.1516677886247635 0.12625005841255188 -0.07491333782672882 -0.08253087103366852 -0.044479310512542725 0.11105712503194809 0.14793500304222107 0.02150799334049225 0.17817378044128418 0.1686398684978485 -0.007465752772986889 0.10755994915962219 0.1769254505634308 0.30739060044288635 0.3157431483268738 -0.23526789247989655 -0.09725040942430496 -0.0025833549443632364 0.16000895202159882 0.1655629575252533 0.2251148372888565 0.20047593116760254 0.041035331785678864 0.16360507905483246 -0.20124544203281403 -0.05520930141210556 0.3375887870788574 0.2819477915763855 -0.25127965211868286 -0.25047239661216736 0.156693696975708 0.24193042516708374 0.04507901519536972 -0.1477223038673401 -0.5504665374755859 0.2004922479391098 0.22888655960559845 0.09301555901765823 -0.21378228068351746 -0.534811794757843 0.035753391683101654 0.23061996698379517 -0.0022317892871797085 -0.2592931389808655 -0.14416970312595367 0.2355877310037613 0.194925457239151 -0.08316431194543839 -0.17845402657985687 -0.38274869322776794 0.03350720554590225 -0.10331543534994125 -0.0721193477511406 0.04111715033650398 0.06909447908401489 -0.042030323296785355 0.3106423616409302 0.20188266038894653 0.4188137352466583 0.3576667308807373 -0.22659967839717865 0.02270091325044632 0.15686634182929993 0.10516566783189774 0.19053252041339874 -0.04901392385363579 -0.17603148519992828 -0.36740642786026 -0.2564827799797058 -0.3892460763454437 -0.07052071392536163 -0.26962414383888245 -0.4723731577396393 -0.32831302285194397 -0.17694786190986633 -0.05041155591607094 -0.17248661816120148 -0.28255540132522583 0.16337120532989502 0.30781152844429016 0.06110434979200363 0.04599648714065552 0.17055869102478027 0.3521323800086975 0.28558993339538574 0.3598041534423828 0.3954657316207886 0.44989025592803955 0.21903470158576965 -0.09866183251142502 0.01546240970492363 0.3725239634513855 0.16762803494930267 -0.015810314565896988 -0.24471956491470337 