-0.1870235800743103 0.04433327913284302 0.14369940757751465 -0.039251793175935745 -0.1730090230703354 -0.17432396113872528 -0.04670795798301697 -0.021325159817934036 -0.18127962946891785 -0.10593362897634506 -0.04763593524694443 -0.014071916230022907 -0.07073836028575897 -0.022144006565213203 0.12598004937171936 0.15894530713558197 -0.0442134365439415 -0.010802460834383965 -0.009921584278345108 0.05379856750369072 -0.07897169142961502 0.0052185761742293835 -0.10496413707733154 -0.007092110347002745 0.08770985901355743 0.19662845134735107 0.08187291771173477 0.01995861902832985 0.08690755069255829 0.10588450729846954 -0.043370071798563004 -0.0019004890928044915 0.14619970321655273 0.02265966683626175 0.08427848666906357 -0.2859741151332855 -0.16369490325450897 -0.06427405774593353 -0.05199063569307327 0.10375490039587021 -0.19105984270572662 -0.024011336266994476 -0.08564450591802597 -0.11551158130168915 -0.008092011325061321 -0.10478955507278442 -0.012562993913888931 0.04405706003308296 -0.06294780969619751 0.0887058898806572 0.09195857495069504 0.04197891056537628 -0.02990042418241501 -0.12236155569553375 -0.002326389541849494 -0.04418417438864708 0.08696623146533966 0.17034271359443665 0.005388292483985424 -0.017220906913280487 -0.11254860460758209 0.053228363394737244 -0.00734321866184473 0.007929479703307152 0.026165559887886047 -0.03894457966089249 -0.06647387146949768 -0.10740802437067032 0.03215116634964943 0.0198209248483181 -0.035728465765714645 -0.06275035440921783 0.023212771862745285 0.028919273987412453 0.10466717928647995 -0.014649648219347 -0.028058402240276337 -0.02218051813542843 -0.01598777435719967 0.157541424036026 0.1011233702301979 -0.15678860247135162 -0.004939018748700619 0.0363936573266983 0.16487962007522583 0.12984414398670197 0.06488518416881561 -0.025873146951198578 0.0023416546173393726 0.2530663311481476 0.07813338935375214 0.09020578861236572 -0.046809811145067215 0.046306028962135315 0.05873267725110054 -0.07798327505588531 0.03572358936071396 0.04762950539588928 -0.011241729371249676 0.0043081482872366905 0.02972429431974888 0.02290630340576172 -0.08815836161375046 0.07796570658683777 -0.026898451149463654 -0.023326339200139046 -0.01212216354906559 -0.026281051337718964 -0.05554785951972008 0.014531170018017292 -0.11470266431570053 -0.026416612789034843 -0.0778355672955513 0.10313763469457626 -0.030194075778126717 0.011131738312542439 -0.056803908199071884 -0.14324070513248444 0.054132841527462006 0.05475875735282898 -0.05678015947341919 0.02853800728917122 0.08843445032835007 0.0015713039319962263 0.04244404658675194 0.021517310291528702 -0.01406289916485548 0.030322080478072166 -0.03561631217598915 -0.04178094118833542 0.15130139887332916 -0.06095222383737564 -0.0851132869720459 0.07457972317934036 0.12451052665710449 0.10262435674667358 0.01080807764083147 -0.056117016822099686 -0.042617592960596085 -0.002750959014520049 -0.07482320070266724 0.020169170573353767 -0.09080564975738525 -0.14541982114315033 0.0324590690433979 -0.01423607300966978 -0.052999354898929596 -0.053015757352113724 -0.04049114137887955 0.13585858047008514 0.02969028428196907 0.11417431384325027 -0.14307549595832825 -0.026572393253445625 -0.11341004818677902 -0.042515262961387634 -0.04084836319088936 0.012621071189641953 -0.07287432253360748 -0.1627572923898697 0.0837923213839531 0.30194419622421265 0.058440931141376495 -0.20817160606384277 -0.0893203616142273 0.024153932929039 0.3020120859146118 0.09113273024559021 -0.026201440021395683 -0.04234829917550087 -0.07111537456512451 -0.09825871884822845 0.1296858936548233 -0.09412779659032822 0.005535310134291649 0.04544602707028389 0.05286257341504097 -0.03862284496426582 -0.0451510027050972 -0.03785053268074989 0.15631970763206482 0.09695371985435486 -0.11651204526424408 -0.028346681967377663 -0.05075693503022194 0.056840602308511734 0.017756525427103043 0.020962407812476158 -0.03613601624965668 -0.033632222563028336 -0.006017095409333706 0.004104183055460453 0.1181543618440628 -0.05463077500462532 0.03278600424528122 0.09217914938926697 -0.040976397693157196 0.021759267896413803 -0.03130694478750229 0.044408757239580154 0.02111642062664032 0.17382961511611938 0.10115918517112732 0.060762446373701096 0.020655570551753044 -0.017534682527184486 0.06266547739505768 0.10099652409553528 0.049223244190216064 0.10178843885660172 -0.07065664231777191 0.007329409476369619 0.046281930059194565 -0.06641039997339249 -0.0843171626329422 0.05639595538377762 -0.04606151580810547 -0.06295164674520493 0.021608632057905197 -0.03751475363969803 -0.05809352546930313 -0.0411139614880085 -0.04098078981041908 0.02081657387316227 -0.07477802783250809 0.06872336566448212 0.0631575658917427 0.016605254262685776 0.07888522744178772 -0.08658428490161896 -0.09328711777925491 0.13272497057914734 -0.050137996673583984 -0.08521338552236557 -0.06823984533548355 -0.2238619029521942 -0.01095496490597725 0.10921108722686768 -0.026433659717440605 -0.0883805975317955 -0.14234434068202972 0.06273673474788666 0.016417361795902252 -0.05783071368932724 -0.07998126745223999 -0.18822607398033142 -0.08167605102062225 -0.041003599762916565 -0.046461623162031174 0.02268148772418499 -6.150864919618471e-07 0.07042654603719711 0.05912023037672043 -0.022601844742894173 -0.12546348571777344 -0.047236017882823944 0.07037227600812912 0.04675470292568207 0.10939732193946838 0.04556926339864731 -0.03926451876759529 -0.0019099320052191615 -0.10972050577402115 -0.17489323019981384 -0.1713539958000183 -0.08954544365406036 -0.008258385583758354 0.034086670726537704 -0.00145524216350168 -0.12273243069648743 -0.03271004185080528 -0.01890454813838005 -0.01595349982380867 0.027684208005666733 -0.0891394391655922 -0.054387252777814865 0.03614848852157593 0.05662450194358826 0.13337042927742004 0.11179662495851517 -0.11701653897762299 0.03182704746723175 0.19505241513252258 0.2421841025352478 0.12236220389604568 0.08105169981718063 -0.0019172168103978038 0.02843940444290638 0.06179220229387283 0.05403304100036621 0.020947232842445374 0.08538077771663666 -0.05796300619840622 -0.06319629400968552 0.010126623325049877 -0.0885731652379036 0.010887584649026394 -0.002938774647191167 0.0092359883710742 -0.19695857167243958 -0.14302119612693787 -0.09196922928094864 -0.033464930951595306 -0.25107458233833313 -0.1676710844039917 -0.11828604340553284 -0.07106605172157288 0.11697149276733398 -0.04731239378452301 -0.060405489057302475 -0.12663967907428741 0.05418749153614044 0.11621864140033722 0.031094079837203026 -0.0041875108145177364 0.14319217205047607 -0.07121462374925613 0.07085219770669937 -0.09100449085235596 -0.028206074610352516 0.0004820395552087575 0.03191007673740387 -0.12725886702537537 0.029342005029320717 0.04634929075837135 0.07743299007415771 0.07438763231039047 0.03768043592572212 0.09140022844076157 0.06009455397725105 0.05748525634407997 0.062211453914642334 0.04657699540257454 0.05671035870909691 0.08583404123783112 -0.12682639062404633 -0.032292116433382034 -0.07168346643447876 0.08786407858133316 -0.04729067534208298 -0.1452358216047287 -0.09197594970464706 -0.017341874539852142 0.006344348657876253 -0.010260437615215778 -0.006075737066566944 -0.08779414743185043 0.023464351892471313 -0.1360875964164734 -0.06657800823450089 0.1578289270401001 0.060060445219278336 0.00038537729415111244 -0.1249343752861023 -0.011356431059539318 0.1467941254377365 0.09041653573513031 -0.09409717470407486 -0.0762903168797493 -0.10676729679107666 0.14858309924602509 0.07455214112997055 -0.1430608630180359 -0.05294910818338394 0.09906205534934998 0.11710960417985916 0.09220174700021744 -0.09357155859470367 -0.06582469493150711 0.11657379567623138 -0.07258601486682892 -0.01580635830760002 -0.05788339301943779 0.029329361394047737 0.17275449633598328 0.03629188612103462 -0.10198266059160233 -0.1768612563610077 -0.19326317310333252 0.011307407170534134 0.13622625172138214 -0.0255739726126194 0.10807319730520248 0.04004718363285065 0.13810940086841583 0.11604195833206177 -0.03607659786939621 0.08862728625535965 0.1523820459842682 0.09212014079093933 0.09885610640048981 -0.07917395979166031 -0.05077255144715309 -0.011492381803691387 -0.05346575006842613 -0.03153275325894356 0.05281290039420128 0.06122807785868645 -0.042090706527233124 -0.06741885095834732 -0.060662154108285904 -0.009823295287787914 0.03683660179376602 -0.004701287019997835 0.029880201444029808 -0.03864474967122078 -0.01158783957362175 0.038666870445013046 -0.0056663076393306255 0.057100798934698105 -0.07082348316907883 -0.0761275365948677 -0.08256823569536209 0.0014665784547105432 0.004172205924987793 -0.05755886808037758 -0.007263468578457832 0.04509347304701805 0.018336189910769463 -0.013568451628088951 0.0176890566945076 -0.06110687181353569 0.004246089141815901 -0.04426317289471626 0.01375932153314352 -0.040468938648700714 -0.03382754325866699 -0.06990602612495422 -0.06145958974957466 -0.033746473491191864 -0.014613977633416653 0.009508945047855377 0.0007329871295951307 -0.03005385771393776 -0.019942911341786385 0.005495384801179171 0.029720600694417953 -0.044618088752031326 -0.00424996530637145 -0.022884812206029892 -0.04035825654864311 0.0073358057998120785 -0.05734570696949959 0.008156183175742626 0.039554327726364136 -0.04811300337314606 -0.018876411020755768 0.03767811134457588 -0.037692997604608536 0.022715646773576736 -0.013288293965160847 -0.03160795569419861 0.005518508609384298 -0.03465408459305763 0.012961132451891899 -0.040312591940164566 -0.028618723154067993 -0.027310851961374283 -0.003379155183210969 -0.0084140719845891 -0.016863014549016953 -0.05373399704694748 -0.07472655922174454 0.03713943436741829 -0.040255673229694366 -0.021917087957262993 0.021187834441661835 -0.04006044194102287 -0.019386447966098785 -0.015695728361606598 -0.008467399515211582 -0.03812239691615105 -0.021065615117549896 -0.04132881388068199 0.04789397865533829 -0.025663141161203384 -0.08678687363862991 -0.06671562045812607 -0.018051277846097946 0.08219513297080994 -0.05499939247965813 -0.039243873208761215 0.021380379796028137 -0.005794044118374586 0.06984617561101913 -0.002092518610879779 -0.08497876673936844 -0.02410469762980938 0.011023351922631264 -0.03611360862851143 0.010790858417749405 -0.057159312069416046 -0.04414978250861168 -0.010608131997287273 0.02891862951219082 -0.013927174732089043 -0.015303987078368664 -0.012620685622096062 0.007472662255167961 0.013007258996367455 0.015101227909326553 0.01329661812633276 -0.10392633080482483 -0.006049635820090771 0.04195839911699295 -0.052849896252155304 -0.02510240115225315 -0.039406657218933105 -0.019880522042512894 0.044301241636276245 -0.03073977865278721 -0.022508442401885986 -0.03160646930336952 0.012568977661430836 0.009569675661623478 -0.04632411152124405 -0.06651917099952698 0.03648572042584419 -0.030578577890992165 0.010501399636268616 0.020610203966498375 0.006572694517672062 -0.06274022907018661 -0.008590887300670147 -0.029270634055137634 -0.022238237783312798 -0.049569129943847656 0.011809744872152805 -0.09512237459421158 0.038976166397333145 -0.017387468367815018 -0.035959091037511826 0.015103911980986595 -0.05256029590964317 -0.047217585146427155 0.028321856632828712 -0.029594991356134415 -0.012726916931569576 -0.0803767740726471 -0.04702660068869591 -0.009732257574796677 -0.02161969058215618 -0.00013321911683306098 -0.08202574402093887 -0.011449032463133335 -0.008482550270855427 0.027014030143618584 -0.08689075708389282 0.01780434511601925 0.0039102486334741116 -0.028129052370786667 -0.056578706949949265 0.0008108452893793583 -0.0693734735250473 -0.008095995523035526 -0.020999928936362267 0.10302972048521042 0.03614635765552521 -0.054621197283267975 -0.02801770344376564 -0.014179602265357971 -0.018454160541296005 0.018585236743092537 0.02389656938612461 -0.010974991135299206 -0.04136371612548828 0.00031065900111570954 0.015177433378994465 -0.05691830441355705 0.01330859400331974 -0.01727822795510292 0.010956989601254463 -0.04677169770002365 -0.07174704968929291 -0.0583655908703804 0.0048212152905762196 -0.10436657816171646 -0.0856781080365181 -0.021213140338659286 -0.016785092651844025 -0.07392683625221252 -0.06952265650033951 -0.042194709181785583 -0.02225000597536564 0.011416800320148468 0.008995178155601025 -0.06254357099533081 -0.09566281735897064 -0.003205027896910906 -0.04615381360054016 -0.023720132187008858 0.019065657630562782 -0.034725919365882874 0.014223025180399418 -0.011325240135192871 -0.042068012058734894 -0.027288123965263367 0.0003056323912460357 -0.061207156628370285 -0.03817562013864517 -0.002374689793214202 -0.056591760367155075 0.014989450573921204 -0.030935099348425865 0.010846530087292194 -0.01100796740502119 -0.016587166115641594 -0.09341280907392502 -0.02194320037961006 0.02493840456008911 -0.08085082471370697 -0.01319777313619852 -0.024598531424999237 0.010058686137199402 -0.036488261073827744 -0.023678019642829895 -0.04350009560585022 -0.030703464522957802 0.002442601602524519 -0.05917869508266449 0.042163778096437454 0.02394149638712406 0.002400157507508993 0.0145258828997612 -0.026972340419888496 0.012158491648733616 -0.009210639633238316 -0.07898475229740143 -0.02753783017396927 -0.04854801669716835 -0.016099032014608383 -0.0660371482372284 0.05941077694296837 -0.02408841997385025 -0.038658540695905685 -0.06362124532461166 0.007828298956155777 0.008907102979719639 0.016334442421793938 0.04444590583443642 -0.06484374403953552 -0.03646685928106308 -0.0502919927239418 -0.046333249658346176 -0.0062761567533016205 -0.03086310438811779 0.01888648420572281 0.0335267037153244 -0.05112531781196594 0.029721520841121674 0.00023451820015907288 -0.011642242781817913 -0.05854807049036026 -0.056245751678943634 0.0025852336548268795 -0.010977297089993954 -0.0014216545969247818 -0.007719899993389845 0.0004392496484797448 0.023971334099769592 0.00012739603698719293 -0.06572972983121872 -0.018634064123034477 -0.08383144438266754 -0.08626370877027512 0.02816976048052311 0.002445158315822482 -0.033764321357011795 -0.023396918550133705 -0.03933711722493172 -0.007349554914981127 0.003095229621976614 0.005155651364475489 -0.07779118418693542 -0.06995164602994919 0.02996719814836979 -0.01989513635635376 -0.003195091150701046 0.06498127430677414 0.04248794913291931 -0.0754564180970192 -0.09181076288223267 -0.00668406393378973 0.026911480352282524 -0.0014088460011407733 -0.1072351336479187 -0.09875117242336273 -0.0661856010556221 -0.04156738519668579 -0.029557788744568825 -0.0236516073346138 -0.06740323454141617 0.036144718527793884 0.016459871083498 -0.0985320657491684 -0.02600821480154991 -0.057771533727645874 -0.01761149987578392 -0.04217812046408653 -0.009374016895890236 -0.019496891647577286 -0.08495009690523148 6.603483780054376e-05 -0.022625908255577087 -0.08467017114162445 -0.012503612786531448 -0.031309086829423904 0.0012473820243030787 -0.043815989047288895 0.0020324625074863434 -0.07962411642074585 0.029995914548635483 -0.05228191241621971 -0.0755777433514595 0.005448144860565662 -0.09219469130039215 -0.01599249430000782 -0.08022061735391617 0.01702968031167984 0.022487638518214226 0.01007583923637867 -0.020067112520337105 0.01085202768445015 0.022701777517795563 -0.10575582832098007 -0.01508245151489973 -0.04645285755395889 0.01131728757172823 -0.05477040633559227 0.025586271658539772 -0.041508812457323074 -0.04173177480697632 0.01638583093881607 0.05276115983724594 -0.033082570880651474 0.011248120106756687 0.04372341185808182 0.060455866158008575 -0.03691054880619049 0.020627029240131378 -0.0022615930065512657 0.008176851086318493 -0.006073198281228542 -0.04381028562784195 -0.01889011636376381 0.0011736799497157335 0.02949201874434948 -0.06414691358804703 0.05942393094301224 -0.013210964389145374 -0.04601716995239258 0.013557163067162037 0.0035706160124391317 -0.0470687672495842 0.07182376086711884 -0.058449216187000275 -0.057327501475811005 -0.06324209272861481 -0.013851690106093884 0.07785401493310928 0.006910261232405901 -0.07582080364227295 -0.080658920109272 -0.04538706690073013 -0.006270887795835733 -0.01613045111298561 -0.03640911355614662 -0.06729109585285187 0.017122695222496986 -0.031169483438134193 -0.015340622514486313 -0.09683533757925034 -0.10437321662902832 -0.05099986866116524 -0.039879243820905685 -0.006642750930041075 -0.07971594482660294 0.025720790028572083 0.024600105360150337 -0.006412938237190247 -0.0324719101190567 -0.016149448230862617 0.04078805819153786 0.0367603562772274 -0.008134392090141773 0.020296823233366013 -0.020577391609549522 0.03757745400071144 -0.059336766600608826 -0.019398322328925133 -0.044131889939308167 -0.08942060172557831 -0.03190317004919052 -0.06124703958630562 -0.004218653310090303 -0.03406344726681709 -0.06984687596559525 -0.030607661232352257 -0.03374635428190231 -0.07214469462633133 -0.2507764399051666 -0.19288617372512817 -0.024069655686616898 0.06330764293670654 0.0508483424782753 0.020505616441369057 -0.017963405698537827 0.07572514563798904 0.01131346169859171 0.04230187460780144 0.06340956687927246 -0.017407262697815895 0.029936356469988823 -0.05068744346499443 -0.014714903198182583 -0.09750641882419586 -0.13359007239341736 -0.03602771461009979 -0.07145541161298752 0.05790278688073158 -0.09470313787460327 0.058613453060388565 0.13447274267673492 0.029529202729463577 -0.02096770703792572 0.03192942216992378 -0.0049828034825623035 0.027285458520054817 0.05412733182311058 0.06209537386894226 -0.11096494644880295 0.016818325966596603 -0.016740094870328903 0.02442466840147972 0.11283811926841736 0.008532436564564705 -0.061233196407556534 -0.14741750061511993 -0.04758317023515701 -0.08199039846658707 -0.04132940620183945 0.08762141317129135 -0.06105383485555649 0.0035593181382864714 -0.009052319452166557 0.03506246209144592 -0.05575323477387428 0.0003811138740275055 0.07416986674070358 -0.18207430839538574 -0.14545273780822754 -0.25578999519348145 -0.0146607905626297 0.06309250742197037 0.007438307628035545 0.06185121461749077 0.04094276949763298 0.11259368062019348 0.004644548054784536 0.04211793839931488 0.02470206841826439 -0.14089050889015198 -0.10809051245450974 -0.05022687837481499 -0.02068583108484745 -0.3011612892150879 -0.15979036688804626 -0.146756112575531 -0.04407303407788277 0.00407063215970993 0.0544733926653862 0.06178990751504898 -0.024653036147356033 -0.04128747805953026 -0.004361729137599468 -0.030285857617855072 0.007067525293678045 0.053856343030929565 0.012834973633289337 0.09769201278686523 -0.04743592068552971 -0.0013771946541965008 -0.03472868725657463 0.008012169040739536 -0.024142762646079063 0.0469745472073555 -0.08177787065505981 -0.08984383940696716 -0.019090335816144943 0.06774814426898956 0.02197536639869213 -0.04427925497293472 0.026600921526551247 -0.10410571843385696 0.033247098326683044 0.007388316560536623 0.047813642770051956 0.19065116345882416 -0.02662518247961998 -0.05802756920456886 -0.14613698422908783 -0.03716764971613884 -0.01656312681734562 -0.04151222109794617 0.025517573580145836 -0.11784213036298752 -0.02694047801196575 -0.038506392389535904 -0.011640484444797039 -0.0453135222196579 -0.10873598605394363 -0.11897047609090805 0.006959862075746059 -0.1265024095773697 -0.1953992396593094 -0.05840860679745674 -0.146621972322464 -0.1591218262910843 -0.15908530354499817 -0.08883347362279892 -0.008684104308485985 -0.162204772233963 -0.008968438021838665 0.03344770148396492 -0.07753491401672363 -0.014505547471344471 -0.03372395038604736 0.03295362368226051 0.0673767700791359 0.057663653045892715 -0.061242327094078064 -0.06402798742055893 -0.09679675847291946 0.12828929722309113 0.07202735543251038 -0.022296041250228882 -0.056597065180540085 0.00302432500757277 -0.037248097360134125 0.058962032198905945 -0.07358952611684799 -0.018174052238464355 0.0716942697763443 -0.0034815215039998293 -0.08215678483247757 -0.016109630465507507 0.040352851152420044 0.10662227869033813 -0.0028262734413146973 -0.044960830360651016 -0.029914844781160355 0.2296644002199173 0.38306695222854614 0.19999153912067413 -0.014613425359129906 0.07908756285905838 0.36599940061569214 0.07617959380149841 -0.055323775857686996 -0.08117382973432541 -0.16592037677764893 0.23000206053256989 -0.10834220796823502 -0.1253582090139389 -0.04971637949347496 -0.05063704028725624 0.05400708317756653 0.014242375269532204 0.01161960233002901 0.10780512541532516 -0.027165785431861877 0.04929869621992111 0.04839928075671196 0.11310973763465881 0.043312106281518936 0.05935933440923691 -0.0022571738809347153 0.0899214968085289 0.06782876700162888 -0.017428956925868988 0.10724318027496338 0.04706263914704323 0.05890606343746185 -0.003931990824639797 0.05286846309900284 -0.0051210373640060425 0.05493076145648956 -0.05056242272257805 -0.02475545182824135 -0.033808596432209015 -0.08158697187900543 0.17257405817508698 0.03751039132475853 0.06091412529349327 0.012562518008053303 -0.04706471413373947 -0.027890285477042198 -0.08907713741064072 -0.010030408389866352 0.0017242894973605871 -0.17147080600261688 -0.20602038502693176 -0.2586432695388794 -0.10618232190608978 0.277359277009964 -0.08077342808246613 -0.04028572514653206 0.020357895642518997 0.0446317233145237 0.032771285623311996 -0.005734181497246027 -0.17106932401657104 -0.2606205940246582 -0.20822741091251373 -0.14513836801052094 -0.16149568557739258 -0.152903214097023 -0.26641935110092163 -0.10388408601284027 -0.09884332120418549 0.023710574954748154 0.05102638527750969 0.10023363679647446 0.06323212385177612 -0.06178160011768341 0.0022128275595605373 -0.01567128673195839 0.10157665610313416 0.13805072009563446 -0.03530865162611008 0.05991772562265396 0.21554961800575256 0.23478250205516815 0.01880982704460621 -0.003615736495703459 -0.13392077386379242 -0.06686481833457947 -0.0970035120844841 -0.08276987075805664 -0.019473779946565628 0.06052045151591301 0.12313063442707062 0.04746497794985771 0.05545694753527641 0.020991036668419838 0.06655574589967728 -0.039725713431835175 0.24147863686084747 -0.01636103168129921 0.071186862885952 -0.11706557869911194 -0.16453757882118225 -0.06903878599405289 -0.047354817390441895 -0.003796699456870556 0.05162624642252922 -0.05928964912891388 0.08893236517906189 0.20247456431388855 0.05327307805418968 0.10930875688791275 -0.12595592439174652 -0.33287081122398376 -0.3228665590286255 -0.2358281910419464 0.000756586086936295 -0.12304163724184036 -0.08042284846305847 0.013877213932573795 -0.10577942430973053 0.11503884196281433 0.08724918961524963 0.0736333429813385 0.046210091561079025 0.052421025931835175 -0.19311624765396118 -0.049947574734687805 -0.0644269585609436 -0.02923646941781044 0.02000807784497738 0.032025568187236786 -0.09928397089242935 -0.15581054985523224 0.06891467422246933 0.11957225948572159 -0.028799057006835938 -0.23734228312969208 -0.18557590246200562 -0.054140374064445496 -0.013543476350605488 -0.09144643694162369 -0.08339196443557739 -0.07963825762271881 0.047006864100694656 -0.04135211929678917 0.09291631728410721 0.03378855064511299 0.12125538289546967 0.13106118142604828 -0.014970804564654827 -0.11543939262628555 -0.01664847321808338 0.35030949115753174 0.01585996337234974 -0.052519287914037704 0.07441794872283936 0.229998379945755 0.1234721913933754 0.04190799966454506 -0.0037689306773245335 -0.13859283924102783 -0.028881138190627098 0.12047211825847626 0.12384600192308426 0.10910163819789886 -0.00015151183470152318 -0.09472225606441498 -0.058473892509937286 -0.022287823259830475 0.006935152690857649 -0.05289391428232193 -0.026220545172691345 -0.11376039683818817 0.07997234910726547 -0.04069330915808678 -0.055391523987054825 -0.0878463163971901 -0.10491809248924255 0.08749453723430634 0.07091487944126129 -0.022867096588015556 0.11005611717700958 0.03391524776816368 0.06841407716274261 0.047173190861940384 0.038657162338495255 -0.19015879929065704 -0.19221533834934235 -0.08495209366083145 0.008438064716756344 -0.026688385754823685 -0.09509105980396271 -0.048341184854507446 0.0014347060350701213 -0.0964951366186142 0.06950732320547104 -0.06771776080131531 -0.18252556025981903 -0.2010902613401413 -0.01991516910493374 0.11045009642839432 0.09421125054359436 0.009976583532989025 0.022918054834008217 0.06303087621927261 0.09856962412595749 0.060008831322193146 0.029162777587771416 0.08587116748094559 0.006902533117681742 0.04205431044101715 0.0743941143155098 0.034470684826374054 0.1401488333940506 0.010685085318982601 0.06927648931741714 0.06157883629202843 0.044945504516363144 0.11398568004369736 0.024516452103853226 0.03007137030363083 0.050211966037750244 0.03634754568338394 0.014804254285991192 -0.07631710916757584 0.11724770814180374 0.051028843969106674 0.08463498950004578 -0.07262381166219711 -0.062068335711956024 0.027322307229042053 0.04027329385280609 0.023723887279629707 0.0788654163479805 0.033965785056352615 -0.015264184214174747 0.03066670335829258 -0.04217260330915451 0.09311078488826752 0.024779440835118294 0.017219258472323418 0.06848347187042236 -0.07385712116956711 -0.08092235773801804 -0.0013368107611313462 -0.04102860018610954 0.004078041762113571 -0.012661845423281193 0.03541591390967369 -0.1485595554113388 -0.15202252566814423 -0.02591894194483757 -0.02465500682592392 0.16723400354385376 0.2409011423587799 -0.18316204845905304 -0.013760528527200222 -0.07813014835119247 -0.03961263597011566 0.11925771087408066 -0.049195948988199234 0.02111048437654972 -0.09178178757429123 -0.07308145612478256 -0.12641513347625732 0.08330315351486206 0.014653405174612999 0.12020139396190643 0.12853243947029114 0.026672374457120895 0.06277339905500412 0.05872408673167229 -0.01585344970226288 0.04292437434196472 -0.014700026251375675 -0.00550584914162755 -0.11283958703279495 0.03919928893446922 0.027084531262516975 -0.004876980558037758 -0.0010154672199860215 0.0022693383507430553 -0.034408435225486755 0.08502348512411118 0.17618444561958313 -0.0005361300427466631 -0.016351565718650818 0.06060590595006943 0.02846779115498066 0.00796192791312933 -0.03754221647977829 -0.01054645236581564 0.11052123457193375 -0.09064053744077682 -0.2037384957075119 0.039729341864585876 0.09610146284103394 0.010868481360375881 0.03153139352798462 -0.005506740417331457 -0.09930906444787979 0.059739597141742706 0.09266836941242218 -0.07643520087003708 -0.09022047370672226 -0.12532122433185577 -0.009150588884949684 0.09829799830913544 0.0012919952860102057 0.09356898814439774 -0.1830729991197586 0.07892616838216782 -0.0019542821682989597 -0.004002759698778391 0.16788290441036224 -0.01940711960196495 -0.11468047648668289 0.002088586799800396 -0.0249168761074543 -0.11589279770851135 -0.022452471777796745 -0.04474141448736191 0.017790058627724648 -0.002416179282590747 -0.16803209483623505 0.02604852430522442 0.02055005542933941 -0.08849157392978668 -0.11958295851945877 0.03439204767346382 0.008088360540568829 -0.0015776704531162977 0.02847917750477791 -0.015132371336221695 -0.09827753901481628 0.07030601799488068 -0.0051257493905723095 0.09502235800027847 0.05848759785294533 -0.02399325929582119 0.04216836392879486 0.030147245153784752 -0.04075884446501732 -0.004572918172925711 0.01514226570725441 0.08815162628889084 0.08471518754959106 -0.102852463722229 -0.04024450480937958 -0.05990440398454666 -0.07515724748373032 -0.05657973885536194 -0.05898180976510048 0.10524749010801315 0.12904712557792664 -0.053820718079805374 -0.09431532770395279 -0.12004031240940094 -0.0018126575741916895 0.06774479150772095 -0.07733885943889618 -0.07052850723266602 -0.09079263359308243 0.021194307133555412 -0.0058167013339698315 -0.01978045143187046 0.06884175539016724 -0.08108759671449661 -0.029493441805243492 -0.005833792500197887 0.04323270171880722 0.031327422708272934 -0.029045674949884415 -0.08347190916538239 -0.20834581553936005 -0.04089907184243202 0.019107555970549583 -0.08422980457544327 -0.01350031141191721 -0.13171757757663727 0.0638166293501854 0.04218658432364464 -0.014264673925936222 0.008977826684713364 0.06155063211917877 0.03459978103637695 0.11165808141231537 -0.012198587879538536 0.01791069470345974 0.09732034802436829 0.09052901715040207 0.0423746332526207 -0.04457320645451546 0.0068155271001160145 -0.016569698229432106 -0.08828556537628174 -0.0006241020746529102 -0.024155976250767708 -0.033398211002349854 -0.05580735206604004 0.03044607862830162 0.14437082409858704 0.0066866460256278515 -0.04636933282017708 0.03506919741630554 0.15164676308631897 0.041735000908374786 -0.0835510641336441 0.020236589014530182 -0.062430888414382935 0.07125354558229446 0.09470749646425247 -0.0026931066531687975 -0.04100256785750389 -0.05660911276936531 0.016997147351503372 -0.0362100750207901 -0.15320874750614166 -0.029091116040945053 0.02676239050924778 0.00839958805590868 -0.22494065761566162 0.15399719774723053 0.11674326658248901 -0.0074888733215630054 0.06685001403093338 0.0021157420706003904 -0.008329111151397228 -0.062072061002254486 -0.008732604794204235 0.00992377195507288 0.10060720145702362 0.044871363788843155 -0.08305320143699646 0.09553027898073196 0.07751062512397766 0.0189527478069067 0.023797709494829178 -0.06444864720106125 0.06761602312326431 -0.004177400376647711 0.035058919340372086 0.06479275226593018 0.004639404360204935 0.0678352415561676 -0.08824949711561203 -0.013688267208635807 0.1073075458407402 0.006912732031196356 -0.023973647505044937 -0.14128200709819794 -0.15249103307724 0.075347900390625 0.1257207840681076 0.2865072786808014 -0.2274547517299652 -0.11394000053405762 0.020687798038125038 0.10424846410751343 0.21195979416370392 -0.07087279111146927 -0.058603473007678986 0.025267714634537697 0.0696018636226654 -0.22955718636512756 0.0830562561750412 -0.07123510539531708 -0.057792436331510544 0.010172896087169647 -0.19693677127361298 0.0504375621676445 0.055226705968379974 -0.002905444009229541 -0.10540041327476501 -0.1356268972158432 -0.06680003553628922 0.05480567365884781 0.10281355679035187 -0.010112863034009933 -0.03892841190099716 0.1240614503622055 0.13776187598705292 0.008486256934702396 -0.025064129382371902 -0.07202274352312088 -0.017998632043600082 0.04398702085018158 0.05548746511340141 -0.05072256177663803 -0.04241989552974701 -0.03573441132903099 0.10329743474721909 -0.01058825384825468 0.08853331953287125 0.06323906034231186 0.028609860688447952 0.11739234626293182 -0.029204636812210083 0.1639963835477829 0.0022168655414134264 -0.07501423358917236 -0.07980372756719589 -0.006616008467972279 0.07088857889175415 0.10711034387350082 -0.16275744140148163 -0.08406946808099747 0.04186337813735008 0.0733431801199913 0.01204585563391447 0.03784477338194847 -0.17684414982795715 0.04440862312912941 -0.06208935007452965 -0.05857539176940918 0.13015379011631012 0.005050832871347666 -0.09019345045089722 -0.24351061880588531 -0.17472918331623077 -0.0025908094830811024 0.032855790108442307 -0.023983769118785858 -0.18339119851589203 -0.14038312435150146 -0.15037766098976135 -0.128927543759346 -0.04960021376609802 0.08460739254951477 0.011011824943125248 -0.16065713763237 -0.0748402550816536 0.08306621015071869 -0.0023963202256709337 0.11499898880720139 0.109294094145298 -0.09625428915023804 -0.028031596913933754 -0.01783054880797863 -0.0855705663561821 0.16734203696250916 0.031047876924276352 -0.13018503785133362 -0.10143499821424484 -0.1470125913619995 0.05777963250875473 0.03151896595954895 -0.08006619662046432 -0.18070466816425323 -0.2316799759864807 -0.052081428468227386 0.1165463924407959 0.014848221093416214 -0.05000252649188042 -0.0048219277523458 -0.03434215858578682 0.02919541858136654 0.0760539248585701 -0.09253229200839996 0.030539339408278465 -0.1346302181482315 0.08365391194820404 0.021711761131882668 -0.02326487936079502 0.15537497401237488 0.09815844148397446 -0.052406225353479385 0.005025207065045834 0.1447928547859192 0.0479055754840374 0.1107957661151886 -0.026369480416178703 0.07892770320177078 0.05434396490454674 0.02284836582839489 -0.11044128984212875 -0.10391919314861298 0.0386539101600647 0.00800502859055996 0.035597000271081924 -0.08316179364919662 -0.058189306408166885 0.05043806880712509 0.04690761864185333 0.0035735603887587786 0.020296476781368256 -0.08656289428472519 -0.0464620441198349 0.05077685788273811 -0.04897298291325569 0.003750447416678071 0.08748488128185272 0.07378049939870834 0.00811222568154335 -0.07791030406951904 0.12680186331272125 0.08002699166536331 0.08902920037508011 -0.055769968777894974 -0.020319737493991852 0.028767408803105354 0.025493530556559563 0.0015778245870023966 0.045316871255636215 -0.044994208961725235 0.02482982538640499 0.05291936919093132 -0.04355716332793236 -0.10042618215084076 -0.18686135113239288 0.05935242399573326 -0.005666263401508331 -0.0227033793926239 -0.02900676243007183 -0.13238638639450073 0.0685405507683754 -0.002779885893687606 -0.012873400002717972 0.05425047501921654 0.06876348704099655 -0.03997061774134636 -0.020430361852049828 0.056630853563547134 0.13223057985305786 0.016909878700971603 0.05443115904927254 0.15765930712223053 -0.08414067327976227 -0.2849811315536499 -0.12208929657936096 0.04641091451048851 0.12686319649219513 -0.15499036014080048 -0.044576890766620636 0.12527112662792206 0.03284063562750816 0.0648852214217186 0.10933948308229446 0.05737593024969101 0.1500314325094223 0.027363400906324387 -0.04716852307319641 0.057522837072610855 -0.031220432370901108 -0.20336879789829254 0.02946910820901394 -0.022323958575725555 -0.0911097452044487 -0.16045314073562622 -0.1527366042137146 0.18987593054771423 0.18444706499576569 0.07909824699163437 0.10078280419111252 -0.0657026395201683 0.24056577682495117 0.15300053358078003 0.00335984886623919 -0.10896473377943039 -0.06992409378290176 0.035127297043800354 0.14591357111930847 -0.07054200768470764 -0.13802585005760193 -0.07360665500164032 -0.141530841588974 0.1417289674282074 0.09372922033071518 0.0011241571046411991 -0.06429364532232285 -0.038437433540821075 -0.0037116468884050846 -0.025793056935071945 0.015507389791309834 0.025643406435847282 -0.016792871057987213 0.00013784266775473952 -0.040249478071928024 -0.009541139006614685 -0.05136178061366081 0.047721248120069504 0.04130774363875389 0.07207895070314407 0.15974168479442596 0.11805375665426254 0.177578404545784 0.1157720535993576 0.10004083067178726 0.11327952891588211 0.05142471194267273 -0.016865123063325882 -0.13507111370563507 -0.06611818820238113 -0.05705929920077324 -0.009903558529913425 -0.2999933063983917 -0.2187262326478958 -0.01652916893362999 0.18385621905326843 0.039075858891010284 -0.013905106112360954 0.10528866946697235 0.029042154550552368 -0.007076673675328493 0.08872117102146149 0.07401624321937561 -0.029375167563557625 -0.09131722897291183 -0.07247861474752426 -0.04217417538166046 0.2879784405231476 0.10405901819467545 -0.03141053766012192 0.005021875724196434 -0.03812453895807266 -0.03211604803800583 0.06787057965993881 0.05941528454422951 -0.07350458949804306 0.08138588815927505 -0.013214334845542908 0.06410273164510727 -0.0009201727225445211 -0.029254870489239693 -0.10509902983903885 -0.008611561730504036 -0.03388949856162071 0.052552368491888046 0.04592949151992798 -0.23097728192806244 -0.11043255776166916 -0.14469759166240692 -0.0011160889407619834 0.02230190485715866 0.01468109805136919 -0.02453145571053028 -0.05759291723370552 -0.023226400837302208 -0.21034622192382812 -0.16267207264900208 0.05269193276762962 -0.018358854576945305 0.01867157220840454 -0.06402178853750229 -0.16749604046344757 0.06888027489185333 0.028190849348902702 -0.02983555570244789 -0.01055054273456335 -0.028239667415618896 -0.0074773021042346954 0.08949308097362518 -0.06529776006937027 -0.07773640006780624 -0.025165105238556862 -0.07901255786418915 0.11932846903800964 0.04765738546848297 -0.09175053983926773 -0.09116201102733612 0.08881551027297974 0.07752667367458344 -0.002110555302351713 -0.02878429926931858 0.04082086682319641 -0.053694725036621094 -0.014960004948079586 0.11096949130296707 0.01664012484252453 0.053783927112817764 -0.12877590954303741 -0.03819804638624191 0.06635569781064987 0.0919967070221901 -0.023892737925052643 0.007723948452621698 0.05339217185974121 -0.015446413308382034 0.028481395915150642 0.01626025140285492 -0.04737201705574989 -0.020276261493563652 -0.06170611456036568 -0.07245834171772003 -0.054444439709186554 0.003182600252330303 0.05189717933535576 0.024300992488861084 0.05769810453057289 0.09793396294116974 -0.018824778497219086 -0.020067177712917328 0.11208299547433853 0.18760177493095398 0.07641169428825378 -0.07200688868761063 0.025804810225963593 -0.009423954412341118 -0.01962137408554554 -0.06574133783578873 -0.037480004131793976 0.008368060924112797 0.287658154964447 0.0988074317574501 0.08015739172697067 -0.1498258411884308 0.01702209562063217 0.03605418652296066 0.050658803433179855 0.008638030849397182 0.07831582427024841 -0.14201079308986664 0.1488582044839859 0.07683645188808441 -0.13747438788414001 0.13613833487033844 -0.02541615441441536 0.02342280186712742 -0.012764179147779942 -0.048279233276844025 0.1598968505859375 0.1899876445531845 -0.1906638741493225 -0.12916100025177002 -0.051223840564489365 -0.087195985019207 0.03942729905247688 -0.0789012536406517 0.009376313537359238 0.009975305758416653 -0.10240484029054642 0.052379168570041656 0.031624339520931244 0.0077383206225931644 -0.06134937331080437 -0.13407231867313385 0.06476213037967682 -0.017276421189308167 -0.003339519491419196 -0.10044630616903305 -0.013983028009533882 0.013900901190936565 0.04307316616177559 -0.02258520945906639 -0.06257880479097366 -0.05345012992620468 0.06883617490530014 0.08494455367326736 -0.12396684288978577 0.011493024416267872 0.10289826989173889 0.0233120396733284 0.13631995022296906 0.056529637426137924 -0.04713307321071625 0.1360255628824234 0.06432527303695679 0.07673635333776474 0.047167275100946426 0.054716117680072784 0.10751020908355713 -0.06115073338150978 -0.07047222554683685 -0.08696501702070236 0.10585235804319382 -0.1282798945903778 -0.02852512151002884 0.02148323878645897 0.04793220013380051 0.18920490145683289 -0.06431443989276886 -0.007686831057071686 0.05350378528237343 0.001924115582369268 0.07161311060190201 -0.011181446723639965 -0.004379919730126858 -0.15129061043262482 -0.06669501960277557 0.07855042070150375 0.19314871728420258 0.05702340602874756 0.049791015684604645 0.14892539381980896 0.07625849545001984 0.10905623435974121 0.1068124771118164 0.02602175436913967 0.10682320594787598 -0.03272820636630058 -0.0379917249083519 0.053175389766693115 0.09945075958967209 0.086324542760849 0.02979648858308792 0.06445148587226868 0.023656979203224182 -0.1501675695180893 -0.15065822005271912 -0.08610718697309494 -0.023604562506079674 0.04900098592042923 0.123036690056324 -0.07872247695922852 -0.20754967629909515 0.224126398563385 -0.01117154024541378 -0.08198869973421097 0.0780012458562851 0.027812954038381577 0.02137915790081024 0.10358944535255432 0.1914229542016983 0.10442954301834106 0.15372437238693237 -0.10295850783586502 -0.0844447985291481 0.012651707045733929 0.058557234704494476 0.11280400305986404 -0.133457750082016 -0.057469893246889114 0.02860870212316513 -0.05392136797308922 0.03983958438038826 0.05770037695765495 0.09559068828821182 0.08912231028079987 0.029273536056280136 0.018037760630249977 0.16043131053447723 -0.1469615399837494 -0.019722383469343185 -0.0037721742410212755 0.008775598369538784 -0.05575357750058174 -0.14830420911312103 -0.017108287662267685 0.0733182355761528 0.06678008288145065 -0.08304671943187714 -0.030763698741793633 0.13788582384586334 0.28886276483535767 0.08293995261192322 -0.054450105875730515 0.057197850197553635 0.020456261932849884 0.030557196587324142 0.02038942091166973 0.06669645756483078 -0.03839441388845444 -0.00387656781822443 -0.028912272304296494 0.09786055237054825 0.11239761859178543 0.08650033175945282 -0.06811725348234177 0.17886784672737122 0.010973910801112652 0.1355924904346466 0.08594582229852676 -0.10171307623386383 -0.0027746970299631357 -0.06873749196529388 -0.1804012507200241 0.09714698791503906 -0.023892413824796677 0.018129900097846985 -0.0627138763666153 0.04621688276529312 0.0847829058766365 0.08578196167945862 0.03702498599886894 0.040032897144556046 -0.045038558542728424 0.0030539382714778185 -0.07510043680667877 -0.1659417301416397 -0.11200328916311264 0.19936056435108185 0.0747656300663948 0.054117657244205475 0.014402623288333416 0.013274871744215488 0.12219535559415817 0.2096996158361435 0.15126945078372955 0.09673546254634857 0.15140128135681152 -0.15286676585674286 -0.13545756042003632 0.09945080429315567 0.14264363050460815 0.06489474326372147 -0.33622032403945923 -0.16118308901786804 -0.1347358226776123 0.011749341152608395 0.0616469644010067 0.003053465625271201 0.04533801227807999 -0.014896917156875134 -0.06279874593019485 -0.18783779442310333 -0.020578278228640556 -0.058789387345314026 -0.030959151685237885 -0.036021243780851364 -0.09678472578525543 -0.059825826436281204 -0.07027343660593033 0.07690494507551193 0.029878860339522362 -0.09770919382572174 0.010396260768175125 -0.061395950615406036 0.037196092307567596 0.02803141251206398 -0.23703575134277344 0.03083427995443344 0.016319693997502327 -0.03954923525452614 -0.013694671913981438 -0.28235381841659546 -0.02174907922744751 -0.03161592781543732 0.14254994690418243 0.09909816831350327 0.08713895082473755 -0.13401098549365997 -0.1276428997516632 0.1407928317785263 0.04712783172726631 -0.13106633722782135 -0.09330198913812637 -0.18540458381175995 -0.24039268493652344 -0.3727250397205353 0.023807233199477196 0.11986160278320312 -0.0008727372623980045 -0.040347449481487274 -0.2676641345024109 0.04675182327628136 0.15382149815559387 -0.03517131879925728 -0.013235894031822681 -0.06862498819828033 -0.010475137270987034 0.003513601142913103 -0.00555455731227994 0.03000824525952339 0.04369571432471275 0.02501116320490837 -0.07001769542694092 0.07016294449567795 0.024924740195274353 0.010878716595470905 -0.05689307674765587 -0.07031761854887009 -0.039855100214481354 -0.04675913229584694 -0.04156104102730751 -0.03438533842563629 0.049665454775094986 -0.04450594261288643 0.005032411776483059 0.019881566986441612 0.00827511865645647 -0.06344858556985855 -0.018643194809556007 -0.008107222616672516 -0.0036085741594433784 -0.04047710448503494 -0.04856036230921745 -0.055475201457738876 -0.07880333811044693 0.0030373611953109503 -0.06921007484197617 -0.05588146671652794 -0.03108191303908825 0.00813452247530222 0.011224262416362762 -0.03661153465509415 0.012791739776730537 0.012801368720829487 0.008840874768793583 -0.026036325842142105 0.03987770900130272 0.0029482438694685698 -0.029230590909719467 -0.05909249559044838 -0.003134429454803467 -0.06724683940410614 -0.04691791161894798 0.0626516118645668 0.01826614700257778 0.038494206964969635 -0.03113369271159172 -0.02993769571185112 0.000495279673486948 -0.02914922684431076 -0.02208940126001835 -0.0543748140335083 -0.011760114692151546 -0.06487585604190826 0.007395684253424406 0.011522112414240837 -0.015218648128211498 0.03404836356639862 -0.0005637407302856445 -0.05074933543801308 -0.07555537670850754 -0.024687625467777252 0.006011922378093004 -0.03726440295577049 0.021991195157170296 0.0070317648351192474 -0.008940517902374268 0.005216521210968494 -0.02573249116539955 0.0005021243705414236 0.001815629075281322 -0.041425921022892 -0.004877550061792135 0.0021078612189739943 0.014069892466068268 0.014617723412811756 -0.003687244141474366 -0.04841942340135574 -0.08052246272563934 -0.040664978325366974 -0.062370460480451584 -0.04202337563037872 -0.042803820222616196 -0.04115979000926018 -0.02206813357770443 -0.03624097630381584 0.030837874859571457 -0.07852484285831451 -0.05475982278585434 -0.051634326577186584 -0.002010524971410632 0.020669037476181984 -0.043460533022880554 -0.023715928196907043 -0.043986689299345016 -0.024721650406718254 -0.00699384231120348 -0.017081689089536667 -0.0810859203338623 -0.06788281351327896 0.005783954169601202 -0.009798746556043625 -0.028560582548379898 -0.030810613185167313 -0.026282386854290962 -0.021632635965943336 -0.06704043596982956 -0.04641485586762428 -0.07823207229375839 -0.0722222775220871 -0.04261898249387741 -0.03967035561800003 0.0076785609126091 -0.024378390982747078 -0.04094395786523819 0.003771627089008689 0.0006439228891395032 -0.04629693180322647 -0.04243232309818268 -0.04268006980419159 -0.07281675189733505 0.004465756472200155 -0.04622208699584007 -0.05494293197989464 -0.056577231734991074 0.004042777698487043 -0.051158174872398376 0.0481765940785408 -0.008577605709433556 -0.061243947595357895 0.062268663197755814 -0.011017978191375732 -0.047408826649188995 -0.03383192420005798 -0.007581906858831644 -0.05370454117655754 -0.0037469088565558195 0.0325784757733345 -0.05220744386315346 -0.027372874319553375 -0.024681322276592255 -0.03354489430785179 0.06592986732721329 -0.06063145399093628 -0.032855112105607986 0.016652990132570267 -0.02794240228831768 -0.0071552470326423645 -0.06542886048555374 0.059672631323337555 0.001394588965922594 -0.028803512454032898 -0.07238607853651047 0.032263390719890594 0.017735464498400688 -0.04964868351817131 -0.027551649138331413 -0.07956434786319733 -0.02474972791969776 -0.0054302276112139225 0.02073969691991806 -0.031723424792289734 -0.008672353811562061 -0.01998578943312168 0.001558511285111308 -0.026619069278240204 -0.055990055203437805 0.05132446810603142 0.03117995895445347 -0.0035329933743923903 -0.013029362075030804 -0.05276250094175339 -0.028752202168107033 -0.01109503023326397 -0.04460713639855385 -0.05961137264966965 -0.02572273276746273 0.02853867970407009 -0.012808864936232567 -0.03597307205200195 -0.027162814512848854 -0.05430152639746666 0.0213845893740654 0.04101857915520668 -0.023778749629855156 -0.027888117358088493 0.008016090840101242 0.035868190228939056 -0.040451765060424805 -0.0538831502199173 -0.08021547645330429 0.0043121385388076305 0.03406701982021332 -0.022906620055437088 -0.01417378056794405 -0.018419306725263596 -0.04301789030432701 -0.00583186000585556 -0.001284480793401599 -0.026746373623609543 -0.023977959528565407 -0.02018890157341957 0.009903602302074432 0.018268724903464317 0.03484494611620903 -0.011684203520417213 -0.04489719122648239 0.005008693318814039 -0.04163418710231781 -0.06915103644132614 -0.00233287550508976 -0.007109685335308313 -0.01432944368571043 -0.005190947558730841 0.028740294277668 -0.008332193829119205 -0.004504646174609661 -0.05835368111729622 -0.03327199071645737 -0.018000705167651176 -0.03868582472205162 -0.0684451088309288 -0.02719905972480774 0.0005462761619128287 0.0005193129763938487 0.0786665827035904 -0.018494855612516403 -0.010731035843491554 -0.05041591823101044 -0.03181413933634758 0.017755059525370598 -0.02856280282139778 -0.054941799491643906 0.013747782446444035 -0.03200168162584305 -0.062204666435718536 -0.049697715789079666 0.014691605232656002 0.00990450382232666 0.07271057367324829 -0.0061699384823441505 -0.0401662141084671 0.057434577494859695 0.023770416155457497 -0.0024581043981015682 -0.040162280201911926 0.015851538628339767 0.0024585993960499763 -0.05641571059823036 -0.046745289117097855 -0.004749916959553957 0.00699151586741209 -0.021802984178066254 -0.06411239504814148 -0.016837723553180695 -0.04383676126599312 -0.009157075546681881 -0.031694427132606506 -0.07458781450986862 -0.012253976427018642 0.06304968148469925 -0.07314302772283554 -0.07061342895030975 -0.0012695268960669637 0.044644467532634735 -0.04314381629228592 -0.05026032403111458 -0.0468994565308094 0.017206020653247833 -0.05448300763964653 -0.028833433985710144 0.035744696855545044 -0.049969736486673355 -0.04762321338057518 -0.06685623526573181 0.006063596811145544 0.041694749146699905 -0.01205384824424982 0.0024271984584629536 -0.036080941557884216 -0.00948671717196703 -0.01375261414796114 -0.0028700295370072126 -0.03878490626811981 -0.04779261723160744 -0.02266795188188553 0.016442695632576942 0.016156267374753952 -0.04187070578336716 -0.04841131344437599 -0.04191938042640686 -0.06967544555664062 -0.012422880157828331 0.004388109780848026 -0.017271308228373528 0.020354051142930984 0.007268866524100304 0.0021343380212783813 -0.0018555503338575363 0.028502076864242554 0.028446238487958908 -0.006065795198082924 -0.06648202985525131 -0.06405423581600189 0.033905044198036194 -0.01869315281510353 -0.07658761739730835 -0.06808054447174072 -0.07123445719480515 0.03656545281410217 0.0013373616384342313 -0.058089565485715866 -0.023824285715818405 -0.0011388029670342803 0.06913483887910843 -0.07684855908155441 -0.068492591381073 -0.07408134639263153 0.016605885699391365 -0.05617528781294823 -0.0023564051371067762 -0.014952787198126316 -0.014144360087811947 -0.0395798534154892 -0.044216156005859375 -0.0002942077408079058 -0.04775865375995636 -0.004460318945348263 0.030813051387667656 -0.0639348179101944 -0.05912850424647331 -0.0346686914563179 -0.0015249610878527164 -0.012966254726052284 -0.025287970900535583 -0.034782301634550095 -0.04868130385875702 -0.03809541091322899 -0.007612406276166439 -0.0772852748632431 -0.047688014805316925 -0.029351523146033287 -0.019763508811593056 0.04019599035382271 0.01870862953364849 0.020153392106294632 -0.04976759850978851 0.025861673057079315 0.00468204403296113 -0.004770731553435326 -0.04198125749826431 0.021066972985863686 -0.05249384790658951 0.03710706904530525 0.009968401864171028 -0.011244075372815132 -0.052231766283512115 -0.019149521365761757 -0.03716249763965607 -0.0033645571675151587 -0.05221107229590416 0.002090826164931059 -0.022655064240098 -0.038446877151727676 -0.0316050685942173 -0.0335683710873127 -0.039786532521247864 0.06428514420986176 0.011655744165182114 -0.03238200396299362 0.03817449510097504 0.03344295173883438 -0.05351916328072548 -0.05048710107803345 -0.06459645926952362 0.0391843318939209 -0.021973365917801857 -0.034319739788770676 0.00698476517572999 0.0035596387460827827 -0.004991687368601561 -0.05990402400493622 -0.050010744482278824 0.018338069319725037 0.001928584068082273 -0.03794340416789055 -0.008729484863579273 -0.07054968178272247 -0.05414086580276489 0.04638136923313141 -0.0438128262758255 -0.0541323721408844 -0.03920694813132286 -0.03764738515019417 0.01768188364803791 -0.007287284359335899 -0.05246106535196304 -0.11759059876203537 -0.10728319734334946 0.12008148431777954 0.06531725823879242 -0.10238905996084213 -0.06404981762170792 -0.05830179154872894 0.09315907210111618 0.031754270195961 -0.01764751970767975 -0.26218971610069275 -0.15503887832164764 -0.12404029071331024 -0.051249001175165176 0.12814337015151978 0.021168721839785576 -0.08798850327730179 -0.0077431946992874146 0.158609539270401 0.18512563407421112 0.06090884655714035 0.04206646606326103 0.04630230367183685 0.08323433250188828 -0.009532892145216465 0.10980802029371262 0.042661283165216446 -0.03171190246939659 0.02041771076619625 0.03567621484398842 -0.004081727005541325 0.010929933749139309 0.013337268494069576 -0.06335528194904327 0.05986478924751282 -0.1463916301727295 -0.08814948797225952 0.01306452602148056 0.09785878658294678 0.10890542715787888 -0.16580148041248322 -0.02112852968275547 0.06474365293979645 -0.06393767148256302 -0.10525919497013092 0.019015492871403694 0.11397803574800491 0.0016842716140672565 -0.09568644315004349 -0.1057189553976059 0.036693111062049866 -0.0776902511715889 -0.06340514123439789 0.05576837435364723 0.026913709938526154 0.1396077424287796 0.12163035571575165 -0.009487095288932323 -0.17247602343559265 -0.0966767817735672 -0.12498605996370316 0.058771684765815735 0.0027606836520135403 0.0008805025136098266 0.009570876136422157 -0.1286916583776474 0.06261678785085678 -0.0110397320240736 -0.038614507764577866 -0.019635070115327835 -0.0020020026713609695 0.020553631708025932 0.0894305408000946 0.005030331201851368 -0.2424917221069336 -0.1253896951675415 -0.09817727655172348 0.08495698869228363 0.056217260658741 0.20997005701065063 -0.11745382100343704 -0.24851185083389282 -0.025141825899481773 0.08769640326499939 0.14674441516399384 0.06446622312068939 -0.06039954349398613 0.008634405210614204 0.0858624204993248 0.2236645668745041 0.05351085588335991 0.010825075209140778 -0.04039938002824783 -0.06324107199907303 0.09772281348705292 0.07350055128335953 0.06900857388973236 -0.06502585858106613 -0.1964084953069687 -0.02387455478310585 0.05008745566010475 0.10967358946800232 -0.06186941638588905 0.006951808929443359 -0.06264203041791916 0.14442287385463715 0.07881787419319153 -0.042845793068408966 0.04371742904186249 0.0119053078815341 -0.004773394670337439 -0.0407172292470932 -0.029963675886392593 -0.03511052206158638 -0.1060946062207222 -0.04598687216639519 0.07831736654043198 -0.00533734867349267 0.029877260327339172 0.09604442864656448 0.05742863193154335 0.1946953982114792 0.08139917999505997 0.053379520773887634 -0.04285807907581329 -0.011901021003723145 -0.10551086813211441 0.0032495686318725348 0.017996305599808693 0.08653450012207031 0.018564939498901367 -0.18088984489440918 -0.04456638917326927 0.07876366376876831 0.10966872423887253 0.0011646944331005216 -0.07846011221408844 0.06873726099729538 -0.03714480251073837 0.06247612088918686 0.08115395903587341 0.03074347786605358 0.04366488382220268 -0.15214288234710693 0.04416510835289955 0.11637130379676819 0.06792991608381271 -0.03926697000861168 -0.1277473121881485 -0.04229260981082916 -0.0037627944257110357 0.10162428766489029 0.11280810832977295 0.1311320662498474 -0.042809728533029556 0.07388080656528473 0.02531374990940094 -0.020707804709672928 0.18713489174842834 -0.09120849519968033 0.17239144444465637 0.2523147761821747 -0.07997245341539383 -0.10298959910869598 -0.044761043041944504 -0.07228453457355499 0.03396239131689072 -0.17888593673706055 -0.06909539550542831 0.0481969453394413 -0.16928362846374512 -0.07295224070549011 0.07387443631887436 -0.03696500137448311 0.03709466755390167 -0.03638868406414986 -0.004680127836763859 -0.07271168380975723 0.03109118901193142 -0.0581168532371521 0.1514352560043335 0.055552031844854355 -0.03757417947053909 0.008527049794793129 0.09580548107624054 0.06573861092329025 0.0021365126594901085 -0.017833558842539787 -0.010998737998306751 0.04447491466999054 0.07139605283737183 0.13234668970108032 0.03444457799196243 -0.15535755455493927 -0.02617473341524601 0.24783338606357574 0.18030786514282227 0.005480870138853788 -0.19248925149440765 -0.11344172060489655 -0.20020921528339386 -0.011085502803325653 -0.03446239233016968 -0.03446689248085022 -0.07057256996631622 -0.07335031777620316 -0.10783544927835464 -0.006471308879554272 -0.09861250966787338 -0.11967170983552933 -0.2204579859972 -0.1324799358844757 0.01953848823904991 -0.06773467361927032 -0.010681621730327606 0.027022834867239 0.0795079916715622 0.056000709533691406 -0.001210697810165584 0.09657303988933563 0.09810236841440201 0.059091150760650635 0.06493932753801346 -0.03010818175971508 0.005761829204857349 0.009716485626995564 -0.037718433886766434 0.0971556082367897 0.05828053504228592 -0.021796060726046562 0.014225744642317295 0.22126342356204987 0.06931498646736145 0.14219507575035095 0.059954933822155 -0.14217860996723175 0.06377638131380081 0.005106829106807709 -0.032906413078308105 -0.046000219881534576 -0.11192568391561508 0.0046617453917860985 -0.05550135672092438 0.010663767345249653 -0.0329379178583622 -0.056342218071222305 -0.10926255583763123 -0.069324791431427 0.034102972596883774 0.006058844737708569 0.09312111884355545 -0.058967672288417816 -0.11293792724609375 -0.11614765226840973 -0.0941857174038887 -0.04512704163789749 -0.044901665300130844 -0.07857923954725266 -0.05389254912734032 -0.2016834169626236 -0.1740744411945343 -0.1444704383611679 -0.09744676947593689 0.0305794607847929 0.07790855318307877 0.08966672420501709 0.04149501770734787 0.01773957349359989 0.04367172345519066 -0.0661550760269165 0.09081481397151947 0.1079876720905304 0.043784067034721375 -0.06402362883090973 -0.05993260070681572 -0.160432830452919 -0.11356565356254578 -0.003462430788204074 0.10126004368066788 0.08341788500547409 -0.3779434263706207 -0.22889672219753265 0.02947639301419258 0.08936338871717453 0.0024611714761704206 -0.17860642075538635 -0.2150709629058838 -0.027390820905566216 0.05012877285480499 -0.007451276294887066 0.11907511949539185 0.10472072660923004 0.15220360457897186 -0.04320219159126282 0.004306199494749308 0.03981596603989601 0.030046818777918816 0.1330859214067459 -0.013692167587578297 -0.18419231474399567 -0.014153319410979748 0.33677247166633606 0.16115742921829224 -0.00619056262075901 -0.0714622437953949 -0.03584279119968414 0.05977759510278702 0.10066371411085129 0.034165527671575546 0.07949952036142349 -0.33511435985565186 -0.11529062688350677 -0.05123823881149292 0.04978308081626892 0.056762970983982086 -0.10884618759155273 -0.11042872071266174 -0.09097237884998322 0.18291689455509186 0.04850486293435097 -0.009569138288497925 0.00272076646797359 0.038801372051239014 0.11270999908447266 -0.044638924300670624 0.0023616875987499952 -0.016593720763921738 0.04629264771938324 0.03620445728302002 0.08083091676235199 0.0847897157073021 0.004731433931738138 0.049205224961042404 0.06313888728618622 0.05029661953449249 -0.12741900980472565 -0.18198813498020172 -0.04819275438785553 0.08952499181032181 -0.028633177280426025 -0.22156605124473572 -0.018577776849269867 0.0143906120210886 -0.017243655398488045 -0.07751287519931793 0.0246448777616024 0.11085623502731323 0.09553396701812744 -0.05614892765879631 -0.08098756521940231 0.030299877747893333 -0.02209717221558094 0.005981325637549162 0.02808046154677868 0.16140440106391907 0.04084065556526184 -0.006549494341015816 0.0669381245970726 -0.08961204439401627 0.1654680371284485 0.05152971297502518 0.0018322000978514552 0.025775665417313576 -0.10660742223262787 0.17241957783699036 0.13063497841358185 -0.012067832984030247 -0.05502566322684288 -0.0931650921702385 0.14962434768676758 0.02110612392425537 -0.12923605740070343 -0.026392808184027672 -0.09039932489395142 -0.008985531516373158 -0.13334272801876068 -0.07104689627885818 -0.06643683463335037 0.0726214051246643 0.06767017394304276 -0.10148155689239502 -0.028047146275639534 -0.03769821673631668 0.11626056581735611 0.09215760231018066 -0.002082717837765813 0.03993560001254082 0.08949525654315948 0.05880777910351753 -0.006169633008539677 0.08781524002552032 0.09836585819721222 -0.0748194009065628 -0.17440617084503174 -0.26611852645874023 0.034743621945381165 -0.01146661676466465 -0.21025033295154572 -0.40354397892951965 -0.42701736092567444 -0.18495392799377441 -0.22857077419757843 -0.143242746591568 -0.019319118931889534 0.061839550733566284 -0.08835750818252563 -0.21409012377262115 -0.13422192633152008 0.07668007910251617 0.06791029125452042 -0.057504814118146896 -0.06697526574134827 0.09556625783443451 0.06725158542394638 0.05735532194375992 0.03611241653561592 0.015502966940402985 0.0018803821876645088 -0.07675430178642273 -0.03408128395676613 -0.038741614669561386 0.00494211632758379 0.05805891007184982 -0.1172681525349617 -0.09705984592437744 -0.08589911460876465 -0.03938567638397217 -0.013906413689255714 0.07282545417547226 0.037045303732156754 -0.08686722069978714 0.0605892539024353 0.019910627976059914 0.026821479201316833 -0.1483430713415146 -0.08678865432739258 -0.07692427933216095 -0.15287639200687408 -0.22581012547016144 -0.16883619129657745 0.1019015908241272 0.0792662501335144 -0.031196625903248787 0.1284029483795166 -0.044566553086042404 0.1726628690958023 0.09677258878946304 -0.01627492718398571 0.12444467842578888 0.01121868658810854 -0.14663776755332947 -0.05887024849653244 -0.08844659477472305 0.08856239169836044 -0.044550344347953796 -0.16096758842468262 -0.11723373830318451 0.05401076376438141 0.09605304151773453 -0.031191952526569366 0.05491526052355766 0.08008387684822083 0.042501602321863174 0.04962731525301933 -0.196577787399292 -0.011437241919338703 -0.053171150386333466 0.006873042322695255 -0.013653293251991272 -0.07699047774076462 0.08984801173210144 -0.05820396915078163 0.05973688140511513 0.06083302199840546 -0.007173389196395874 -0.034655291587114334 0.0258150864392519 -0.0369100496172905 -0.032248590141534805 0.046488046646118164 -0.048501014709472656 0.09443200379610062 0.08866792172193527 -0.07245224714279175 -0.017174022272229195 0.005057774484157562 -0.02594473771750927 0.049891047179698944 -0.0012461856240406632 -0.0916837602853775 -0.043766554445028305 -0.006762509699910879 0.04701226204633713 -0.049138300120830536 -0.0977814644575119 0.04007476568222046 -0.018491890281438828 0.07095897197723389 0.044897645711898804 -0.042128194123506546 -0.13959507644176483 0.056616608053445816 0.05925554409623146 0.12005475908517838 0.058592017740011215 -0.07425369322299957 0.05059950798749924 -0.15094445645809174 -0.12017340958118439 0.0878065750002861 -0.07016709446907043 -0.15402111411094666 -0.14153364300727844 -0.03573811799287796 -0.04852072522044182 0.03900428116321564 0.056933898478746414 -0.09132914990186691 -0.11334981769323349 -0.11727479845285416 0.151229590177536 -0.18309904634952545 -0.1744820773601532 -0.050086766481399536 0.08334112167358398 -0.14476731419563293 0.08830646425485611 0.09727668762207031 0.02699735201895237 -0.006899313535541296 0.00028630843735300004 0.019598813727498055 0.04787391051650047 0.043300334364175797 -0.030179770663380623 0.19229352474212646 -0.010748487897217274 -0.02944961190223694 0.02938045747578144 -0.08220751583576202 0.06877192854881287 -0.08557859063148499 -0.01975984312593937 -0.031032472848892212 -0.06393297761678696 0.024798300117254257 -0.08016019314527512 -0.0035279628355056047 -0.012507693842053413 -0.03612228482961655 -0.018199309706687927 0.12215496599674225 0.27124905586242676 0.0009175961022265255 0.019040657207369804 0.037357136607170105 0.17657366394996643 0.12934429943561554 -0.004080283921211958 0.04318778216838837 -0.11658679693937302 0.05100000277161598 0.05634059011936188 0.03956397622823715 0.09609274566173553 0.12097309529781342 0.04255715385079384 0.38006559014320374 0.04675283282995224 0.056986499577760696 0.013535790145397186 0.20548002421855927 0.24286165833473206 0.02409527078270912 0.00490029389038682 -0.05379609763622284 -0.0586574412882328 0.08074317127466202 0.061096955090761185 -0.039545055478811264 -0.13445286452770233 0.0004160335229244083 -0.010264725424349308 0.05539458990097046 0.0031377559062093496 0.016074487939476967 0.091159887611866 -0.04812056943774223 -0.05217180401086807 -0.0734546035528183 0.05848809704184532 0.03186913579702377 -0.006658060941845179 0.0032390053384006023 -0.058544207364320755 0.08210921287536621 0.07725287973880768 0.02191523276269436 0.0801718607544899 -0.07130388170480728 -0.13761986792087555 -0.15319645404815674 -0.20326325297355652 -0.023838941007852554 0.035107292234897614 -0.2434866577386856 -0.17143607139587402 -0.1415511667728424 0.02620452456176281 0.10266881436109543 0.029250910505652428 0.04389266297221184 0.08743014931678772 -0.09530583024024963 -0.021647799760103226 0.024737024679780006 0.0006910153315402567 -0.06004050746560097 -0.04189004749059677 -0.08408109098672867 0.05480023846030235 0.019478779286146164 0.010566554963588715 -0.05375637859106064 0.02698230743408203 -0.0037912828847765923 -0.06166345998644829 0.10941840708255768 0.03284398093819618 -0.06767471879720688 0.03815216198563576 0.05977478623390198 0.10594993829727173 0.02215314283967018 -0.020363416522741318 -0.04556106775999069 -0.049244001507759094 -0.16718992590904236 0.025279609486460686 -0.04806890711188316 -0.01742333546280861 -0.06690548360347748 0.0673956647515297 0.0035836058668792248 -0.05456847697496414 0.15885475277900696 0.029934652149677277 0.37304580211639404 0.015946317464113235 -0.006802695337682962 -0.13398319482803345 -0.19218342006206512 -0.12001346051692963 -0.0031488994136452675 0.19750480353832245 -0.08625894039869308 -0.14449216425418854 -0.011739324778318405 0.06796570867300034 0.15109872817993164 0.08652941882610321 0.07453581690788269 -0.008309037424623966 -0.13462454080581665 -0.13843533396720886 -0.023929884657263756 -0.12294699251651764 -0.13103947043418884 -0.07172021269798279 -0.12208161503076553 0.05857684090733528 -0.013317360542714596 -0.05514102429151535 0.09730515629053116 0.06946463882923126 -0.15313509106636047 -0.08731778711080551 -0.12937290966510773 -0.029162505641579628 0.02884795516729355 -0.1260141134262085 0.07152707129716873 0.005229835864156485 -0.14095205068588257 0.07684827595949173 0.07940427958965302 0.06546991318464279 0.030946411192417145 -0.019160114228725433 -0.03848021849989891 0.007680248003453016 -0.06769873946905136 -0.0227954238653183 -0.037086211144924164 0.027707358822226524 0.044760268181562424 -0.06346169859170914 0.025469260290265083 0.06763210147619247 0.06349722295999527 -0.011194497346878052 -0.04071808233857155 0.11091967672109604 -0.10761899501085281 -0.13188304007053375 -0.13629713654518127 -0.05123511329293251 -0.05545034632086754 0.006762996781617403 0.11925357580184937 -0.14339391887187958 -0.03159947320818901 0.17913483083248138 0.1463201642036438 0.07308468222618103 -0.026863493025302887 0.05062248557806015 0.19509397447109222 0.11298054456710815 -0.01200886256992817 -0.080683633685112 0.08580245822668076 0.01070356834679842 0.015718061476945877 -0.040125034749507904 -0.15826097130775452 -0.00946799200028181 0.005647092126309872 0.09645862132310867 0.02439543791115284 -0.14250218868255615 -0.002415038412436843 -0.016832266002893448 -0.056192148476839066 -0.16392309963703156 -0.0022041720803827047 -0.12364768236875534 -0.21313239634037018 -0.14978636801242828 -0.12422078102827072 0.07674501091241837 0.04580051451921463 -0.20013105869293213 -0.07089553773403168 0.044249966740608215 0.2682473957538605 0.16357602179050446 0.03993302583694458 0.15154826641082764 -0.03367091715335846 -0.09814854711294174 -0.023786716163158417 -0.03359784185886383 0.09563973546028137 0.12300702184438705 -0.043138615787029266 -0.018124500289559364 0.057690564543008804 0.06547214090824127 0.0418369434773922 -0.1307285726070404 -0.03607060760259628 0.028628937900066376 0.15331383049488068 -0.046572379767894745 0.10049529373645782 0.09726233780384064 0.012133008800446987 0.0507243350148201 -0.15226560831069946 0.09515231102705002 0.09538089483976364 0.021576769649982452 0.013856025412678719 -0.07656123489141464 0.04232668876647949 0.04446398839354515 -0.05296871066093445 -0.031543683260679245 0.006723491940647364 -0.054618000984191895 0.11195803433656693 -0.036196790635585785 0.027512531727552414 -0.0604945532977581 -0.0855214074254036 0.1325792670249939 0.15770694613456726 -0.054921433329582214 -0.09889446943998337 -0.08566105365753174 0.1405605524778366 0.16307565569877625 -0.08367611467838287 0.04389626532793045 -0.02876760996878147 -0.05636679381132126 0.07329273223876953 0.1815807968378067 0.006073376629501581 0.22254027426242828 0.22227922081947327 0.04421774297952652 -0.19544994831085205 -0.25285211205482483 0.07439915090799332 0.0984162837266922 0.06529787927865982 0.11537332087755203 -0.04368874803185463 0.02326623722910881 0.0020931989420205355 0.012258470989763737 0.1445372998714447 0.08593838661909103 -0.00464318273589015 -0.021207381039857864 -0.02942032180726528 0.08749204128980637 -0.0236837025731802 -0.03345999866724014 -0.00643744133412838 -0.006678285077214241 -0.0546671599149704 -0.061384376138448715 -0.010262124240398407 0.06415668874979019 0.04643164947628975 0.046133339405059814 0.002846401184797287 0.02331237681210041 -0.013897240161895752 0.02153843641281128 0.029426150023937225 -0.09460849314928055 0.03167669102549553 0.02079792506992817 0.036180052906274796 -0.12647807598114014 -0.010280771180987358 0.020012253895401955 0.09557807445526123 0.057250045239925385 -0.04457814246416092 -0.13107435405254364 0.1824253350496292 0.1674657016992569 -0.06412985175848007 -0.04468781128525734 0.14882254600524902 0.050481364130973816 -0.036548908799886703 -0.04509849101305008 0.0466277115046978 0.046329814940690994 0.02491963841021061 -0.00889772642403841 -0.1235131248831749 0.02287893369793892 0.04879821464419365 0.025815449655056 -0.003769228933379054 -0.085970938205719 -0.04429897293448448 -0.047422122210264206 0.10520295053720474 0.13729508221149445 0.09297370910644531 0.024979006499052048 -0.03270313888788223 -0.05349107086658478 0.10387007892131805 0.0654110237956047 0.016489079222083092 0.1776956021785736 0.02127980999648571 -0.010412618517875671 0.08750166743993759 0.20704397559165955 0.08200278878211975 -0.04250016808509827 0.02063717693090439 -0.026669003069400787 0.059107255190610886 0.01764424704015255 -0.0767982006072998 -0.02567756175994873 0.06906174123287201 0.022769611328840256 -0.09523578733205795 -0.0037416829727590084 0.021714594215154648 -0.01114867813885212 0.09505373984575272 -0.06826082617044449 -0.031776197254657745 -0.12269642949104309 0.012008417397737503 0.09807459264993668 -0.025320114567875862 0.11093762516975403 0.008229676634073257 0.04244769737124443 -0.025228191167116165 -0.07108129560947418 -0.004141346551477909 0.022299494594335556 0.10088783502578735 0.05947406217455864 -0.09423090517520905 -0.01813976839184761 0.028334051370620728 0.08877820521593094 -0.013735827058553696 -0.030559701845049858 -0.01667207106947899 0.0374627411365509 0.044521596282720566 -0.05634848028421402 -0.08400501310825348 -0.029991626739501953 0.10773366689682007 -0.07135410606861115 -0.04936853051185608 0.08192064613103867 -0.028164146468043327 -0.04822202026844025 0.020194681361317635 0.10361998528242111 0.21389862895011902 -0.006891608238220215 -0.09994987398386002 -0.022893646731972694 0.06926599144935608 0.008723135106265545 -0.0363851897418499 0.03174156695604324 -0.02709764428436756 -0.03196436166763306 -0.05885442718863487 -0.04262969642877579 -0.03331036493182182 -0.0738275870680809 -0.044512659311294556 -0.09687411040067673 0.04028729721903801 0.011215848848223686 0.08441256731748581 0.07768377661705017 -0.04673406481742859 0.04234340786933899 -0.151975616812706 -0.20476995408535004 -0.02483545057475567 -0.011173710227012634 0.04879913479089737 -0.11983043700456619 -0.08259785175323486 0.06961292773485184 0.09606622904539108 -0.05484553426504135 -0.13434380292892456 -0.023472636938095093 0.002191876294091344 0.061826106160879135 0.008530969731509686 -0.1534341275691986 -0.06448696553707123 0.032089587301015854 0.07216436415910721 0.19132781028747559 -0.01915043406188488 -0.06334156543016434 -0.02217746153473854 0.02768930047750473 -0.016962401568889618 -0.00123144022654742 0.022495806217193604 0.09854284673929214 -0.02955537848174572 -0.005833670496940613 -0.11899416893720627 -0.016989780589938164 0.1253325641155243 0.10200507938861847 -0.008116243407130241 -0.06753532588481903 -0.07352516800165176 0.1379408985376358 0.061933960765600204 -0.013228737749159336 0.009295420721173286 -0.12729153037071228 -0.03323635831475258 -0.005271215457469225 -0.006816340144723654 0.09238037467002869 0.015117990784347057 0.12199262529611588 0.009231450036168098 0.13547900319099426 0.22499869763851166 0.12430541217327118 0.057021938264369965 -0.16298966109752655 0.13283543288707733 0.06986648589372635 -0.013974165543913841 -0.09659530967473984 -0.1145448163151741 0.042681049555540085 0.049912016838788986 0.08657750487327576 -0.00864565558731556 -0.074824757874012 -0.012788398191332817 0.1307046264410019 0.09156901389360428 0.008016607724130154 0.04937905818223953 -0.020130597054958344 -0.03164392709732056 -0.012058144435286522 -0.06729760020971298 -0.03323173522949219 -0.014268448576331139 0.04316525533795357 0.005107290111482143 0.047562092542648315 0.01184848416596651 0.03421362116932869 -0.03693334013223648 0.003979839850217104 0.04628966376185417 0.09848291426897049 0.06634311378002167 -0.025317294523119926 0.005954200401902199 0.0742664709687233 0.08933654427528381 0.0339282751083374 -0.009339483454823494 0.025276975706219673 -0.07611512392759323 -0.027578262612223625 0.09818901866674423 0.3065688908100128 0.07652251422405243 -0.05158324912190437 0.0119826290756464 0.08031017333269119 -0.0029992423951625824 0.08783379197120667 -0.027124447748064995 -0.05292128399014473 0.0974682867527008 0.04409019276499748 0.029937269166111946 0.04885776713490486 -0.05231129005551338 -0.02695535309612751 0.12276804447174072 0.10182442516088486 0.06652034819126129 0.07886455953121185 -0.025783296674489975 0.07268171012401581 0.03289949521422386 0.020230518653988838 0.022589990869164467 -0.014118227176368237 -0.04649067670106888 -0.03316979482769966 0.01895640604197979 0.06051134690642357 0.0952276960015297 0.11424968391656876 0.10880772024393082 0.037721943110227585 0.04154243692755699 -0.0037205927073955536 -0.015617109835147858 0.05319410562515259 -0.052425287663936615 -0.028413614258170128 0.03312913700938225 0.040685024112463 0.04244519770145416 -0.13035346567630768 -0.11348940432071686 0.04602394625544548 -0.015519244596362114 0.031618401408195496 -0.09389722347259521 0.024533212184906006 -0.08574723452329636 -0.1262107938528061 -0.028079615905880928 0.015613872557878494 0.04468531161546707 0.12940818071365356 0.05210496112704277 -0.04034549742937088 -0.1141129583120346 0.1178998351097107 0.017791470512747765 0.06708590686321259 0.04614124074578285 0.0035343149211257696 0.013710075989365578 0.019505515694618225 -0.121310293674469 0.02194320037961006 0.047058846801519394 -0.009330866858363152 0.039140280336141586 0.09628979861736298 0.04612163081765175 -0.0033354703336954117 0.041383326053619385 0.07427109032869339 0.023927537724375725 0.01992383785545826 -0.03238329663872719 0.03621517866849899 0.04740504175424576 0.01606573536992073 0.12798245251178741 0.0436805784702301 0.06237650662660599 -0.012704694643616676 0.02313244715332985 0.09130940586328506 0.031032437458634377 0.03719487413764 0.04968411475419998 -0.08998475223779678 0.05144990235567093 -0.03804994374513626 -0.055027492344379425 0.10185212641954422 0.10620798170566559 -0.06756627559661865 -0.0763150081038475 -0.21637915074825287 0.170231893658638 0.08778694272041321 -0.05788667872548103 -0.06278732419013977 -0.09638135880231857 -0.14763644337654114 -0.06127994507551193 0.02544187195599079 0.027992606163024902 -0.061361391097307205 -0.09755921363830566 -0.07026096433401108 0.07823757082223892 0.12784771621227264 0.12355547398328781 -0.023790806531906128 -0.10860065370798111 0.015916520729660988 0.01752152107656002 0.08537492156028748 -0.1882992833852768 -0.07127713412046432 0.09432951360940933 0.08795762062072754 -0.03568502888083458 0.08586517721414566 0.009609568864107132 0.04704118147492409 0.09062043577432632 -0.059484414756298065 -0.0271966140717268 -0.19717223942279816 -0.06480638682842255 0.12248816341161728 0.1674443632364273 -0.09750380367040634 -0.13351784646511078 0.10197563469409943 0.032386861741542816 -0.019997157156467438 -0.062361858785152435 -0.055027831345796585 0.03540521115064621 -0.06744547188282013 -0.11673882603645325 -0.0763884037733078 0.0020796393509954214 0.13116276264190674 -0.07449433952569962 -0.042531032115221024 -0.0337616503238678 0.09391704946756363 0.0877041146159172 0.17649489641189575 0.25544726848602295 0.06790552288293839 0.004037707578390837 -0.045954380184412 -0.21084021031856537 -0.12486366182565689 0.038853101432323456 -0.016427256166934967 0.07877902686595917 -0.06797532737255096 0.06113298609852791 -0.057283271104097366 -0.03597413748502731 -0.07111892104148865 0.014699306339025497 -0.004568527918308973 0.04090406373143196 -0.07511480152606964 -0.019321966916322708 0.10735030472278595 0.07326426357030869 0.043071199208498 -0.01483625266700983 -0.03763251751661301 0.03781544044613838 -0.048198193311691284 0.021525612100958824 0.02801499515771866 0.02839501015841961 0.07985853403806686 0.0593714565038681 -0.0271038506180048 0.08750711381435394 0.07789463549852371 -0.02039547823369503 -0.016106674447655678 -0.04132315143942833 -0.06251915544271469 -0.060641080141067505 -0.051678817719221115 0.07563965022563934 -0.06665600091218948 0.006129015702754259 0.118454210460186 -0.08754982799291611 -0.19591456651687622 0.24702692031860352 0.2094966173171997 -0.08532537519931793 -0.22604429721832275 -0.00723195169121027 0.03487488999962807 -0.09035760909318924 -0.01176135241985321 -0.033686570823192596 0.06521487981081009 -0.018561389297246933 0.020051658153533936 -0.11122173815965652 -0.09236188977956772 0.055191997438669205 -0.06921639293432236 0.03758964687585831 -0.03624355047941208 -0.03835183009505272 0.009348312392830849 0.13785286247730255 -0.0026569298934191465 -0.017711138352751732 0.16064773499965668 -0.025174666196107864 -0.017131082713603973 0.03249295800924301 0.02229563146829605 0.09953423589468002 -0.017782168462872505 0.02809976227581501 -0.010468418709933758 0.1333937793970108 0.09721723198890686 0.17047961056232452 0.023869726806879044 -0.042739011347293854 -0.05062603950500488 0.028525570407509804 0.08928901702165604 -0.09152032434940338 -0.050285350531339645 0.08149044215679169 0.08615335822105408 -0.02011854760348797 -0.03021371178328991 0.09026746451854706 -0.09081517159938812 -0.017134705558419228 0.035806797444820404 0.02268509566783905 -0.014782565645873547 -0.04632965847849846 -0.03164543956518173 -0.03099130280315876 0.0036888420581817627 -0.12845396995544434 -0.06933051347732544 -0.006267501972615719 -0.13575129210948944 0.0834277868270874 0.03592879697680473 0.02834331803023815 0.08751896768808365 -0.0514010488986969 0.007651986554265022 -0.013913730159401894 0.02410099096596241 0.022354373708367348 0.05196545645594597 0.031167607754468918 0.09130397439002991 -0.03331703692674637 -0.062260597944259644 -0.08913302421569824 -0.034914758056402206 0.1278543323278427 -0.03739564120769501 0.02796749770641327 0.01141851395368576 0.003100278088822961 0.026714030653238297 -0.01867114007472992 0.08173208683729172 0.19427746534347534 0.0030707118567079306 -0.014330567792057991 -0.06426837295293808 0.0157887265086174 0.09289029240608215 -0.08448537439107895 0.02702363394200802 0.03725634142756462 -0.014641247689723969 -0.006396218203008175 0.020105581730604172 0.11489636451005936 -0.06534407287836075 -0.10012868791818619 -0.03988439962267876 -0.007796671241521835 -0.09284552186727524 -0.01715846173465252 -0.03248678147792816 -0.021052023395895958 -0.04132980853319168 -0.01593450829386711 -0.24829626083374023 -0.023234935477375984 0.049251656979322433 0.0811040922999382 -0.27132952213287354 -0.20086705684661865 -0.023858433589339256 0.016235001385211945 -0.026831327006220818 0.03511074557900429 0.07044748961925507 -0.014013845473527908 -0.0029673161916434765 -0.0820574089884758 0.04792105033993721 -0.26188647747039795 -0.07251602411270142 0.06247822567820549 0.17432662844657898 -0.06335614621639252 0.037928834557533264 0.0184860210865736 0.06625257432460785 0.03048032894730568 0.053413525223731995 0.05934091657400131 0.03441433236002922 0.030227873474359512 0.07604566961526871 -0.07060030102729797 0.0013817837461829185 0.07502364367246628 0.16713689267635345 0.05420105904340744 -0.17890162765979767 -0.03309020772576332 0.10867492854595184 0.14319482445716858 0.010584935545921326 -0.025180386379361153 -0.0257553793489933 -0.027466129511594772 0.08631478995084763 0.04219001159071922 0.020637480542063713 -0.013213611207902431 0.05593188852071762 -0.012636089697480202 0.11284328997135162 0.11896290630102158 0.1683053970336914 0.1248222216963768 -0.13451078534126282 0.07715491950511932 0.051451534032821655 0.06605353206396103 -0.05929538235068321 -0.10647369921207428 0.008435792289674282 0.06440117955207825 0.07257310301065445 0.033260930329561234 -0.03574924170970917 0.021181471645832062 0.027776870876550674 0.14427760243415833 0.1574304848909378 0.07412312924861908 -0.03877798467874527 -0.04719965159893036 -0.056785568594932556 -0.11694596707820892 0.018434656783938408 0.008512631058692932 -0.017732171341776848 0.04520609602332115 0.02449490688741207 0.06308012455701828 -0.008344466798007488 0.05808696150779724 -0.05275866389274597 0.011380692012608051 0.07077223807573318 -0.11802786588668823 -0.019198397174477577 0.05861087143421173 -0.017137758433818817 -0.05728253722190857 -0.029333554208278656 0.02755158394575119 -0.004993790294975042 -0.18402472138404846 -0.0830087885260582 0.03720433637499809 0.22413258254528046 0.03813650459051132 -0.020325660705566406 0.024436336010694504 0.07547597587108612 0.020675038918852806 -0.002465855563059449 -0.11714813858270645 -0.13328063488006592 0.11460979282855988 0.00854320265352726 -0.007413755636662245 0.06545659154653549 -0.025158826261758804 0.033530112355947495 0.03555944934487343 -0.03899804875254631 0.10913783311843872 0.00952314492315054 -0.032236844301223755 0.01812267117202282 0.09876701980829239 0.0052437130361795425 0.01539665088057518 -0.03864995017647743 -0.017386460676789284 -0.06230080500245094 -0.02147754095494747 -0.18513906002044678 0.059801358729600906 0.08657164126634598 0.242380291223526 0.20167863368988037 0.0024059824645519257 -0.09143926948308945 -0.0490240603685379 0.03460223972797394 0.06871765106916428 0.03594742715358734 -0.0761198177933693 0.028053922578692436 0.01536701899021864 -0.019591156393289566 0.036957982927560806 0.1285971999168396 0.022609857842326164 0.004658081568777561 -0.05195934697985649 -0.09860816597938538 -0.08704035729169846 -0.13825984299182892 -0.010278291068971157 -0.1674727201461792 -0.010527538135647774 -0.028137370944023132 0.104831263422966 -0.13219822943210602 -0.11381512880325317 0.06316353380680084 -0.029488636180758476 0.0599815659224987 0.08902236819267273 -0.06786254793405533 -0.08273741602897644 -0.06503693759441376 -0.07392103970050812 0.022783372551202774 -0.010152827948331833 -0.07413196563720703 0.07496142387390137 0.003653179155662656 0.018378030508756638 0.09357034415006638 0.11751558631658554 0.047264814376831055 0.04375505819916725 0.08990509063005447 -0.02474427968263626 -0.023026088252663612 -0.012904906645417213 -0.032663457095623016 0.11290812492370605 0.06567970663309097 0.0355425700545311 0.11560163646936417 -0.0227966271340847 0.045813292264938354 0.06061536818742752 0.01396296825259924 -0.007756512146443129 -0.22844214737415314 -0.0015266815898939967 -0.021596455946564674 0.004517178982496262 -0.04285450279712677 0.08009374141693115 0.06612948328256607 -0.051358167082071304 -0.28145086765289307 0.1813594400882721 0.11022824794054031 -0.11272836476564407 -0.20298753678798676 -0.14403823018074036 -0.1833992451429367 -0.12761729955673218 -0.014281976036727428 0.07106469571590424 0.08704972267150879 -0.07817084342241287 -0.034749168902635574 0.061161067336797714 0.10959510505199432 0.18048998713493347 0.046652887016534805 -0.03583100065588951 -0.024855859577655792 -0.006948570255190134 0.1407153457403183 -0.053921498358249664 -0.06976313889026642 0.059075579047203064 0.08766892552375793 0.17196360230445862 -0.051005393266677856 0.04510952904820442 0.07256926596164703 0.07570748031139374 -0.005221649073064327 -0.06805545091629028 0.037733737379312515 0.12814167141914368 0.15127946436405182 0.11173293739557266 -0.033216096460819244 -0.10894930362701416 0.1144394502043724 0.11165554821491241 0.024191204458475113 0.07824738323688507 -0.007859913632273674 -0.055014289915561676 0.0889391228556633 0.0006050550728105009 0.00011479814565973356 0.02692982740700245 0.013102397322654724 -0.11638260632753372 -0.19573958218097687 -0.022736845538020134 0.05736890062689781 0.1312951147556305 -0.00962278712540865 0.027647826820611954 -0.20878054201602936 -0.17973759770393372 0.03753899782896042 0.06633304804563522 0.11111627519130707 -0.15515275299549103 -0.18445980548858643 0.007382608018815517 -0.020423687994480133 0.03483113273978233 -0.062362220138311386 -0.05600958317518234 -0.10430252552032471 -0.014815961010754108 0.08208675682544708 0.12054562568664551 0.07598095387220383 0.005767058115452528 0.09293801337480545 0.012902412563562393 0.05164181441068649 0.07858170568943024 0.0006283799884840846 0.015485328622162342 0.0630749762058258 0.053271111100912094 0.07061503082513809 -0.05852509289979935 0.007114083971828222 0.019385896623134613 0.03382107615470886 0.0468774251639843 0.020863190293312073 -0.047434065490961075 -0.10481543838977814 -0.048909496515989304 -0.06043320894241333 0.0340733528137207 0.0380423367023468 0.002607450122013688 0.012089145369827747 0.02344469726085663 0.03365592285990715 -0.05022837966680527 -0.14713214337825775 -0.1265919953584671 -0.11801442503929138 -0.03425344452261925 -0.04225524142384529 -0.13358120620250702 -0.09843806177377701 -0.004993814509361982 0.04979470744729042 0.11406365036964417 0.11207316815853119 -0.15872690081596375 0.06816725432872772 -0.02214864455163479 -0.04809890314936638 0.029912127181887627 -0.0032364241778850555 0.11073780059814453 0.01027195155620575 0.03925907611846924 -0.04377752169966698 0.08360689133405685 0.06367197632789612 0.023953387513756752 -0.002626522444188595 0.05109023675322533 -0.011642275378108025 -0.03791702538728714 0.13468320667743683 -0.022450054064393044 -0.21506276726722717 0.012270225211977959 -0.05765507370233536 -0.0476011261343956 -0.011024774983525276 0.24175076186656952 0.010786587372422218 0.06692466884851456 0.05932183191180229 0.15374663472175598 0.11050829291343689 0.014365701004862785 0.13662280142307281 0.006932293996214867 0.08193950355052948 0.12029355019330978 0.010729263536632061 -0.034865621477365494 -0.10370928049087524 0.024038249626755714 0.11881531774997711 0.11719629168510437 -0.01443284098058939 -0.08252499252557755 -0.044687848538160324 0.09390316903591156 -0.07101104408502579 -0.02524319291114807 -0.021374419331550598 0.060671042650938034 0.08689045161008835 0.10939668864011765 -0.03546048700809479 0.020146064460277557 -0.02884560078382492 0.0721951276063919 0.05617867410182953 0.01852182112634182 -0.08452531695365906 0.032111551612615585 0.03577273711562157 0.17418666183948517 0.06843698024749756 -0.05869592726230621 0.08998676389455795 0.008679646998643875 0.13169310986995697 0.10191765427589417 0.0562715083360672 -0.019795862957835197 -0.007536782417446375 0.06426779180765152 -0.07145208865404129 -0.050825756043195724 -0.14770348370075226 -0.06961854547262192 0.08640219271183014 -0.04987441748380661 0.006010410375893116 -0.017932701855897903 0.03090144507586956 0.06546561419963837 0.08627104014158249 0.018153134733438492 -0.012241310440003872 0.028875740244984627 0.12719212472438812 -0.01219896785914898 0.010047413408756256 -0.12335164844989777 -0.0031252300832420588 0.06749394536018372 0.005421679001301527 -0.04818466305732727 -0.03306689113378525 0.13883812725543976 0.05067368224263191 0.09224654734134674 -0.02000756934285164 -0.16933757066726685 0.019712859764695168 0.06999446451663971 0.04309295862913132 -0.06273485720157623 -0.12136860936880112 0.04576967656612396 0.2354566901922226 0.25669533014297485 -0.12090533971786499 0.03974268585443497 0.05324599891901016 0.13494375348091125 0.14540523290634155 -0.18580710887908936 -0.0006956890574656427 0.06768276542425156 -0.13569417595863342 -0.1934223771095276 0.08189946413040161 0.008941002190113068 -0.005868588108569384 0.017003696411848068 0.06927496194839478 -0.02987874299287796 -0.0360388457775116 0.07307156920433044 -0.00693814642727375 -0.006228067446500063 0.0030668629333376884 -0.01575208269059658 0.09889121353626251 -0.00243034097366035 0.02925124391913414 0.09373465180397034 0.002102116821333766 0.11836995929479599 0.10359100997447968 0.08190753310918808 0.1205756813287735 -0.018916726112365723 0.03994232043623924 0.16083335876464844 0.16589228808879852 0.05293824151158333 -0.06678052991628647 0.06730245798826218 -0.1461418718099594 -0.17175616323947906 -0.1476937234401703 -0.09473482519388199 -0.057537224143743515 -0.2724045515060425 -0.2017447054386139 -0.14013753831386566 -0.1548277735710144 0.007557688746601343 -0.2436312884092331 -0.007078248541802168 0.05576306954026222 0.09686081111431122 -0.0363878533244133 0.07463596016168594 0.05548791214823723 0.04661738872528076 -0.008292154408991337 -0.059159841388463974 0.12945899367332458 0.12926824390888214 0.0315471775829792 -0.05685516819357872 -0.030231835320591927 0.03517462685704231 0.044407304376363754 0.07635953277349472 0.028170226141810417 -0.023253999650478363 -0.03089464269578457 0.07095053046941757 -0.03553434833884239 -0.08115200698375702 0.017715351656079292 0.051609449088573456 -0.07730364799499512 -0.013053101487457752 -0.061915505677461624 0.05688776820898056 0.015032087452709675 -0.055055197328329086 -0.150930717587471 0.04578672721982002 -0.049670204520225525 -0.11930647492408752 -0.46789035201072693 -0.08673599362373352 0.10499748587608337 -0.021935435011982918 -0.0633653849363327 -0.14398379623889923 -0.15944194793701172 -0.01996457576751709 0.13870415091514587 -0.3664872348308563 -0.11749307066202164 -0.11573228240013123 -0.12195814400911331 -0.0027483610901981592 -0.04299531877040863 -0.035515930503606796 0.06858612596988678 0.10057715326547623 0.05095481500029564 0.040955252945423126 0.04270447790622711 0.03857532888650894 -0.08851758390665054 -0.11643915623426437 0.10030710697174072 0.04292377829551697 -0.040471408516168594 -0.06584656238555908 -0.13062401115894318 -0.09381019324064255 -0.18601882457733154 -0.08209607750177383 -0.05280398949980736 0.16587421298027039 -0.3846408426761627 -0.08652810007333755 0.06032848358154297 -0.04684557020664215 0.020061729475855827 -0.05757347121834755 0.07019766420125961 0.1210290789604187 -0.0494222491979599 0.01311002392321825 -0.02100517228245735 0.06760946661233902 -0.06882692128419876 -0.16652245819568634 0.04693436250090599 0.18604439496994019 0.02188829332590103 0.003110060468316078 -0.11626726388931274 -0.06660875678062439 -0.025588158518075943 0.13691399991512299 0.10289902240037918 0.020534981042146683 -0.012410949915647507 -0.022762494161725044 -0.16665804386138916 0.0048118652775883675 0.04577196016907692 0.037275176495313644 -0.11958517879247665 0.1065724790096283 -0.05539818853139877 0.010726328939199448 0.09616365283727646 0.06543876230716705 0.03771374374628067 -0.023718932643532753 0.08765304833650589 0.038667019456624985 -0.02201663888990879 -0.20091813802719116 0.026596833020448685 0.052651118487119675 -0.01841963641345501 -0.006197690963745117 0.027925394475460052 0.045031629502773285 0.020276295021176338 0.11835797131061554 0.004999756813049316 -0.019139394164085388 0.010024582035839558 -0.04407704621553421 -0.008620022796094418 0.008584389463067055 0.02760520949959755 -0.11287897080183029 0.029342101886868477 -0.07905353605747223 -0.05169040709733963 -0.03400343656539917 -0.034901782870292664 -0.01841317117214203 0.06882413476705551 -0.04805521294474602 -0.020273378118872643 0.20328040421009064 0.014438051730394363 0.007214817684143782 0.2067578285932541 0.09460508078336716 0.01587684080004692 -0.010005838237702847 0.1793750375509262 0.10179121792316437 0.1532626748085022 0.0005000203382223845 -0.1347268968820572 0.0755937397480011 0.13685567677021027 0.07986302673816681 -0.051298074424266815 -0.1401994377374649 0.027822818607091904 0.18032100796699524 0.016903171315789223 0.019644126296043396 -0.10788019001483917 0.11216168105602264 0.03558184206485748 0.005766787566244602 0.008935324847698212 -0.014839204028248787 0.12169197201728821 0.05299775302410126 0.1418248862028122 0.06491310149431229 0.14821729063987732 -0.021861432120203972 0.0888637825846672 0.13930243253707886 0.06732631474733353 0.08506474643945694 0.03308624401688576 0.0620751827955246 0.09555099159479141 0.13076448440551758 0.05407616123557091 0.06825520843267441 0.07737713307142258 0.027942579239606857 0.07204712927341461 -0.030789799988269806 -0.14874060451984406 0.07899128645658493 -0.05078717693686485 -0.08503330498933792 -0.202016681432724 -0.28345733880996704 -0.14448678493499756 -0.06449387967586517 -0.08139903098344803 0.09953396767377853 0.2447405606508255 -0.07005961239337921 0.04302641749382019 0.003409304656088352 0.014990847557783127 0.12466224282979965 0.06850679218769073 0.04342426359653473 0.055531661957502365 0.06164869666099548 -0.07175076007843018 0.014832165092229843 0.0012386107118800282 0.14348168671131134 0.10244283825159073 0.12544123828411102 -0.018667014315724373 0.045683376491069794 0.002733611734583974 0.0008401943487115204 -0.11638402193784714 0.003966478630900383 -0.03367103263735771 -0.007192544173449278 -0.06974153965711594 0.02677447348833084 -0.03407001122832298 -0.009006225503981113 0.07534923404455185 -0.0040145982056856155 0.1065031960606575 0.04148336872458458 -0.05241451412439346 -0.01854844205081463 0.04192061722278595 -0.019109778106212616 -0.10074733942747116 -0.006241173017770052 0.011553040705621243 -0.11223837733268738 -0.0944482609629631 0.09741932153701782 -0.021872572600841522 -0.018753046169877052 0.01174936257302761 -0.11559552699327469 -0.09777612239122391 -0.08881545811891556 -0.1595221608877182 0.07363587617874146 0.0461631715297699 0.023995505645871162 0.009516165591776371 -0.09635958820581436 -0.08198335766792297 0.056715819984674454 0.0025439802557229996 0.051516227424144745 -0.0691213607788086 0.022924523800611496 0.0326523520052433 -0.06288989633321762 0.0819016695022583 -0.03420942276716232 0.01404655072838068 0.08757173269987106 0.020662136375904083 -0.027189146727323532 0.05692688003182411 -0.003451647935435176 0.021500196307897568 0.07743076980113983 0.011087794788181782 -0.0774935632944107 -0.11421151459217072 -0.2383316308259964 0.12246816605329514 -0.03072143718600273 0.010324938222765923 -0.078171506524086 -0.20009395480155945 0.005299787502735853 0.02030392363667488 0.042478229850530624 -0.017399871721863747 -0.09048387408256531 -0.042382776737213135 0.03974113240838051 -0.004499335773289204 -0.10175038874149323 -0.12098120898008347 0.017977943643927574 -0.06640469282865524 0.0180084016174078 0.008151288144290447 0.008949268609285355 -0.17778390645980835 -0.1639936864376068 -0.09162890911102295 0.005353447049856186 0.0888889953494072 0.0678047388792038 -0.021744197234511375 -0.08945774286985397 0.029174935072660446 0.06978724896907806 -0.04053924232721329 0.005471405107527971 0.04597436636686325 0.07206613570451736 0.07784190028905869 -0.00011310722766211256 -0.03838922828435898 -0.0015677312621846795 0.05982206016778946 0.03063560649752617 0.049408476799726486 -0.05738931894302368 0.03758625686168671 0.02714458480477333 -0.13261808454990387 -0.006624327972531319 -0.057542070746421814 -0.0483018197119236 -0.16283062100410461 -0.21558590233325958 -0.06062525510787964 0.05045279860496521 -0.047504376620054245 -0.03388473391532898 0.017308780923485756 -0.12584392726421356 -0.0022073504514992237 0.04763352870941162 0.051693759858608246 0.02633034624159336 0.04524756595492363 0.062254998832941055 0.044236015528440475 0.08278676122426987 0.02526922896504402 -0.18120720982551575 -0.013676424510776997 -0.039253536611795425 0.020503100007772446 -0.029932528734207153 -3.602507786126807e-05 0.23401255905628204 0.2634536325931549 0.07493087649345398 0.035676341503858566 0.06393635272979736 0.1096639335155487 0.0015411273343488574 -0.07441485673189163 0.08241350203752518 -0.030057119205594063 0.1379527598619461 -0.10315194725990295 0.011034850962460041 -0.039393745362758636 -0.0019121388904750347 0.1308831423521042 -0.06428255140781403 0.02558436430990696 0.05406581237912178 0.12994281947612762 0.015631327405571938 0.1967705339193344 0.046193208545446396 0.03898670896887779 0.019244810566306114 0.011423220857977867 -0.01702764257788658 0.05215010419487953 -0.06761243939399719 0.0834745392203331 0.0201015155762434 0.01938934437930584 0.08267690241336823 -0.008725226856768131 0.05553746968507767 0.0184103362262249 0.0593436025083065 -0.049713749438524246 0.05493771657347679 0.041372086852788925 0.09671545773744583 0.06140584871172905 -0.04065115749835968 0.02884812280535698 -0.046607859432697296 -0.07113488018512726 -0.061902355402708054 -0.051879893988370895 -0.05303049087524414 -0.11662629246711731 -0.441665381193161 -0.5068614482879639 -0.22571364045143127 0.0626431480050087 -0.007802311331033707 -0.24873019754886627 -0.1573803573846817 -0.12112542986869812 -0.1045369878411293 -0.02197609283030033 0.07109487056732178 -0.011752809397876263 0.10204336047172546 0.060368459671735764 0.003532849485054612 -0.017101651057600975 0.06733982264995575 0.11927326023578644 0.14828258752822876 0.04524965211749077 -0.011267087422311306 -0.002185618970543146 0.030929289758205414 -0.10658443719148636 -0.02047404833137989 0.02041478268802166 0.06813445687294006 0.1507711559534073 0.0376790352165699 -0.0076814270578324795 0.2372724562883377 0.12617403268814087 0.024977905675768852 0.03378641977906227 -0.0523962564766407 -0.009499122388660908 -0.07640209794044495 -0.0817713737487793 0.06951503455638885 -0.04130835831165314 0.07525940239429474 -0.010252104140818119 0.0352838896214962 -0.042304087430238724 0.0638093650341034 -0.04650925472378731 0.1546168178319931 -0.019002368673682213 -0.07897995412349701 -0.11701247096061707 -0.2623749077320099 -0.24896766245365143 -0.300714910030365 -0.04049786925315857 -0.045230258256196976 0.05531850829720497 0.011789171025156975 0.1677674502134323 0.12855663895606995 0.07377761602401733 0.052580054849386215 0.06102658435702324 0.10205940902233124 0.18523487448692322 0.030084732919931412 0.028662875294685364 0.13685698807239532 0.0870780199766159 0.05578485131263733 0.058689624071121216 -0.005924472585320473 -0.09578678011894226 -0.12936021387577057 -0.03297354653477669 0.05147401988506317 -0.06244763359427452 -0.23138965666294098 -0.22080272436141968 -0.22096547484397888 0.0856742337346077 0.0490284264087677 -0.04772572219371796 -0.14007271826267242 -0.10731048136949539 -0.04345972090959549 -0.034920670092105865 -0.011531161144375801 -0.11902335286140442 -0.044935692101716995 -0.0004646727757062763 0.02911354787647724 0.05355917662382126 0.09734772890806198 0.011282150633633137 0.03190239891409874 0.028607895597815514 0.052118103951215744 0.10340207070112228 -0.04435648396611214 -0.08841124176979065 0.04791567847132683 0.15431088209152222 0.31950539350509644 0.08644096553325653 0.16042663156986237 0.1717732846736908 0.02054736390709877 -0.051097407937049866 -0.0514092892408371 0.04629998654127121 0.10525962710380554 -0.14722111821174622 0.059024032205343246 -0.05963154882192612 0.060210760682821274 -0.08400163054466248 0.017988180741667747 0.06380439549684525 0.038149502128362656 -0.00013718334957957268 0.0752187967300415 0.09826719015836716 -0.014621901325881481 0.009037511423230171 -0.07757516950368881 -0.10609091073274612 -0.00819290429353714 -0.013940404169261456 0.07688862830400467 0.0032203057780861855 0.13129813969135284 0.04426025226712227 0.119215227663517 0.056174758821725845 0.010861601680517197 -0.07730978727340698 -0.13519416749477386 0.057810332626104355 0.03740996867418289 -0.09213276952505112 -0.026038236916065216 0.0072229658253490925 -0.01793222688138485 -0.13762973248958588 0.12830406427383423 0.03225195035338402 -0.05705380439758301 0.0250417347997427 -0.13111896812915802 0.1393970102071762 0.03202278912067413 0.023451058194041252 0.014452246017754078 0.011636510491371155 0.05748666077852249 0.06200234219431877 0.08960209041833878 -0.026552587747573853 0.01611209288239479 0.06013684719800949 0.11626650393009186 -0.01698523573577404 -0.0029884374234825373 -0.02169444039463997 0.06511867046356201 0.0035683598835021257 0.008649288676679134 -0.045835163444280624 0.03074703924357891 0.009224560111761093 0.04822014272212982 0.03515278920531273 -0.08491939306259155 -0.0004553171747829765 0.04952002316713333 0.23551814258098602 0.23637092113494873 -0.031763721257448196 -0.04754146561026573 0.028695570304989815 -0.049854714423418045 -0.09811398386955261 -0.14676299691200256 0.017635440453886986 -0.043222445994615555 -0.014000999741256237 -0.039015404880046844 -0.031570687890052795 -0.02691655047237873 0.06600291281938553 0.01418852899223566 -0.031460560858249664 -0.15703177452087402 -0.030143093317747116 0.08479861915111542 -0.07722243666648865 -0.011310243047773838 0.014958211220800877 -0.10498706251382828 -0.10104475915431976 -0.019219771027565002 0.049701787531375885 0.030750777572393417 0.010153423063457012 0.006544333882629871 0.07233422249555588 0.028979673981666565 -0.016934262588620186 -0.05534613877534866 0.08830426633358002 