0.013383065350353718 0.002040729857981205 0.04337390884757042 0.03092927299439907 0.02742253616452217 -0.0488121435046196 0.005942178424447775 0.005427155643701553 0.008362041786313057 0.022295398637652397 0.005375612527132034 0.039770111441612244 0.0020995941013097763 0.043452076613903046 0.05345539003610611 -0.009474121034145355 -0.03317428380250931 -0.035446036607027054 -0.013743389397859573 -0.01060904935002327 -0.0345630906522274 0.052068762481212616 0.04278476908802986 0.036282408982515335 -0.003127855947241187 0.017406735569238663 0.06935761868953705 0.049473896622657776 0.02508297935128212 -0.03275194764137268 -0.06384098529815674 -0.012586467899382114 -0.025830978527665138 0.07040705531835556 -0.002658640965819359 0.030819643288850784 0.05205605551600456 -0.0218329019844532 0.02990216761827469 -0.06327380985021591 -0.014692096039652824 0.001144405803643167 0.0013372271787375212 0.01859688200056553 -0.03440326079726219 0.022937405854463577 0.012028781697154045 0.04735298082232475 -0.040215469896793365 -0.04761693999171257 0.04339096322655678 0.0519665963947773 0.05662468448281288 0.07025773823261261 0.07630911469459534 0.03002231940627098 -0.00840646494179964 -0.019430387765169144 -0.0029686770867556334 0.020274396985769272 0.021605337038636208 -0.011957470327615738 0.023423047736287117 0.033435240387916565 0.013313334435224533 -0.012698797509074211 0.008163674734532833 0.023806976154446602 -0.019420109689235687 0.06409618258476257 -0.06596384942531586 0.055000197142362595 -0.011053959839046001 -0.048635441809892654 -0.011115663684904575 0.020028842613101006 -0.008137482218444347 -0.05586948245763779 -0.04370009899139404 -0.005570295266807079 0.01815878413617611 0.006365715526044369 0.03342527151107788 0.021699851378798485 -0.009195086546242237 -0.02158193103969097 -0.06004643812775612 -0.024294113740324974 0.02236715890467167 0.05514996871352196 -0.0012689708964899182 0.026163645088672638 0.03484836965799332 0.03324168920516968 0.02476874180138111 0.0382680743932724 -0.06098653003573418 0.051190294325351715 -0.03256618604063988 0.01535719633102417 0.033359214663505554 0.021548641845583916 -0.03044530749320984 0.03343138471245766 0.032907404005527496 0.033853624016046524 0.015590319409966469 0.03152775391936302 0.0629405677318573 0.0369177870452404 -0.06944351643323898 0.0010935806203633547 -0.04372300207614899 0.03700150549411774 -0.06952293962240219 0.017246033996343613 0.020084844902157784 0.014058939181268215 -0.0034214933402836323 0.05291100963950157 