-0.06479987502098083 -0.012315025553107262 -0.18840086460113525 0.04215603321790695 0.01077991258352995 -0.03903856500983238 -0.17999953031539917 0.10360395163297653 0.07304277271032333 0.07090458273887634 0.06566175073385239 -0.2199745774269104 0.021820085123181343 0.0011598988203331828 -0.2231420874595642 0.08061244338750839 0.039793580770492554 0.0691487118601799 -0.06042567268013954 0.04019632562994957 0.12895070016384125 0.0976191833615303 -0.10419339686632156 0.14420312643051147 -0.028831562027335167 0.19303424656391144 -0.15509428083896637 0.1997382938861847 0.10946832597255707 0.04560783505439758 0.05050714313983917 0.1439739614725113 -0.028421912342309952 0.06365711241960526 0.11035594344139099 0.10847309976816177 -0.11866887658834457 -0.03354591503739357 0.05639082193374634 -0.08038575202226639 0.04883357137441635 0.11430897563695908 0.006002441979944706 0.12860646843910217 0.04104524478316307 0.015095674432814121 0.09216897934675217 -0.03767581656575203 0.038012754172086716 0.016741806641221046 -0.133929044008255 0.1981225609779358 -0.2319653034210205 -0.07605668902397156 0.14590515196323395 -0.11447654664516449 0.027536742389202118 0.08085942268371582 0.22610019147396088 0.041657865047454834 0.12851016223430634 0.07183703035116196 0.12712569534778595 -0.03353599086403847 0.01583349145948887 0.0425177738070488 -0.2611961364746094 -0.13063757121562958 0.05123980715870857 0.07520850002765656 0.21360231935977936 -0.02100488729774952 -0.0202527716755867 -0.020299358293414116 0.05635477602481842 0.16117562353610992 -0.0094857607036829 -0.020566390827298164 -0.013208589516580105 -0.026140673086047173 -0.022041449323296547 -0.012119212187826633 -0.012300080619752407 -0.017458688467741013 0.027754437178373337 -0.05725971609354019 -0.04917033016681671 0.146587073802948 -0.0047937729395926 0.12448906898498535 -0.06105310469865799 -0.03177317976951599 -0.05695997178554535 0.17273637652397156 0.00875482801347971 0.10951409488916397 0.047899920493364334 -0.09064258635044098 -0.08250320702791214 0.1916428655385971 -0.05431847274303436 -0.08469866216182709 0.07048144191503525 0.1327463835477829 -0.06698960810899734 0.0863887146115303 0.03770146891474724 -0.022490696981549263 0.116923488676548 0.15040116012096405 -0.2516089379787445 0.05294090509414673 -0.03950250893831253 -0.07649626582860947 -0.05091237276792526 -0.08485065400600433 -0.013173147104680538 -0.03138642758131027 0.0052190013229846954 0.06358358263969421 -0.22006924450397491 -0.001524674124084413 -0.06363903731107712 0.043660614639520645 -0.04161670804023743 0.0171055868268013 0.09817250072956085 -0.06466034799814224 0.1906137317419052 0.13580410182476044 -0.17109912633895874 -0.11473540961742401 0.0962657779455185 0.07146810740232468 -0.04171491414308548 0.013343184255063534 0.07176779955625534 -0.021039118990302086 -0.042002446949481964 0.05727815255522728 -0.010429782792925835 0.04086783528327942 -0.05922101065516472 0.01486967969685793 -0.09888796508312225 0.16970385611057281 -0.1273299902677536 -0.05320356786251068 0.08306781947612762 -0.06194913014769554 0.06673593074083328 0.13318167626857758 -0.10840903222560883 -0.12415654957294464 0.07332094013690948 0.23558185994625092 0.23584938049316406 0.04426340386271477 0.11173023283481598 0.01083867996931076 0.10444421321153641 0.09033512324094772 -0.07378000020980835 0.12549318373203278 0.1376369446516037 0.12484874576330185 -0.05905158072710037 0.1455639749765396 -0.08206149935722351 -0.05135238543152809 0.0020229534711688757 0.09543665498495102 -0.14318954944610596 -0.16608308255672455 -0.1152736023068428 -0.13357912003993988 0.18227896094322205 -0.055929455906152725 0.08487430214881897 -0.2004205584526062 0.1197291761636734 0.01546239573508501 -0.0463130921125412 -0.02132987231016159 -0.11780959367752075 0.08195950090885162 -0.029840892180800438 -0.0525079146027565 -0.017647795379161835 -0.032541465014219284 0.1270405799150467 -0.07692039757966995 -0.03194545581936836 0.054118428379297256 -0.05915883928537369 0.09122200310230255 -0.013253645040094852 -0.024299928918480873 0.007044720463454723 -0.02055899053812027 -0.021584270521998405 -0.04103640094399452 0.028640523552894592 -0.00876888819038868 -0.12352816760540009 -0.06033417582511902 -0.04838627576828003 0.02136853151023388 0.02963649481534958 0.0973190888762474 -0.040204036980867386 0.06415706127882004 -0.03452187031507492 0.050757795572280884 0.01527527067810297 0.03791578859090805 -0.03739180043339729 -0.0025070863775908947 0.12235983461141586 0.02341805398464203 -0.20342759788036346 0.025464246049523354 -0.06125297024846077 -0.014072819612920284 0.15860433876514435 -0.022386522963643074 -0.015877077355980873 0.010942747816443443 0.043671585619449615 0.020647212862968445 0.11958517134189606 -0.09930172562599182 -0.07513664662837982 -0.04531765729188919 -0.057509079575538635 -0.05553073808550835 0.04340106621384621 -0.07222936302423477 0.0908193364739418 -0.019794750958681107 0.051618125289678574 0.04234285280108452 -0.18292410671710968 -0.05363471433520317 -0.1903824806213379 0.003066119272261858 0.12293918430805206 -0.06762247532606125 0.15427826344966888 0.15542851388454437 0.10880613327026367 -0.10043180733919144 -0.13974426686763763 0.014238372445106506 -0.20261862874031067 0.010958955623209476 -0.08438849449157715 0.04024273902177811 0.048131559044122696 0.01791469193994999 -0.061399780213832855 -0.006042974069714546 0.041348185390233994 0.06576292216777802 -0.02836134098470211 0.2073214203119278 0.08013634383678436 0.12104886770248413 0.03995422273874283 0.0406365692615509 0.01629786193370819 0.1345120519399643 0.15028852224349976 0.12854799628257751 -0.14749841392040253 0.21583716571331024 0.07766732573509216 -0.12422943860292435 0.1586519181728363 -0.0026840660721063614 0.13075688481330872 -0.11426737159490585 -0.04934408515691757 0.06422064453363419 -0.23033536970615387 -0.09324417263269424 0.12574423849582672 0.19010502099990845 -0.06123889610171318 -0.07667621970176697 0.13413003087043762 -0.05398149788379669 0.06279722601175308 0.1365225613117218 -0.0495760552585125 0.034981511533260345 0.1577215939760208 0.0633983314037323 0.0021681049838662148 0.03710121288895607 0.16367629170417786 0.1258038431406021 0.01623743772506714 0.03721310570836067 -0.02074226550757885 0.155300110578537 0.008050643838942051 -0.04206088185310364 0.12549744546413422 0.029514947906136513 0.02473738230764866 -0.1018814742565155 -0.056946154683828354 -0.023524748161435127 0.025330035015940666 0.011877872981131077 0.07250312715768814 0.02258884347975254 0.04459574073553085 -0.049339551478624344 -0.02239947021007538 0.06783689558506012 0.019540073350071907 0.007888097316026688 -0.0463244765996933 0.0011852761963382363 0.021455489099025726 0.007477456238120794 0.0028461136389523745 0.02750410884618759 -0.0008245448698289692 0.011852552182972431 -0.02186346985399723 -0.004712006542831659 0.09590621292591095 0.019090035930275917 -0.05548829585313797 0.027558553963899612 0.04964563250541687 0.09322530031204224 -0.134760782122612 -0.012622669339179993 0.08136371523141861 0.1555367261171341 0.03467089682817459 -0.10476591438055038 -0.0023239105939865112 0.1507851630449295 0.014248625375330448 -0.15647545456886292 -0.06806524842977524 0.21331371366977692 -0.05786878615617752 0.05859111249446869 0.07551158219575882 0.09289003908634186 0.04623812437057495 -0.09417293220758438 -0.005631356965750456 -0.015018962323665619 -0.05462641641497612 0.021867573261260986 -0.03365492448210716 0.22613057494163513 -0.026758447289466858 -0.023430101573467255 0.026543624699115753 0.0632491409778595 -0.03010399080812931 -0.057564280927181244 0.08113320171833038 0.02088824473321438 0.12088600546121597 0.2138211876153946 0.003421566914767027 0.07154212892055511 -0.047041941434144974 -0.031461674720048904 -0.029587367549538612 -0.026912221685051918 0.20084841549396515 0.15081501007080078 -0.10286395996809006 -0.1029370054602623 0.2658065855503082 -0.06936299055814743 -0.16494986414909363 -0.11726590991020203 0.10173841565847397 0.0953686311841011 -0.007076673209667206 0.005162414629012346 0.0626022145152092 0.004086576402187347 0.14441372454166412 -0.029838956892490387 -0.28239262104034424 0.08527928590774536 -0.09899086505174637 -0.014645659364759922 0.04329642280936241 0.19508832693099976 0.0722474604845047 0.15329797565937042 0.0068593923933804035 -0.06600409746170044 0.10663268715143204 -0.07857922464609146 0.02620907872915268 0.029488641768693924 -0.20144391059875488 0.06321828812360764 0.10837422311306 -0.09727167338132858 0.12777622044086456 0.07761728763580322 -0.2077852040529251 0.11962205171585083 -0.02741086855530739 -0.005870083346962929 -0.14024260640144348 0.025128519162535667 0.13382206857204437 0.03736862540245056 0.05778900533914566 -0.04901472106575966 -0.09378261119127274 0.011857286095619202 0.1880396455526352 0.009228670969605446 0.029673077166080475 0.19844450056552887 0.105738565325737 -0.03488945588469505 0.0020657777786254883 0.15534543991088867 0.07417895644903183 0.054152972996234894 -0.031078238040208817 -0.028472717851400375 0.08343994617462158 0.06321842968463898 0.05707034468650818 0.04899056628346443 0.057002775371074677 0.05804187431931496 -0.04082078859210014 0.0991542637348175 -0.00952479150146246 -0.04767740145325661 -0.03307817503809929 -0.11741089075803757 -0.036291491240262985 0.04984008148312569 0.03539368882775307 0.09006627649068832 0.03357473388314247 -0.02662345953285694 -0.07256312668323517 0.025818059220910072 -0.002910941606387496 0.027017705142498016 -0.05200468376278877 0.038654875010252 -0.11656699329614639 0.19179075956344604 0.1302819550037384 -0.12605199217796326 0.15835316479206085 0.02502400241792202 -0.15115509927272797 -0.02649036981165409 -0.017690669745206833 0.10661304742097855 0.0295716542750597 -0.17097800970077515 -0.024037936702370644 0.11821615695953369 0.06403033435344696 0.02716635912656784 -0.10311716049909592 -0.027892716228961945 0.18149946630001068 0.07446343451738358 0.23493114113807678 0.010476750321686268 -0.07867661118507385 0.0032037352211773396 -0.10334298759698868 -0.12005960941314697 -0.07267508655786514 -0.04651293531060219 -0.04106245934963226 -0.006241723895072937 0.004911764524877071 0.02241493947803974 0.05906723812222481 -0.07423150539398193 -0.06436677277088165 0.0782967284321785 0.099200539290905 0.039367325603961945 0.08544867485761642 -0.13559991121292114 -0.03400662913918495 -0.20829002559185028 -0.05674058943986893 0.12735672295093536 0.07122157514095306 0.09076535701751709 0.03308408334851265 -0.01690414734184742 0.06420474499464035 0.09254622459411621 0.10012421756982803 -0.011234790086746216 -0.2075835019350052 -0.08648300915956497 -0.008516400121152401 -0.017619937658309937 -0.03246813267469406 0.07981666177511215 0.015281826257705688 -0.1055373102426529 -0.0651310533285141 -0.05884959176182747 0.06594689935445786 -0.029430069029331207 0.015620768070220947 -0.061689019203186035 -0.09986792504787445 -0.005815834738314152 0.06693732738494873 0.16098961234092712 0.13962224125862122 0.14438840746879578 -0.11068229377269745 0.074486143887043 0.014272862114012241 0.20902019739151 -0.053499095141887665 -0.005923006217926741 0.11869325488805771 0.028712088242173195 -0.009057284332811832 -0.0418158620595932 -0.019264498725533485 0.05188039690256119 0.04628254845738411 -0.0058274902403354645 -0.05857464671134949 0.06982094049453735 0.05386567488312721 0.09056629240512848 0.00010400763130746782 0.018766572698950768 0.02834201790392399 -0.08940289169549942 -0.06683862954378128 -0.028054090216755867 0.03903017193078995 -0.09449119865894318 0.06096307933330536 0.06270232796669006 0.04897083714604378 -0.04376666992902756 0.02622825838625431 0.0617082417011261 -0.07086116820573807 -0.027588874101638794 -0.06023571267724037 0.19641894102096558 0.18162785470485687 -0.09606634080410004 -0.11166545003652573 0.004945746622979641 0.0007334002293646336 0.01920504681766033 -0.053211189806461334 0.15495061874389648 0.1492980718612671 -0.054753344506025314 -0.05056370422244072 0.06060773506760597 -0.05554354935884476 0.0906381756067276 0.05375927686691284 -0.06563146412372589 0.048719149082899094 -0.050544410943984985 -0.10625503212213516 0.04726960137486458 -0.07844527810811996 0.09750834107398987 -0.057998817414045334 0.026166142895817757 0.0008873306214809418 0.03907718136906624 0.022074401378631592 -0.028352981433272362 0.04697209596633911 -0.03983045369386673 -0.014169039204716682 -0.02984226867556572 0.05955531448125839 0.024023044854402542 0.051859576255083084 0.011591196060180664 0.029440229758620262 0.024259652942419052 -0.06717880815267563 -0.0656634047627449 -0.11847279965877533 0.019201744347810745 -0.02458212338387966 0.029338829219341278 -0.006039692088961601 -0.056147243827581406 0.010534439235925674 -0.02024654857814312 -0.06975959241390228 -0.042889926582574844 -0.09938281029462814 0.011683005839586258 -0.09636547416448593 -0.08652377128601074 0.012430155649781227 -0.10880027711391449 -0.010978125967085361 0.0632895678281784 -0.03998442739248276 -0.043962642550468445 -0.09629584103822708 0.03436870127916336 0.055107224732637405 -0.041162434965372086 -0.0003349112521391362 -0.06510128080844879 -0.028860077261924744 0.0677294135093689 -0.0760185718536377 -0.033835072070360184 0.07841648161411285 -0.0690653994679451 -0.14687873423099518 0.04466146603226662 -0.10679797828197479 -0.09748943150043488 0.01563723385334015 -0.030539261177182198 0.04396040737628937 -0.02494579553604126 -0.11424717307090759 0.010452327318489552 -0.021233215928077698 -0.14271272718906403 -0.05423719808459282 -0.07896345108747482 -0.08410730212926865 0.032018132507801056 -0.10743915289640427 0.04442185163497925 -0.050587888807058334 -0.14002646505832672 -0.00569388410076499 -0.08209378272294998 -0.07464764267206192 -0.10546132177114487 -0.08206512778997421 -0.1330685317516327 0.02484474889934063 0.02643943578004837 -0.07929844409227371 0.07538746297359467 0.06560873240232468 -0.01650303415954113 -0.053372591733932495 -0.024513322860002518 0.07527608424425125 -0.050335753709077835 -0.04584422707557678 0.0534953847527504 0.08713844418525696 -0.03917637839913368 -0.005140706896781921 0.0006650372524745762 0.010214501060545444 -0.10286278277635574 0.04706324636936188 -0.0014545195735991001 -0.017338208854198456 -0.11093033850193024 -0.11381734162569046 -0.043245378881692886 0.061700064688920975 0.009579667821526527 -0.04247391223907471 0.03675488382577896 -0.07052873820066452 0.012851395644247532 -0.09302160888910294 0.03553854301571846 0.04553762823343277 0.05153592675924301 -0.08867952227592468 -0.08257994800806046 -0.08435866981744766 0.006879936903715134 0.002530524041503668 -0.030306121334433556 -0.039993394166231155 -0.010381175205111504 0.02425333485007286 0.02158929593861103 -0.05502445250749588 0.024879658594727516 -0.07754988223314285 0.041957788169384 0.055284976959228516 -0.04476621001958847 0.020003460347652435 -0.04855051636695862 -0.061692651361227036 0.01584438420832157 -0.008695012889802456 0.04653620719909668 0.07137815654277802 0.05712760239839554 -0.1403963267803192 -0.04014694690704346 0.06020195037126541 -0.1995314061641693 0.059285324066877365 -0.1083502247929573 -0.11846180260181427 -0.1401410698890686 0.0046492465771734715 0.04517091065645218 0.0008298492175526917 0.04878278076648712 -0.08755939453840256 0.03491097688674927 0.005851441994309425 0.021208129823207855 0.045966390520334244 0.06671515107154846 -0.01737968623638153 -0.032962165772914886 -0.05347297340631485 0.037170764058828354 0.02767246775329113 -0.0736604705452919 -0.14114218950271606 -0.04679446667432785 -0.06720656901597977 -0.16245365142822266 0.0681234672665596 -0.0018565605860203505 0.035502705723047256 -0.0058183795772492886 -0.012667044065892696 -0.0883057489991188 0.053298983722925186 0.047844890505075455 -0.05554015561938286 0.04633417725563049 0.041996028274297714 -0.019221369177103043 -0.024533750489354134 0.033738452941179276 -0.09742021560668945 0.022152619436383247 0.01900307461619377 0.12218039482831955 -0.00014264391211327165 -0.032700903713703156 0.10887891799211502 -0.13889208436012268 -0.15770256519317627 0.03207411244511604 -0.10772337019443512 -0.10694798082113266 0.05059778317809105 -0.13370516896247864 -0.0699167251586914 -0.0719626322388649 -0.05635402351617813 -0.039286013692617416 -0.07389682531356812 -0.14484210312366486 -0.019739365205168724 -0.014145617373287678 -0.11506350338459015 -0.05849732458591461 -0.09085935354232788 -0.09132374823093414 0.05373017117381096 0.06168528273701668 -0.05900949612259865 -0.058128129690885544 -0.0551392063498497 -0.034069593995809555 0.04333939775824547 0.002469950821250677 0.07602737098932266 0.04699099808931351 0.08075512200593948 0.013535323552787304 -0.0022656230721622705 -0.013821207918226719 -0.04171542823314667 -0.0589216873049736 -0.0005873905029147863 -0.10512249916791916 -0.12203747034072876 -0.09997406601905823 0.05033086612820625 -0.0002340083010494709 0.008730543777346611 -0.0291800145059824 -0.1583983153104782 -0.05423600226640701 -0.08312693983316422 -0.115061916410923 0.11595534533262253 0.07357889413833618 -0.09088315814733505 -0.03457089886069298 0.09408648312091827 -0.15598474442958832 0.13239116966724396 0.0627603605389595 0.06548604369163513 0.016149908304214478 -0.03535950556397438 0.012851284816861153 0.05004746839404106 -0.11483682692050934 0.07493001222610474 -0.0014420192455872893 0.030922990292310715 -0.003407614305615425 0.05499979853630066 -0.04506494104862213 -0.04062369093298912 -0.005134619306772947 -0.09088961780071259 -0.05807875096797943 -0.09191302210092545 -0.09303700178861618 -0.026794372126460075 0.1258791834115982 -0.0738966166973114 -0.09167557954788208 0.005568527150899172 -0.00371149810962379 0.016713425517082214 0.006553290411829948 -0.0018426382448524237 -0.04729676991701126 0.04921150580048561 0.06416688114404678 0.05559222027659416 0.02477956935763359 -0.01677226647734642 0.005556938238441944 0.1983938217163086 0.17453068494796753 -0.05228115990757942 0.031989824026823044 0.06511466205120087 -0.11120010912418365 0.20960937440395355 0.05455831065773964 -0.12041216343641281 0.04077040031552315 -0.0031460635364055634 -0.04787173867225647 0.1491214781999588 0.016455696895718575 -0.01542620174586773 -0.13450263440608978 0.0196651853621006 0.08702858537435532 -0.05942092463374138 -0.19624340534210205 0.0007330090156756341 0.16286885738372803 -0.07745811343193054 -0.04133320599794388 0.10008084028959274 -0.04043452814221382 0.058150846511125565 0.05372355878353119 0.015233675017952919 0.0185820534825325 0.1241428330540657 0.10102789103984833 0.19965854287147522 -0.17638958990573883 -0.17639045417308807 0.12900984287261963 0.06894300878047943 0.11121512204408646 -0.08121266961097717 0.10554389655590057 -0.03495446965098381 0.07476823776960373 -0.06275893747806549 -0.18035566806793213 0.07571088522672653 -0.01974494569003582 0.011585024185478687 -0.04990695044398308 0.018478725105524063 -0.08778424561023712 -0.09506530314683914 -0.04114926978945732 -0.09134017676115036 0.08822862058877945 -0.0278832595795393 0.06637885421514511 0.032310329377651215 0.0711384266614914 -0.04223575070500374 -0.02118852734565735 0.08598460257053375 0.1036771759390831 0.016299759969115257 0.07543492317199707 -0.00020911608589813113 0.07549694925546646 0.05415787920355797 -0.04105046018958092 -0.0017816792242228985 -0.13479971885681152 -0.11498813331127167 0.05566965043544769 0.09589554369449615 -0.05149802565574646 -0.07116778939962387 -0.09330359101295471 -0.05043407157063484 0.037479519844055176 0.021890124306082726 0.1182330921292305 0.16640199720859528 -0.04512764886021614 -0.0006898649735376239 0.03464804217219353 0.049972765147686005 0.14795006811618805 0.08529075980186462 -0.052982356399297714 0.015205779112875462 0.22916504740715027 -0.0016528585692867637 -0.02769193984568119 0.07013929635286331 0.01098605152219534 0.013118372298777103 -0.03573596477508545 0.009040651842951775 -0.12342175096273422 -0.031091246753931046 -0.05965910479426384 0.03753155097365379 0.041405100375413895 0.037005625665187836 -0.12086225301027298 -0.08085798472166061 0.03747929632663727 0.02368840016424656 -0.057972438633441925 0.044652681797742844 0.0753372460603714 -0.018516870215535164 0.04090015962719917 0.056199878454208374 -0.017134791240096092 -0.05523814260959625 0.001656247302889824 -0.04438457265496254 -0.07128273695707321 -0.03944569453597069 0.002678998513147235 0.02746821939945221 -0.04979591444134712 -0.05692252144217491 -0.034814056009054184 -0.06992939859628677 -0.03674013540148735 -0.030970335006713867 -0.044489841908216476 -0.015805842354893684 -0.102840356528759 0.033212240785360336 0.05064918473362923 -0.030147526413202286 -0.05490129813551903 -0.02858736552298069 -0.08805979043245316 -0.016254018992185593 -0.09188846498727798 -0.09261231124401093 -0.02665722742676735 -0.0940459594130516 -0.05259057134389877 0.03324781730771065 -0.05667393282055855 0.02748747728765011 -0.0466301403939724 -0.04432635381817818 -0.0389450266957283 -0.02569943107664585 -0.04051337391138077 -0.021854838356375694 -0.0660577192902565 0.020150043070316315 0.0621749572455883 -0.07544350624084473 -0.06375338137149811 -0.009141521528363228 -0.06175503879785538 -0.0638975203037262 0.010889100842177868 -0.09975804388523102 0.02152208425104618 0.02306816726922989 0.053502682596445084 0.02039329893887043 -0.061635226011276245 -0.0996670350432396 0.017818769440054893 -0.07461992651224136 -0.0380549393594265 0.07927315682172775 0.04570840299129486 -0.03420945256948471 0.08417651802301407 0.07383724302053452 0.04597921669483185 0.06451849639415741 0.029916677623987198 0.016673361882567406 0.009421933442354202 0.06906827539205551 -0.006360155064612627 0.07932975888252258 -0.018143335357308388 -0.010878194123506546 -0.06755154579877853 -0.01935422420501709 0.04460694268345833 0.021498315036296844 -0.09651289880275726 0.03294532373547554 -0.09789863973855972 -0.020360559225082397 -0.07094751298427582 -0.0008653114782646298 -0.014467739500105381 0.061334095895290375 -0.1267414540052414 0.0722271203994751 -0.04733181744813919 0.003202723804861307 0.034313052892684937 -0.04225044697523117 -0.001621939125470817 0.02260608598589897 0.006899206433445215 -0.07757644355297089 0.06246184930205345 -0.08143690973520279 -0.10736720263957977 -0.08087573945522308 -0.06370837241411209 0.0033098335843533278 -0.08054858446121216 0.1317634880542755 0.05568547919392586 0.1940859854221344 0.00509339664131403 -0.10620333254337311 -0.030911963433027267 0.04316787049174309 0.187994584441185 -0.09817535430192947 -0.04270973801612854 0.053904302418231964 0.13467195630073547 0.09568414837121964 0.23307573795318604 0.12254846096038818 0.07846676558256149 -0.054982904344797134 -0.03234869986772537 -0.024042028933763504 -0.20378553867340088 0.054831042885780334 -0.0538560152053833 -0.011583211831748486 -0.08008313179016113 0.26605939865112305 -0.1596815586090088 0.15054592490196228 -0.21226783096790314 0.05715552717447281 -0.05660295486450195 0.09241217374801636 0.07265277951955795 0.014896279200911522 0.09367594122886658 -0.05286547541618347 -0.05479017272591591 -0.10660860687494278 0.0225506704300642 0.024513140320777893 0.04077760502696037 -0.02603456936776638 -0.00013184858835302293 -0.046947136521339417 0.19201511144638062 0.03589632362127304 -0.0044308812357485294 -0.05679117888212204 -0.15023459494113922 0.05855400487780571 0.01920982263982296 -0.17523907124996185 0.027076680213212967 0.05486733838915825 -0.10144874453544617 0.09670806676149368 0.03615688905119896 -0.31066468358039856 -0.10251502692699432 -0.05612119659781456 0.14207039773464203 -0.1678602546453476 -0.024141991510987282 0.1245575025677681 -0.01952870935201645 0.35125693678855896 0.03540956601500511 0.1313636302947998 0.11107237637042999 0.0841389000415802 0.15150262415409088 -0.02503534033894539 0.22612948715686798 0.1725471168756485 0.005167506169527769 -0.008537066169083118 0.07443691790103912 0.0016781745944172144 -0.061028070747852325 0.009829310700297356 0.02494656667113304 -0.0678212121129036 -0.07332830876111984 -0.05355210602283478 0.0930590108036995 0.1679302155971527 -0.045980338007211685 -0.027423249557614326 0.018083622679114342 -0.02888384647667408 -0.058672163635492325 0.004453453700989485 -0.054618239402770996 -0.2397785484790802 -0.024735305458307266 0.008006326854228973 0.0017896053614094853 -0.004906573798507452 0.1311352699995041 0.11204196512699127 -0.26561567187309265 -0.03650514781475067 0.037118688225746155 -0.01965934969484806 -0.02282172255218029 -0.006930528674274683 0.14347733557224274 -0.005915878806263208 -0.15151607990264893 0.02588951401412487 0.15232783555984497 0.06961691379547119 0.008741958998143673 0.05999283492565155 0.10261689126491547 -0.08548980206251144 -0.023879775777459145 0.007745925337076187 -0.11165501922369003 -0.05144508183002472 0.19286510348320007 0.03067777119576931 0.08662822097539902 0.029741311445832253 -0.026889247819781303 0.04726351052522659 0.04289659857749939 -0.09971524029970169 0.07846084982156754 -0.012669206596910954 -0.015584338456392288 -0.08667722344398499 -0.05606803297996521 -0.11712523549795151 -0.07574105262756348 0.0509953536093235 0.014837555587291718 -0.08067919313907623 -0.04520212858915329 -0.041822683066129684 0.0003894304682034999 0.042422834783792496 -0.024980569258332253 -0.05019185692071915 -0.021638620644807816 -0.07518607378005981 -0.03277814760804176 -0.08321892470121384 -0.05881950631737709 0.028922468423843384 0.033563822507858276 -0.0335957407951355 0.028927117586135864 -0.11686931550502777 -0.11353060603141785 0.040724724531173706 0.033065762370824814 -0.004604409448802471 -0.09094025939702988 -0.09698842465877533 -0.012171534821391106 -0.055817753076553345 0.0031484507489949465 -0.006895092781633139 -0.022356992587447166 -0.011002181097865105 -0.07439719140529633 0.00424617063254118 0.015257613733410835 -0.011353526264429092 0.08473358303308487 -0.01928263157606125 -9.172347199637443e-05 -0.08554961532354355 -0.044102560728788376 -0.04754466935992241 -0.08083243668079376 -0.0674929991364479 -0.11636261641979218 -0.02727939747273922 0.027152162045240402 -0.07299613207578659 -0.07002121210098267 -0.030113091692328453 -0.07874500006437302 -0.0033173381816595793 -0.0007702253642491996 -0.10000806301832199 -0.06545618176460266 -0.1385311335325241 0.02915593795478344 -0.05522536113858223 0.0497945174574852 -0.12327110022306442 0.07875723391771317 -0.038762468844652176 0.01016500499099493 0.06060227006673813 0.02094314433634281 0.07449454069137573 -0.05627122521400452 -0.018926475197076797 -0.0676332488656044 0.0011094255605712533 0.008752579800784588 0.022069934755563736 0.09053415805101395 0.06428936868906021 -0.08682213723659515 0.011000755243003368 -0.0771080031991005 -0.07783856242895126 -0.11243553459644318 -0.07227475196123123 0.024227438494563103 -0.035382866859436035 -0.07973308116197586 -0.035911597311496735 -0.08704166114330292 -0.07550486922264099 -0.0019144548568874598 -0.07036669552326202 0.05775095149874687 -0.07146279513835907 -0.12805922329425812 -0.08030430227518082 0.05164294317364693 -0.037669166922569275 -0.03052509017288685 0.026567041873931885 -0.1173563227057457 -0.0346529446542263 -0.07619915902614594 -0.08076109737157822 -0.02067507430911064 -0.05597379058599472 0.0397128090262413 0.008950524963438511 -0.07394648343324661 0.05911962687969208 -0.00589262880384922 0.09092926234006882 0.03651033341884613 -0.09731520712375641 0.03237408027052879 -0.0014154495438560843 0.005743301007896662 0.22269999980926514 -0.13786445558071136 0.08993284404277802 0.0011999795679003 0.14000260829925537 0.09818941354751587 -0.02893090806901455 -0.007925194688141346 0.013321926817297935 -0.016701115295290947 -0.07138025760650635 0.07613136619329453 0.0010833644773811102 0.13564348220825195 -0.15499332547187805 0.05639545992016792 0.12376963347196579 -0.01604481227695942 -0.03672388568520546 -0.20158913731575012 -0.06647200882434845 -0.11288484185934067 0.11924462020397186 0.019428543746471405 -0.029004938900470734 -0.05616604536771774 -0.26961034536361694 0.09071345627307892 -0.07428478449583054 0.19206485152244568 0.14282441139221191 -0.05260395258665085 -0.018496327102184296 0.07736635953187943 0.050914324820041656 -0.19137272238731384 0.08060057461261749 -0.10712918639183044 -0.14991647005081177 -0.08728639036417007 -0.07094056159257889 0.22572287917137146 0.01863284222781658 0.0791059285402298 -0.06701534986495972 -0.18824197351932526 0.14791014790534973 0.11572872847318649 -0.22920459508895874 0.1803518384695053 -0.0064018964767456055 0.07138177752494812 -0.29471269249916077 0.13307617604732513 0.031536757946014404 0.04188622534275055 -0.025586139410734177 0.006269058678299189 -0.03246137499809265 0.01548953726887703 0.22160427272319794 0.06241857632994652 -0.12581558525562286 0.0851425752043724 -0.06839156895875931 0.01201812457293272 0.02483074553310871 -0.05421905592083931 -0.030931619927287102 -0.09039284288883209 -0.05212214216589928 -0.03754536435008049 -0.037171561270952225 -0.07185147702693939 0.03977532684803009 0.06386170536279678 -0.062366947531700134 0.10643289238214493 0.09018615633249283 -0.07292234152555466 -0.054773587733507156 0.026329319924116135 0.08867797255516052 -0.020484425127506256 0.05003201961517334 0.20661845803260803 0.14268554747104645 -0.09707678109407425 -0.17254839837551117 0.003230051835998893 0.10030920058488846 0.057322751730680466 0.04590333625674248 0.059530649334192276 0.07151830941438675 0.05949906259775162 0.022595692425966263 -0.014654424972832203 -0.01803506724536419 0.08627554029226303 -0.010457055643200874 0.12311936914920807 0.10782299935817719 -0.1355126053094864 0.11816916614770889 0.11421174556016922 0.00996930431574583 -0.06707978248596191 -0.07237221300601959 0.09090124815702438 -0.08682777732610703 0.14218775928020477 0.05618668720126152 -0.1694762259721756 0.11314065754413605 0.01798124611377716 -0.20392972230911255 0.02568024769425392 0.04897526279091835 -0.03151079639792442 0.1502312868833542 -0.09361347556114197 0.0032870429567992687 0.08618444949388504 0.1159365326166153 -0.064752958714962 -0.1139235869050026 0.16253666579723358 -0.2598768472671509 0.02027381956577301 0.06351611763238907 -0.0009836677927523851 -0.01596672460436821 -0.18884949386119843 -0.051916301250457764 0.05004517734050751 0.0916575938463211 -0.12590180337429047 -0.094992496073246 0.12829534709453583 0.0709008127450943 0.05932176113128662 0.1232164055109024 -0.020564842969179153 0.11755602061748505 0.012499005533754826 0.05843273550271988 0.07404455542564392 -0.048319824039936066 0.11989109218120575 0.07048498094081879 0.017236018553376198 0.05577551946043968 -0.07410374283790588 0.07089642435312271 -0.1608395278453827 -0.0691627562046051 0.046314679086208344 -0.1669812947511673 -0.03238344565033913 0.04908020794391632 0.13595548272132874 0.056953512132167816 0.023735659196972847 0.0955125093460083 -0.18977512419223785 0.11557862907648087 0.19621388614177704 0.12076397985219955 -0.01758491061627865 -0.13937893509864807 0.04660401865839958 -0.08711899071931839 0.10685320943593979 -0.006886276416480541 0.08499759435653687 0.13026630878448486 -0.07385938614606857 0.09892874956130981 0.04659488424658775 0.08955155313014984 0.03930533677339554 0.08507228642702103 -0.02526523359119892 0.07059748470783234 -0.019740326330065727 0.04590949788689613 0.04005907103419304 0.033529989421367645 -0.02358536794781685 0.06443414092063904 0.03108931891620159 0.032064203172922134 0.05788169056177139 -0.027636753395199776 0.0952831283211708 -0.03832444176077843 0.0737777054309845 -0.048573706299066544 0.003966588526964188 -0.0764712244272232 -0.0395708829164505 -0.0665983334183693 -0.1260843575000763 -0.06468071788549423 0.07063979655504227 0.03239909186959267 -0.024937419220805168 -0.03457123413681984 -0.10787906497716904 0.02128366194665432 -0.007568666711449623 0.11641085147857666 0.16686534881591797 0.00018204761727247387 0.062315694987773895 -0.053175851702690125 0.05821353942155838 -0.024022195488214493 -0.050604596734046936 6.239009962882847e-05 0.045534905046224594 -0.07421697676181793 0.11053850501775742 -0.01839621737599373 0.1598806530237198 0.05086518079042435 -0.03819948062300682 -0.057382985949516296 0.05058352276682854 0.03200466185808182 0.02169983461499214 -0.011952477507293224 -0.0765223354101181 -0.08197645097970963 -0.08905886113643646 -0.06336214393377304 0.05521239712834358 -0.0251021608710289 -0.009352723136544228 -0.09437720477581024 0.04366789758205414 -0.06552930176258087 -0.04866359382867813 -0.06400836259126663 -0.012978615239262581 -0.05294850841164589 0.038694173097610474 -0.046460047364234924 -0.06360543519258499 -0.04730008915066719 -0.0061598108150064945 0.08972007781267166 -0.002587952185422182 -0.025199152529239655 -0.08389425277709961 0.07717447727918625 0.0041874791495501995 0.023553067818284035 -0.0348646380007267 -0.04162401333451271 -0.05705400928854942 -0.0018877582624554634 0.06132836639881134 0.0061644683592021465 -0.0007064981618896127 -0.01173369586467743 -0.04389223828911781 -0.06219026818871498 -0.07139918208122253 0.016506655141711235 -0.04926413670182228 -0.03617241978645325 -0.08496850728988647 -0.0021965084597468376 -0.11406362056732178 0.012308107689023018 -0.03428187221288681 0.0819818526506424 -0.10583985596895218 0.030170543119311333 0.013921166770160198 0.08722801506519318 -0.08104435354471207 0.039547696709632874 0.015106478706002235 0.06318273395299911 0.059221815317869186 0.05931024253368378 -0.006003665737807751 -0.063067227602005 -0.04263469949364662 -0.05980182811617851 -0.011293793097138405 -0.11687251925468445 -0.0030566591303795576 -0.09533840417861938 -0.08768225461244583 -0.027843095362186432 -0.08374009281396866 0.05707245320081711 -0.04226897656917572 -0.027607424184679985 -0.06466642022132874 -0.022530212998390198 -0.014687968418002129 -0.025230107828974724 -0.07659069448709488 -0.0453876256942749 0.06087927147746086 -0.03073633834719658 -0.08146729320287704 -0.03927142173051834 0.06896129995584488 0.018128566443920135 -0.00929675530642271 -0.05861644074320793 -0.09146334230899811 0.03459225594997406 0.05442725494503975 -0.07222451269626617 0.025311527773737907 0.07699978351593018 -0.07229156792163849 0.05065644159913063 0.06805197149515152 -0.027110576629638672 0.006666572764515877 0.013334721326828003 -0.09953922778367996 0.03438744693994522 -0.10287222266197205 0.004836640320718288 0.02087043598294258 0.026919415220618248 -0.05391060933470726 -0.06885004043579102 -0.1019151583313942 0.05388127267360687 0.009733244776725769 -0.034769050776958466 0.00992820505052805 -0.0386383943259716 0.03506814315915108 -0.06285423785448074 -0.005719400476664305 0.08429152518510818 -0.023175235837697983 0.0442984439432621 -0.05325370281934738 -0.06594668328762054 0.0398559644818306 -0.042807236313819885 -0.05482055991888046 0.03875487670302391 0.0034089945256710052 0.2001337856054306 -0.14317424595355988 0.2346733808517456 0.0331512950360775 -0.30015382170677185 0.04578457772731781 -0.09763563424348831 -0.07684169709682465 -0.02668982744216919 -0.0333118699491024 0.12196371704339981 -0.022151561453938484 0.14095543324947357 -0.008888134732842445 0.014785767532885075 0.0445580817759037 0.04779405519366264 0.09263700991868973 0.18228216469287872 -0.08364419639110565 -0.10336650907993317 0.06291002780199051 0.11994699388742447 0.029656197875738144 0.09201159328222275 -0.07271305471658707 -0.04207024350762367 0.03397687152028084 -0.11152037978172302 0.07587931305170059 0.13863731920719147 -0.15448835492134094 0.008070058189332485 -0.18875408172607422 0.006501820869743824 0.17610278725624084 -0.10314662009477615 -0.09087658673524857 -0.03680906444787979 0.2395136058330536 -0.05425870791077614 0.03270209580659866 0.1737872213125229 0.01691543683409691 0.165633425116539 -0.013099972158670425 0.047583576291799545 0.03768613561987877 -0.0472644567489624 0.1860973834991455 0.15680992603302002 -0.11500948667526245 0.09278957545757294 -0.006796469446271658 -0.3511449694633484 0.08670803159475327 0.01367229875177145 0.10732012242078781 0.03225970268249512 0.0034965157974511385 0.03655446320772171 0.15419134497642517 0.250772625207901 -0.03784773871302605 0.10114780813455582 0.025998318567872047 -0.015026097185909748 -0.005293434485793114 -0.01928713731467724 0.05636971816420555 0.14492486417293549 -0.023912273347377777 0.030332736670970917 0.009838447906076908 -0.09377018362283707 0.012539931572973728 -0.09080111235380173 0.01777803897857666 0.01152818650007248 -0.05983002111315727 0.07864701747894287 -0.058577895164489746 0.05265522748231888 0.014805777929723263 0.006623470690101385 0.008351190946996212 0.09268949180841446 0.11266106367111206 -0.02802634984254837 0.13888545334339142 -0.12274054437875748 -0.0981229692697525 -0.013798706233501434 0.12146587669849396 0.05318276584148407 0.10505236685276031 -0.012661322019994259 -0.22983165085315704 -0.03799868002533913 0.017993666231632233 -0.015371267683804035 0.018521593883633614 0.05767387896776199 0.053491219878196716 0.05042935907840729 -0.024002689868211746 -0.016642289236187935 0.1588730663061142 0.03414132818579674 0.061409298330545425 -0.09925665706396103 0.022136114537715912 0.04307136684656143 -0.11092063039541245 0.04327014461159706 0.054672785103321075 0.07200241833925247 0.13253282010555267 0.27755141258239746 0.03361349552869797 0.13068199157714844 0.13488350808620453 -0.00427050469443202 -0.012875692918896675 0.026249606162309647 0.1518608182668686 -0.1134810745716095 -0.13024301826953888 0.1582816243171692 0.2570122480392456 -0.0007031727000139654 0.12453421205282211 0.14391286671161652 -0.1107926219701767 0.052851006388664246 0.062099140137434006 0.01015555765479803 0.04804331064224243 -0.03386661782860756 0.07380668073892593 -0.005344093777239323 -0.028444357216358185 0.13640078902244568 -0.1502336710691452 0.08474303781986237 0.031411103904247284 -0.04819940775632858 -0.08221680670976639 -0.05758420005440712 -0.02710115723311901 0.10217220336198807 0.1895526498556137 0.10272389650344849 0.04453696683049202 -0.16210375726222992 -0.07641363143920898 0.07310295850038528 -0.014350559562444687 -0.04194805771112442 -0.017665280029177666 -0.004963252693414688 -0.028490809723734856 -0.14758282899856567 -0.07940018177032471 0.000641646096482873 -0.15039703249931335 0.06333547085523605 0.06164057180285454 -0.10272982716560364 0.1255333125591278 0.10141396522521973 0.15021878480911255 0.2176351696252823 0.18051137030124664 0.22314004600048065 0.056104108691215515 -0.029002733528614044 -0.03564460203051567 -0.03253993019461632 0.006531642749905586 0.13353648781776428 0.03864827752113342 0.10115936398506165 -0.013136690482497215 0.11339220404624939 0.003904185490682721 -0.031732961535453796 0.04909251257777214 0.0882003903388977 0.0801616758108139 0.13631226122379303 -0.05155555158853531 0.01624472439289093 0.12224674969911575 -0.030568430200219154 -0.08300475776195526 0.001823229482397437 0.07454919815063477 -0.034811221063137054 -0.04202328249812126 0.05733148753643036 -0.014347749762237072 0.1470545381307602 -0.06957857310771942 -0.06271114200353622 0.09591035544872284 -0.07638433575630188 -0.00791149027645588 -0.03727560490369797 -0.20614172518253326 0.06414804607629776 0.015664389356970787 0.16126754879951477 -0.06464426219463348 0.050317518413066864 0.05301465839147568 -0.07355833053588867 -0.11024156957864761 0.25962746143341064 -0.05758671462535858 -0.09483274817466736 0.10079022496938705 -0.06260669231414795 0.08733471482992172 -0.020525306463241577 0.1040821373462677 0.0354197695851326 -0.03873112052679062 -0.17065002024173737 -0.08403415977954865 0.021709172055125237 0.24715514481067657 0.08755467087030411 -0.038173284381628036 0.05989699438214302 0.015928901731967926 -0.07012801617383957 0.011890541762113571 -0.051314577460289 0.08092879503965378 0.16209787130355835 0.13127298653125763 -0.05922276899218559 0.05819522589445114 0.1907035857439041 0.0014931136975064874 -0.0600665919482708 0.07154543697834015 -0.012861288152635098 0.1679134964942932 0.01811966300010681 0.002842349698767066 0.18253636360168457 -0.016003571450710297 -0.04588780552148819 0.057131629437208176 0.036143071949481964 0.0007546260021626949 -0.1619730293750763 0.04058906063437462 0.12501424551010132 0.03937957063317299 -0.057144664227962494 0.03814373165369034 -0.007844739593565464 -0.13864180445671082 0.038180846720933914 0.0033404917921870947 -0.04086737334728241 -0.04157189279794693 -0.13953956961631775 0.031223086640238762 0.017849184572696686 0.035518158227205276 0.13245533406734467 0.18538790941238403 0.0682830810546875 -0.08531063795089722 0.10476607084274292 0.07852625101804733 -0.053083617240190506 0.07536400109529495 0.06105096638202667 0.08633643388748169 -0.16474531590938568 0.07930590212345123 0.11143025010824203 -0.03546914458274841 -0.020582159981131554 -0.08158405125141144 0.12841665744781494 -0.24075140058994293 -0.13350826501846313 0.08292443305253983 0.12381277978420258 -0.11927328258752823 -0.006473719608038664 -0.3005269467830658 0.021993160247802734 0.0018857861869037151 0.046329159289598465 0.048755086958408356 -0.2901321053504944 0.13222548365592957 0.13563597202301025 -0.002646266482770443 0.08478130400180817 -0.15444478392601013 0.0007160265813581645 -0.047028154134750366 -0.01642508991062641 -0.08607719838619232 -0.015009577386081219 0.08884135633707047 0.02457491308450699 -0.0575653538107872 0.03354724869132042 0.033831801265478134 -0.03307681903243065 0.04463432729244232 0.07624363154172897 -0.03711237013339996 0.0005697581800632179 -0.010081845335662365 -0.05705836042761803 -0.08918103575706482 -0.019766204059123993 0.07778149843215942 -0.030749687924981117 0.04161662608385086 0.06834528595209122 -0.108726866543293 -0.08912163227796555 -0.04907279461622238 -0.05803225561976433 0.16833612322807312 0.07304016500711441 0.0985889807343483 0.15916137397289276 0.04598644748330116 0.07671365141868591 -0.11479836702346802 0.2298368215560913 -0.02258649468421936 -0.2524033784866333 -0.011580877006053925 -0.0920569971203804 0.08095821738243103 0.13175447285175323 -0.22494187951087952 0.0057189264334738255 0.0783313736319542 -0.06427372992038727 -0.04594014957547188 -0.018783416599035263 -0.009522608481347561 -0.08105424791574478 -0.04380150884389877 -0.033897195011377335 0.01816558837890625 0.23687434196472168 0.0429232232272625 0.18080280721187592 -0.047082651406526566 0.03583292290568352 0.05523032322525978 -0.11339560896158218 -0.12011358141899109 -0.05494079366326332 -0.026537064462900162 0.14230455458164215 -0.07566030323505402 0.08204816281795502 -0.15837374329566956 0.046585600823163986 0.054412439465522766 0.012606363743543625 0.07244173437356949 0.12294181436300278 0.11181560903787613 -0.06208554282784462 0.10861706733703613 0.1465214192867279 -0.15932244062423706 -0.04852050915360451 -0.021661963313817978 0.06340258568525314 -0.04979902505874634 0.042676642537117004 -0.15483054518699646 -0.036155495792627335 0.010085316374897957 0.06619638204574585 -0.04017006605863571 -0.09018345177173615 0.07017569243907928 0.0002077955286949873 -0.061617493629455566 0.10391193628311157 0.19122722744941711 -0.08519542962312698 0.07001734524965286 0.1760985404253006 -0.006811734288930893 -0.11460647732019424 -0.006564911454916 0.019514625892043114 -0.04394327849149704 -0.11909109354019165 -0.07019320875406265 -0.014650605618953705 0.04258376732468605 0.20217305421829224 0.014381354674696922 -0.009583374485373497 0.08090224862098694 0.17847925424575806 -0.15474644303321838 0.06900294870138168 0.029259558767080307 0.10197238624095917 0.014350410550832748 -0.09908035397529602 -0.020581623539328575 -0.12397323548793793 -0.005453004036098719 0.1176481768488884 -0.05837946757674217 0.14505797624588013 0.16499081254005432 -0.02591187320649624 0.0754767656326294 -0.03967255353927612 0.03465830907225609 0.0957220271229744 0.052483268082141876 0.08563626557588577 -0.029216056689620018 0.08425457775592804 0.055719226598739624 -0.015473544597625732 0.021865222603082657 -0.0740935206413269 -0.08425284177064896 0.04150155931711197 -0.03374218940734863 -0.0010189545573666692 0.12753456830978394 0.015781249850988388 0.003341167001053691 0.168466255068779 0.06617864966392517 0.11843986064195633 -0.04765043035149574 -0.034391678869724274 0.013408779166638851 -0.08428648114204407 0.16347233951091766 0.11304476112127304 0.014870566315948963 -0.06706318259239197 -0.006893438752740622 -0.220783531665802 0.10816312581300735 -0.025943616405129433 -0.180583193898201 -0.0038550894241780043 0.1941099464893341 0.004678929690271616 -0.052940528839826584 -0.013470860198140144 0.15753425657749176 -0.030115697532892227 -0.0767812505364418 0.018988285213708878 0.013440395705401897 0.011001471430063248 -0.07127484679222107 -0.0762048214673996 -0.0400773361325264 0.0768735259771347 -0.022215712815523148 0.13168181478977203 0.09731370955705643 0.18573419749736786 -0.2763162851333618 0.09661545604467392 0.020123710855841637 0.13129563629627228 0.025563407689332962 -0.00953211821615696 0.22347860038280487 0.1146911233663559 0.0765901505947113 0.004858117084950209 0.07015500962734222 -0.06018023565411568 -0.08790081739425659 -0.05170867592096329 0.13813138008117676 0.08357944339513779 -0.25549328327178955 0.056276481598615646 -0.14901013672351837 0.05717823654413223 0.06132616102695465 0.11860780417919159 -0.0683382973074913 -0.07761499285697937 -0.107599176466465 -0.025971820577979088 -0.12436047196388245 -0.16293923556804657 0.06022210791707039 -0.1459721326828003 0.06393799930810928 0.08547437936067581 -0.06461109220981598 0.17966149747371674 -0.003622732823714614 0.06242579221725464 0.07225020229816437 -0.016668573021888733 -0.01564970798790455 -0.07728245109319687 0.07364264875650406 0.0560266450047493 -0.024603785946965218 0.010982354171574116 -0.10917668789625168 0.2216688096523285 -0.01575285755097866 0.021035611629486084 0.028841949999332428 -0.12365633994340897 0.002042310545220971 -0.1879061460494995 0.1541195809841156 -0.26231229305267334 0.05162899196147919 0.08665238320827484 -0.0027098371647298336 0.04884929582476616 0.10348260402679443 0.19406968355178833 0.1574064940214157 0.07281894236803055 -0.3479517698287964 -0.10526124387979507 0.06466175615787506 0.09015437960624695 -0.01979179121553898 0.07572820782661438 -0.018243208527565002 0.04350252076983452 -0.023129981011152267 -0.07238917797803879 0.07443005591630936 -0.07881154865026474 0.05989769101142883 0.0026543771382421255 0.01944832317531109 -0.05079229548573494 0.0985022783279419 -0.09252901375293732 -0.052092645317316055 -0.054027095437049866 -0.09372951835393906 -0.004001717083156109 0.1279158592224121 0.08022501319646835 -0.08866260945796967 -0.20668737590312958 -0.016704363748431206 -0.030730675905942917 0.15977917611598969 0.03484946861863136 -0.028273850679397583 0.1581144630908966 -0.05909612402319908 -0.0614793486893177 0.012799407355487347 0.08290715515613556 -0.01887662336230278 -0.032538194209337234 -0.04569375142455101 -0.05973786488175392 0.06831114739179611 0.14572612941265106 -0.014720108360052109 0.07836594432592392 0.0917637050151825 -0.052153993397951126 0.17446374893188477 -0.04507318139076233 0.057062625885009766 0.057398900389671326 -0.14283771812915802 -0.021856648847460747 0.03017362207174301 0.04560224339365959 0.0179752167314291 -0.2869219183921814 0.0381656177341938 0.1601950079202652 0.1492307335138321 0.056748710572719574 0.12961162626743317 0.08487322926521301 0.05123527720570564 -0.0014522467972710729 -0.13695679605007172 0.07590353488922119 -0.1262543946504593 -0.08336430788040161 -0.007350043393671513 -0.037444233894348145 0.11081717163324356 -0.17101705074310303 0.00046981964260339737 0.06838558614253998 0.05177115276455879 0.026319358497858047 -0.047211017459630966 -0.01821819879114628 0.029430432245135307 -0.0915832668542862 0.052146315574645996 0.07033082097768784 0.07445994019508362 -0.01247723214328289 0.015863342210650444 -0.12786684930324554 0.06284155696630478 0.06995177268981934 -0.27490368485450745 0.05977143719792366 0.0496649444103241 -0.04024697467684746 -0.330539345741272 0.07956778258085251 0.12048494070768356 -0.24132931232452393 -0.29014843702316284 -0.04566417634487152 0.05940252169966698 -0.060502663254737854 0.007474021520465612 0.08353229612112045 -0.1399191915988922 0.007508707698434591 -0.07518093287944794 -0.15351630747318268 0.016318466514348984 0.13129295408725739 0.018039438873529434 0.0645594671368599 -0.008522597141563892 0.022347846999764442 -0.01862267032265663 -0.07530222088098526 0.06838268041610718 0.04607493802905083 -0.08180394768714905 0.18558083474636078 -0.05348886549472809 -0.08730624616146088 0.1569066196680069 -0.013248005881905556 0.05672347545623779 -0.025938572362065315 0.048917073756456375 0.0032811062410473824 0.006624647881835699 -0.02576141059398651 0.02996005117893219 0.032906997948884964 0.11402122676372528 -0.004906148184090853 -0.05851411074399948 0.024849655106663704 -0.09272588044404984 0.16878652572631836 -0.021046575158834457 -0.06955107301473618 0.01220124401152134 0.06793227791786194 0.03916420415043831 -0.08805584907531738 -0.05808351933956146 0.12195251882076263 -0.028127970173954964 0.021108128130435944 -0.10399053245782852 -0.041652973741292953 0.10941329598426819 0.06252068281173706 -0.1380295306444168 0.021827662363648415 -0.014632854610681534 0.05364243686199188 0.08512453734874725 0.011680164374411106 -0.06739097833633423 -0.1569957137107849 0.04831603169441223 -0.023432103917002678 -0.1525236964225769 0.06565263122320175 0.15791478753089905 -0.06664418429136276 -0.10733498632907867 -0.008172712288796902 0.05034777522087097 -0.054993074387311935 -0.12083202600479126 0.013852301985025406 -0.05642480403184891 -0.2150120884180069 -0.051648516207933426 0.09443183243274689 -0.08914006501436234 0.0686740055680275 -0.03741718456149101 0.01929423399269581 0.0028560340870171785 0.08459535986185074 -0.000689070438966155 -0.16251274943351746 0.12432488054037094 0.04982108995318413 0.02957211807370186 0.02768455259501934 0.06860940158367157 -0.08283834159374237 0.08519785851240158 0.08469827473163605 0.022870497778058052 -0.13064490258693695 -0.015294773504137993 0.0738016813993454 -0.07390650361776352 -0.21048025786876678 0.04183252900838852 0.07412136346101761 0.005896187387406826 -0.020731845870614052 0.006089234724640846 -0.0853063240647316 0.020358461886644363 -0.026420176029205322 -0.08074864745140076 -0.0381203256547451 0.20018456876277924 0.30380845069885254 0.21948093175888062 0.11347515136003494 0.07730492204427719 0.11893343925476074 0.08519091457128525 0.08129484206438065 -0.04932096600532532 0.056515466421842575 0.0815349593758583 0.07817573100328445 0.09423064440488815 0.047785017639398575 0.01885431818664074 0.16341464221477509 0.08488889783620834 0.014256596565246582 -0.07203153520822525 -0.05845753476023674 -0.015248547308146954 0.15476106107234955 0.07185624539852142 0.045018620789051056 -0.060069888830184937 -0.04206160083413124 0.06604332476854324 -0.036793775856494904 -0.004797618370503187 0.018486278131604195 -0.08193167299032211 0.061676234006881714 0.08183752745389938 -0.08509572595357895 -0.0727791041135788 0.09659666568040848 -0.11695128679275513 -0.09547369927167892 0.020607411861419678 0.02005307748913765 0.07669634371995926 0.017702383920550346 0.08612314611673355 0.0034276973456144333 0.09779480844736099 -0.024123718962073326 -0.06482487171888351 0.04624712094664574 0.08236462622880936 -0.2101152539253235 0.0759916827082634 -0.028180012479424477 -0.05094171687960625 0.07092238962650299 0.04324157163500786 0.0319841168820858 0.2359142303466797 0.17177200317382812 -0.16361750662326813 0.014083852991461754 0.004511253442615271 0.0557551234960556 0.054560381919145584 0.12407437711954117 0.06738632172346115 -0.02355041354894638 0.01964184083044529 -0.08638753741979599 0.026139559224247932 0.07195386290550232 -0.051631975919008255 -0.020634116604924202 -0.11342597752809525 -0.1814684271812439 0.15629863739013672 0.24740485846996307 0.04490410163998604 0.09126759320497513 -0.06004508212208748 -0.06590956449508667 0.06009434536099434 0.051340680569410324 0.05123291537165642 -0.026526151224970818 -0.03828035295009613 -0.11070164293050766 -0.07225389778614044 0.12080514430999756 -0.141002357006073 -0.09079442918300629 0.03302597627043724 -0.07680916041135788 -0.02417832985520363 0.09701669961214066 0.048025697469711304 -0.06108402460813522 0.08636468648910522 0.08434737473726273 -0.1266665905714035 0.005544715095311403 0.15525996685028076 -0.04237859696149826 0.07154823839664459 0.059238627552986145 0.12964801490306854 0.08581417798995972 0.03194161877036095 -0.07193439453840256 0.1507568657398224 -0.07994011789560318 0.038449376821517944 0.0013554719043895602 -0.0912868082523346 0.01820315420627594 -0.01821991428732872 -0.04426372051239014 0.11738715320825577 -0.037706829607486725 -0.0770588219165802 -0.059367842972278595 -0.014584441669285297 -0.03271869570016861 0.1741630733013153 -0.09542988985776901 -0.016212880611419678 -0.09477626532316208 0.05869806557893753 -0.04766503721475601 0.05893798545002937 0.056805457919836044 0.1816329061985016 0.03795313835144043 0.10225573927164078 -0.03653794899582863 0.08110909909009933 0.20713181793689728 0.10027703642845154 0.004811436869204044 -0.13844604790210724 -0.013682152144610882 -0.18442660570144653 0.06901972740888596 0.09830714017152786 -0.06082191690802574 -0.049078311771154404 0.09997139126062393 0.029452066868543625 -0.024827156215906143 0.05160905793309212 0.002076009986922145 0.12224049121141434 0.11892982572317123 0.10399384051561356 -0.06061125546693802 0.035370297729969025 0.0382506363093853 -0.01951732113957405 0.11334727704524994 0.041829388588666916 0.009971744380891323 -0.057605475187301636 -0.04687746614217758 -0.011690177954733372 -0.07970692217350006 0.07740604877471924 -0.036563508212566376 0.030457867309451103 0.07633601129055023 -0.034508246928453445 0.17571333050727844 -0.030567798763513565 0.005033485125750303 0.04543697088956833 -0.0955255851149559 0.13606061041355133 -0.0483383871614933 -0.06752748042345047 -0.16179431974887848 0.10352156311273575 0.1289130598306656 0.09768123179674149 -0.06359321624040604 0.18723593652248383 0.018584787845611572 -0.16268572211265564 -0.07951031625270844 0.026617633178830147 -0.030318429693579674 0.08394333720207214 0.05774623900651932 0.009910115040838718 0.01862235926091671 0.05860113352537155 -0.06494417786598206 0.05359853804111481 0.05304388701915741 -0.10990455001592636 0.040669966489076614 -0.007681080140173435 0.06717278808355331 0.023870913311839104 -0.07342295348644257 -0.07699647545814514 -0.0795314684510231 -0.0549946129322052 0.05238431319594383 -0.0042070308700203896 0.004822191316634417 -0.005564666818827391 -0.004801334347575903 0.02777056023478508 0.15926115214824677 0.149970144033432 -0.023096010088920593 -0.03074379451572895 0.002996092429384589 0.11814147979021072 -0.02552160806953907 -0.12553851306438446 0.1503511369228363 -0.009037592448294163 -0.02918415702879429 -0.08803942799568176 -0.058768466114997864 0.12727753818035126 -0.09528505802154541 0.009165694937109947 -0.01141645573079586 0.12489404529333115 -0.031091736629605293 -0.09439872950315475 -0.002089363755658269 -0.0739535540342331 -0.015549778938293457 -0.0013037070166319609 -0.06500672549009323 0.014475210569798946 0.027436021715402603 0.037919651716947556 0.04172533005475998 -0.054478082805871964 0.15328136086463928 -0.06155266985297203 0.051067400723695755 -0.07395205646753311 -0.08809102326631546 -0.10687359422445297 -0.009937399998307228 -0.08037464320659637 0.054196253418922424 0.11695937067270279 0.12517423927783966 -0.010996573604643345 0.03720349818468094 0.07002624124288559 -0.02033773437142372 0.03477970138192177 0.1337101310491562 -0.046867869794368744 -0.13879962265491486 -0.08733299374580383 0.10854968428611755 -0.10262152552604675 -0.1602892428636551 0.21792420744895935 0.12511195242404938 -0.060218654572963715 -0.05134021118283272 -0.018333841115236282 -0.0065340567380189896 -0.12398005276918411 0.0011595989344641566 0.06949501484632492 -0.08066593110561371 0.15286239981651306 -0.08068069815635681 0.0626014918088913 0.06434716284275055 -0.05269851163029671 0.04225955158472061 -0.09395341575145721 -0.03693113476037979 0.037088047713041306 -0.13251951336860657 -0.035135865211486816 -0.007603195495903492 -0.01871737278997898 0.11041220277547836 0.04619181528687477 0.08041062206029892 -0.06639279425144196 0.00689470861107111 -0.03460722416639328 -0.008087332360446453 0.061462853103876114 -0.07619819045066833 0.15720400214195251 -0.11878956854343414 -0.19014699757099152 -0.020561400800943375 0.04637831449508667 -0.05831556394696236 -0.026502858847379684 0.09677143394947052 -0.21321527659893036 0.008406812325119972 -0.03139035031199455 0.1010967418551445 -0.09960196167230606 0.04660749062895775 -0.0658307746052742 0.016679035499691963 -0.008525281213223934 0.007005492690950632 -0.11554572731256485 -0.012804086320102215 0.1554248183965683 0.054423317313194275 -0.033423855900764465 -0.10765744000673294 0.09306859225034714 0.07216332852840424 0.06863535940647125 0.08184326440095901 0.013073025271296501 0.030409282073378563 0.024139557033777237 -0.01732747256755829 0.2304859459400177 0.012747062370181084 -0.05697314441204071 -0.08066815137863159 0.025660621002316475 0.11555331945419312 -0.057669345289468765 0.040176816284656525 -0.021716095507144928 0.05651481822133064 0.08357176184654236 -0.1860789805650711 -0.058542877435684204 -0.006533038802444935 0.020142782479524612 -0.01602688990533352 -0.027404693886637688 0.14966075122356415 -0.0285066869109869 -0.06001700833439827 -0.01280802208930254 0.027385838329792023 0.011790160089731216 -0.1521783322095871 0.1076020672917366 0.04026329144835472 0.07963452488183975 0.1165422573685646 0.04409242421388626 0.04321640729904175 -0.008271588943898678 0.15740332007408142 0.10276929289102554 -0.11930098384618759 0.0021264052484184504 0.0346299409866333 0.05464471876621246 -0.005064342170953751 0.17439201474189758 0.04224565625190735 0.11875935643911362 0.12885072827339172 -0.01886584609746933 -0.025781193748116493 -0.011278906837105751 -0.07673580944538116 0.05412530153989792 -0.1105278953909874 0.008844812400639057 -0.13493020832538605 -0.06448081880807877 0.16761498153209686 0.08088906854391098 -0.006022787652909756 0.08036050200462341 0.222983255982399 -0.140485942363739 0.0850609764456749 0.1178067997097969 0.14931151270866394 -0.04028075188398361 -0.023438703268766403 0.02256176248192787 -0.06783222407102585 -0.00782964937388897 0.09690389782190323 0.03866558521986008 0.1500934213399887 0.20744144916534424 0.013728280551731586 0.08214497566223145 -0.026553895324468613 0.022078009322285652 0.10894729197025299 0.025238098576664925 0.01067801658064127 0.05378315597772598 0.023188486695289612 0.06818478554487228 0.027314890176057816 -0.12585972249507904 -0.013191403821110725 -0.09334258735179901 0.06916088610887527 0.06432855129241943 -0.04871891811490059 0.1438109129667282 0.008434594608843327 -0.0071753887459635735 0.06668556481599808 0.19326665997505188 -0.013083641417324543 0.11769533902406693 0.020082084462046623 -0.011225608177483082 -0.01728256791830063 0.07927604764699936 0.03270426020026207 0.07633719593286514 0.040122371166944504 0.11270494759082794 -0.2597070336341858 0.14064264297485352 -0.03812768682837486 -0.10548591613769531 0.0465640164911747 0.13310779631137848 -0.22565317153930664 -0.09231206774711609 0.09165690094232559 0.19895246624946594 -0.0283722672611475 0.0415988527238369 0.019274579361081123 0.05487252399325371 0.0615781731903553 0.011749484576284885 0.05670253932476044 -0.08189166337251663 0.0022241270635277033 0.20200835168361664 -0.0745202898979187 0.10095487534999847 -0.03739326819777489 0.09368441998958588 0.04814315214753151 0.11854276061058044 0.07354206591844559 -0.09195084124803543 0.03461039811372757 0.11135747283697128 -0.01932101882994175 0.00406687380746007 -0.01300403568893671 -0.06519260257482529 -0.0707494243979454 -0.03507623076438904 0.16597740352153778 -0.001536643598228693 -0.12168630212545395 -0.04489455744624138 0.2173786461353302 0.06009410321712494 -0.13868916034698486 -0.15064184367656708 0.0760851502418518 -0.04136647656559944 0.020757902413606644 0.07123109698295593 -0.12488634884357452 0.04423629492521286 0.22611264884471893 -0.10230293869972229 -0.14404019713401794 0.004711287096142769 0.007240803446620703 0.015615733340382576 -0.031364645808935165 0.0333944596350193 0.008761264383792877 0.10288508981466293 0.031006574630737305 -0.009928226470947266 0.07190752774477005 -0.09437986463308334 0.04732309654355049 0.03534150868654251 -0.19986183941364288 0.04878632724285126 -0.12175238132476807 0.011566167697310448 -0.006698074284940958 -0.05927122011780739 -0.17753566801548004 0.04314291849732399 -0.0730896145105362 0.14425836503505707 -0.07036102563142776 0.03210483118891716 0.13992732763290405 0.029918260872364044 0.1215103268623352 0.07838712632656097 -0.1543036699295044 -0.07648736238479614 0.10651368647813797 0.2543960511684418 0.09197106212377548 0.15443184971809387 0.021589459851384163 -0.0055394889786839485 0.07207437604665756 0.07738655805587769 0.02573847584426403 -0.034314706921577454 -0.014971086755394936 -0.026478076353669167 0.04059822857379913 0.017017344012856483 0.03640056401491165 0.02858949638903141 0.17492327094078064 0.04384089633822441 0.01897563599050045 0.07045504450798035 0.06164708361029625 -0.03775589168071747 -0.0704072117805481 -0.06358525902032852 -0.0901625007390976 0.1655818372964859 -0.04551394283771515 0.017957471311092377 0.04829276725649834 0.03413211926817894 0.0847635269165039 0.026679974049329758 -0.10888268053531647 0.07124831527471542 0.09163062274456024 0.11570195853710175 -0.17918075621128082 0.12392830103635788 0.006472154054790735 -0.10897306352853775 0.09816180169582367 0.05212382599711418 -0.16203580796718597 -0.03702067211270332 -0.005913423374295235 0.1263950616121292 -0.047561775892972946 -0.12690673768520355 -0.04489411041140556 0.09049047529697418 -0.02237546071410179 0.1772599071264267 0.03357768431305885 -0.032755523920059204 0.1381354182958603 -0.0016939738998189569 -0.056629519909620285 0.02485191449522972 0.12775960564613342 -0.07258982211351395 -0.14251673221588135 -0.009724482893943787 0.08705964684486389 -0.03907818719744682 0.010097038000822067 0.09113485366106033 0.03512362390756607 -0.054881785064935684 0.022041602060198784 0.05213426426053047 -0.07269250601530075 -0.010369549505412579 -0.06838124990463257 -0.03335171937942505 0.022235386073589325 -0.016718432307243347 0.22001487016677856 -0.23139911890029907 -0.01966751366853714 -0.12698207795619965 -0.04887089505791664 0.07763899862766266 0.07673140615224838 -0.08309625834226608 -0.07548315078020096 0.002830611076205969 0.11968643218278885 -0.12936894595623016 -0.11681557446718216 0.00535522261634469 0.0056737931445240974 0.021075669676065445 0.04926174506545067 -0.07054444402456284 0.015164660289883614 -0.07013176381587982 0.008769710548222065 -0.06462791562080383 -0.013092915527522564 0.043756190687417984 -0.07175425440073013 -0.09098287671804428 -0.04941493272781372 -0.04581976309418678 0.060753241181373596 0.023804306983947754 -0.05706629529595375 -0.06455636024475098 0.03697836771607399 -0.17982037365436554 -0.1556410938501358 0.29767587780952454 0.1295735239982605 -0.03725820779800415 0.03597105294466019 -0.04740310460329056 0.0606810562312603 -0.12006782740354538 0.1486586630344391 0.004410524386912584 -0.12593241035938263 0.012880839407444 -0.15545514225959778 0.005944242235273123 0.05159826949238777 -0.08164682239294052 -0.00834701582789421 0.0760817676782608 -0.049248579889535904 0.08318240195512772 -0.004539696499705315 0.07614210993051529 -0.031205080449581146 -0.07721173763275146 0.003626603400334716 0.09354005008935928 0.14388765394687653 -0.015855422243475914 0.039227891713380814 -0.14026851952075958 -0.05563803017139435 -0.04170230031013489 0.08130862563848495 -0.04309249669313431 -0.008896135725080967 -0.004498337861150503 -0.16665016114711761 -0.06026181951165199 -0.08141922205686569 0.08588851988315582 0.01770726777613163 -0.0487201064825058 -0.009194637648761272 -0.08097406476736069 -0.027672184631228447 0.06532004475593567 0.036964643746614456 -0.056612029671669006 0.06833009421825409 0.049385394901037216 -0.004468943458050489 -0.18860706686973572 -0.13910989463329315 0.020031185820698738 0.06701969355344772 0.048217855393886566 -0.05325264483690262 -0.007216669153422117 0.011025610379874706 -0.009018919430673122 0.02827598713338375 0.016747502610087395 -0.03983541205525398 0.053834423422813416 -0.04794107377529144 -0.11152451485395432 0.0714908242225647 0.10920747369527817 -0.18400929868221283 0.03187971189618111 0.17026369273662567 0.05424109101295471 -0.07901448756456375 -0.08778920769691467 0.005802381318062544 0.0324043408036232 -0.08504302054643631 0.16073152422904968 -0.019451800733804703 0.01929381676018238 0.028512170538306236 0.000315657613100484 0.05554638430476189 0.1260487139225006 0.037783969193696976 -0.10292093455791473 0.017593882977962494 0.06525039672851562 0.0068231625482439995 0.19057901203632355 -0.016095157712697983 0.053855933248996735 0.12323467433452606 0.007676699664443731 0.14805445075035095 -0.008451231755316257 -0.13346557319164276 0.0695488378405571 0.1582466959953308 0.037201475352048874 0.17336824536323547 0.05623242259025574 0.13534943759441376 -0.017474982887506485 -0.01857919991016388 0.003361166687682271 0.005406064912676811 -0.0949012041091919 0.0025097629986703396 0.12707842886447906 0.06486546993255615 -0.025385145097970963 0.21442624926567078 0.02888174168765545 0.038460623472929 0.07127440720796585 0.005538867320865393 0.0018537688301876187 -0.1320914328098297 0.054193977266550064 -0.041583072394132614 0.1877720057964325 -0.012154513038694859 0.17241604626178741 -0.06401241570711136 0.03093031793832779 0.03640388324856758 0.0656261220574379 0.1562599241733551 0.07642732560634613 0.08430425077676773 -0.06913262605667114 -0.04617053270339966 -0.1208886057138443 0.01671917550265789 -0.11948443204164505 -0.10020750761032104 0.03160300478339195 0.0486237071454525 -0.010471692308783531 -0.03680073097348213 0.050629403442144394 0.06617719680070877 -0.06022760272026062 0.080104298889637 0.07385505735874176 -0.17525643110275269 -0.08084411919116974 -0.008359434083104134 -0.07428817451000214 -0.05621910095214844 0.12594428658485413 -0.07914930582046509 0.21090182662010193 -0.14941735565662384 -0.06573221832513809 0.016469819471240044 0.012654632329940796 0.0450519323348999 -0.10589004307985306 -0.0039842198602855206 0.12673990428447723 -0.20604179799556732 0.06525538116693497 -0.005276375450193882 0.04894804581999779 0.06569188088178635 -0.06461194902658463 0.16508394479751587 -0.05305656045675278 0.005125164985656738 0.09210681915283203 0.2228364795446396 0.22079408168792725 0.04691368341445923 -0.21412043273448944 -0.027199527248740196 0.10183405131101608 0.08166065067052841 0.04858853295445442 0.045657943934202194 -0.08817765861749649 0.01454989705234766 -0.09555426985025406 -0.1939709186553955 0.02749573066830635 -0.18727414309978485 -0.020218748599290848 0.1753980815410614 0.03713957965373993 0.04588670656085014 0.060711197555065155 0.1744195520877838 -0.2209703028202057 -0.060455773025751114 0.1134619191288948 -0.2566898763179779 0.09227234870195389 0.008128230459988117 -0.07308197766542435 0.009991860017180443 -0.11204925924539566 -0.04067090526223183 0.09991580992937088 -0.0051037888042628765 -0.1220686286687851 0.07073282450437546 -0.03313809260725975 0.01518834289163351 -0.0717879980802536 0.14313113689422607 0.03613986074924469 -0.03517787903547287 -0.09409891813993454 0.03247245028614998 -0.06437278538942337 0.0201483853161335 0.00314716505818069 -0.12196573615074158 -0.10487131029367447 0.07897555083036423 -0.10793793946504593 -0.05097932741045952 -0.13585229218006134 -0.03726773336529732 0.12353361397981644 -0.21017667651176453 -0.26158851385116577 -0.017952842637896538 0.14262740314006805 0.08157448470592499 -0.026168568059802055 -0.14493311941623688 -0.13261929154396057 0.19563008844852448 -0.051145829260349274 -0.05951140820980072 0.05138915777206421 0.05779573321342468 0.04112948849797249 -0.0013913291040807962 0.1837327927350998 -0.10669788718223572 -0.007269514724612236 0.04766794666647911 -0.008132241666316986 0.03667818754911423 0.033027283847332 0.05004827305674553 0.09442926943302155 0.09485518932342529 -0.057231657207012177 0.010852553881704807 0.20135094225406647 -0.006036886479705572 0.008533269166946411 -0.029614252969622612 0.09082090109586716 0.01270134374499321 0.07307632267475128 -0.029133852571249008 0.048734795302152634 0.04093494638800621 -0.038407422602176666 -0.0019927676767110825 -0.020203016698360443 0.005279576871544123 -0.06615182012319565 0.07877261936664581 0.04000481590628624 -0.03626053035259247 -0.05867727845907211 0.02213987521827221 0.005354360211640596 0.020363744348287582 0.107136569917202 -0.10695696622133255 -0.14814399182796478 -0.0360143817961216 -0.03688355162739754 0.12141541391611099 0.15174102783203125 -0.10825321823358536 0.0058829812332987785 -0.015085265040397644 0.15575602650642395 -0.32792988419532776 0.0558328740298748 0.0781567171216011 -0.04156843200325966 -0.06226522848010063 0.041143354028463364 0.01861894316971302 0.16778744757175446 -0.07248025387525558 -0.05717149004340172 0.04861946403980255 0.04884536936879158 -0.047797344624996185 0.07780448347330093 -0.084091916680336 0.09637727588415146 -0.09248881787061691 -0.0016810022061690688 0.11242981255054474 0.03961733356118202 0.22327765822410583 0.028791461139917374 0.06308666616678238 0.0053262487053871155 0.05353833734989166 0.04038899019360542 -0.08773533254861832 -0.0373387448489666 0.131694033741951 0.04857294261455536 0.16530397534370422 0.017338769510388374 0.07078216969966888 -0.03693598136305809 0.05767705291509628 0.030734069645404816 0.012212767265737057 0.048805270344018936 -0.05341488867998123 -0.12075401097536087 0.020203718915581703 -0.08043315261602402 -0.055995818227529526 -0.0945511907339096 0.12039539217948914 0.08925377577543259 0.042898211628198624 -0.012793459929525852 -0.024414287880063057 -0.10680850595235825 0.1123761385679245 -0.14990350604057312 -0.005002011079341173 0.16000168025493622 0.028624968603253365 0.015612348914146423 -0.03020700439810753 0.19536937773227692 -0.09351957589387894 -0.04199320450425148 0.1590307503938675 0.11585640907287598 0.05813581496477127 0.047617919743061066 -0.0678289458155632 -0.012407835572957993 -0.04723862186074257 0.03376061096787453 0.06701958179473877 -0.06912024319171906 -0.01187426783144474 -0.07143086940050125 -0.2255379557609558 -0.05067720264196396 -0.0804438367486 0.1478741317987442 -0.04746533930301666 0.06264231353998184 -0.004047438967972994 0.1595739722251892 0.10263629257678986 -0.09784388542175293 0.12120132893323898 0.15888546407222748 0.0459606908261776 -0.056281592696905136 -0.17207634449005127 -0.042518772184848785 0.15076038241386414 -0.029276493936777115 -0.09649361670017242 0.06301099061965942 -0.020600451156497 0.019602308049798012 0.06227937713265419 -0.029873158782720566 -0.04120616242289543 0.08462515473365784 -0.07249151170253754 0.16141793131828308 0.049756135791540146 0.0032867398113012314 0.05408712476491928 0.15176565945148468 0.059024710208177567 0.09663719683885574 0.028182025998830795 0.1701907515525818 -0.11703944206237793 -0.1218421682715416 -0.19011805951595306 -0.00048273857100866735 0.06788356602191925 0.053654786199331284 0.1090577021241188 -0.12476224452257156 -0.10898666083812714 0.031169751659035683 0.012980150990188122 -0.020946316421031952 0.04407121613621712 0.0551617294549942 0.14919957518577576 -0.1403171718120575 0.09223957359790802 0.03927714750170708 0.20633581280708313 -0.005029529333114624 0.008177950978279114 -0.09154009073972702 -0.05079776048660278 -0.02108532190322876 -0.016432352364063263 0.12232522666454315 -0.03521977365016937 0.04170256853103638 -0.21550911664962769 -0.06454597413539886 -0.11892648786306381 0.05058412626385689 0.06643294543027878 0.022102462127804756 -0.137981116771698 -0.10347640514373779 -0.061029188334941864 0.037037912756204605 0.05033209174871445 0.19645224511623383 -0.11516628414392471 -0.10773605853319168 0.14735445380210876 0.09643401950597763 0.043931879103183746 0.05549078807234764 0.03379231318831444 0.12973229587078094 0.22275258600711823 0.08992068469524384 0.0360068716108799 0.10591689497232437 0.03852197527885437 -0.17419250309467316 -0.09340546280145645 0.026968464255332947 0.05205710604786873 0.0075901830568909645 -0.05028000473976135 -0.019109956920146942 0.15302766859531403 -0.06296151876449585 -0.11129985749721527 -0.10298702865839005 0.013083838857710361 0.10937443375587463 -0.07357847690582275 -0.027438441291451454 -0.07710166275501251 0.13883548974990845 -0.06674504280090332 0.054873403161764145 0.1720842868089676 0.02722996659576893 -0.042015500366687775 -0.0012553533306345344 -0.057010017335414886 -0.0523814782500267 -0.009858998470008373 0.10402902215719223 -0.04415353387594223 0.04790407419204712 -0.03817928209900856 -0.07346252351999283 0.15417799353599548 0.08691447973251343 -0.09090497344732285 -0.17324557900428772 0.035271935164928436 -0.09695006906986237 0.023623093962669373 0.09002594649791718 -0.13074947893619537 0.20984119176864624 -0.022827478125691414 0.14446771144866943 0.026263002306222916 -0.24960386753082275 0.0636601373553276 -0.08597617596387863 -0.03888905420899391 0.011174003593623638 0.09275416284799576 0.09356854110956192 -0.0344114676117897 -0.058315519243478775 0.027778517454862595 0.07987385243177414 -0.04487369954586029 -0.01027193758636713 0.07911799848079681 -0.08578561246395111 0.19408369064331055 -0.08903497457504272 -0.010228537023067474 0.12770135700702667 -0.020833149552345276 0.10331756621599197 -0.08241795003414154 -0.08817824721336365 -0.04560206085443497 0.10346970707178116 0.03659577667713165 -0.05023312568664551 -0.020678436383605003 0.18575362861156464 0.12321432679891586 -0.021645991131663322 0.10493776202201843 -0.008587544783949852 -0.07029395550489426 -0.11974439024925232 0.14597758650779724 0.1352687031030655 -0.04358454421162605 -0.007598701398819685 -0.01277177594602108 -0.06469552218914032 -0.0385851226747036 -0.10562125593423843 0.014767084270715714 0.04895158112049103 0.04741553217172623 0.11023330688476562 0.07233414053916931 0.05712128058075905 -0.036265626549720764 0.1383270025253296 -0.13184387981891632 0.06781044602394104 -0.018958471715450287 0.15407609939575195 0.07428186386823654 0.06595346331596375 0.08013864606618881 -0.053618427366018295 -0.09519818425178528 0.08694945275783539 0.05457620695233345 0.14888235926628113 0.10302355140447617 0.13708509504795074 0.16142894327640533 0.0697319284081459 -0.04827674478292465 -0.011286147870123386 0.051114752888679504 0.09887751191854477 0.041298527270555496 0.059966009110212326 0.09524980187416077 -0.1430000215768814 -0.0009459998109377921 -0.1753951460123062 -0.06322871893644333 -0.13410957157611847 0.10797486454248428 -0.032228514552116394 0.019175969064235687 -0.029295703396201134 -0.1995588093996048 -0.001645804033614695 0.051510173827409744 -0.018534382805228233 -0.00819547101855278 0.16631923615932465 -0.06069203466176987 -0.050016406923532486 -0.014867180958390236 0.023131152614951134 -0.0285445898771286 -0.008036461658775806 0.10145099461078644 0.011366315186023712 -0.05221611261367798 0.05907374247908592 0.05295687913894653 0.06436220556497574 -0.18298596143722534 0.02119842916727066 0.15698984265327454 -0.12393047660589218 -0.12505276501178741 0.08408410847187042 -0.16593897342681885 -0.014135781675577164 -0.18003663420677185 -0.05079500749707222 -0.046518247574567795 -0.007175443693995476 0.0028161066584289074 0.06745167821645737 -0.1733676642179489 -0.11635170876979828 0.14404325187206268 0.005874549970030785 0.0546623058617115 0.0039897277019917965 -0.025231262668967247 -0.0011290493421256542 0.05291043594479561 0.09865931421518326 -0.09113141149282455 -0.043296851217746735 0.058469753712415695 -0.016136925667524338 0.010159570723772049 0.00416594697162509 -0.037589725106954575 0.0774034932255745 0.00797822792083025 0.14345555007457733 0.08006446063518524 -0.043218571692705154 -0.03135237097740173 0.11570154130458832 0.09492750465869904 -0.05413170903921127 -0.012686863541603088 0.03682168573141098 0.18291443586349487 -0.011412635445594788 -0.16724218428134918 0.13641677796840668 0.11849469691514969 0.1458503156900406 0.08280779421329498 0.016446428373456 0.04238471761345863 0.004733105655759573 0.06717220693826675 -0.04588595777750015 -0.009576133452355862 0.08983864635229111 0.0037910593673586845 -0.13033293187618256 0.10430274903774261 0.00851939432322979 0.08718574792146683 -0.2887352406978607 -0.025687817484140396 0.10232553631067276 -0.04481565207242966 -0.1490776389837265 0.022691411897540092 0.08999895304441452 0.03039383888244629 0.0812465026974678 0.08623868227005005 0.024194492027163506 0.06264729797840118 0.08403468132019043 -0.053309690207242966 -0.005757546052336693 0.10689074546098709 0.11188360303640366 0.043974198400974274 0.08844967186450958 0.023370737209916115 -0.04108688607811928 0.14551958441734314 0.1555313766002655 -0.21865621209144592 -0.1089220717549324 0.07379568368196487 -0.007665465120226145 0.08105070888996124 -0.14356371760368347 -0.1880885511636734 0.03434615954756737 -0.09002463519573212 -0.07031919807195663 -0.00430973619222641 0.11390217393636703 0.0865967869758606 -0.006345693953335285 0.11074377596378326 -0.026350360363721848 0.10804011672735214 0.04209422692656517 -0.09340649843215942 0.036465756595134735 0.18594612181186676 0.15715762972831726 0.026097284629940987 0.007269778288900852 0.07942285388708115 0.08985955268144608 0.13049355149269104 -0.027272941544651985 0.021797925233840942 0.060134969651699066 -0.21630658209323883 0.029135121032595634 0.009467260912060738 0.04905381053686142 0.020921967923641205 -0.05525921657681465 -0.09307235479354858 -0.07805199176073074 0.022719185799360275 0.1631404012441635 -0.023732993751764297 -0.0023559005931019783 -0.05407007038593292 -0.1073528602719307 -0.10971295088529587 0.18354080617427826 -0.023742392659187317 -0.0022567682899534702 0.07964784651994705 -0.11192326992750168 0.06571871787309647 -0.0396859347820282 -0.006026952061802149 -0.09301108866930008 -0.0657159611582756 0.2547547221183777 -0.10104631632566452 0.13790515065193176 -0.11338760703802109 -0.07482347637414932 0.05174094811081886 0.10401403158903122 0.0827585905790329 0.07887403666973114 -0.05446132645010948 0.04980647936463356 -0.06456203758716583 0.02810865081846714 -0.0773661658167839 -0.012674824334681034 -0.03154391795396805 -0.01693793758749962 0.08686637878417969 0.07684238255023956 0.007926286198198795 -0.15947633981704712 0.1034790500998497 0.04704247787594795 0.05045156925916672 0.06716348230838776 0.07152050733566284 -0.021345991641283035 0.04420118406414986 -0.195953369140625 -0.06619243323802948 0.1691892147064209 -0.034580666571855545 -0.07890357822179794 -0.06891598552465439 0.11957771331071854 -0.041132714599370956 -0.005193289835005999 -0.021072978153824806 -0.1067243218421936 0.009947698563337326 0.09827729314565659 -0.008243036456406116 0.08266467601060867 -0.013357103802263737 0.10842521488666534 -0.020182013511657715 -0.10498570650815964 0.08120598644018173 0.010133388452231884 0.027040643617510796 0.03231104835867882 0.0010322341695427895 0.1434117704629898 0.2523835003376007 -0.010263659060001373 0.21556895971298218 -0.08021745830774307 0.1458115577697754 -0.032496899366378784 -0.1283213496208191 -0.07790375500917435 0.006501686293631792 0.17005495727062225 0.16545724868774414 0.002066258806735277 0.24463452398777008 0.0014884769916534424 -0.0677005872130394 -0.032384030520915985 -0.04555842652916908 -0.07723525166511536 -0.1011844277381897 0.032324183732271194 0.12326040863990784 0.022902745753526688 0.05450816825032234 -0.0880928486585617 0.016033969819545746 -0.19234225153923035 0.09023905545473099 0.06518656015396118 -0.03153163567185402 -0.010952620767056942 -0.0002847455907613039 -0.013604851439595222 0.026340246200561523 0.06791236996650696 0.06194682791829109 0.10089502483606339 -0.054195187985897064 0.10174040496349335 -0.007215878460556269 0.013258892111480236 -0.023529596626758575 -0.05416707322001457 0.03781387209892273 0.05833852291107178 -0.05910979211330414 -0.001044454169459641 0.015917299315333366 -0.0695086121559143 -0.002146768616512418 -0.13215142488479614 0.04398714751005173 0.011140935122966766 0.1297660768032074 0.1596696674823761 -0.1878788024187088 -0.047604598104953766 0.04927852004766464 0.06379384547472 -0.12967118620872498 -0.039684925228357315 0.04359622299671173 0.09470508247613907 0.05798989534378052 -0.10474637895822525 0.05997283011674881 0.03723933547735214 0.03775404766201973 -0.05511634051799774 -0.01816544122993946 -0.027766551822423935 0.050930753350257874 -0.04085926711559296 0.017657659947872162 -0.12418232858181 0.013628018088638783 -0.005669422913342714 0.06036804988980293 -0.10141336917877197 -0.0032103771809488535 -0.04868253320455551 0.04736238718032837 0.1079988107085228 0.05361230671405792 -0.06150597706437111 -0.04795835539698601 -0.08371584862470627 -0.05788983404636383 0.04441581293940544 -0.011550841853022575 0.08848895877599716 0.12250613421201706 -0.12845487892627716 -0.09790585190057755 -0.03349298983812332 0.06003871560096741 -0.054250698536634445 0.034245774149894714 -0.22285909950733185 0.16035708785057068 0.05241049826145172 0.05969127640128136 -0.10919621586799622 -0.10413335263729095 0.03912132978439331 -0.06323245167732239 0.04980750009417534 -0.06549406051635742 0.10449673980474472 0.1451205611228943 0.06418631970882416 0.04584498330950737 0.12614819407463074 -0.09810937941074371 0.10900300741195679 0.03939918056130409 -0.019541816785931587 -0.04747585579752922 -0.06211450695991516 0.0408773310482502 -0.0031320645939558744 -0.04372909665107727 -0.05264756828546524 0.015490307472646236 -0.006309256888926029 -0.05488467589020729 -0.07749095559120178 -0.10518810898065567 -0.03769100084900856 -0.024211376905441284 -0.046558793634176254 -0.08573330193758011 0.0674099251627922 0.01655253767967224 -0.0595361702144146 -0.039293322712183 0.045985929667949677 -0.06308228522539139 -0.003913701046258211 0.03870121017098427 0.0023793408181518316 -0.08381228148937225 0.03283236175775528 -0.08168921619653702 0.05118060111999512 -0.05496131628751755 -0.09124492853879929 -0.01328347809612751 -0.005686323158442974 -0.06757891178131104 -0.022686179727315903 -0.059138935059309006 0.03233689069747925 -0.07959382236003876 -0.015212407335639 0.04003702104091644 -0.014051397331058979 -0.032711636275053024 -0.030361531302332878 -0.06611963361501694 -0.026049012318253517 -0.03803189843893051 0.04492269456386566 0.07352083921432495 -0.09127023071050644 -0.052977483719587326 -0.12524938583374023 -0.011592823080718517 0.005806233733892441 0.06841489672660828 -0.019100161269307137 -0.09053625166416168 -0.025789940729737282 -0.09613767266273499 -0.05047343671321869 0.024724986404180527 0.028496602550148964 0.02338811755180359 0.06354622542858124 -0.04050248861312866 0.05358606576919556 -0.027906054630875587 -0.03501015156507492 0.0157232116907835 -0.011534832417964935 -0.005727173760533333 -0.09541929513216019 -0.08168351650238037 -0.08124051243066788 -0.015256800688803196 0.0012133558047935367 -0.027352800592780113 0.08152464032173157 -0.08580493927001953 -0.08443376421928406 0.03834090381860733 -0.04925248771905899 0.012131822295486927 -0.023934168741106987 0.013801677152514458 -0.08626596629619598 -0.06314727663993835 0.010096607729792595 0.0385470874607563 -0.03711969405412674 -0.006031323689967394 -0.060991689562797546 -0.06323838979005814 -0.054537151008844376 0.05781664699316025 -0.00453133974224329 -0.023119356483221054 -0.12235059589147568 -0.049227405339479446 -0.025979425758123398 0.009568050503730774 -0.11258019506931305 0.04440317302942276 0.018872790038585663 -0.030194895341992378 -0.09732495248317719 -0.00962199829518795 -0.04261745512485504 -0.11179863661527634 -0.0875389352440834 -0.09609505534172058 -0.023100197315216064 -0.06793037056922913 -0.11642222851514816 -0.024440227076411247 0.035076241940259933 -0.03861105442047119 0.024293357506394386 -0.053030941635370255 0.028717292472720146 0.01353999599814415 -0.07450706511735916 -0.08943986147642136 -0.0345756858587265 -0.18000347912311554 -0.031718138605356216 0.0876799002289772 -0.08256235718727112 0.010583564639091492 0.014927259646356106 -0.0036053762305527925 0.21565227210521698 -0.04472068324685097 -0.13918143510818481 0.14027303457260132 0.05040418729186058 0.16681046783924103 -0.1280665248632431 -0.0640866830945015 -0.07860652357339859 0.09496401995420456 -0.0019405778730288148 -0.08092347532510757 -0.0844433456659317 -0.053356949239969254 0.1030624583363533 -0.032865915447473526 0.07903126627206802 -0.018448693677783012 0.11915325373411179 0.11082932353019714 -0.010257135145366192 0.02042202837765217 -0.05308406054973602 -0.07672176510095596 -0.0004055993049405515 0.11436722427606583 0.12996278703212738 -0.07116726040840149 0.037492625415325165 -0.01210869662463665 -0.14675967395305634 0.004810483194887638 0.046251047402620316 -0.05881884694099426 0.003490028204396367 0.07526655495166779 -0.006539216265082359 -0.08744126558303833 -0.35003861784935 -0.13844777643680573 0.11149333417415619 -0.035386234521865845 -0.009560695849359035 0.0650501474738121 -0.10217221826314926 -0.021299371495842934 -0.044168781489133835 0.0721055269241333 0.0479949489235878 0.010697721503674984 -0.08821238577365875 0.08910723030567169 -0.005642567295581102 0.10527798533439636 0.059311021119356155 -0.09034834802150726 0.0016248110914602876 0.20866073668003082 -0.027029048651456833 -0.01796298660337925 0.011498085223138332 0.11153897643089294 0.051068663597106934 -0.037161774933338165 0.18920443952083588 0.01244564913213253 -0.022585345432162285 -0.05843503773212433 -0.04087740555405617 -0.10011253505945206 0.008550699800252914 -0.00995419267565012 0.10127308964729309 -0.05344823747873306 0.0759553387761116 -0.023191696032881737 -0.10370173305273056 -0.09931518882513046 -0.002793560503050685 0.13865044713020325 0.021973006427288055 0.051802605390548706 0.11404358595609665 -0.0711493045091629 0.05623260885477066 0.09228679537773132 0.0005418781074695289 0.02118644304573536 -0.10571769624948502 0.0829642117023468 -0.06479934602975845 -0.006772374734282494 0.13493119180202484 0.023668289184570312 -0.045144837349653244 -0.08631884306669235 0.12058727443218231 -0.25635069608688354 0.054623737931251526 0.09756176918745041 -0.12010885030031204 0.09018924832344055 0.13305415213108063 -0.13514256477355957 0.22744745016098022 -0.07554030418395996 0.16913555562496185 -0.12940815091133118 0.03934548422694206 0.08529918640851974 -0.05683444067835808 0.07397463172674179 0.007863667793571949 -0.16824302077293396 -0.04981742799282074 0.13514527678489685 -0.16784988343715668 0.07511723786592484 0.06119021400809288 -0.05457109212875366 0.13794934749603271 0.0950879380106926 -0.10948899388313293 -0.0698561742901802 -0.1252143681049347 0.18557637929916382 -0.015599229373037815 -0.0847688615322113 -0.046930402517318726 -0.0006471812957897782 -0.0709427073597908 0.0075299981981515884 0.06950803846120834 0.01608758606016636 0.04482195898890495 -0.1884799301624298 0.17484045028686523 0.04234650358557701 0.051125917583703995 -0.1212456151843071 -0.21310925483703613 -0.008630537427961826 -0.0698569044470787 0.030505508184432983 -0.0664435401558876 0.0958704948425293 0.008064614608883858 0.08413390815258026 -0.28342193365097046 0.06594851613044739 0.17908965051174164 -0.19147567451000214 0.05586863309144974 0.10341709852218628 0.06321075558662415 -0.09607607871294022 0.11596734821796417 0.05320300906896591 0.0712704285979271 -0.054094549268484116 0.17796483635902405 -0.08202511072158813 -0.016431747004389763 -0.02702660672366619 0.12383271753787994 -0.0977286696434021 -0.17661544680595398 -0.10037817806005478 -0.3723260164260864 -0.17598854005336761 0.018944144248962402 0.00034719010000117123 0.02920919470489025 0.1256743222475052 0.016962429508566856 -0.1448620855808258 0.03309743478894234 0.0649421438574791 0.03724733740091324 -0.07358326017856598 0.03751392289996147 0.1181785985827446 -0.002711148699745536 0.1612357348203659 0.09628389030694962 -0.08617636561393738 0.06752193719148636 -0.026069600135087967 -0.028776204213500023 0.06299488991498947 0.06944277882575989 0.06102139502763748 -0.022720925509929657 0.03913647681474686 0.041397515684366226 0.03192155435681343 -0.02803872525691986 0.1503986418247223 -0.025974281132221222 0.006051496136933565 -0.0037298554088920355 -0.006362137850373983 0.1690073311328888 -0.054971709847450256 0.00700228288769722 -0.209154412150383 -0.031004825606942177 -0.009877999313175678 0.09873452037572861 0.0546090304851532 0.05446161329746246 0.14580491185188293 -0.08183949440717697 -0.26807770133018494 -0.06416549533605576 -0.027042072266340256 0.057200782001018524 -0.16980721056461334 0.0781843364238739 -0.09117989987134933 -0.21769502758979797 -0.05573052912950516 0.13146670162677765 0.11488154530525208 -0.012516381219029427 0.04418851435184479 -0.17199677228927612 0.018953993916511536 -0.07558903843164444 -0.04086856171488762 -0.011737753637135029 -0.0020796917378902435 0.09478312730789185 0.10408749431371689 0.04538536071777344 -0.11043183505535126 0.0011377495247870684 -0.20096752047538757 0.06271558254957199 -0.010884640738368034 0.1295011043548584 0.0574319027364254 0.07235071808099747 0.0674479678273201 -0.19864821434020996 -0.14357955753803253 -0.00981808640062809 -0.0450281947851181 -0.1363275647163391 0.005067159421741962 -0.0018559200689196587 0.07736750692129135 -0.13055405020713806 -0.06038844957947731 0.04641655460000038 0.1276225596666336 0.1712331622838974 0.06859897822141647 0.1559283584356308 0.13250726461410522 0.0647110790014267 -0.045833367854356766 -0.0006030098302289844 0.04709460213780403 0.037662845104932785 0.13013416528701782 0.14088019728660583 -0.02214108780026436 0.16779564321041107 0.12546615302562714 -0.17416395246982574 0.10682310163974762 -0.029985301196575165 -0.01778712496161461 -0.19550180435180664 -0.022809192538261414 0.12418626993894577 -0.2409636676311493 -0.09831292182207108 -0.027009151875972748 0.10401753336191177 0.0012623671209439635 0.007360567804425955 -0.011578979901969433 0.08812355250120163 -0.08142051845788956 -0.018178625032305717 0.15300717949867249 0.08769524097442627 -0.0717238262295723 -0.030352836474776268 0.18642041087150574 -0.008080526255071163 0.08541044592857361 0.1072455644607544 -0.0407453291118145 -0.02922755293548107 0.12006620317697525 0.13238359987735748 -0.13648530840873718 -0.019759472459554672 0.049572914838790894 0.3237411081790924 -0.04528919979929924 0.09122295677661896 0.0846027210354805 0.08732246607542038 -0.06881333887577057 0.0166444331407547 -0.014256381429731846 -0.05774882435798645 0.04681047052145004 0.08051055669784546 -0.05518912151455879 0.011278712190687656 0.08222036808729172 -0.03164162486791611 0.06909383088350296 -0.0367036908864975 -0.010767797939479351 -0.08327384293079376 0.04800843819975853 -0.008750415407121181 0.06510110944509506 0.038008008152246475 0.08437371999025345 0.03174563869833946 0.2191370129585266 0.051694925874471664 0.01893596537411213 0.08303884416818619 -0.023529402911663055 0.05271162465214729 -0.13215750455856323 -0.060540370643138885 0.05900762230157852 0.05786047503352165 0.11373846977949142 -0.0005835089250467718 0.034337081015110016 0.1335579752922058 -0.0465470552444458 -0.04332607612013817 -0.007944167591631413 0.10305801033973694 0.050619758665561676 0.0633266493678093 -0.09385847300291061 0.122459776699543 0.01647745631635189 -0.03326962888240814 0.0423254631459713 0.23512031137943268 -0.11701904982328415 -0.060345638543367386 0.003254628973081708 -0.10697803646326065 -0.06778339296579361 -0.07665551453828812 0.024225279688835144 0.052359938621520996 0.16993963718414307 0.0063710459508001804 -0.10306328535079956 -0.2501366138458252 0.13809038698673248 0.047244925051927567 0.037460871040821075 -0.0037252376787364483 0.04325636476278305 0.03284163028001785 -0.0467313714325428 0.026331156492233276 -0.08220713585615158 -0.05693903565406799 -0.16949041187763214 0.05884801596403122 -0.070375956594944 0.1872473508119583 -0.011847368441522121 -0.040325578302145004 -0.0021267093252390623 -0.000903140869922936 0.1054810881614685 0.11817524582147598 -0.177862286567688 -0.12471813708543777 0.08291039615869522 0.1027778834104538 0.24564361572265625 0.19391800463199615 -0.048932626843452454 0.044242724776268005 0.13653284311294556 0.04653718322515488 0.06200173497200012 0.04990380257368088 0.08892017602920532 0.05527472868561745 -0.03555385395884514 0.15625478327274323 0.06744464486837387 -0.02460707165300846 -0.051558248698711395 -0.011486563831567764 -0.1905900239944458 -0.13199736177921295 -0.056392282247543335 -0.10191206634044647 -0.13468831777572632 0.08565419167280197 0.06538788229227066 -0.03277153894305229 0.18028752505779266 0.07823428511619568 -0.039406660944223404 0.07388542592525482 0.03859715908765793 -0.03879677131772041 -0.08038738369941711 -0.08565288782119751 0.08474117517471313 0.1409640908241272 0.09695439040660858 0.015233787707984447 -0.15309734642505646 0.07998872548341751 -0.04852268099784851 -0.07030154019594193 -0.01304781436920166 -0.05514821037650108 0.032029543071985245 0.05045994743704796 -0.04629151150584221 0.08941452205181122 0.0370493046939373 0.06250706315040588 -0.1616937667131424 0.06510359793901443 -0.03161654621362686 0.0858733281493187 -0.04527899995446205 -0.02678411640226841 0.0007723019807599485 0.0443853959441185 -0.06730607151985168 -0.005129111930727959 0.017289387062191963 0.02653539925813675 -0.0808665081858635 -0.046440884470939636 0.007684319280087948 0.16495802998542786 -0.17239269614219666 -0.0724550187587738 -0.0522293820977211 -0.04585716128349304 -0.10964008420705795 0.038596853613853455 -0.10364467650651932 -0.11103565990924835 0.007900168187916279 0.1788596361875534 0.16159650683403015 -0.021535420790314674 -0.048790767788887024 -0.01159315649420023 0.024003805592656136 -0.03141637146472931 0.04110046103596687 0.06360486149787903 0.009820462204515934 0.12604652345180511 -0.0907592624425888 0.08817631751298904 -0.056340910494327545 0.025061508640646935 -0.021648824214935303 -0.051902178674936295 0.03289862722158432 -0.09695824235677719 0.031240060925483704 0.021703632548451424 -0.05742105469107628 -0.043671123683452606 0.02807433344423771 -0.0009893918177112937 0.03134312480688095 -0.07061292976140976 0.08405905216932297 -0.01716042496263981 0.062094129621982574 -0.10885554552078247 0.0021354372147470713 0.03638390079140663 0.008722233586013317 -0.010376454330980778 -0.004297066479921341 -0.04694906622171402 -0.08307546377182007 0.002658879617229104 -0.032143931835889816 -0.01660923846065998 -0.041833795607089996 -0.07889170199632645 -0.05666974559426308 -0.009440154768526554 -0.07164207100868225 -0.019507044926285744 -0.05000544339418411 -0.019576866179704666 -0.05919094756245613 -0.005221562925726175 -0.054458800703287125 -0.050001684576272964 -0.03814036399126053 -0.004947884473949671 0.02555970288813114 -0.0308658629655838 0.04203527048230171 0.01904521882534027 0.045365262776613235 0.05301447585225105 -0.06968142092227936 -0.09868939965963364 -0.09144692867994308 0.05661884322762489 -0.0533524714410305 0.04998267814517021 0.004248855169862509 -0.0777931734919548 -0.06567252427339554 0.03074709139764309 0.00934259407222271 -0.09258978068828583 0.03073759190738201 -0.059611283242702484 -0.0469851940870285 -0.0810585543513298 -0.030976995825767517 -0.09603957086801529 -0.1133294627070427 -0.08360875397920609 0.05493029206991196 -0.04159026965498924 0.02312605082988739 -0.047048263251781464 -0.03779193386435509 0.030405119061470032 -0.0017789354315027595 0.026404619216918945 -0.046924661844968796 0.05861475318670273 -0.00603451207280159 0.0032759984023869038 0.017970619723200798 -0.09405016154050827 0.029702559113502502 0.08461356163024902 -0.07346194237470627 0.03267745301127434 -0.006660982500761747 0.05497439578175545 -0.0871124118566513 -0.019889259710907936 -0.027313455939292908 -0.06300529092550278 -0.06955146044492722 -0.00407285476103425 -0.04664188623428345 0.0017523481510579586 0.02951427362859249 0.032161589711904526 0.04605546593666077 -0.06744243949651718 0.06127675250172615 0.044130124151706696 -0.014035247266292572 -0.011205710470676422 -0.04190564155578613 -0.02655939571559429 0.04473385214805603 0.04936123639345169 0.06624230742454529 -0.08965757489204407 -0.027206968516111374 -0.09803313761949539 0.03339637815952301 0.004684920888394117 -0.009366500191390514 -0.006861151196062565 -0.05581100285053253 0.011147034354507923 -0.12842139601707458 -0.016093920916318893 -0.16954198479652405 -0.02777484431862831 0.10975135117769241 0.042115718126297 -0.1727701872587204 -0.21088621020317078 0.07765241712331772 0.03546876087784767 0.047748830169439316 -0.0017053527990356088 -0.10887187719345093 0.020084979012608528 -0.15570728480815887 0.06248123571276665 0.047078512609004974 -0.005013247951865196 0.03858211636543274 0.0532342866063118 0.03814180567860603 -0.03466884791851044 0.11091486364603043 -0.06865626573562622 0.034476228058338165 0.055156175047159195 0.03453316166996956 0.1259569227695465 0.027243291959166527 0.04053545370697975 0.06948725879192352 0.03439293056726456 -0.030137350782752037 0.02315455861389637 -0.16254425048828125 0.007485685404390097 -0.22371508181095123 0.11441705375909805 -0.022835375741124153 -0.042290546000003815 -0.06132267415523529 0.09277772903442383 -0.023479072377085686 -0.015410172753036022 0.12951983511447906 0.20448555052280426 0.12318368256092072 -0.04791278764605522 0.003018854884430766 -0.024095354601740837 0.11161252111196518 0.07677490264177322 -0.028548188507556915 0.006539397872984409 -0.08941810578107834 -0.08187395334243774 -0.17208899557590485 0.16624057292938232 0.13158397376537323 0.025106949731707573 -0.09967485815286636 0.12822961807250977 -0.024015052244067192 0.051946114748716354 0.06187108904123306 0.20596598088741302 0.021906662732362747 0.07692229002714157 0.0838375836610794 -0.21617987751960754 0.1281164437532425 -0.09287001192569733 0.12969598174095154 0.0887008085846901 0.057076387107372284 -0.011817257851362228 0.01926579885184765 -0.0558011569082737 -0.034420307725667953 -0.01572880893945694 0.043979331851005554 0.0424957238137722 -0.0688825249671936 0.02617272362112999 0.037794504314661026 0.00966805312782526 -0.00986916571855545 -0.012932887300848961 -0.027414627373218536 0.16422688961029053 -0.06767591089010239 -0.1451585739850998 -0.11197399348020554 0.11493495106697083 0.047544803470373154 -0.020523985847830772 -0.06675086915493011 0.18967989087104797 0.013131498359143734 -0.11604255437850952 -0.034593626856803894 0.00466555543243885 -0.06727201491594315 0.041320014744997025 0.02845313958823681 0.10010218620300293 0.07838840037584305 -0.052083756774663925 0.04004044830799103 0.04136965051293373 -0.049071796238422394 -0.10186322778463364 0.010386909358203411 -0.09969311207532883 0.0816790983080864 0.03815057873725891 -0.024511275812983513 0.09816910326480865 -0.058419566601514816 0.06700721383094788 0.2572557330131531 0.07746784389019012 0.24010933935642242 0.10512176901102066 0.17697076499462128 -0.0019418556476011872 0.0853942334651947 0.008680682629346848 -0.13934697210788727 0.07375600188970566 0.051635537296533585 0.15504303574562073 -0.05442382022738457 0.08634321391582489 -0.006188929080963135 -0.04506686329841614 0.0629170835018158 0.0786236822605133 0.04903644323348999 -0.191066175699234 -0.05022015795111656 -0.08712953329086304 -0.09111905097961426 -0.05425737053155899 0.041378993541002274 -0.04383162409067154 -0.07346545904874802 -0.061718568205833435 0.11220241338014603 0.043942730873823166 -0.08224907517433167 0.012227697297930717 -0.02906518429517746 0.08930929005146027 0.2186165601015091 0.17527428269386292 