-0.026010673493146896 -0.012296236120164394 0.10281258076429367 0.08854303508996964 -0.041678350418806076 -0.06595518440008163 -0.09295644611120224 0.04523245617747307 0.010389343835413456 0.06650844216346741 -0.10359137505292892 0.07107025384902954 0.03362467139959335 -0.048288606107234955 0.07515105605125427 -0.01442222110927105 -0.0017483296105638146 -0.07855213433504105 0.041527602821588516 -0.07523977011442184 0.0703653022646904 0.11269088834524155 0.010200059972703457 0.09444348514080048 0.11361102014780045 0.004319567233324051 -0.030977031216025352 0.07232353836297989 0.10212419182062149 0.04006129875779152 0.044269196689128876 -0.056228816509246826 -0.051560334861278534 0.018482428044080734 -0.015222939662635326 0.05891318991780281 0.09204499423503876 0.06986801326274872 -0.08627507090568542 -0.011305677704513073 0.038064196705818176 0.05163520947098732 -0.07230909913778305 0.0200860183686018 -0.1184692308306694 -0.020996375009417534 0.04277043044567108 0.010659005492925644 0.08433326333761215 -0.11610729992389679 -0.008625445887446404 -0.10867750644683838 -0.053078681230545044 0.004135001916438341 -0.14075052738189697 0.04804827645421028 0.12559586763381958 0.08834869414567947 0.07147929817438126 -0.10514292120933533 0.06786687672138214 0.01592380739748478 -0.03593352809548378 -0.00270224385894835 -0.019663849845528603 0.08869943767786026 0.021387089043855667 0.11628109961748123 0.010370947420597076 0.0380854457616806 0.06582251936197281 0.06751763820648193 -0.012549694627523422 -0.06925954669713974 -0.030525891110301018 -0.02541671134531498 0.019820773974061012 -0.05949876084923744 -0.047666192054748535 -0.027382800355553627 0.015223928727209568 -0.051259879022836685 0.07670336216688156 -0.03408076986670494 