-0.19343750178813934 -0.05282346159219742 0.07993418723344803 -0.03077062778174877 -0.09908106178045273 -0.10834445059299469 0.12485707551240921 -0.15316052734851837 -0.02475171536207199 0.19441772997379303 -0.10309139639139175 0.20602232217788696 0.10061471909284592 -0.035469722002744675 -0.13751579821109772 0.14011526107788086 -0.061597418040037155 -0.20049969851970673 0.06276672333478928 0.129280224442482 -0.05915878340601921 -0.04228096082806587 0.13392257690429688 -0.14100874960422516 0.1110154241323471 0.13163304328918457 -0.02956209145486355 0.1589052677154541 0.00872110016644001 -0.372976690530777 0.11795981973409653 0.1432865560054779 0.07311155647039413 -0.0386221669614315 0.025006212294101715 -0.13769346475601196 0.027891062200069427 -0.08706406503915787 -0.05703677982091904 -0.2635821998119354 0.05222948640584946 0.11202432215213776 0.09849885106086731 -0.27702489495277405 0.029001176357269287 -0.0203667301684618 -0.060279861092567444 -0.03953617066144943 -0.1748233437538147 -0.07653792202472687 -0.08408088982105255 -0.030525395646691322 -0.012985973618924618 -0.12104310840368271 -0.04152097925543785 -0.015389202162623405 -0.13781002163887024 -0.014728095382452011 0.13423773646354675 0.042521048337221146 0.03767169639468193 0.07237906008958817 -0.15379266440868378 -0.00602894788607955 0.05431689694523811 -0.20005042850971222 0.1034415140748024 0.052293017506599426 0.10275396704673767 0.04571480304002762 0.179039865732193 -0.14122512936592102 0.02992650680243969 -0.03222278133034706 -0.2894936800003052 -0.16033589839935303 -0.16321271657943726 0.009436637163162231 -0.1399557888507843 -0.10778045654296875 -0.18299689888954163 0.004563331138342619 -0.20621149241924286 0.05073114484548569 -0.057037316262722015 0.11212494224309921 -0.07765272259712219 -0.13686144351959229 -0.12416528910398483 0.07832957059144974 -0.01748056150972843 0.027977783232927322 -0.06994765251874924 0.10765866190195084 0.03878069669008255 -0.06623281538486481 -0.12276306003332138 0.09278666228055954 0.12586575746536255 -0.18534588813781738 -0.2281246781349182 0.04732362553477287 -0.14461997151374817 0.09334353357553482 0.12639252841472626 0.13725444674491882 0.07316607981920242 -0.14339353144168854 -0.09252330660820007 -0.13442903757095337 0.1297341287136078 -0.14983025193214417 0.12225785106420517 -0.09034463763237 -0.10646053403615952 -0.04095640778541565 0.08614617586135864 0.08702832460403442 0.09139380604028702 0.15165282785892487 0.10693654417991638 0.18898995220661163 0.004337315447628498 -0.14024986326694489 -0.2285872995853424 0.18149995803833008 -0.023982791230082512 0.20634238421916962 -0.09752032905817032 0.03891566023230553 0.16491039097309113 -0.08369309455156326 -0.09327934682369232 0.060297343879938126 0.07179855555295944 -0.11589758098125458 -0.16487374901771545 -0.03539372608065605 0.026419352740049362 0.1425967514514923 0.01291261613368988 0.15878374874591827 -0.16089177131652832 0.01846911571919918 -0.25520437955856323 -0.13777971267700195 -0.16590674221515656 0.01856093481183052 -0.1705787628889084 0.1533994972705841 -0.01841081865131855 -0.14867009222507477 0.10146315395832062 -0.19871319830417633 0.049133818596601486 -0.12461458146572113 -0.19265367090702057 0.016591280698776245 0.08339333534240723 -0.1487491875886917 0.06637078523635864 0.030466312542557716 0.050113972276449203 -0.3465586304664612 -0.018227573484182358 -0.01058279536664486 -0.07634315639734268 0.0869416818022728 -0.04714297503232956 -0.02406262792646885 0.03619229421019554 -0.1078050434589386 0.10494939982891083 -0.02055218070745468 0.008719994686543941 0.1099904254078865 0.05292937904596329 -0.17820300161838531 0.04793788865208626 0.06674332916736603 0.07169003784656525 -0.0061781322583556175 -0.057687900960445404 -0.2341030240058899 0.1120690330862999 -0.23479852080345154 0.14569611847400665 -0.31434544920921326 0.1666027158498764 -0.019186578691005707 -0.03452257066965103 -0.21270301938056946 -0.11773987859487534 -0.08819644153118134 0.1853964477777481 -0.049953021109104156 0.10009682178497314 0.024085454642772675 0.08004496991634369 0.018086744472384453 -0.08880727738142014 -0.05891738086938858 -0.13518768548965454 -0.3367782235145569 -0.3057919144630432 -0.149004265666008 0.06722140312194824 0.07619066536426544 -0.07971738278865814 -0.11462520062923431 0.2497699111700058 -0.11475569754838943 -0.0390932634472847 0.08499674499034882 0.13582992553710938 -0.11522077769041061 0.13668976724147797 0.101743683218956 0.04766891524195671 -0.001406883355230093 0.051112763583660126 0.06412497162818909 -0.11547057330608368 0.1264372318983078 -0.07228104770183563 -0.26065918803215027 0.13939058780670166 -0.10564485192298889 0.07311969995498657 -0.2526550590991974 -0.10706116259098053 -0.005290846806019545 0.16801750659942627 0.08769500255584717 -0.010805790312588215 0.05815742164850235 -0.1061583086848259 0.09735871851444244 0.0024085622280836105 0.1188090592622757 0.051509566605091095 -0.10079765319824219 -0.03397442772984505 0.080807164311409 -0.26547956466674805 -0.01590137369930744 -0.1670261025428772 -0.18396475911140442 0.19751235842704773 -0.05971366912126541 -0.18756753206253052 0.1069968193769455 0.12300150096416473 0.18874746561050415 -0.06310334801673889 0.11338768899440765 -0.1313876062631607 0.01651839166879654 0.010232701897621155 -0.13175846636295319 -0.03780993074178696 -0.0024733184836804867 -0.006008769851177931 -0.19298525154590607 -0.09791554510593414 0.012296841479837894 -0.04962743818759918 -0.23528234660625458 0.10894380509853363 0.043271128088235855 -0.01883123070001602 0.13272570073604584 -0.08476362377405167 0.09075786918401718 -0.229574054479599 0.10509783029556274 0.15983052551746368 -0.035177718847990036 -0.08676135540008545 0.06707307696342468 0.07122141867876053 0.11357388645410538 0.12433943897485733 -0.08612222224473953 -0.22567521035671234 0.04334608465433121 -0.29200050234794617 0.11885526031255722 -0.11431977152824402 0.12024233490228653 0.03908081725239754 0.13782978057861328 -0.20640696585178375 -0.26469409465789795 -0.06861516088247299 -0.2655077576637268 -0.08181100338697433 -0.0715586394071579 -0.038705505430698395 0.09127996116876602 -0.12205105274915695 -0.01345879677683115 -0.03257286548614502 -0.061754725873470306 0.06645505875349045 0.15044528245925903 -0.0406792014837265 -0.2649894952774048 -0.13895468413829803 0.025394804775714874 0.0770128145813942 -0.0641346126794815 -0.05493706837296486 -0.03349648043513298 0.14682957530021667 0.01816052943468094 -0.17526142299175262 -0.06815303862094879 0.07750851660966873 0.05218710005283356 0.09885550290346146 -0.20344248414039612 0.005314916837960482 -0.03473570570349693 -0.11913406103849411 0.09860900789499283 -0.031786251813173294 0.02301071025431156 0.129181906580925 -0.0262681283056736 0.15221138298511505 -0.10658657550811768 0.06962066888809204 -0.04878964647650719 -0.04100450873374939 0.14327864348888397 0.028188684955239296 0.1521396040916443 0.12293018400669098 -0.2636165916919708 -0.10284808278083801 -0.0919429287314415 -0.046476006507873535 0.03218390792608261 0.06878750026226044 -0.32566118240356445 0.012990154325962067 0.13666479289531708 -0.13444557785987854 -0.08896487206220627 -0.2314191311597824 0.11179370433092117 0.06466064602136612 -0.03762184455990791 -0.23128654062747955 0.21944057941436768 0.05624867230653763 0.09885141253471375 -0.019598450511693954 -0.018546022474765778 -0.2193223237991333 -0.1250787377357483 -0.04499862343072891 -0.21826103329658508 -0.3033692538738251 0.16772398352622986 -0.019303368404507637 -0.28924888372421265 -0.11017630249261856 -0.0685167983174324 -0.01897362619638443 -0.12353943288326263 0.06247298792004585 -0.06592965871095657 -0.00748952804133296 -0.0750897154211998 -0.16236773133277893 0.0843687355518341 -0.15253423154354095 0.11604773998260498 -0.1275026500225067 0.02580062486231327 -0.1429332196712494 -0.19702112674713135 -0.13121207058429718 0.034873660653829575 0.06911294162273407 -0.049637991935014725 -0.2817871868610382 -0.13665208220481873 -0.0060954918153584 0.15243420004844666 0.06785459816455841 0.19923624396324158 -0.13862523436546326 0.047829341143369675 0.1865576207637787 0.17242810130119324 -0.002910106908529997 0.06701256334781647 0.2267589122056961 0.08412906527519226 0.06032074987888336 0.002698149997740984 -0.07002954930067062 0.048161767423152924 0.009465999901294708 0.03550529107451439 0.06638587266206741 -0.08804216235876083 -0.13027256727218628 0.1679489016532898 -0.1033008024096489 0.050858765840530396 0.12521642446517944 0.08577156066894531 0.1264011710882187 -0.07472361624240875 0.07029292732477188 -0.2017093300819397 0.08539921790361404 -0.17401912808418274 -0.26252520084381104 0.17942003905773163 0.14990179240703583 0.05444961041212082 0.041438765823841095 -0.15322011709213257 0.09107928723096848 0.0648922473192215 -0.04457392916083336 -0.16133326292037964 -0.21981118619441986 -0.08372650295495987 0.0365215502679348 0.15517333149909973 -0.05324467271566391 0.1413682997226715 -0.14948199689388275 0.023268749937415123 -0.22133134305477142 -0.07615827769041061 0.07810842245817184 0.11364462226629257 0.16098318994045258 0.09273704141378403 -0.3324804902076721 -0.11224526911973953 0.0371880941092968 0.10010033845901489 0.10612347722053528 0.008657804690301418 0.006474033929407597 -0.027892816811800003 0.008466082625091076 -0.1533985584974289 -0.07397829741239548 -0.11612654477357864 0.1017492339015007 -0.03204512596130371 0.10054289549589157 0.03187672048807144 -0.14587129652500153 -0.06601884216070175 -0.04771525040268898 0.028263285756111145 0.043297793716192245 0.03750191628932953 0.07265787571668625 -0.011140073649585247 0.05940747261047363 -0.0036610662937164307 -0.11430460214614868 -0.08281804621219635 -0.08118083328008652 -0.034810733050107956 0.1868876814842224 0.12421046197414398 -0.13970771431922913 0.06483477354049683 0.06817928701639175 -0.1522945761680603 -0.13245415687561035 -0.02366532012820244 -0.04528884217143059 0.06318416446447372 0.14592769742012024 0.05026423931121826 0.026565350592136383 0.07269314676523209 -0.16936327517032623 0.1837470382452011 -0.03684406355023384 -0.3578507602214813 -0.09003812074661255 0.1059366762638092 -0.0046294573694467545 -0.03416116163134575 -0.09151580184698105 -0.021206896752119064 -0.0062427157536149025 -0.08085554093122482 -0.18481341004371643 0.03765995055437088 -0.24991939961910248 0.01502957008779049 -0.1991562843322754 -0.008603974245488644 0.05764586478471756 -0.09566935896873474 -0.07940206676721573 0.12569794058799744 -0.09395033866167068 0.09201036393642426 -0.042060449719429016 0.028120163828134537 -0.018171612173318863 -0.08013275265693665 -0.10265500098466873 0.1394767463207245 0.13790498673915863 0.14884646236896515 0.18156495690345764 -0.06694845855236053 0.11585881561040878 -0.1819937825202942 -0.0772840678691864 0.08420000225305557 -0.05107369273900986 -0.0043598054908216 -0.08826293051242828 -0.0210324265062809 -0.11938299238681793 0.06450306624174118 0.1328127235174179 -0.01871800236403942 0.17637182772159576 -0.04892146214842796 0.08315645903348923 -0.06814577430486679 -0.06848770380020142 -0.22420674562454224 0.06997786462306976 -0.0635216161608696 0.12339448183774948 0.04320508614182472 -0.10439269244670868 0.010380170308053493 0.015576547011733055 -0.10392075031995773 -0.0911983773112297 -0.31547218561172485 0.018627921119332314 0.0405910387635231 -0.11527681350708008 -0.052059609442949295 -0.32945388555526733 -0.09279599785804749 0.004284064285457134 -0.0045606037601828575 0.03365953639149666 -0.005643410142511129 -0.14339779317378998 0.04337141290307045 -0.00887724757194519 -0.21270102262496948 0.20360420644283295 0.11591454595327377 -0.018544422462582588 -0.06331317871809006 -0.1597082018852234 0.025580476969480515 -0.1866724193096161 -0.03018040768802166 0.16210030019283295 -0.16664253175258636 0.12748773396015167 -0.004363028332591057 -0.0582454577088356 -0.2543081045150757 -0.05664265528321266 0.04474291950464249 0.15758349001407623 0.19538387656211853 -0.12981517612934113 0.04356635734438896 -0.10657451301813126 -0.3728392720222473 0.09497366100549698 0.14404863119125366 0.1030205562710762 -0.22471106052398682 -0.26810604333877563 0.007619630079716444 0.03819271922111511 -0.08875153213739395 0.025076352059841156 -0.027542464435100555 0.07560999691486359 -0.2259588986635208 0.052660033106803894 -0.003118231426924467 -0.06168036162853241 0.0588509626686573 -0.10498296469449997 -0.1295621693134308 -0.1713009476661682 -0.20264838635921478 0.11854478716850281 0.12314878404140472 -0.0790514200925827 0.023446829989552498 0.05430125072598457 -0.10004182159900665 0.08165491372346878 -0.16791564226150513 -0.10651561617851257 -0.044456806033849716 -0.28761157393455505 0.11747132986783981 -0.17525620758533478 0.04867015406489372 -0.08037081360816956 -0.019484292715787888 0.11028902232646942 0.050129085779190063 0.009889244101941586 0.09026851505041122 0.13805975019931793 -0.1592380255460739 0.1585868000984192 0.029977239668369293 -0.04428187385201454 0.06319578737020493 0.0942017138004303 -0.3218231797218323 0.05160386860370636 -0.11470838636159897 0.020493807271122932 -0.08277671039104462 0.27860933542251587 -0.1550278216600418 -0.005780227016657591 -0.06558127701282501 0.16228362917900085 -0.18363948166370392 0.14280477166175842 -0.013341523706912994 -0.17822790145874023 0.019047975540161133 -0.1678456962108612 -0.054280489683151245 -0.33665335178375244 0.18700599670410156 0.01983492821455002 -0.21519941091537476 0.07703652232885361 -0.010900764726102352 -0.15968908369541168 -0.09117255359888077 -0.2648422122001648 0.202138751745224 0.39530837535858154 0.11608526110649109 -0.015532833524048328 -0.0372270904481411 0.00793860387057066 0.12420216202735901 -0.0770111232995987 0.06670854985713959 0.13756057620048523 -0.013745931908488274 0.1020502820611 -0.23326432704925537 0.11022129654884338 0.0880933403968811 -0.019048403948545456 -0.09926917403936386 -0.011264082975685596 0.15988613665103912 -0.055610690265893936 0.15163889527320862 0.05006367713212967 -0.20072266459465027 0.024394851177930832 -0.03871086984872818 0.029566528275609016 0.06145785376429558 -0.15083439648151398 -0.031121185049414635 -0.006807451136410236 -0.02658681944012642 -0.2952757775783539 0.035853683948516846 -0.0943053662776947 0.028501037508249283 0.11460185050964355 -0.06255985796451569 0.08804546296596527 0.12928055226802826 -0.05833819508552551 0.138355553150177 -0.07358627021312714 -0.251088947057724 -0.15998901426792145 -0.11239438503980637 0.07113997638225555 0.028619222342967987 0.10087693482637405 -0.2119726985692978 0.06348799914121628 0.14656943082809448 -0.18512876331806183 0.2108020931482315 -0.32685670256614685 -0.24928154051303864 -0.08310625702142715 -0.0870000496506691 0.0481041856110096 0.02318437024950981 0.027594109997153282 -0.09160756319761276 -0.0036196247674524784 -0.03379382938146591 -0.23034851253032684 0.12816856801509857 -0.14101018011569977 0.06045851111412048 -0.0754922479391098 -0.1377631425857544 -0.009771262295544147 -0.024944348260760307 -0.23207302391529083 0.12843415141105652 0.1838584691286087 0.05910705775022507 -0.16052590310573578 -0.21865007281303406 -0.07836160063743591 0.1303635686635971 -0.11315890401601791 0.12248646467924118 -0.3132326900959015 0.03077632561326027 0.17177703976631165 -0.14462143182754517 0.004136919509619474 -0.05845458060503006 -0.19174334406852722 -0.02583601512014866 0.1117536872625351 -0.05318101495504379 -0.09426583349704742 -0.017853589728474617 0.11869309097528458 -0.03121517226099968 0.147825688123703 0.05992189794778824 0.12597769498825073 -0.01768605038523674 0.020975740626454353 -0.021514130756258965 -0.005783984903246164 0.007507876493036747 -0.10029591619968414 -0.32431715726852417 -0.0037139549385756254 0.05154993012547493 0.08436272293329239 0.04781779274344444 -0.1930723488330841 -0.03549226373434067 -0.3180501163005829 0.09174793213605881 -0.22012054920196533 0.04739031195640564 0.03272191062569618 -0.1932799369096756 -0.05636525899171829 0.1417657434940338 0.11009214073419571 0.058030351996421814 0.09627804905176163 0.18864674866199493 -0.18002872169017792 -0.1326446831226349 -0.12150119245052338 0.1867939978837967 -0.05524236336350441 -0.06116068363189697 0.2028903216123581 0.041204798966646194 0.1186157613992691 0.13332565128803253 -0.03247741982340813 -0.1375446319580078 0.04580080881714821 0.05033080279827118 0.0059371767565608025 0.19075022637844086 0.04628962278366089 -0.04588291049003601 -0.16611462831497192 0.18984785676002502 0.15397542715072632 -0.10222170501947403 -0.03615306690335274 0.04666029289364815 -0.35497212409973145 -0.02353234402835369 -0.04924442619085312 -0.16133329272270203 0.12291654199361801 -0.07665448635816574 -0.2229379266500473 -0.02700471505522728 0.11590039730072021 0.16762441396713257 0.11674318462610245 0.03050205670297146 0.15183694660663605 -0.09962883591651917 0.054336827248334885 -0.016339033842086792 -0.07196304947137833 0.0017477386863902211 0.1130063608288765 -0.13713565468788147 -0.04495127499103546 -0.07233729958534241 -0.35725489258766174 0.14287909865379333 0.01833806373178959 -0.056966137140989304 -0.1608998030424118 -0.046832822263240814 0.1110558956861496 -0.052728038281202316 0.11099331825971603 0.18943890929222107 